{"learner":{"attributes":{"best_iteration":"198","best_score":"3.9333869468076563","scikit_learn":"{\"_estimator_type\": \"regressor\"}"},"feature_names":["orders_count_lag_24h","orders_count_lag_48h","orders_count_lag_168h","orders_count_lag_336h","food_tickets_count_lag_24h","food_tickets_count_lag_48h","food_tickets_count_lag_168h","food_tickets_count_lag_336h","orders_count_roll_mean_24","orders_count_roll_mean_168","orders_count_roll_std_24","food_tickets_count_roll_mean_24","food_tickets_count_roll_mean_168","hour","weekday","month","quarter","is_weekend","is_friday_saturday","week_of_year","bank_holiday_flag","school_holiday_flag","payday_period_flag","hour_sin","hour_cos","weekday_sin","weekday_cos","month_sin","month_cos","is_food_service","is_breakfast_window","is_lunch_window","is_dinner_window","is_after_food_close","hours_since_food_close","is_live_music_window","temp_c","rain_mm","wind_speed_kmh","weather_severity_flag","airport_arrivals","airport_arrivals_lag1","airport_arrivals_zscore","cruise_ship_flag","ships_in_port_count","cruise_passenger_estimate","major_sports_event_flag","city_event_flag","st_patricks_week_flag","special_event_flag","event_intensity","tourism_pressure","weekend_x_music","rain_x_weekend","aviva_event_flag","croke_park_event_flag","nearby_venue_event_flag","event_impact_score","bloomsday_flag","bloomsday_week_flag","summer_tourism_flag","christmas_market_flag","new_years_eve_flag","new_years_day_flag","college_term_flag","days_from_payday","failte_event_count","failte_free_event_count","failte_festival_count","suffolk_footfall_lag_24h","suffolk_footfall_lag_168h","suffolk_footfall_roll_24h"],"feature_types":["float","float","float","float","float","float","float","float","float","float","float","float","float","int","int","int","int","int","int","int","int","float","float","float","float","float","float","float","float","int","int","int","int","int","int","int","float","float","float","float","float","float","float","float","float","float","float","float","float","i","float","float","int","float","float","float","float","float","float","float","float","float","float","float","float","float","int","int","int","float","float","float"],"gradient_booster":{"model":{"cats":{"enc":[],"feature_segments":[],"sorted_idx":[]},"gbtree_model_param":{"num_parallel_tree":"1","num_trees":"249"},"iteration_indptr":[0,1,2,3,4,5,6,7,8,9,10,11,12,13,14,15,16,17,18,19,20,21,22,23,24,25,26,27,28,29,30,31,32,33,34,35,36,37,38,39,40,41,42,43,44,45,46,47,48,49,50,51,52,53,54,55,56,57,58,59,60,61,62,63,64,65,66,67,68,69,70,71,72,73,74,75,76,77,78,79,80,81,82,83,84,85,86,87,88,89,90,91,92,93,94,95,96,97,98,99,100,101,102,103,104,105,106,107,108,109,110,111,112,113,114,115,116,117,118,119,120,121,122,123,124,125,126,127,128,129,130,131,132,133,134,135,136,137,138,139,140,141,142,143,144,145,146,147,148,149,150,151,152,153,154,155,156,157,158,159,160,161,162,163,164,165,166,167,168,169,170,171,172,173,174,175,176,177,178,179,180,181,182,183,184,185,186,187,188,189,190,191,192,193,194,195,196,197,198,199,200,201,202,203,204,205,206,207,208,209,210,211,212,213,214,215,216,217,218,219,220,221,222,223,224,225,226,227,228,229,230,231,232,233,234,235,236,237,238,239,240,241,242,243,244,245,246,247,248,249],"tree_info":[0,0,0,0,0,0,0,0,0,0,0,0,0,0,0,0,0,0,0,0,0,0,0,0,0,0,0,0,0,0,0,0,0,0,0,0,0,0,0,0,0,0,0,0,0,0,0,0,0,0,0,0,0,0,0,0,0,0,0,0,0,0,0,0,0,0,0,0,0,0,0,0,0,0,0,0,0,0,0,0,0,0,0,0,0,0,0,0,0,0,0,0,0,0,0,0,0,0,0,0,0,0,0,0,0,0,0,0,0,0,0,0,0,0,0,0,0,0,0,0,0,0,0,0,0,0,0,0,0,0,0,0,0,0,0,0,0,0,0,0,0,0,0,0,0,0,0,0,0,0,0,0,0,0,0,0,0,0,0,0,0,0,0,0,0,0,0,0,0,0,0,0,0,0,0,0,0,0,0,0,0,0,0,0,0,0,0,0,0,0,0,0,0,0,0,0,0,0,0,0,0,0,0,0,0,0,0,0,0,0,0,0,0,0,0,0,0,0,0,0,0,0,0,0,0,0,0,0,0,0,0,0,0,0,0,0,0,0,0,0,0,0,0,0,0,0,0,0,0],"trees":[{"base_weights":[-3.2836154E-2,-9.574548E0,1.5870529E1,-1.3869371E1,-3.9202182E0,1.088882E1,2.6839205E1,-7.305664E-1,-1.0274621E1,-5.926986E0,7.205711E-1,4.973894E0,1.394968E1,2.4832489E1,8.582937E1,-1.0737424E1,-8.273811E0,-7.8889565E0,-4.006831E0,-6.309545E-1,5.8170466E0,2.4365633E0,8.527866E0,1.3392822E1,3.9601353E1,2.0614765E1,3.1507608E1,7.067345E1,1.0845143E2,-5.5891013E-1,-4.8287246E-1,-8.463792E0,-1.0418915E-1,-8.7417E0,-6.651971E0,-4.8519907E0,-1.8865526E0,-1.3418951E0,5.1291904E0,4.923342E0,1.4251525E1,-1.6214384E0,3.5719585E0,5.3106666E0,9.902489E0,1.0586011E1,1.8040926E1,5.300966E-1,4.2741634E1,1.6747997E1,2.4187838E1,3.5842648E1,2.7229116E1,2.492256E0,7.68516E1,3.427693E0,6.257661E0,-4.3338895E-1,-2.2292788E-1,-4.492075E-1,-3.5058278E-1,-3.6555958E-1,-2.6787692E-1,-3.1761286E-1,-2.1622589E-1,-1.1625943E-1,1.561049E-1,-1.949819E-1,-8.6336015E-3,1.9876727E-1,8.418514E-1,1.5913652E-1,4.2139646E-1,2.1581085E-1,8.505654E-1,-2.0734392E-1,-2.656779E-2,1.1673967E-1,2.915651E-1,1.9532701E-1,3.992092E-1,4.2343432E-1,6.6577286E-1,4.1869527E-1,6.315654E-1,7.7851295E-1,1.1271945E0,9.152328E-1,2.247486E0,8.830615E-1,4.3868834E-1,1.0364732E0,1.4907598E0,1.539059E0,2.1214654E0,1.5537312E0,1.1802042E0,4.1919327E0,2.599915E0],"categories":[],"categories_nodes":[],"categories_segments":[],"categories_sizes":[],"default_left":[0,0,0,0,0,0,0,0,0,0,0,0,0,0,0,0,0,0,0,0,0,0,0,0,0,0,0,0,0,0,0,0,0,0,0,0,0,0,0,0,0,0,0,0,0,0,0,0,0,0,0,0,0,0,0,0,0,0,0,0,0,0,0,0,0,0,0,0,0,0,0,0,0,0,0,0,0,0,0,0,0,0,0,0,0,0,0,0,0,0,0,0,0,0,0,0,0,0,0],"id":0,"left_children":[1,3,5,7,9,11,13,-1,15,17,19,21,23,25,27,29,31,33,35,37,39,41,43,45,47,49,51,53,55,-1,-1,57,-1,59,61,63,65,67,69,71,73,75,77,79,81,83,85,-1,87,89,91,93,95,-1,97,-1,-1,-1,-1,-1,-1,-1,-1,-1,-1,-1,-1,-1,-1,-1,-1,-1,-1,-1,-1,-1,-1,-1,-1,-1,-1,-1,-1,-1,-1,-1,-1,-1,-1,-1,-1,-1,-1,-1,-1,-1,-1,-1,-1],"loss_changes":[2.458729E6,2.458715E5,3.3171338E5,1.519675E4,4.0730477E4,7.560659E4,2.2241775E5,0E0,8.241328E2,1.1468734E4,9.10326E3,1.2846246E4,3.8803438E4,5.103575E4,1.35746875E4,2.703047E2,2.0474707E2,1.5320469E3,2.7587715E3,4.2859053E3,2.0159238E3,3.8485884E3,2.5728164E3,3.4992188E4,4.823367E3,1.5175531E4,1.21678125E4,1.303875E3,6.7271875E3,0E0,0E0,1.1037109E2,0E0,3.0871875E2,4.8861914E2,8.4511523E2,9.7824255E2,2.7831416E3,1.4845242E3,1.5092461E3,6.3734424E2,5.0111642E2,1.8080264E3,6.433325E2,1.9158711E3,7.5112344E3,1.0926281E4,0E0,1.97675E3,3.8112812E3,1.0742375E4,1.0321656E4,4.2934375E3,0E0,6.6284375E2,0E0,0E0,0E0,0E0,0E0,0E0,0E0,0E0,0E0,0E0,0E0,0E0,0E0,0E0,0E0,0E0,0E0,0E0,0E0,0E0,0E0,0E0,0E0,0E0,0E0,0E0,0E0,0E0,0E0,0E0,0E0,0E0,0E0,0E0,0E0,0E0,0E0,0E0,0E0,0E0,0E0,0E0,0E0,0E0],"parents":[2147483647,0,0,1,1,2,2,3,3,4,4,5,5,6,6,8,8,9,9,10,10,11,11,12,12,13,13,14,14,15,15,16,16,17,17,18,18,19,19,20,20,21,21,22,22,23,23,24,24,25,25,26,26,27,27,28,28,31,31,33,33,34,34,35,35,36,36,37,37,38,38,39,39,40,40,41,41,42,42,43,43,44,44,45,45,46,46,48,48,49,49,50,50,51,51,52,52,54,54],"right_children":[2,4,6,8,10,12,14,-1,16,18,20,22,24,26,28,30,32,34,36,38,40,42,44,46,48,50,52,54,56,-1,-1,58,-1,60,62,64,66,68,70,72,74,76,78,80,82,84,86,-1,88,90,92,94,96,-1,98,-1,-1,-1,-1,-1,-1,-1,-1,-1,-1,-1,-1,-1,-1,-1,-1,-1,-1,-1,-1,-1,-1,-1,-1,-1,-1,-1,-1,-1,-1,-1,-1,-1,-1,-1,-1,-1,-1,-1,-1,-1,-1,-1,-1],"split_conditions":[1.6E1,5E0,3.5E1,1E0,1.3E1,2E1,1E0,-7.305664E-1,1.2E1,1.6E1,2E1,2.1E1,1E0,5.9E1,2E0,8E0,1E0,1.3E1,1.3E1,2.6E1,1E0,1.1E1,1.5E1,3E1,2.9E1,3.2E1,-7.818315E-1,4.3E1,4.9E1,-5.5891013E-1,-4.8287246E-1,2E1,-1.0418915E-1,1.5E1,9E0,7E0,1E0,1E1,1E0,3.7E1,1.5E1,2.1E1,2.2E1,1.8E1,1E0,3.5E1,1E0,5.300966E-1,1.2E1,4.8392857E1,1E0,2.2653662E1,1.4E1,2.492256E0,1.06375E2,3.427693E0,6.257661E0,-4.3338895E-1,-2.2292788E-1,-4.492075E-1,-3.5058278E-1,-3.6555958E-1,-2.6787692E-1,-3.1761286E-1,-2.1622589E-1,-1.1625943E-1,1.561049E-1,-1.949819E-1,-8.6336015E-3,1.9876727E-1,8.418514E-1,1.5913652E-1,4.2139646E-1,2.1581085E-1,8.505654E-1,-2.0734392E-1,-2.656779E-2,1.1673967E-1,2.915651E-1,1.9532701E-1,3.992092E-1,4.2343432E-1,6.6577286E-1,4.1869527E-1,6.315654E-1,7.7851295E-1,1.1271945E0,9.152328E-1,2.247486E0,8.830615E-1,4.3868834E-1,1.0364732E0,1.4907598E0,1.539059E0,2.1214654E0,1.5537312E0,1.1802042E0,4.1919327E0,2.599915E0],"split_indices":[6,6,6,4,4,4,48,0,0,2,7,7,48,3,50,3,48,3,7,4,50,4,5,7,2,4,25,4,3,0,0,3,0,0,4,4,50,6,48,0,5,3,6,13,18,2,18,0,13,9,18,10,13,0,8,0,0,0,0,0,0,0,0,0,0,0,0,0,0,0,0,0,0,0,0,0,0,0,0,0,0,0,0,0,0,0,0,0,0,0,0,0,0,0,0,0,0,0,0],"split_type":[0,0,0,0,0,0,0,0,0,0,0,0,0,0,0,0,0,0,0,0,0,0,0,0,0,0,0,0,0,0,0,0,0,0,0,0,0,0,0,0,0,0,0,0,0,0,0,0,0,0,0,0,0,0,0,0,0,0,0,0,0,0,0,0,0,0,0,0,0,0,0,0,0,0,0,0,0,0,0,0,0,0,0,0,0,0,0,0,0,0,0,0,0,0,0,0,0,0,0],"sum_hessian":[1.6201E4,1.0126E4,6.075E3,5.754E3,4.372E3,4.179E3,1.896E3,4.767E3,9.87E2,3.052E3,1.32E3,1.426E3,2.753E3,1.835E3,6.1E1,7.98E2,1.89E2,1.508E3,1.544E3,1.044E3,2.76E2,8.33E2,5.93E2,2.696E3,5.7E1,1.127E3,7.08E2,3.9E1,2.2E1,5.6E2,2.38E2,1.83E2,6E0,8.89E2,6.19E2,1.103E3,4.41E2,9.3E2,1.14E2,2.51E2,2.5E1,1.82E2,6.51E2,1.79E2,4.14E2,1.683E3,1.013E3,6E0,5.1E1,5.44E2,5.83E2,3.48E2,3.6E2,1.1E1,2.8E1,8E0,1.4E1,1.73E2,1E1,7.76E2,1.13E2,4.07E2,2.12E2,2.84E2,8.19E2,4.06E2,3.5E1,2.91E2,6.39E2,1.05E2,9E0,1.69E2,8.2E1,6E0,1.9E1,5.4E1,1.28E2,4.22E2,2.29E2,1.19E2,6E1,2.94E2,1.2E2,8.11E2,8.72E2,6.57E2,3.56E2,5E0,4.6E1,4.87E2,5.7E1,3.64E2,2.19E2,2E2,1.48E2,1.71E2,1.89E2,2E1,8E0],"tree_param":{"num_deleted":"0","num_feature":"72","num_nodes":"99","size_leaf_vector":"1"}},{"base_weights":[5.9817307E-2,-9.076313E0,1.5356171E1,-1.3172042E1,-3.7145772E0,1.0349128E1,2.6260695E1,-6.9404644E-1,-9.746078E0,-5.2749414E0,1.7392713E0,5.93692E0,1.4040775E1,2.4200945E1,8.2771675E1,-1.0405539E1,-8.268779E0,-7.145188E0,-3.249739E0,4.2050585E-1,7.1764674E0,1.4868542E0,7.5583363E0,1.3431056E1,4.035204E1,1.9989382E1,3.0496832E1,6.88063E1,1.0214377E2,-1.0467767E1,-1.4387472E-1,-8.621053E0,-5.796515E0,-7.935985E0,-5.556756E0,-4.9657288E0,-2.019794E0,-1.0000402E0,3.2073965E0,5.9237466E0,1.8951448E1,-3.6229306E-1,4.0262065E0,5.1623626E0,9.522045E0,1.0744714E1,1.822725E1,4.3367428E1,1.0725247E0,1.6713947E1,2.4395023E1,3.456063E1,2.6597616E1,7.824548E1,2.8332028E0,3.533673E0,1.24063065E2,-5.5129445E-1,-5.013544E-1,-4.348676E-1,-2.2433619E-1,-1.6076657E-1,-3.2497653E-1,-4.4285104E-1,-3.6207697E-1,-2.9866418E-1,-1.3107184E-1,-2.6304248E-1,-5.8435585E-2,-2.073556E-1,-6.484648E-2,-1.834929E-1,2.7364716E-3,7.5796895E-2,2.5647488E-1,2.4964757E-1,9.071321E-1,1.1400285E0,3.7182233E-1,-9.431899E-2,9.923489E-2,1.092106E-2,2.698943E-1,2.3083399E-1,5.0920224E-1,3.693253E-1,5.683884E-1,4.971467E-1,8.0554324E-1,7.944917E-1,1.0653025E0,1.7500814E0,2.5230048E0,6.413471E-1,9.39979E-1,1.5442653E0,1.1072034E0,1.5569891E0,2.2293737E0,4.396924E-1,1.3625383E0,2.3280556E0,4.2615266E0,3.8335798E0,7.0930743E0],"categories":[],"categories_nodes":[],"categories_segments":[],"categories_sizes":[],"default_left":[0,0,0,0,0,0,0,0,0,0,0,0,0,0,0,0,0,0,0,0,0,0,0,0,0,0,0,0,0,0,0,0,0,0,0,0,0,0,0,0,0,0,0,0,0,0,0,0,0,0,0,0,0,0,0,0,0,0,0,0,0,0,0,0,0,0,0,0,0,0,0,0,0,0,0,0,0,0,0,0,0,0,0,0,0,0,0,0,0,0,0,0,0,0,0,0,0,0,0,0,0,0,0,0,0],"id":1,"left_children":[1,3,5,7,9,11,13,-1,15,17,19,21,23,25,27,29,31,33,35,37,39,41,43,45,47,49,51,53,55,57,-1,59,61,63,65,67,69,71,73,75,77,79,81,83,85,87,89,91,-1,93,95,97,99,101,-1,-1,103,-1,-1,-1,-1,-1,-1,-1,-1,-1,-1,-1,-1,-1,-1,-1,-1,-1,-1,-1,-1,-1,-1,-1,-1,-1,-1,-1,-1,-1,-1,-1,-1,-1,-1,-1,-1,-1,-1,-1,-1,-1,-1,-1,-1,-1,-1,-1,-1],"loss_changes":[2.2774978E6,2.240095E5,3.3245325E5,1.39095E4,3.7623688E4,6.796719E4,2.21122E5,0E0,8.814453E2,1.299382E4,7.051883E3,1.3733211E4,3.593325E4,4.8465625E4,1.1080875E4,2.8896875E2,2.203125E2,2.1979922E3,3.4759375E3,3.1428408E3,2.7173955E3,2.3965996E3,6.517547E3,2.845575E4,1.9700234E3,1.563475E4,1.08003125E4,3.6654688E2,9.1475625E3,5.4085938E1,0E0,4.514258E1,5.4344116E1,6.953906E2,7.1340234E2,7.652871E2,1.4764805E3,1.4818008E3,8.628689E2,1.8974277E3,6.25228E2,1.0625314E3,1.1212173E3,1.6805996E3,2.9334297E3,5.981125E3,5.3932812E3,7.7671094E2,0E0,4.952203E3,6.206375E3,1.0917781E4,4.198875E3,6.660547E2,0E0,0E0,9.103281E2,0E0,0E0,0E0,0E0,0E0,0E0,0E0,0E0,0E0,0E0,0E0,0E0,0E0,0E0,0E0,0E0,0E0,0E0,0E0,0E0,0E0,0E0,0E0,0E0,0E0,0E0,0E0,0E0,0E0,0E0,0E0,0E0,0E0,0E0,0E0,0E0,0E0,0E0,0E0,0E0,0E0,0E0,0E0,0E0,0E0,0E0,0E0,0E0],"parents":[2147483647,0,0,1,1,2,2,3,3,4,4,5,5,6,6,8,8,9,9,10,10,11,11,12,12,13,13,14,14,15,15,16,16,17,17,18,18,19,19,20,20,21,21,22,22,23,23,24,24,25,25,26,26,27,27,28,28,29,29,31,31,32,32,33,33,34,34,35,35,36,36,37,37,38,38,39,39,40,40,41,41,42,42,43,43,44,44,45,45,46,46,47,47,49,49,50,50,51,51,52,52,53,53,56,56],"right_children":[2,4,6,8,10,12,14,-1,16,18,20,22,24,26,28,30,32,34,36,38,40,42,44,46,48,50,52,54,56,58,-1,60,62,64,66,68,70,72,74,76,78,80,82,84,86,88,90,92,-1,94,96,98,100,102,-1,-1,104,-1,-1,-1,-1,-1,-1,-1,-1,-1,-1,-1,-1,-1,-1,-1,-1,-1,-1,-1,-1,-1,-1,-1,-1,-1,-1,-1,-1,-1,-1,-1,-1,-1,-1,-1,-1,-1,-1,-1,-1,-1,-1,-1,-1,-1,-1,-1,-1],"split_conditions":[1.6E1,5E0,3.5E1,1E0,1.5E1,2.3E1,1E0,-6.9404644E-1,9E0,1.7E1,2.6E1,1.4E1,1E0,5.9E1,2E0,1E0,1.9E1,1.5E1,1E1,4.3388373E-1,1E0,1.4E1,2.2E1,4.4E1,1.06375E2,4.9E1,-7.818315E-1,1.5E1,4.5E1,6E0,-1.4387472E-1,1.7E1,1.6E1,1E1,1E0,1E0,1.7E1,1E1,1.8E1,4.7E1,9.5445E4,3E1,2.5E1,1E0,3.6E1,4.5E1,5.5E1,3.8E1,1.0725247E0,1.7E1,-7.818315E-1,5.1E1,1.2E1,4.6E1,2.8332028E0,3.533673E0,3.8791668E1,-5.5129445E-1,-5.013544E-1,-4.348676E-1,-2.2433619E-1,-1.6076657E-1,-3.2497653E-1,-4.4285104E-1,-3.6207697E-1,-2.9866418E-1,-1.3107184E-1,-2.6304248E-1,-5.8435585E-2,-2.073556E-1,-6.484648E-2,-1.834929E-1,2.7364716E-3,7.5796895E-2,2.5647488E-1,2.4964757E-1,9.071321E-1,1.1400285E0,3.7182233E-1,-9.431899E-2,9.923489E-2,1.092106E-2,2.698943E-1,2.3083399E-1,5.0920224E-1,3.693253E-1,5.683884E-1,4.971467E-1,8.0554324E-1,7.944917E-1,1.0653025E0,1.7500814E0,2.5230048E0,6.413471E-1,9.39979E-1,1.5442653E0,1.1072034E0,1.5569891E0,2.2293737E0,4.396924E-1,1.3625383E0,2.3280556E0,4.2615266E0,3.8335798E0,7.0930743E0],"split_indices":[6,6,6,4,4,4,48,0,3,3,4,4,48,3,50,48,0,0,6,25,48,5,6,3,8,0,25,13,6,0,0,13,13,3,27,50,0,6,5,3,40,3,3,50,3,4,3,3,0,19,25,4,19,0,0,0,11,0,0,0,0,0,0,0,0,0,0,0,0,0,0,0,0,0,0,0,0,0,0,0,0,0,0,0,0,0,0,0,0,0,0,0,0,0,0,0,0,0,0,0,0,0,0,0,0],"split_type":[0,0,0,0,0,0,0,0,0,0,0,0,0,0,0,0,0,0,0,0,0,0,0,0,0,0,0,0,0,0,0,0,0,0,0,0,0,0,0,0,0,0,0,0,0,0,0,0,0,0,0,0,0,0,0,0,0,0,0,0,0,0,0,0,0,0,0,0,0,0,0,0,0,0,0,0,0,0,0,0,0,0,0,0,0,0,0,0,0,0,0,0,0,0,0,0,0,0,0,0,0,0,0,0,0],"sum_hessian":[1.6295E4,1.0202E4,6.093E3,5.783E3,4.419E3,4.177E3,1.916E3,4.789E3,9.94E2,3.436E3,9.83E2,1.904E3,2.273E3,1.85E3,6.6E1,6.83E2,3.11E2,1.785E3,1.651E3,7.92E2,1.91E2,5.09E2,1.395E3,2.223E3,5E1,1.111E3,7.39E2,4.1E1,2.5E1,6.77E2,6E0,2.7E2,4.1E1,1.189E3,5.96E2,6.88E2,9.63E2,5.25E2,2.67E2,1.74E2,1.7E1,2.95E2,2.14E2,6.3E2,7.65E2,1.427E3,7.96E2,4.2E1,8E0,6.4E2,4.71E2,3.58E2,3.81E2,2E1,2.1E1,1.2E1,1.3E1,2.88E2,3.89E2,2.64E2,6E0,1E1,3.1E1,5.06E2,6.83E2,5.21E2,7.5E1,6.38E2,5E1,2.43E2,7.2E2,1.48E2,3.77E2,1.43E2,1.24E2,1.63E2,1.1E1,1.2E1,5E0,1.79E2,1.16E2,5.7E1,1.57E2,5.7E2,6E1,3.57E2,4.08E2,1.244E3,1.83E2,4.56E2,3.4E2,2.2E1,2E1,2.26E2,4.14E2,1.18E2,3.53E2,2.7E2,8.8E1,1.4E1,3.67E2,5E0,1.5E1,5E0,8E0],"tree_param":{"num_deleted":"0","num_feature":"72","num_nodes":"105","size_leaf_vector":"1"}},{"base_weights":[-2.444132E-2,-8.610805E0,1.4298355E1,-1.2507203E1,-3.496573E0,9.7260065E0,2.4303596E1,-6.5935093E-1,-9.245215E0,-5.027301E0,1.7603425E0,6.4893923E0,1.4405882E1,2.26227E1,7.493669E1,-9.983921E0,-8.09012E0,-6.8152213E0,-3.0263095E0,1.0250096E-2,5.562108E0,2.9811566E0,8.640322E0,1.3684364E1,3.9116295E1,1.731467E1,2.6944756E1,6.26964E1,9.24295E1,-1.0064171E1,-8.3813794E-2,-8.256233E0,-3.6330552E0,-7.716562E0,-5.7582355E0,-3.754931E0,-8.560744E-1,2.9652665E0,-1.4735693E0,1.1564434E1,4.0628767E0,5.1364255E-1,5.2417974E0,1.0475825E1,5.4436646E0,1.1883593E1,2.2318907E1,1.317693E0,4.3100807E1,1.3828555E1,2.0541992E1,2.2225372E1,3.276882E1,2.4101121E0,3.7025368E0,3.1468496E0,5.943625E0,-5.220155E-1,-4.7558886E-1,-4.237883E-1,-2.8439733E-1,-2.5725028E-1,-1.19485175E-2,-3.8925326E-1,-5.1996227E-2,-3.2376215E-1,-2.3265557E-1,-2.6044226E-1,-1.5596692E-1,-6.749484E-2,2.1270211E-1,1.1060306E-1,3.7531987E-1,-1.3159733E-1,1.17664576E-1,4.4557348E-1,9.028451E-1,1.5485224E-1,5.551732E-1,-9.227854E-2,1.0338264E-1,1.7436531E-1,4.144833E-1,4.194351E-1,7.4700296E-1,1.5034081E-1,3.758197E-1,3.9163923E-1,6.8430096E-1,9.680457E-1,1.4542369E0,1.1146228E0,2.3316915E0,5.99446E-1,8.8957447E-1,6.802283E-1,1.0824345E0,9.039839E-1,1.3054122E0,1.4484035E0,1.8746531E0],"categories":[],"categories_nodes":[],"categories_segments":[],"categories_sizes":[],"default_left":[0,0,0,0,0,0,0,0,0,0,0,0,0,0,0,0,0,0,0,0,0,0,0,0,0,0,0,0,0,0,0,0,0,0,0,0,0,0,0,0,0,0,0,0,0,0,0,0,0,0,0,0,0,0,0,0,0,0,0,0,0,0,0,0,0,0,0,0,0,0,0,0,0,0,0,0,0,0,0,0,0,0,0,0,0,0,0,0,0,0,0,0,0,0,0,0,0,0,0,0,0],"id":2,"left_children":[1,3,5,7,9,11,13,-1,15,17,19,21,23,25,27,29,31,33,35,37,39,41,43,45,47,49,51,53,55,57,-1,59,61,63,65,67,69,71,73,75,77,79,81,83,85,87,89,-1,91,93,95,97,99,-1,-1,-1,-1,-1,-1,-1,-1,-1,-1,-1,-1,-1,-1,-1,-1,-1,-1,-1,-1,-1,-1,-1,-1,-1,-1,-1,-1,-1,-1,-1,-1,-1,-1,-1,-1,-1,-1,-1,-1,-1,-1,-1,-1,-1,-1,-1,-1],"loss_changes":[2.0008959E6,2.0265294E5,2.7872838E5,1.26778125E4,3.541558E4,6.332472E4,1.6102338E5,0E0,7.6984375E2,1.2170898E4,6.606253E3,1.8664445E4,2.9964875E4,4.2016875E4,7.250625E3,3.8530078E2,2.6126562E2,1.6681328E3,2.5421855E3,2.9905066E3,2.7681006E3,5.2569404E3,8.947953E3,2.5604625E4,1.2980781E3,9.095672E3,2.7274438E4,2.8366562E3,1.0437344E4,2.3160156E1,0E0,1.6462695E2,8.033911E1,4.337578E2,6.280176E2,1.096457E3,1.0299891E3,7.622755E2,2.0187803E3,9.042949E2,1.6777979E3,1.6609792E3,2.6008643E3,8.9475E3,2.8149688E3,9.959094E3,5.1558438E3,0E0,1.5265977E3,2.7290234E3,3.0110156E3,8.6345625E3,7.059125E3,0E0,0E0,0E0,0E0,0E0,0E0,0E0,0E0,0E0,0E0,0E0,0E0,0E0,0E0,0E0,0E0,0E0,0E0,0E0,0E0,0E0,0E0,0E0,0E0,0E0,0E0,0E0,0E0,0E0,0E0,0E0,0E0,0E0,0E0,0E0,0E0,0E0,0E0,0E0,0E0,0E0,0E0,0E0,0E0,0E0,0E0,0E0,0E0],"parents":[2147483647,0,0,1,1,2,2,3,3,4,4,5,5,6,6,8,8,9,9,10,10,11,11,12,12,13,13,14,14,15,15,16,16,17,17,18,18,19,19,20,20,21,21,22,22,23,23,24,24,25,25,26,26,27,27,28,28,29,29,31,31,32,32,33,33,34,34,35,35,36,36,37,37,38,38,39,39,40,40,41,41,42,42,43,43,44,44,45,45,46,46,48,48,49,49,50,50,51,51,52,52],"right_children":[2,4,6,8,10,12,14,-1,16,18,20,22,24,26,28,30,32,34,36,38,40,42,44,46,48,50,52,54,56,58,-1,60,62,64,66,68,70,72,74,76,78,80,82,84,86,88,90,-1,92,94,96,98,100,-1,-1,-1,-1,-1,-1,-1,-1,-1,-1,-1,-1,-1,-1,-1,-1,-1,-1,-1,-1,-1,-1,-1,-1,-1,-1,-1,-1,-1,-1,-1,-1,-1,-1,-1,-1,-1,-1,-1,-1,-1,-1,-1,-1,-1,-1,-1,-1],"split_conditions":[1.6E1,5E0,3.5E1,1E0,1.5E1,2.7E1,1E0,-6.5935093E-1,8E0,1.7E1,2.3E1,1.7E1,1E0,1E0,2E0,1E0,1.7E1,1.3E1,2.7E1,6.234898E-1,6.234898E-1,3E1,6.234898E-1,1E0,2.8E1,3.6E1,3.7E1,1E0,4.5E1,6E0,-8.3813794E-2,1.1E1,1.1666667E1,1E0,9E0,8E0,1E0,1E0,4.3388373E-1,2.3E1,4.1E1,1.2E1,1.9E1,2.2E1,3E1,1E0,4.1E1,1.317693E0,1.24E1,1.62E1,2E0,3.8E1,4.8E1,2.4101121E0,3.7025368E0,3.1468496E0,5.943625E0,-5.220155E-1,-4.7558886E-1,-4.237883E-1,-2.8439733E-1,-2.5725028E-1,-1.19485175E-2,-3.8925326E-1,-5.1996227E-2,-3.2376215E-1,-2.3265557E-1,-2.6044226E-1,-1.5596692E-1,-6.749484E-2,2.1270211E-1,1.1060306E-1,3.7531987E-1,-1.3159733E-1,1.17664576E-1,4.4557348E-1,9.028451E-1,1.5485224E-1,5.551732E-1,-9.227854E-2,1.0338264E-1,1.7436531E-1,4.144833E-1,4.194351E-1,7.4700296E-1,1.5034081E-1,3.758197E-1,3.9163923E-1,6.8430096E-1,9.680457E-1,1.4542369E0,1.1146228E0,2.3316915E0,5.99446E-1,8.8957447E-1,6.802283E-1,1.0824345E0,9.039839E-1,1.3054122E0,1.4484035E0,1.8746531E0],"split_indices":[6,6,6,4,4,4,48,0,3,2,4,4,48,18,50,48,13,3,3,26,26,3,26,18,3,4,4,18,6,2,0,4,11,48,4,4,49,50,25,5,4,4,5,5,5,14,1,0,38,36,14,1,1,0,0,0,0,0,0,0,0,0,0,0,0,0,0,0,0,0,0,0,0,0,0,0,0,0,0,0,0,0,0,0,0,0,0,0,0,0,0,0,0,0,0,0,0,0,0,0,0],"split_type":[0,0,0,0,0,0,0,0,0,0,0,0,0,0,0,0,0,0,0,0,0,0,0,0,0,0,0,0,0,0,0,0,0,0,0,0,0,0,0,0,0,0,0,0,0,0,0,0,0,0,0,0,0,0,0,0,0,0,0,0,0,0,0,0,0,0,0,0,0,0,0,0,0,0,0,0,0,0,0,0,0,0,0,0,0,0,0,0,0,0,0,0,0,0,0,0,0,0,0,0,0],"sum_hessian":[1.6268E4,1.0171E4,6.097E3,5.772E3,4.399E3,4.186E3,1.911E3,4.774E3,9.98E2,3.407E3,9.92E2,2.476E3,1.71E3,1.851E3,6E1,6.04E2,3.94E2,1.798E3,1.609E3,6.8E2,3.12E2,9.42E2,1.534E3,1.663E3,4.7E1,8.33E2,1.018E3,3.8E1,2.2E1,5.98E2,6E0,3.79E2,1.5E1,9.67E2,8.31E2,1.204E3,4.05E2,2.27E2,4.53E2,6.1E1,2.51E2,4.51E2,4.91E2,9.73E2,5.61E2,1.378E3,2.85E2,1.3E1,3.4E1,4.03E2,4.3E2,5.65E2,4.53E2,1.9E1,1.9E1,1.2E1,1E1,3.45E2,2.53E2,3.47E2,3.2E1,1E1,5E0,9.57E2,1E1,5.01E2,3.3E2,3.64E2,8.4E2,3.7E2,3.5E1,1.96E2,3.1E1,3.48E2,1.05E2,4.5E1,1.6E1,2.22E2,2.9E1,1.79E2,2.72E2,3.13E2,1.78E2,6.65E2,3.08E2,2.59E2,3.02E2,4.26E2,9.52E2,2.01E2,8.4E1,6E0,2.8E1,2.78E2,1.25E2,6.1E1,3.69E2,2.76E2,2.89E2,2.55E2,1.98E2],"tree_param":{"num_deleted":"0","num_feature":"72","num_nodes":"101","size_leaf_vector":"1"}},{"base_weights":[-3.1859558E-2,-8.175469E0,1.3745701E1,-1.1877929E1,-3.2582462E0,9.76566E0,2.4050287E1,-6.2639207E-1,-8.762043E0,-4.5946274E0,2.2174642E0,5.4061255E0,1.31990595E1,2.2463633E1,7.263128E1,-9.50267E0,-7.6475506E0,-6.083268E0,-2.3588817E0,6.803867E-1,5.8167915E0,2.5592065E0,8.4930525E0,1.2624738E1,3.751383E1,1.7066517E1,2.6344442E1,6.06668E1,8.933433E1,-9.563445E0,-9.123761E-2,-7.9406614E0,-5.3763385E0,-7.081364E0,-4.854479E0,-3.4661644E0,-6.54021E-1,1.5221576E-1,1.0179582E1,5.0808973E0,1.59876995E1,-6.172413E-1,3.909988E0,5.7868114E0,1.0002818E1,9.983587E0,1.6778885E1,7.569018E-1,3.940875E1,1.3675242E1,2.0012459E1,2.1798141E1,3.175563E1,6.426747E1,1.6567888E0,3.3118057E0,5.289947E0,-4.8331413E-1,-3.750285E-1,-4.0295687E-1,-2.0707646E-1,-2.919906E-1,-4.9378294E-2,-3.7425458E-1,-2.874759E-1,-2.781298E-1,-1.7704539E-1,-2.4871679E-1,-1.4250946E-1,-5.7171203E-2,1.720864E-1,-2.186062E-2,2.4426225E-1,3.7031204E-1,8.216492E-1,1.3410291E-1,3.3837613E-1,9.918067E-1,3.8209593E-1,-1.470248E-1,1.3281166E-2,1.8150203E-1,9.2732066E-1,1.2111787E-1,3.5866138E-1,4.3197402E-1,6.3598424E-1,4.1975823E-1,6.3418823E-1,7.174627E-1,1.0453395E0,1.3606561E0,2.1230457E0,4.8159003E-1,8.281943E-1,1.1341E0,8.681868E-1,5.915744E-1,1.1673793E0,1.295892E0,1.758097E0,2.0345213E0,3.4957573E0],"categories":[],"categories_nodes":[],"categories_segments":[],"categories_sizes":[],"default_left":[0,0,0,0,0,0,0,0,0,0,0,0,0,0,0,0,0,0,0,0,0,0,0,0,0,0,0,0,0,0,0,0,0,0,0,0,0,0,0,0,0,0,0,0,0,0,0,0,0,0,0,0,0,0,0,0,0,0,0,0,0,0,0,0,0,0,0,0,0,0,0,0,0,0,0,0,0,0,0,0,0,0,0,0,0,0,0,0,0,0,0,0,0,0,0,0,0,0,0,0,0,0,0],"id":3,"left_children":[1,3,5,7,9,11,13,-1,15,17,19,21,23,25,27,29,31,33,35,37,39,41,43,45,47,49,51,53,55,57,-1,59,61,63,65,67,69,71,73,75,77,79,81,83,85,87,89,-1,91,93,95,97,99,101,-1,-1,-1,-1,-1,-1,-1,-1,-1,-1,-1,-1,-1,-1,-1,-1,-1,-1,-1,-1,-1,-1,-1,-1,-1,-1,-1,-1,-1,-1,-1,-1,-1,-1,-1,-1,-1,-1,-1,-1,-1,-1,-1,-1,-1,-1,-1,-1,-1],"loss_changes":[1.8326594E6,1.8686075E5,2.4862675E5,1.174675E4,3.228852E4,6.547178E4,1.28626375E5,0E0,7.6259375E2,1.17866875E4,4.78649E3,1.694723E4,3.3720438E4,3.385425E4,5.1570625E3,2.6371484E2,2.2891992E2,2.5743047E3,2.6760552E3,3.0478745E3,1.8552012E3,4.3191733E3,3.7239766E3,2.6096125E4,1.7723984E3,6.5964062E3,2.2697812E4,1.2311328E3,5.811406E2,5.3066406E1,0E0,1.27890625E2,9.525403E1,5.8583203E2,8.695586E2,7.8397656E2,1.1262097E3,1.6122842E3,4.3087964E2,9.640679E2,3.916753E2,6.184354E2,2.8232441E3,1.5396182E3,2.0844531E3,6.179125E3,9.0136875E3,0E0,7.3591406E2,3.6105E3,2.1901094E3,7.7505E3,7.6730625E3,1.0055703E3,0E0,0E0,0E0,0E0,0E0,0E0,0E0,0E0,0E0,0E0,0E0,0E0,0E0,0E0,0E0,0E0,0E0,0E0,0E0,0E0,0E0,0E0,0E0,0E0,0E0,0E0,0E0,0E0,0E0,0E0,0E0,0E0,0E0,0E0,0E0,0E0,0E0,0E0,0E0,0E0,0E0,0E0,0E0,0E0,0E0,0E0,0E0,0E0,0E0],"parents":[2147483647,0,0,1,1,2,2,3,3,4,4,5,5,6,6,8,8,9,9,10,10,11,11,12,12,13,13,14,14,15,15,16,16,17,17,18,18,19,19,20,20,21,21,22,22,23,23,24,24,25,25,26,26,27,27,28,28,29,29,31,31,32,32,33,33,34,34,35,35,36,36,37,37,38,38,39,39,40,40,41,41,42,42,43,43,44,44,45,45,46,46,48,48,49,49,50,50,51,51,52,52,53,53],"right_children":[2,4,6,8,10,12,14,-1,16,18,20,22,24,26,28,30,32,34,36,38,40,42,44,46,48,50,52,54,56,58,-1,60,62,64,66,68,70,72,74,76,78,80,82,84,86,88,90,-1,92,94,96,98,100,102,-1,-1,-1,-1,-1,-1,-1,-1,-1,-1,-1,-1,-1,-1,-1,-1,-1,-1,-1,-1,-1,-1,-1,-1,-1,-1,-1,-1,-1,-1,-1,-1,-1,-1,-1,-1,-1,-1,-1,-1,-1,-1,-1,-1,-1,-1,-1,-1,-1],"split_conditions":[1.6E1,5E0,3.7E1,1E0,1.6E1,2.3E1,1E0,-6.2639207E-1,8E0,1E1,1.9E1,2.1E1,1E0,1E0,2E0,1E0,1E1,8E0,1.2E1,1E0,1E0,1.3E1,1.7E1,3.1E1,1.2E1,3.6E1,3.1E1,4.018E3,4.7E1,1E0,-9.123761E-2,1.7E1,1.8E1,9E0,1E1,8E0,2.3E1,1E0,2.8E1,2.1E1,1.3E1,1.1E1,1E0,1.4E1,1E0,2.7E1,1E0,7.569018E-1,2.5E1,2E1,1.4E1,3E0,1.9782879E1,1.81E3,1.6567888E0,3.3118057E0,5.289947E0,-4.8331413E-1,-3.750285E-1,-4.0295687E-1,-2.0707646E-1,-2.919906E-1,-4.9378294E-2,-3.7425458E-1,-2.874759E-1,-2.781298E-1,-1.7704539E-1,-2.4871679E-1,-1.4250946E-1,-5.7171203E-2,1.720864E-1,-2.186062E-2,2.4426225E-1,3.7031204E-1,8.216492E-1,1.3410291E-1,3.3837613E-1,9.918067E-1,3.8209593E-1,-1.470248E-1,1.3281166E-2,1.8150203E-1,9.2732066E-1,1.2111787E-1,3.5866138E-1,4.3197402E-1,6.3598424E-1,4.1975823E-1,6.3418823E-1,7.174627E-1,1.0453395E0,1.3606561E0,2.1230457E0,4.8159003E-1,8.281943E-1,1.1341E0,8.681868E-1,5.915744E-1,1.1673793E0,1.295892E0,1.758097E0,2.0345213E0,3.4957573E0],"split_indices":[6,6,6,4,4,4,48,0,3,7,7,7,48,18,50,48,4,6,6,48,50,4,4,7,13,4,5,69,6,18,0,13,5,4,4,4,7,31,4,4,65,7,48,5,18,6,18,0,3,19,13,15,10,69,0,0,0,0,0,0,0,0,0,0,0,0,0,0,0,0,0,0,0,0,0,0,0,0,0,0,0,0,0,0,0,0,0,0,0,0,0,0,0,0,0,0,0,0,0,0,0,0,0],"split_type":[0,0,0,0,0,0,0,0,0,0,0,0,0,0,0,0,0,0,0,0,0,0,0,0,0,0,0,0,0,0,0,0,0,0,0,0,0,0,0,0,0,0,0,0,0,0,0,0,0,0,0,0,0,0,0,0,0,0,0,0,0,0,0,0,0,0,0,0,0,0,0,0,0,0,0,0,0,0,0,0,0,0,0,0,0,0,0,0,0,0,0,0,0,0,0,0,0,0,0,0,0,0,0],"sum_hessian":[1.6332E4,1.0265E4,6.067E3,5.855E3,4.41E3,4.378E3,1.689E3,4.842E3,1.013E3,3.545E3,8.65E2,1.93E3,2.448E3,1.637E3,5.2E1,6.04E2,4.09E2,2.127E3,1.418E3,6.07E2,2.58E2,1.005E3,9.25E2,2.393E3,5.5E1,6.87E2,9.5E2,3.3E1,1.9E1,5.99E2,5E0,3.6E2,4.9E1,1.171E3,9.56E2,8.59E2,5.59E2,5.76E2,3.1E1,2.42E2,1.6E1,3E2,7.05E2,3.33E2,5.92E2,1.465E3,9.28E2,5E0,5E1,3.22E2,3.65E2,5.19E2,4.31E2,2.8E1,5E0,1E1,9E0,5.67E2,3.2E1,3.48E2,1.2E1,4.4E1,5E0,8.95E2,2.76E2,6.19E2,3.37E2,2.47E2,6.12E2,5E2,5.9E1,5.13E2,6.3E1,2.3E1,8E0,1.01E2,1.41E2,1E1,6E0,8.2E1,2.18E2,6.93E2,1.2E1,9.8E1,2.35E2,3.97E2,1.95E2,9.25E2,5.4E2,5.87E2,3.41E2,1.2E1,3.8E1,1.36E2,1.86E2,1.78E2,1.87E2,7.1E1,4.48E2,1.62E2,2.69E2,7E0,2.1E1],"tree_param":{"num_deleted":"0","num_feature":"72","num_nodes":"103","size_leaf_vector":"1"}},{"base_weights":[3.2584846E-2,-7.4929886E0,1.36966305E1,-1.0968473E1,-2.296961E0,9.267263E0,2.2468254E1,-5.950782E-1,-7.914179E0,-3.8350523E0,2.214431E0,6.2132854E0,1.3284464E1,2.0859663E1,7.162174E1,-8.446175E0,-6.0293803E0,-5.298139E0,-1.7470562E0,-2.9409814E-1,4.092373E0,5.721283E0,2.6676428E1,9.944248E0,1.6183563E1,1.7241508E1,2.6351126E1,2.156454E0,7.84379E1,-9.048115E0,-7.6174955E0,-6.378694E0,-2.9200208E0,-6.6801577E0,-4.475479E0,-2.0708728E0,7.952683E0,-3.2279384E0,3.9072275E-1,2.8461926E0,6.4129357E0,3.3892834E0,7.7098722E0,4.8662445E-1,3.0073166E1,6.314263E0,1.0822418E1,1.5746393E1,4.4322327E1,1.4031461E1,2.0764805E1,2.328959E1,3.044639E1,8.308907E1,2.2391696E0,-4.5440134E-1,-1.5864669E-1,-4.0149575E-1,-3.568568E-1,-3.2681373E-1,-3.2563623E-2,1.4455778E-2,-1.7986989E-1,-3.7387094E-1,-3.070639E-1,-2.607552E-1,-1.898226E-1,-1.2798373E-1,1.1036074E-1,3.07836E-1,6.9213456E-1,-2.563748E-1,-1.0415248E-1,4.5371964E-3,2.5840393E-1,1.14941135E-1,4.3339577E-1,3.9843222E-1,1.2903963E-1,3.9553188E-2,2.6256865E-1,2.9575333E-1,4.7362953E-1,1.5888404E0,7.2692573E-1,5.472056E-4,3.6306483E-1,4.4534287E-1,6.7502314E-1,6.8230325E-1,1.031334E0,1.3005645E0,2.6251407E0,5.3173774E-1,8.111143E-1,1.2062145E0,8.421297E-1,5.7582873E-1,1.2217087E0,1.023745E0,1.7202729E0,2.3465042E0,4.340238E0],"categories":[],"categories_nodes":[],"categories_segments":[],"categories_sizes":[],"default_left":[0,0,0,0,0,0,0,0,0,0,0,0,0,0,0,0,0,0,0,0,0,0,0,0,0,0,0,0,0,0,0,0,0,0,0,0,0,0,0,0,0,0,0,0,0,0,0,0,0,0,0,0,0,0,0,0,0,0,0,0,0,0,0,0,0,0,0,0,0,0,0,0,0,0,0,0,0,0,0,0,0,0,0,0,0,0,0,0,0,0,0,0,0,0,0,0,0,0,0,0,0,0,0],"id":4,"left_children":[1,3,5,7,9,11,13,-1,15,17,19,21,23,25,27,29,31,33,35,37,39,41,43,45,47,49,51,-1,53,55,57,59,61,63,65,67,69,71,73,75,77,79,81,-1,83,85,87,89,91,93,95,97,99,101,-1,-1,-1,-1,-1,-1,-1,-1,-1,-1,-1,-1,-1,-1,-1,-1,-1,-1,-1,-1,-1,-1,-1,-1,-1,-1,-1,-1,-1,-1,-1,-1,-1,-1,-1,-1,-1,-1,-1,-1,-1,-1,-1,-1,-1,-1,-1,-1,-1],"loss_changes":[1.6729382E6,1.8942744E5,2.2427975E5,1.78185E4,2.9193809E4,4.7038594E4,1.5173006E5,0E0,1.4256172E3,9.573324E3,5.0422163E3,2.1832469E4,1.5891906E4,3.6855188E4,8.45175E3,5.0154688E2,3.3669922E2,2.0654844E3,4.0802505E3,9.237472E2,1.7506279E3,9.868945E3,2.6385938E3,2.3940781E3,1.0195172E4,1.2541969E4,8.613656E3,0E0,3.7797812E3,1.2446875E2,3.804883E1,2.6036914E2,7.7453735E1,2.4744531E2,5.613789E2,2.6258813E3,3.570603E2,1.7780408E2,5.335536E2,1.2536316E3,1.2482217E3,4.75595E3,3.5838906E3,0E0,6.449297E2,9.1251953E2,3.0632188E3,8.673781E3,5.737949E2,4.2674297E3,6.691797E3,5.509328E3,1.1725594E4,1.4214375E3,0E0,0E0,0E0,0E0,0E0,0E0,0E0,0E0,0E0,0E0,0E0,0E0,0E0,0E0,0E0,0E0,0E0,0E0,0E0,0E0,0E0,0E0,0E0,0E0,0E0,0E0,0E0,0E0,0E0,0E0,0E0,0E0,0E0,0E0,0E0,0E0,0E0,0E0,0E0,0E0,0E0,0E0,0E0,0E0,0E0,0E0,0E0,0E0,0E0],"parents":[2147483647,0,0,1,1,2,2,3,3,4,4,5,5,6,6,8,8,9,9,10,10,11,11,12,12,13,13,14,14,15,15,16,16,17,17,18,18,19,19,20,20,21,21,22,22,23,23,24,24,25,25,26,26,28,28,29,29,30,30,31,31,32,32,33,33,34,34,35,35,36,36,37,37,38,38,39,39,40,40,41,41,42,42,44,44,45,45,46,46,47,47,48,48,49,49,50,50,51,51,52,52,53,53],"right_children":[2,4,6,8,10,12,14,-1,16,18,20,22,24,26,28,30,32,34,36,38,40,42,44,46,48,50,52,-1,54,56,58,60,62,64,66,68,70,72,74,76,78,80,82,-1,84,86,88,90,92,94,96,98,100,102,-1,-1,-1,-1,-1,-1,-1,-1,-1,-1,-1,-1,-1,-1,-1,-1,-1,-1,-1,-1,-1,-1,-1,-1,-1,-1,-1,-1,-1,-1,-1,-1,-1,-1,-1,-1,-1,-1,-1,-1,-1,-1,-1,-1,-1,-1,-1,-1,-1],"split_conditions":[1.7E1,6E0,3.5E1,1E0,1.5E1,2.6E1,1E0,-5.950782E-1,1.3E1,2E1,1.4E1,1E0,4E1,5.9E1,4E0,8E0,2.7E1,1.4E1,1E0,1.7E1,2.3E1,3.2E1,2.2E1,2E0,1E0,4.7E1,5.9E1,2.156454E0,3.557E3,1E0,9E0,1E0,-7.0710677E-1,1E1,9E0,1.8E1,1.7E1,1.3E1,3.7E1,1E0,2.347E3,1.7E1,2E1,4.8662445E-1,2.65E1,9E0,3.2E1,1E0,2.9E1,2.8E1,6.234898E-1,7E0,1E0,-9.659258E-1,2.2391696E0,-4.5440134E-1,-1.5864669E-1,-4.0149575E-1,-3.568568E-1,-3.2681373E-1,-3.2563623E-2,1.4455778E-2,-1.7986989E-1,-3.7387094E-1,-3.070639E-1,-2.607552E-1,-1.898226E-1,-1.2798373E-1,1.1036074E-1,3.07836E-1,6.9213456E-1,-2.563748E-1,-1.0415248E-1,4.5371964E-3,2.5840393E-1,1.14941135E-1,4.3339577E-1,3.9843222E-1,1.2903963E-1,3.9553188E-2,2.6256865E-1,2.9575333E-1,4.7362953E-1,1.5888404E0,7.2692573E-1,5.472056E-4,3.6306483E-1,4.4534287E-1,6.7502314E-1,6.8230325E-1,1.031334E0,1.3005645E0,2.6251407E0,5.3173774E-1,8.111143E-1,1.2062145E0,8.421297E-1,5.7582873E-1,1.2217087E0,1.023745E0,1.7202729E0,2.3465042E0,4.340238E0],"split_indices":[6,6,6,5,7,7,48,0,0,0,5,48,0,3,14,3,0,2,48,0,7,0,3,14,48,0,0,0,69,48,0,48,24,3,7,13,13,0,0,27,69,7,7,0,38,19,1,18,7,7,26,19,18,23,0,0,0,0,0,0,0,0,0,0,0,0,0,0,0,0,0,0,0,0,0,0,0,0,0,0,0,0,0,0,0,0,0,0,0,0,0,0,0,0,0,0,0,0,0,0,0,0,0],"split_type":[0,0,0,0,0,0,0,0,0,0,0,0,0,0,0,0,0,0,0,0,0,0,0,0,0,0,0,0,0,0,0,0,0,0,0,0,0,0,0,0,0,0,0,0,0,0,0,0,0,0,0,0,0,0,0,0,0,0,0,0,0,0,0,0,0,0,0,0,0,0,0,0,0,0,0,0,0,0,0,0,0,0,0,0,0,0,0,0,0,0,0,0,0,0,0,0,0,0,0,0,0,0,0],"sum_hessian":[1.6267E4,1.049E4,5.777E3,6.285E3,4.205E3,3.84E3,1.937E3,4.812E3,1.473E3,3.136E3,1.069E3,2.183E3,1.657E3,1.877E3,6E1,1.146E3,3.27E2,1.843E3,1.293E3,4.58E2,6.11E2,2.133E3,5E1,7.72E2,8.85E2,1.134E3,7.43E2,1.3E1,4.7E1,6.58E2,4.88E2,2.93E2,3.4E1,6.85E2,1.158E3,1.252E3,4.1E1,8.6E1,3.72E2,3.99E2,2.12E2,9.83E2,1.15E3,9E0,4.1E1,1.52E2,6.2E2,8.73E2,1.2E1,5.96E2,5.38E2,4.29E2,3.14E2,4E1,7E0,6.53E2,5E0,2.54E2,2.34E2,2.85E2,8E0,6E0,2.8E1,2.71E2,4.14E2,5.51E2,6.07E2,1.124E3,1.28E2,3.3E1,8E0,3.1E1,5.5E1,3.51E2,2.1E1,3.66E2,3.3E1,1.5E2,6.2E1,4.11E2,5.72E2,5.72E2,5.78E2,3.6E1,5E0,2E1,1.32E2,3.64E2,2.56E2,6.13E2,2.6E2,5E0,7E0,2.36E2,3.6E2,2.87E2,2.51E2,3.9E1,3.9E2,9.1E1,2.23E2,5E0,3.5E1],"tree_param":{"num_deleted":"0","num_feature":"72","num_nodes":"103","size_leaf_vector":"1"}},{"base_weights":[2.0366449E-2,-7.405E0,1.2415971E1,-1.0722176E1,-3.0942807E0,8.308746E0,2.0946905E1,-5.653288E-1,-7.8873553E0,-5.021362E0,-2.8615534E-1,5.251186E0,1.1907715E1,1.9672146E1,5.864168E1,-8.540349E0,-6.8073344E0,-6.548973E0,-3.848214E0,-9.3232226E-1,5.6253157E0,4.843784E0,2.3184072E1,1.1606599E1,4.243965E1,1.6003391E1,2.4904728E1,4.9872414E1,7.117495E1,-4.5347777E-1,-7.988095E0,-5.2887497E0,-7.281967E0,-6.6571064E0,1.4166845E0,-3.9786904E0,5.877019E0,-1.9403427E0,3.2962773E0,9.959767E0,3.640599E0,3.040328E0,7.414331E0,1.3142515E1,2.8104822E1,9.051253E0,1.4149396E1,1.2864295E0,2.4321399E0,1.2664669E1,1.9596703E1,2.1770521E1,2.9137537E1,1.6323522E0,5.4372623E1,7.80859E1,2.16109E0,-3.7885985E-1,-4.2974678E-1,-2.8458595E-1,-6.8246506E-2,-3.7271082E-1,-1.7163698E-1,-3.4637865E-1,-2.799239E-1,-8.675245E-2,2.3988996E-1,-2.34663E-1,-1.588325E-1,8.8910095E-2,3.749749E-1,-1.05979204E-1,6.329809E-1,1.0031571E-1,4.5151058E-1,3.2802728E-1,7.036454E-1,3.2042876E-1,1.1141091E-1,2.8602509E-2,2.1640459E-1,3.1068864E-1,5.207252E-1,3.7360615E-1,1.161064E0,1.6753063E0,9.871468E-1,3.024271E-1,5.1197594E-1,8.6532927E-1,5.825942E-1,5.096126E-1,8.2233953E-1,7.917842E-1,1.1980371E0,1.2440476E0,8.9783925E-1,1.2167674E0,1.738464E0,2.9149096E0,1.4141538E0,4.7482085E0,2.935149E0],"categories":[],"categories_nodes":[],"categories_segments":[],"categories_sizes":[],"default_left":[0,0,0,0,0,0,0,0,0,0,0,0,0,0,0,0,0,0,0,0,0,0,0,0,0,0,0,0,0,0,0,0,0,0,0,0,0,0,0,0,0,0,0,0,0,0,0,0,0,0,0,0,0,0,0,0,0,0,0,0,0,0,0,0,0,0,0,0,0,0,0,0,0,0,0,0,0,0,0,0,0,0,0,0,0,0,0,0,0,0,0,0,0,0,0,0,0,0,0,0,0,0,0],"id":5,"left_children":[1,3,5,7,9,11,13,-1,15,17,19,21,23,25,27,29,31,33,35,37,39,41,43,45,47,49,51,53,55,-1,57,59,61,63,65,67,69,71,73,75,77,79,81,83,85,87,89,-1,-1,91,93,95,97,-1,99,101,-1,-1,-1,-1,-1,-1,-1,-1,-1,-1,-1,-1,-1,-1,-1,-1,-1,-1,-1,-1,-1,-1,-1,-1,-1,-1,-1,-1,-1,-1,-1,-1,-1,-1,-1,-1,-1,-1,-1,-1,-1,-1,-1,-1,-1,-1,-1],"loss_changes":[1.4913555E6,1.4486138E5,2.125065E5,9.3949375E3,2.3851863E4,4.5041406E4,9.35965E4,0E0,6.328789E2,4.6583438E3,6.861311E3,1.6089379E4,1.6804531E4,3.6244625E4,3.4723125E3,1.0353906E2,2.3051953E2,9.867383E2,1.9024531E3,6.907272E3,1.4850513E3,1.0036246E4,2.0476953E3,1.1987891E4,6.069551E2,1.3245281E4,9.774781E3,1.3944219E3,1.24925E3,0E0,9.558594E0,1.385752E2,1.6095801E2,2.8035547E2,1.7913263E2,8.221953E2,1.18741516E2,3.448705E3,2.2885066E3,6.745918E2,4.657174E2,4.0560537E3,3.1537031E3,8.521284E2,7.784492E2,3.2653906E3,7.15225E3,0E0,0E0,5.309383E3,8.479734E3,4.946328E3,8.09975E3,0E0,1.5173984E3,2.9865625E2,0E0,0E0,0E0,0E0,0E0,0E0,0E0,0E0,0E0,0E0,0E0,0E0,0E0,0E0,0E0,0E0,0E0,0E0,0E0,0E0,0E0,0E0,0E0,0E0,0E0,0E0,0E0,0E0,0E0,0E0,0E0,0E0,0E0,0E0,0E0,0E0,0E0,0E0,0E0,0E0,0E0,0E0,0E0,0E0,0E0,0E0,0E0],"parents":[2147483647,0,0,1,1,2,2,3,3,4,4,5,5,6,6,8,8,9,9,10,10,11,11,12,12,13,13,14,14,15,15,16,16,17,17,18,18,19,19,20,20,21,21,22,22,23,23,24,24,25,25,26,26,27,27,28,28,30,30,31,31,32,32,33,33,34,34,35,35,36,36,37,37,38,38,39,39,40,40,41,41,42,42,43,43,44,44,45,45,46,46,49,49,50,50,51,51,52,52,54,54,55,55],"right_children":[2,4,6,8,10,12,14,-1,16,18,20,22,24,26,28,30,32,34,36,38,40,42,44,46,48,50,52,54,56,-1,58,60,62,64,66,68,70,72,74,76,78,80,82,84,86,88,90,-1,-1,92,94,96,98,-1,100,102,-1,-1,-1,-1,-1,-1,-1,-1,-1,-1,-1,-1,-1,-1,-1,-1,-1,-1,-1,-1,-1,-1,-1,-1,-1,-1,-1,-1,-1,-1,-1,-1,-1,-1,-1,-1,-1,-1,-1,-1,-1,-1,-1,-1,-1,-1,-1],"split_conditions":[1.6E1,5E0,4.9E1,1E0,1.1E1,2.5E1,1E0,-5.653288E-1,9E0,1.4E1,1E0,1E0,1E0,4.2E1,3.8E1,6E0,6.234898E-1,1E0,1E0,1.8E1,5E-1,2.3E1,4.5E1,4E1,2.6E1,4.8E1,5.1E1,3.6E1,1.3262E3,-4.5347777E-1,6.234898E-1,1.8536636E1,2.6E1,1.5E1,2.4E1,1E1,9E0,1E0,1.4916667E1,2.206E3,4E0,1.5E1,4.4E1,1.8E1,2.258E3,3.3E1,6.234898E-1,1.2864295E0,2.4321399E0,1E0,1E0,1.5E1,5.9E1,1.6323522E0,2.7494047E1,1.32E2,2.16109E0,-3.7885985E-1,-4.2974678E-1,-2.8458595E-1,-6.8246506E-2,-3.7271082E-1,-1.7163698E-1,-3.4637865E-1,-2.799239E-1,-8.675245E-2,2.3988996E-1,-2.34663E-1,-1.588325E-1,8.8910095E-2,3.749749E-1,-1.05979204E-1,6.329809E-1,1.0031571E-1,4.5151058E-1,3.2802728E-1,7.036454E-1,3.2042876E-1,1.1141091E-1,2.8602509E-2,2.1640459E-1,3.1068864E-1,5.207252E-1,3.7360615E-1,1.161064E0,1.6753063E0,9.871468E-1,3.024271E-1,5.1197594E-1,8.6532927E-1,5.825942E-1,5.096126E-1,8.2233953E-1,7.917842E-1,1.1980371E0,1.2440476E0,8.9783925E-1,1.2167674E0,1.738464E0,2.9149096E0,1.4141538E0,4.7482085E0,2.935149E0],"split_indices":[6,6,2,6,7,7,48,0,0,2,31,48,48,7,7,2,26,48,48,13,28,6,0,0,6,0,6,6,71,0,26,10,0,0,0,6,6,48,11,70,65,7,0,7,69,2,26,0,0,31,18,13,0,0,12,0,0,0,0,0,0,0,0,0,0,0,0,0,0,0,0,0,0,0,0,0,0,0,0,0,0,0,0,0,0,0,0,0,0,0,0,0,0,0,0,0,0,0,0,0,0,0,0],"split_type":[0,0,0,0,0,0,0,0,0,0,0,0,0,0,0,0,0,0,0,0,0,0,0,0,0,0,0,0,0,0,0,0,0,0,0,0,0,0,0,0,0,0,0,0,0,0,0,0,0,0,0,0,0,0,0,0,0,0,0,0,0,0,0,0,0,0,0,0,0,0,0,0,0,0,0,0,0,0,0,0,0,0,0,0,0,0,0,0,0,0,0,0,0,0,0,0,0,0,0,0,0,0,0],"sum_hessian":[1.6201E4,1.0132E4,6.069E3,5.725E3,4.407E3,4.098E3,1.971E3,4.744E3,9.81E2,2.613E3,1.794E3,2.217E3,1.881E3,1.908E3,6.3E1,6.07E2,3.74E2,1.133E3,1.48E3,1.618E3,1.76E2,2.169E3,4.8E1,1.864E3,1.7E1,1.124E3,7.84E2,4E1,2.3E1,3.02E2,3.05E2,9.2E1,2.82E2,1.118E3,1.5E1,1.461E3,1.9E1,1.307E3,3.11E2,5.4E1,1.22E2,1.276E3,8.93E2,1.7E1,3.1E1,9.32E2,9.32E2,6E0,1.1E1,5.85E2,5.39E2,4.54E2,3.3E2,1E1,3E1,1.7E1,6E0,1.9E2,1.15E2,8.3E1,9E0,2.69E2,1.3E1,8.86E2,2.32E2,8E0,7E0,7.7E2,6.91E2,6E0,1.3E1,1.292E3,1.5E1,2.55E2,5.6E1,3.1E1,2.3E1,4E1,8.2E1,4.38E2,8.38E2,6.4E2,2.53E2,1.2E1,5E0,1.7E1,1.4E1,2.66E2,6.66E2,4.09E2,5.23E2,3.56E2,2.29E2,2.92E2,2.47E2,2.47E2,2.07E2,1.81E2,1.49E2,2.5E1,5E0,7E0,1E1],"tree_param":{"num_deleted":"0","num_feature":"72","num_nodes":"103","size_leaf_vector":"1"}},{"base_weights":[-2.264693E-2,-7.008463E0,1.1689162E1,-1.01722355E1,-2.8216858E0,7.3617206E0,1.9851118E1,-5.3706807E-1,-7.5080705E0,-4.2914295E0,1.9123608E0,3.662281E0,1.0029558E1,1.8539557E1,5.793943E1,-7.888877E0,-5.7995224E0,-5.756133E0,-2.6159997E0,-5.440803E-1,3.9474707E0,3.1856804E0,1.5248123E1,8.833051E0,1.4379136E1,1.5432417E1,2.3235136E1,6.3268673E1,3.931942E1,-7.948783E0,-1.0918409E-1,-6.2341504E0,-3.4691849E0,-6.648677E0,-5.165919E0,-3.442013E0,-1.4233608E0,-3.2745428E0,2.7401945E-1,2.1750026E0,6.814059E0,1.9966941E0,6.5522823E0,7.2199006E0,2.6275995E1,1.06415825E1,6.1316624E0,2.2365204E1,1.1855601E1,1.2594461E1,1.8315285E1,2.025655E1,2.761205E1,6.87795E1,4.339074E1,2.2238634E0,1.2423025E0,-4.1505584E-1,-3.5613468E-1,-3.1909245E-1,-7.060769E-2,1.1172062E-1,-2.3059332E-1,-3.3580488E-1,-1.4266884E-1,-2.67307E-1,-1.6183749E-1,-1.8110548E-1,-1.5899414E-2,-1.0390369E-1,3.371985E-2,-2.2370973E-1,-6.4023316E-2,-2.8833116E-3,1.9049767E-1,8.4435284E-2,4.5055518E-1,2.713539E-1,5.073812E-1,-1.9322865E-2,2.2549263E-1,2.3938487E-1,5.417392E-1,1.8878263E-1,6.905135E-1,1.0223691E0,1.8775265E0,4.306384E-1,6.9235677E-1,2.8024882E-1,5.928232E-1,9.6222603E-1,1.3738636E0,4.788764E-1,9.154115E-1,4.4944307E-1,6.972693E-1,7.6335245E-1,1.1258367E0,3.8541248E-1,1.0406216E0,9.7486174E-1,1.5779717E0,3.847243E0,2.5289307E0,1.2121366E0,2.5661886E0],"categories":[],"categories_nodes":[],"categories_segments":[],"categories_sizes":[],"default_left":[0,0,0,0,0,0,0,0,0,0,0,0,0,0,0,0,0,0,0,0,0,0,0,0,0,0,0,0,0,0,0,0,0,0,0,0,0,0,0,0,0,0,0,0,0,0,0,0,0,0,0,0,0,0,0,0,0,0,0,0,0,0,0,0,0,0,0,0,0,0,0,0,0,0,0,0,0,0,0,0,0,0,0,0,0,0,0,0,0,0,0,0,0,0,0,0,0,0,0,0,0,0,0,0,0,0,0],"id":6,"left_children":[1,3,5,7,9,11,13,-1,15,17,19,21,23,25,27,29,31,33,35,37,39,41,43,45,47,49,51,53,55,57,-1,59,61,63,65,67,69,71,73,75,77,79,81,83,85,87,89,91,93,95,97,99,101,103,105,-1,-1,-1,-1,-1,-1,-1,-1,-1,-1,-1,-1,-1,-1,-1,-1,-1,-1,-1,-1,-1,-1,-1,-1,-1,-1,-1,-1,-1,-1,-1,-1,-1,-1,-1,-1,-1,-1,-1,-1,-1,-1,-1,-1,-1,-1,-1,-1,-1,-1,-1,-1],"loss_changes":[1.3193732E6,1.33768E5,2.126565E5,8.6404375E3,3.0268074E4,3.8837875E4,1.0317469E5,0E0,6.1391406E2,8.128957E3,5.156589E3,9.071631E3,1.1778094E4,2.9094312E4,4.348953E3,2.646211E2,1.6882715E2,8.9689453E2,1.5215742E3,1.0466115E3,2.8499297E3,6.342578E3,5.561663E3,8.712406E3,9.646758E3,9.731219E3,9.891594E3,2.7006719E3,2.3170703E2,1.7771094E2,0E0,1.0273633E2,2.1909915E2,1.5925195E2,3.538496E2,5.1325684E2,8.7504297E2,2.5205273E2,4.2398245E2,1.1472438E3,9.374424E2,7.0395093E3,3.0750957E3,8.313544E2,1.0006914E3,6.8697188E3,2.1117695E3,1.3330586E3,5.3488984E3,2.8777031E3,7.3622812E3,3.1918594E3,9.693953E3,1.8915469E3,8.748379E2,0E0,0E0,0E0,0E0,0E0,0E0,0E0,0E0,0E0,0E0,0E0,0E0,0E0,0E0,0E0,0E0,0E0,0E0,0E0,0E0,0E0,0E0,0E0,0E0,0E0,0E0,0E0,0E0,0E0,0E0,0E0,0E0,0E0,0E0,0E0,0E0,0E0,0E0,0E0,0E0,0E0,0E0,0E0,0E0,0E0,0E0,0E0,0E0,0E0,0E0,0E0,0E0],"parents":[2147483647,0,0,1,1,2,2,3,3,4,4,5,5,6,6,8,8,9,9,10,10,11,11,12,12,13,13,14,14,15,15,16,16,17,17,18,18,19,19,20,20,21,21,22,22,23,23,24,24,25,25,26,26,27,27,28,28,29,29,31,31,32,32,33,33,34,34,35,35,36,36,37,37,38,38,39,39,40,40,41,41,42,42,43,43,44,44,45,45,46,46,47,47,48,48,49,49,50,50,51,51,52,52,53,53,54,54],"right_children":[2,4,6,8,10,12,14,-1,16,18,20,22,24,26,28,30,32,34,36,38,40,42,44,46,48,50,52,54,56,58,-1,60,62,64,66,68,70,72,74,76,78,80,82,84,86,88,90,92,94,96,98,100,102,104,106,-1,-1,-1,-1,-1,-1,-1,-1,-1,-1,-1,-1,-1,-1,-1,-1,-1,-1,-1,-1,-1,-1,-1,-1,-1,-1,-1,-1,-1,-1,-1,-1,-1,-1,-1,-1,-1,-1,-1,-1,-1,-1,-1,-1,-1,-1,-1,-1,-1,-1,-1,-1],"split_conditions":[1.6E1,5E0,4.7E1,1E0,1.5E1,2.1E1,1E0,-5.3706807E-1,1.1E1,1.7E1,1.3E1,1E0,5.2E1,4.2E1,4.3388373E-1,1E0,1E0,1.1E1,1.1E1,9E0,3.5E1,1E0,3E1,6.234898E-1,6.234898E-1,3.3E1,6E1,3.37E3,1.1444E3,7E0,-1.0918409E-1,1.6E1,-2.2252093E-1,2.5E1,1E0,1E0,2.9E1,2.5E1,1E0,1E0,3E1,-1.8369701E-16,1.1583333E1,1.1E1,1E0,2.3E1,1E0,-2.5881904E-1,4.5458332E1,2E1,1E0,5.4E0,1E0,1.35E2,5.6E1,2.2238634E0,1.2423025E0,-4.1505584E-1,-3.5613468E-1,-3.1909245E-1,-7.060769E-2,1.1172062E-1,-2.3059332E-1,-3.3580488E-1,-1.4266884E-1,-2.67307E-1,-1.6183749E-1,-1.8110548E-1,-1.5899414E-2,-1.0390369E-1,3.371985E-2,-2.2370973E-1,-6.4023316E-2,-2.8833116E-3,1.9049767E-1,8.4435284E-2,4.5055518E-1,2.713539E-1,5.073812E-1,-1.9322865E-2,2.2549263E-1,2.3938487E-1,5.417392E-1,1.8878263E-1,6.905135E-1,1.0223691E0,1.8775265E0,4.306384E-1,6.9235677E-1,2.8024882E-1,5.928232E-1,9.6222603E-1,1.3738636E0,4.788764E-1,9.154115E-1,4.4944307E-1,6.972693E-1,7.6335245E-1,1.1258367E0,3.8541248E-1,1.0406216E0,9.7486174E-1,1.5779717E0,3.847243E0,2.5289307E0,1.2121366E0,2.5661886E0],"split_indices":[4,7,2,4,7,7,48,0,2,2,5,48,0,7,25,48,27,2,4,4,2,31,2,26,26,4,0,70,71,3,0,3,26,0,50,49,2,2,50,49,7,24,11,7,31,5,50,23,8,5,18,36,18,0,2,0,0,0,0,0,0,0,0,0,0,0,0,0,0,0,0,0,0,0,0,0,0,0,0,0,0,0,0,0,0,0,0,0,0,0,0,0,0,0,0,0,0,0,0,0,0,0,0,0,0,0,0],"split_type":[0,0,0,0,0,0,0,0,0,0,0,0,0,0,0,0,0,0,0,0,0,0,0,0,0,0,0,0,0,0,0,0,0,0,0,0,0,0,0,0,0,0,0,0,0,0,0,0,0,0,0,0,0,0,0,0,0,0,0,0,0,0,0,0,0,0,0,0,0,0,0,0,0,0,0,0,0,0,0,0,0,0,0,0,0,0,0,0,0,0,0,0,0,0,0,0,0,0,0,0,0,0,0,0,0,0,0],"sum_hessian":[1.6124E4,1.01E4,6.024E3,5.752E3,4.348E3,3.938E3,2.086E3,4.737E3,1.015E3,3.318E3,1.03E3,1.651E3,2.287E3,2.018E3,6.8E1,8.27E2,1.88E2,1.769E3,1.549E3,4.67E2,5.63E2,1.587E3,6.4E1,1.796E3,4.91E2,1.217E3,8.01E2,5.1E1,1.7E1,8.18E2,9E0,1.57E2,3.1E1,7E2,1.069E3,9.14E2,6.35E2,1.07E2,3.6E2,3.49E2,2.14E2,1.174E3,4.13E2,3.8E1,2.6E1,1.074E3,7.22E2,1.16E2,3.75E2,6.16E2,6.01E2,4.8E2,3.21E2,3.8E1,1.3E1,1.1E1,6E0,5.67E2,2.51E2,1.52E2,5E0,5E0,2.6E1,6.87E2,1.3E1,9.76E2,9.3E1,8.64E2,5E1,4.84E2,1.51E2,6.6E1,4.1E1,3.3E2,3E1,3.27E2,2.2E1,1.53E2,6.1E1,6.03E2,5.71E2,2.94E2,1.19E2,2.6E1,1.2E1,1.9E1,7E0,6.6E2,4.14E2,6.63E2,5.9E1,7.5E1,4.1E1,2.79E2,9.6E1,1.7E2,4.46E2,3.51E2,2.5E2,2.1E1,4.59E2,1.07E2,2.14E2,2.4E1,1.4E1,5E0,8E0],"tree_param":{"num_deleted":"0","num_feature":"72","num_nodes":"107","size_leaf_vector":"1"}},{"base_weights":[2.5756462E-2,-6.209332E0,1.2145357E1,-9.111984E0,-1.2530653E0,8.944588E0,2.0207739E1,-1.019028E1,-6.4339266E0,-2.5726578E0,3.4066968E0,6.002334E0,1.2520613E1,1.9042732E1,5.6003616E1,-5.1020026E-1,-4.1675448E-1,-7.05181E0,-4.9413466E0,-3.405801E0,3.9231202E-1,2.4988704E0,7.337681E0,2.7302833E0,7.7648764E0,1.0561029E1,1.660102E1,1.4255202E1,2.2296144E1,9.132501E-1,6.520929E1,-7.6487517E0,-6.4112277E0,-3.510717E0,-5.544475E0,-4.6689396E0,-2.3801856E0,1.464019E-2,5.048017E0,5.0770173E0,1.2392334E0,5.7941527E0,1.2476436E1,7.9366976E-1,4.4042873E0,6.7131934E0,1.5465943E1,8.69783E0,1.3008142E1,3.0047798E1,1.5186112E1,1.2990366E1,2.2735212E1,1.9320751E1,2.9370794E1,5.6928738E1,5.062376E0,-3.8786507E-1,-2.7353856E-1,-3.2657072E-1,-2.2752903E-1,-2.4948524E-1,-1.0288155E-1,-2.8978637E-1,-1.5616229E-1,-2.6200768E-1,-1.8188003E-1,-1.3058275E-1,1.05594896E-1,-1.4532645E-1,2.5987966E-2,-8.115898E-3,3.3289614E-1,1.5987588E-1,3.4966084E-1,1.0378111E-2,2.5834128E-1,2.4678722E-1,6.500201E-1,7.2248876E-1,9.703655E-2,-7.359655E-2,9.019617E-2,3.118776E-1,9.206861E-2,2.4160306E-1,3.9740822E-1,5.7451224E-1,1.3423061E0,2.7675852E-1,4.9099085E-1,7.639899E-1,4.2338973E-1,1.8264498E0,8.5991573E-1,6.073529E-1,8.870803E-1,7.9169023E-1,5.343668E-1,1.0469354E0,1.8024676E0,5.0159514E-1,1.0203654E0,1.3686389E0,2.156138E0,1.718158E0,3.0266697E0],"categories":[],"categories_nodes":[],"categories_segments":[],"categories_sizes":[],"default_left":[0,0,0,0,0,0,0,0,0,0,0,0,0,0,0,0,0,0,0,0,0,0,0,0,0,0,0,0,0,0,0,0,0,0,0,0,0,0,0,0,0,0,0,0,0,0,0,0,0,0,0,0,0,0,0,0,0,0,0,0,0,0,0,0,0,0,0,0,0,0,0,0,0,0,0,0,0,0,0,0,0,0,0,0,0,0,0,0,0,0,0,0,0,0,0,0,0,0,0,0,0,0,0,0,0,0,0],"id":7,"left_children":[1,3,5,7,9,11,13,15,17,19,21,23,25,27,29,-1,-1,31,33,35,37,39,41,43,45,47,49,51,53,-1,55,57,59,61,63,65,67,69,71,73,75,77,79,81,83,85,87,89,91,93,95,97,99,101,103,105,-1,-1,-1,-1,-1,-1,-1,-1,-1,-1,-1,-1,-1,-1,-1,-1,-1,-1,-1,-1,-1,-1,-1,-1,-1,-1,-1,-1,-1,-1,-1,-1,-1,-1,-1,-1,-1,-1,-1,-1,-1,-1,-1,-1,-1,-1,-1,-1,-1,-1,-1],"loss_changes":[1.2303789E6,1.546549E5,1.4254831E5,1.9511625E4,2.4432457E4,4.159897E4,6.4440625E4,3.609375E1,1.7614062E3,7.6495156E3,3.1103877E3,1.252125E4,1.4110594E4,2.34005E4,1.5823656E4,0E0,0E0,4.7571875E2,4.7490723E2,3.1193926E3,1.1950833E3,2.3118125E3,1.2267002E3,2.4695532E3,1.1337961E4,5.4016406E3,1.0536172E4,6.340367E3,1.8477812E4,0E0,5.8585156E3,1.2338672E2,1.19E2,3.6082202E2,2.2555957E2,6.1747266E2,1.3947095E3,9.308612E2,4.29526E2,8.193706E2,1.947394E3,7.2583594E2,7.395669E2,8.1522363E2,1.9093936E3,2.852625E3,7.333961E3,2.3925469E3,5.241883E3,3.8635117E3,3.8588047E3,3.370875E3,1.1290664E3,6.2516562E3,6.1213594E3,6.76E2,0E0,0E0,0E0,0E0,0E0,0E0,0E0,0E0,0E0,0E0,0E0,0E0,0E0,0E0,0E0,0E0,0E0,0E0,0E0,0E0,0E0,0E0,0E0,0E0,0E0,0E0,0E0,0E0,0E0,0E0,0E0,0E0,0E0,0E0,0E0,0E0,0E0,0E0,0E0,0E0,0E0,0E0,0E0,0E0,0E0,0E0,0E0,0E0,0E0,0E0,0E0],"parents":[2147483647,0,0,1,1,2,2,3,3,4,4,5,5,6,6,7,7,8,8,9,9,10,10,11,11,12,12,13,13,14,14,17,17,18,18,19,19,20,20,21,21,22,22,23,23,24,24,25,25,26,26,27,27,28,28,30,30,31,31,32,32,33,33,34,34,35,35,36,36,37,37,38,38,39,39,40,40,41,41,42,42,43,43,44,44,45,45,46,46,47,47,48,48,49,49,50,50,51,51,52,52,53,53,54,54,55,55],"right_children":[2,4,6,8,10,12,14,16,18,20,22,24,26,28,30,-1,-1,32,34,36,38,40,42,44,46,48,50,52,54,-1,56,58,60,62,64,66,68,70,72,74,76,78,80,82,84,86,88,90,92,94,96,98,100,102,104,106,-1,-1,-1,-1,-1,-1,-1,-1,-1,-1,-1,-1,-1,-1,-1,-1,-1,-1,-1,-1,-1,-1,-1,-1,-1,-1,-1,-1,-1,-1,-1,-1,-1,-1,-1,-1,-1,-1,-1,-1,-1,-1,-1,-1,-1,-1,-1,-1,-1,-1,-1],"split_conditions":[1.8E1,7E0,3.8E1,2E0,1.8E1,2.7E1,6.2166668E1,2E0,1.3E1,1.5E1,3.1E1,1.9E1,3.5458332E1,1E0,1E0,-5.1020026E-1,-4.1675448E-1,8E0,6.234898E-1,1.7E1,1E0,6.234898E-1,1E0,1.5E1,1E0,4E1,1.2E1,6.3E1,4.9E1,9.132501E-1,7.1E1,1E0,1E0,1.340175E1,2.9E1,1.7E1,1.8E1,9E0,3E0,3.3E1,1E0,4.7E1,1.3E1,2.1E1,6.234898E-1,2E1,1E0,1.1457546E1,6.234898E-1,6.234898E-1,3.6E1,1.4E1,1E0,9E0,1E0,4E0,5.062376E0,-3.8786507E-1,-2.7353856E-1,-3.2657072E-1,-2.2752903E-1,-2.4948524E-1,-1.0288155E-1,-2.8978637E-1,-1.5616229E-1,-2.6200768E-1,-1.8188003E-1,-1.3058275E-1,1.05594896E-1,-1.4532645E-1,2.5987966E-2,-8.115898E-3,3.3289614E-1,1.5987588E-1,3.4966084E-1,1.0378111E-2,2.5834128E-1,2.4678722E-1,6.500201E-1,7.2248876E-1,9.703655E-2,-7.359655E-2,9.019617E-2,3.118776E-1,9.206861E-2,2.4160306E-1,3.9740822E-1,5.7451224E-1,1.3423061E0,2.7675852E-1,4.9099085E-1,7.639899E-1,4.2338973E-1,1.8264498E0,8.5991573E-1,6.073529E-1,8.870803E-1,7.9169023E-1,5.343668E-1,1.0469354E0,1.8024676E0,5.0159514E-1,1.0203654E0,1.3686389E0,2.156138E0,1.718158E0,3.0266697E0],"split_indices":[6,6,6,6,4,7,8,7,0,7,4,4,8,18,50,0,0,3,26,0,50,26,27,5,27,0,19,4,1,0,3,27,49,10,0,3,13,4,15,0,31,3,65,0,26,7,50,10,26,26,7,13,50,19,50,14,0,0,0,0,0,0,0,0,0,0,0,0,0,0,0,0,0,0,0,0,0,0,0,0,0,0,0,0,0,0,0,0,0,0,0,0,0,0,0,0,0,0,0,0,0,0,0,0,0,0,0],"split_type":[0,0,0,0,0,0,0,0,0,0,0,0,0,0,0,0,0,0,0,0,0,0,0,0,0,0,0,0,0,0,0,0,0,0,0,0,0,0,0,0,0,0,0,0,0,0,0,0,0,0,0,0,0,0,0,0,0,0,0,0,0,0,0,0,0,0,0,0,0,0,0,0,0,0,0,0,0,0,0,0,0,0,0,0,0,0,0,0,0,0,0,0,0,0,0,0,0,0,0,0,0,0,0,0,0,0,0],"sum_hessian":[1.628E4,1.075E4,5.53E3,6.779E3,3.971E3,3.96E3,1.57E3,4.831E3,1.948E3,3.095E3,8.76E2,2.174E3,1.786E3,1.522E3,4.8E1,4.791E3,4E1,1.375E3,5.73E2,2.416E3,6.79E2,7.13E2,1.63E2,7.62E2,1.412E3,1.209E3,5.77E2,6.18E2,9.04E2,1E1,3.8E1,7.06E2,6.69E2,1.72E2,4.01E2,1.081E3,1.335E3,6.29E2,5E1,2.33E2,4.8E2,1.27E2,3.6E1,3.54E2,4.08E2,1.244E3,1.68E2,6.89E2,5.2E2,5.3E1,5.24E2,5.4E2,7.8E1,6.39E2,2.65E2,3.3E1,5E0,6.7E2,3.6E1,6.26E2,4.3E1,8.4E1,8.8E1,3.62E2,3.9E1,6.93E2,3.88E2,1.27E3,6.5E1,9.2E1,5.37E2,1.2E1,3.8E1,1.19E2,1.14E2,3.81E2,9.9E1,1.15E2,1.2E1,3E1,6E0,1.09E2,2.45E2,2.37E2,1.71E2,4.95E2,7.49E2,1.26E2,4.2E1,1.82E2,5.07E2,3.45E2,1.75E2,3.4E1,1.9E1,2.42E2,2.82E2,2.39E2,3.01E2,7.1E1,7E0,6.8E1,5.71E2,2.34E2,3.1E1,6E0,2.7E1],"tree_param":{"num_deleted":"0","num_feature":"72","num_nodes":"107","size_leaf_vector":"1"}},{"base_weights":[-4.5484405E-2,-6.3256154E0,1.0574073E1,-9.187399E0,-2.5503778E0,6.8624544E0,1.7259695E1,-4.8426327E-1,-6.752269E0,-4.557993E0,-1.8827644E-1,3.8067894E0,9.383229E0,1.652253E1,7.45524E1,-7.0873146E0,-5.2428207E0,-5.2767725E0,-3.0134904E0,-1.7310992E0,2.1529999E0,9.7759473E-1,5.5324397E0,7.3687425E0,1.2532492E1,1.1664789E1,2.0029015E1,4.7328564E1,9.6443924E1,-7.3413997E0,-5.920421E0,-5.465983E0,-2.7362976E0,-6.011216E0,-4.3883348E0,-3.2821715E0,7.6302665E-1,-2.697849E0,-8.292152E-2,1.3211449E0,5.6161547E0,2.7112675E-1,4.5002265E0,2.2582176E0,6.340781E0,6.3731966E0,1.4060348E1,1.2210446E1,1.5862874E0,7.117512E0,1.4134764E1,1.5472549E1,2.3845955E1,2.7189314E0,1.4424355E0,2.860641E0,5.935158E0,-3.8462034E-1,-3.3439818E-1,-3.1776416E-1,-1.9491988E-1,-2.81967E-1,-1.2428516E-1,-1.9341423E-1,-0E0,-3.533685E-1,-2.8228295E-1,-2.384461E-1,-1.4882946E-1,-2.343301E-1,-1.294549E-1,3.2956168E-1,-1.5585809E-2,-1.752457E-1,-1.0800771E-1,-1.291412E-1,3.274115E-2,1.5952727E-2,1.8234645E-1,1.6721909E-1,4.5302272E-1,-1.5997952E-2,1.9729592E-1,1.703641E-1,4.0598327E-1,9.7352125E-2,5.6505173E-1,1.0024265E-1,3.4032044E-1,1.6550134E-1,3.8243812E-1,6.0245454E-1,1.454378E0,5.372564E-1,7.7651215E-1,7.73084E-2,4.5638138E-1,5.4604995E-1,8.305131E-1,7.021846E-1,1.1849483E0,1.103681E0,1.9837931E0],"categories":[],"categories_nodes":[],"categories_segments":[],"categories_sizes":[],"default_left":[0,0,0,0,0,0,0,0,0,0,0,0,0,0,0,0,0,0,0,0,0,0,0,0,0,0,0,0,0,0,0,0,0,0,0,0,0,0,0,0,0,0,0,0,0,0,0,0,0,0,0,0,0,0,0,0,0,0,0,0,0,0,0,0,0,0,0,0,0,0,0,0,0,0,0,0,0,0,0,0,0,0,0,0,0,0,0,0,0,0,0,0,0,0,0,0,0,0,0,0,0,0,0],"id":8,"left_children":[1,3,5,7,9,11,13,-1,15,17,19,21,23,25,27,29,31,33,35,37,39,41,43,45,47,49,51,53,55,57,59,61,63,65,67,69,71,73,75,77,79,81,83,85,87,89,91,93,-1,95,97,99,101,-1,-1,-1,-1,-1,-1,-1,-1,-1,-1,-1,-1,-1,-1,-1,-1,-1,-1,-1,-1,-1,-1,-1,-1,-1,-1,-1,-1,-1,-1,-1,-1,-1,-1,-1,-1,-1,-1,-1,-1,-1,-1,-1,-1,-1,-1,-1,-1,-1,-1],"loss_changes":[1.0802135E6,1.0993759E5,1.492375E5,6.9514062E3,2.081688E4,2.9787594E4,8.9478E4,0E0,4.6026172E2,2.6176797E3,7.2930527E3,8.547559E3,1.3361594E4,3.5908438E4,1.1512281E4,1.9358594E2,8.6586426E1,1.0283359E3,7.698535E2,1.9386357E3,2.3023218E3,1.6532393E3,2.864418E3,8.542031E3,4.713797E3,9.915906E3,2.1036406E4,2.469043E2,5.416633E3,9.7578125E1,1.0521484E2,7.145068E1,5.2278984E1,2.9974023E2,3.8047754E2,6.743413E2,3.2213757E2,3.2470557E2,8.3365845E2,1.5086985E3,1.1812817E3,1.20715E3,4.1028052E2,5.872876E2,1.7459766E3,4.388801E3,4.692746E3,3.79025E3,0E0,3.5237178E3,4.4062656E3,6.2928906E3,1.7859406E4,0E0,0E0,0E0,0E0,0E0,0E0,0E0,0E0,0E0,0E0,0E0,0E0,0E0,0E0,0E0,0E0,0E0,0E0,0E0,0E0,0E0,0E0,0E0,0E0,0E0,0E0,0E0,0E0,0E0,0E0,0E0,0E0,0E0,0E0,0E0,0E0,0E0,0E0,0E0,0E0,0E0,0E0,0E0,0E0,0E0,0E0,0E0,0E0,0E0,0E0],"parents":[2147483647,0,0,1,1,2,2,3,3,4,4,5,5,6,6,8,8,9,9,10,10,11,11,12,12,13,13,14,14,15,15,16,16,17,17,18,18,19,19,20,20,21,21,22,22,23,23,24,24,25,25,26,26,27,27,28,28,29,29,30,30,31,31,32,32,33,33,34,34,35,35,36,36,37,37,38,38,39,39,40,40,41,41,42,42,43,43,44,44,45,45,46,46,47,47,49,49,50,50,51,51,52,52],"right_children":[2,4,6,8,10,12,14,-1,16,18,20,22,24,26,28,30,32,34,36,38,40,42,44,46,48,50,52,54,56,58,60,62,64,66,68,70,72,74,76,78,80,82,84,86,88,90,92,94,-1,96,98,100,102,-1,-1,-1,-1,-1,-1,-1,-1,-1,-1,-1,-1,-1,-1,-1,-1,-1,-1,-1,-1,-1,-1,-1,-1,-1,-1,-1,-1,-1,-1,-1,-1,-1,-1,-1,-1,-1,-1,-1,-1,-1,-1,-1,-1,-1,-1,-1,-1,-1,-1],"split_conditions":[1.6E1,5E0,4.7E1,2E0,1E1,2.3E1,2E0,-4.8426327E-1,1.2E1,1E1,1.5E1,1.8E1,4.2E1,3.2E1,4.5E1,1E0,1E0,1.3E1,2.1E1,1.3E1,2.7E1,1E0,1.4E1,1E0,2E0,2.1E1,1E0,1.74E1,3.8791668E1,1E1,1.6502745E1,1.7E1,2.3166666E1,1.12E3,1E0,1E0,-1E0,1.7E1,9E0,1.9E1,2E0,1.925E1,3.5E1,2.3166666E1,1.7291666E1,1E0,5E1,3.9E1,1.5862874E0,2.1E1,1E0,6.6E1,1E0,2.7189314E0,1.4424355E0,2.860641E0,5.935158E0,-3.8462034E-1,-3.3439818E-1,-3.1776416E-1,-1.9491988E-1,-2.81967E-1,-1.2428516E-1,-1.9341423E-1,-0E0,-3.533685E-1,-2.8228295E-1,-2.384461E-1,-1.4882946E-1,-2.343301E-1,-1.294549E-1,3.2956168E-1,-1.5585809E-2,-1.752457E-1,-1.0800771E-1,-1.291412E-1,3.274115E-2,1.5952727E-2,1.8234645E-1,1.6721909E-1,4.5302272E-1,-1.5997952E-2,1.9729592E-1,1.703641E-1,4.0598327E-1,9.7352125E-2,5.6505173E-1,1.0024265E-1,3.4032044E-1,1.6550134E-1,3.8243812E-1,6.0245454E-1,1.454378E0,5.372564E-1,7.7651215E-1,7.73084E-2,4.5638138E-1,5.4604995E-1,8.305131E-1,7.021846E-1,1.1849483E0,1.103681E0,1.9837931E0],"split_indices":[6,4,2,7,6,4,50,0,2,4,4,7,3,4,6,18,50,3,4,7,4,31,5,50,50,5,18,38,11,13,10,13,8,69,18,14,65,0,4,7,14,11,2,11,8,14,4,4,0,7,18,4,50,0,0,0,0,0,0,0,0,0,0,0,0,0,0,0,0,0,0,0,0,0,0,0,0,0,0,0,0,0,0,0,0,0,0,0,0,0,0,0,0,0,0,0,0,0,0,0,0,0,0],"split_type":[0,0,0,0,0,0,0,0,0,0,0,0,0,0,0,0,0,0,0,0,0,0,0,0,0,0,0,0,0,0,0,0,0,0,0,0,0,0,0,0,0,0,0,0,0,0,0,0,0,0,0,0,0,0,0,0,0,0,0,0,0,0,0,0,0,0,0,0,0,0,0,0,0,0,0,0,0,0,0,0,0,0,0,0,0,0,0,0,0,0,0,0,0,0,0,0,0,0,0,0,0,0,0],"sum_hessian":[1.6195E4,1.0177E4,6.018E3,5.788E3,4.389E3,3.871E3,2.147E3,4.803E3,9.85E2,2.372E3,2.017E3,1.751E3,2.12E3,2.121E3,2.6E1,8.03E2,1.82E2,1.617E3,7.55E2,1.216E3,8.01E2,6.64E2,1.087E3,1.295E3,8.25E2,8.91E2,1.23E3,1.3E1,1.3E1,6.55E2,1.48E2,1.66E2,1.6E1,8.82E2,7.35E2,7.05E2,5E1,7.66E2,4.5E2,6.47E2,1.54E2,5.54E2,1.1E2,2.16E2,8.71E2,1.129E3,1.66E2,8.13E2,1.2E1,3.15E2,5.76E2,5.63E2,6.67E2,8E0,5E0,6E0,7E0,4.19E2,2.36E2,1.2E2,2.8E1,1.56E2,1E1,1.1E1,5E0,2.22E2,6.6E2,5.77E2,1.58E2,2.31E2,4.74E2,7E0,4.3E1,3.04E2,4.62E2,1.02E2,3.48E2,4.53E2,1.94E2,9.4E1,6E1,4.78E2,7.6E1,8.6E1,2.4E1,2.1E2,6E0,8.5E1,7.86E2,3.33E2,7.96E2,1.48E2,1.8E1,5.67E2,2.46E2,8.4E1,2.31E2,2.53E2,3.23E2,4.82E2,8.1E1,6.02E2,6.5E1],"tree_param":{"num_deleted":"0","num_feature":"72","num_nodes":"103","size_leaf_vector":"1"}},{"base_weights":[5.5068195E-2,-5.584157E0,1.1168704E1,-8.486709E0,-1.532544E0,8.071004E0,1.8826633E1,-9.198038E0,-6.086742E0,-2.856667E0,2.134521E0,5.547904E0,1.1065332E1,1.7178585E1,6.2956554E1,-4.6049482E-1,-3.7310615E-1,-6.514846E0,-4.649691E0,-4.04406E0,-1.167327E0,1.8148574E0,1.1503201E1,2.2110946E0,6.65238E0,1.0533787E1,2.809481E1,1.2497538E1,2.035997E1,3.842597E1,7.021613E1,-3.688229E-1,-6.145466E0,-5.029661E0,-2.2364762E0,-4.83447E0,-2.868853E0,-1.4939735E0,2.0402045E0,7.311076E-2,3.237148E0,6.5528502E0,1.5873391E1,8.600168E-1,4.688967E0,5.5120587E0,1.0050533E1,5.273994E0,1.1967483E1,2.3606087E1,3.788584E1,1.1096064E1,1.8355116E1,1.7208405E1,2.6679104E1,1.3290967E0,2.4075153E0,5.547545E1,8.678285E1,-3.4012446E-1,-2.8232217E-1,-2.5727913E-1,-4.3951705E-2,-1.3847643E-1,1.3855171E-4,-2.641934E-1,-2.0931506E-1,-2.3468809E-1,-1.1502387E-1,-8.347658E-2,1.7025399E-1,1.8161027E-1,1.6832596E-2,-3.85912E-2,1.2504612E-1,1.1921648E-1,2.5770867E-1,6.1262537E-2,4.6598077E-1,9.421976E-1,5.0689113E-1,2.1061039E-2,3.3170322E-1,4.661866E-1,1.8103687E-1,2.4888782E-1,5.346171E-1,3.7740085E-1,6.772022E-1,1.6956972E-1,4.188756E-1,5.265841E-1,7.91378E-1,6.4157444E-1,1.2779461E0,1.2940977E0,2.257075E0,4.0304658E-1,6.5277E-1,8.3471197E-1,1.1121001E0,5.772586E-1,9.8959124E-1,1.1376218E0,1.5402162E0,1.4492761E0,3.0321827E0,2.6816328E0,5.1496825E0],"categories":[],"categories_nodes":[],"categories_segments":[],"categories_sizes":[],"default_left":[0,0,0,0,0,0,0,0,0,0,0,0,0,0,0,0,0,0,0,0,0,0,0,0,0,0,0,0,0,0,0,0,0,0,0,0,0,0,0,0,0,0,0,0,0,0,0,0,0,0,0,0,0,0,0,0,0,0,0,0,0,0,0,0,0,0,0,0,0,0,0,0,0,0,0,0,0,0,0,0,0,0,0,0,0,0,0,0,0,0,0,0,0,0,0,0,0,0,0,0,0,0,0,0,0,0,0,0,0],"id":9,"left_children":[1,3,5,7,9,11,13,15,17,19,21,23,25,27,29,-1,-1,31,33,35,37,39,41,43,45,47,49,51,53,55,57,-1,59,61,63,65,67,69,71,73,75,77,79,81,83,85,87,89,91,93,95,97,99,101,103,-1,-1,105,107,-1,-1,-1,-1,-1,-1,-1,-1,-1,-1,-1,-1,-1,-1,-1,-1,-1,-1,-1,-1,-1,-1,-1,-1,-1,-1,-1,-1,-1,-1,-1,-1,-1,-1,-1,-1,-1,-1,-1,-1,-1,-1,-1,-1,-1,-1,-1,-1,-1,-1],"loss_changes":[1.01284725E6,1.26065125E5,1.28892875E5,1.06054375E4,2.174004E4,2.9212547E4,1.12803E5,2.878125E1,8.4895703E2,6.592199E3,3.5356436E3,7.7422227E3,1.5731203E4,2.2244375E4,7.2635938E3,0E0,0E0,3.0340625E2,2.9245166E2,1.7790547E3,1.4268564E3,2.8482932E3,7.374663E2,1.7530068E3,6.0693984E3,1.2898031E4,1.4288242E3,4.8338594E3,1.7420312E4,4.4023047E2,5.4280625E3,0E0,2.1477148E2,1.3248193E2,5.6385254E1,3.1278516E2,7.965083E2,1.0668362E3,3.400996E2,1.0646985E3,1.02183203E3,2.8233093E2,1.4682227E2,8.604677E2,8.8088086E2,3.2278633E3,3.3577188E3,2.132205E3,7.3127812E3,4.8879883E2,1.3098828E2,2.8541797E3,3.8010547E2,8.5759375E3,4.104703E3,0E0,0E0,1.655875E3,4.1335625E3,0E0,0E0,0E0,0E0,0E0,0E0,0E0,0E0,0E0,0E0,0E0,0E0,0E0,0E0,0E0,0E0,0E0,0E0,0E0,0E0,0E0,0E0,0E0,0E0,0E0,0E0,0E0,0E0,0E0,0E0,0E0,0E0,0E0,0E0,0E0,0E0,0E0,0E0,0E0,0E0,0E0,0E0,0E0,0E0,0E0,0E0,0E0,0E0,0E0,0E0],"parents":[2147483647,0,0,1,1,2,2,3,3,4,4,5,5,6,6,7,7,8,8,9,9,10,10,11,11,12,12,13,13,14,14,17,17,18,18,19,19,20,20,21,21,22,22,23,23,24,24,25,25,26,26,27,27,28,28,29,29,30,30,32,32,33,33,34,34,35,35,36,36,37,37,38,38,39,39,40,40,41,41,42,42,43,43,44,44,45,45,46,46,47,47,48,48,49,49,50,50,51,51,52,52,53,53,54,54,57,57,58,58],"right_children":[2,4,6,8,10,12,14,16,18,20,22,24,26,28,30,-1,-1,32,34,36,38,40,42,44,46,48,50,52,54,56,58,-1,60,62,64,66,68,70,72,74,76,78,80,82,84,86,88,90,92,94,96,98,100,102,104,-1,-1,106,108,-1,-1,-1,-1,-1,-1,-1,-1,-1,-1,-1,-1,-1,-1,-1,-1,-1,-1,-1,-1,-1,-1,-1,-1,-1,-1,-1,-1,-1,-1,-1,-1,-1,-1,-1,-1,-1,-1,-1,-1,-1,-1,-1,-1,-1,-1,-1,-1,-1,-1],"split_conditions":[1.8E1,6E0,3.8E1,2E0,1.6E1,2.7E1,1E0,2E0,1.3E1,2E1,1E0,1.5E1,1E0,1E0,4E0,-4.6049482E-1,-3.7310615E-1,6E0,1E0,9E0,1E0,1.4E1,2.4E1,1.8E1,1E0,1E0,3E1,7.3E1,5.9E1,4.8E1,2E0,-3.688229E-1,2E0,3.9E1,1E0,1.5E1,1E0,1E0,1.59E1,1.8E1,1E0,1.8E1,4.3E1,1E0,1.432E3,1E0,2.2E1,7.4E1,1E0,1.3E1,2.112E3,2E1,7.3E1,3.5E1,5.1E1,1.3290967E0,2.4075153E0,1.927E3,4.5E1,-3.4012446E-1,-2.8232217E-1,-2.5727913E-1,-4.3951705E-2,-1.3847643E-1,1.3855171E-4,-2.641934E-1,-2.0931506E-1,-2.3468809E-1,-1.1502387E-1,-8.347658E-2,1.7025399E-1,1.8161027E-1,1.6832596E-2,-3.85912E-2,1.2504612E-1,1.1921648E-1,2.5770867E-1,6.1262537E-2,4.6598077E-1,9.421976E-1,5.0689113E-1,2.1061039E-2,3.3170322E-1,4.661866E-1,1.8103687E-1,2.4888782E-1,5.346171E-1,3.7740085E-1,6.772022E-1,1.6956972E-1,4.188756E-1,5.265841E-1,7.91378E-1,6.4157444E-1,1.2779461E0,1.2940977E0,2.257075E0,4.0304658E-1,6.5277E-1,8.3471197E-1,1.1121001E0,5.772586E-1,9.8959124E-1,1.1376218E0,1.5402162E0,1.4492761E0,3.0321827E0,2.6816328E0,5.1496825E0],"split_indices":[6,6,6,6,4,4,48,4,0,2,48,5,48,18,14,0,0,0,27,4,50,6,2,4,18,14,6,0,0,6,50,0,14,1,48,2,14,31,38,13,31,5,1,50,70,50,5,1,18,13,69,19,4,1,1,0,0,70,6,0,0,0,0,0,0,0,0,0,0,0,0,0,0,0,0,0,0,0,0,0,0,0,0,0,0,0,0,0,0,0,0,0,0,0,0,0,0,0,0,0,0,0,0,0,0,0,0,0,0],"split_type":[0,0,0,0,0,0,0,0,0,0,0,0,0,0,0,0,0,0,0,0,0,0,0,0,0,0,0,0,0,0,0,0,0,0,0,0,0,0,0,0,0,0,0,0,0,0,0,0,0,0,0,0,0,0,0,0,0,0,0,0,0,0,0,0,0,0,0,0,0,0,0,0,0,0,0,0,0,0,0,0,0,0,0,0,0,0,0,0,0,0,0,0,0,0,0,0,0,0,0,0,0,0,0,0,0,0,0,0,0],"sum_hessian":[1.6159E4,1.072E4,5.439E3,6.245E3,4.475E3,3.874E3,1.565E3,4.815E3,1.43E3,3.288E3,1.187E3,2.104E3,1.77E3,1.51E3,5.5E1,4.778E3,3.7E1,1.099E3,3.31E2,1.93E3,1.358E3,1.149E3,3.8E1,5.24E2,1.58E3,1.718E3,5.2E1,6.13E2,8.97E2,1.4E1,4.1E1,3.24E2,7.75E2,2.85E2,4.6E1,1.152E3,7.78E2,1.233E3,1.25E2,5.17E2,6.32E2,1.9E1,1.9E1,3.4E2,1.84E2,1.185E3,3.95E2,3.69E2,1.349E3,3.8E1,1.4E1,4.97E2,1.16E2,6.01E2,2.96E2,8E0,6E0,2.4E1,1.7E1,3.29E2,4.46E2,2.77E2,8E0,3.7E1,9E0,6.76E2,4.76E2,1.83E2,5.95E2,1.191E3,4.2E1,6.4E1,6.1E1,3.84E2,1.33E2,4.39E2,1.93E2,7E0,1.2E1,1.1E1,8E0,3.17E2,2.3E1,3.3E1,1.51E2,1.076E3,1.09E2,2.32E2,1.63E2,2.31E2,1.38E2,9.86E2,3.63E2,7E0,3.1E1,7E0,7E0,1.97E2,3E2,8.5E1,3.1E1,1.9E2,4.11E2,1.55E2,1.41E2,5E0,1.9E1,7E0,1E1],"tree_param":{"num_deleted":"0","num_feature":"72","num_nodes":"109","size_leaf_vector":"1"}},{"base_weights":[-8.589079E-3,-5.493155E0,9.991877E0,-8.069917E0,-1.6603165E0,6.323483E0,1.6579363E1,-4.3748888E-1,-5.8457923E0,-3.0567577E0,1.7143607E0,2.9644234E0,8.239601E0,1.5357316E1,4.819745E1,-6.336724E0,-4.5209985E0,-4.231391E0,-1.7933426E0,-1.2657934E0,2.702789E0,2.465617E0,1.340548E1,7.970653E0,2.949568E1,1.2670044E1,1.9380575E1,3.9582893E1,6.75385E1,-7.0309286E0,-5.9717054E0,-4.7040806E0,1.2974564E0,-4.7083664E0,-3.3356657E0,-2.0680754E0,1.1338117E0,-2.4171178E0,-9.812403E-2,2.0962756E0,7.234274E0,-7.397568E-1,3.288974E0,5.6598434E0,1.938702E1,5.2526217E0,9.299212E0,2.1711187E1,1.9353056E0,1.1364886E1,1.6717915E1,1.5606082E1,2.1220293E1,2.4969465E1,4.6599163E1,8.058313E1,2.190831E0,-3.536045E-1,-1.693244E-1,-3.0555695E-1,-2.0656617E-1,-2.3903778E-1,7.442463E-3,-9.866093E-2,2.7293903E-1,-2.4161398E-1,-1.3372658E-1,-1.137378E-1,-1.9618239E-1,-1.1327868E-1,4.837283E-2,2.5253097E-2,3.7688908E-1,-8.1791006E-2,-1.9231446E-1,-4.2013757E-2,2.6070082E-1,8.376642E-2,3.3230287E-1,1.3020985E-1,5.6294626E-1,-5.666251E-2,2.6996875E-1,1.4023685E-1,3.6569613E-1,4.5053908E-1,2.1634717E-2,1.1049051E0,3.9006191E-1,1.6630612E-1,3.2931563E-1,4.1294408E-1,7.000466E-1,1.4551139E0,7.79106E-1,4.5066428E-1,6.4864016E-1,1.0518893E0,6.84081E-1,5.185115E-1,8.878517E-1,1.1467634E0,7.6235974E-1,1.5674716E0,9.994403E-1,2.5694911E0,9.698225E-1,4.7846627E0,2.6973426E0],"categories":[],"categories_nodes":[],"categories_segments":[],"categories_sizes":[],"default_left":[0,0,0,0,0,0,0,0,0,0,0,0,0,0,0,0,0,0,0,0,0,0,0,0,0,0,0,0,0,0,0,0,0,0,0,0,0,0,0,0,0,0,0,0,0,0,0,0,0,0,0,0,0,0,0,0,0,0,0,0,0,0,0,0,0,0,0,0,0,0,0,0,0,0,0,0,0,0,0,0,0,0,0,0,0,0,0,0,0,0,0,0,0,0,0,0,0,0,0,0,0,0,0,0,0,0,0,0,0],"id":10,"left_children":[1,3,5,7,9,11,13,-1,15,17,19,21,23,25,27,29,31,33,35,37,39,41,43,45,47,49,51,53,55,57,59,61,63,65,67,69,71,73,75,77,79,81,83,85,87,89,91,93,-1,95,97,99,101,103,105,107,-1,-1,-1,-1,-1,-1,-1,-1,-1,-1,-1,-1,-1,-1,-1,-1,-1,-1,-1,-1,-1,-1,-1,-1,-1,-1,-1,-1,-1,-1,-1,-1,-1,-1,-1,-1,-1,-1,-1,-1,-1,-1,-1,-1,-1,-1,-1,-1,-1,-1,-1,-1,-1],"loss_changes":[8.8996675E5,1.034795E5,1.3877194E5,9.4221875E3,1.986401E4,2.3743922E4,7.865619E4,0E0,9.263242E2,4.4157617E3,3.6385205E3,6.959796E3,1.3201297E4,2.1158188E4,9.978609E3,2.2785156E2,4.3361035E2,6.431465E2,1.1588569E3,4.135761E2,2.5316748E3,3.3887402E3,2.7139482E3,8.338203E3,1.2328594E3,6.0941094E3,5.157875E3,4.4685312E3,3.2644297E3,2.9458984E1,1.554082E2,1.4592188E2,1.880543E2,2.3960547E2,3.2730518E2,7.906797E2,4.9467392E2,1.6623425E2,6.110751E2,1.5565964E3,2.0004473E3,6.410233E2,1.9684316E3,4.8560065E2,8.925576E2,1.9426582E3,7.50775E3,3.5746582E2,0E0,3.2952812E3,3.4862188E3,2.7749648E3,5.0654062E3,3.756836E0,3.687625E3,5.4882812E1,0E0,0E0,0E0,0E0,0E0,0E0,0E0,0E0,0E0,0E0,0E0,0E0,0E0,0E0,0E0,0E0,0E0,0E0,0E0,0E0,0E0,0E0,0E0,0E0,0E0,0E0,0E0,0E0,0E0,0E0,0E0,0E0,0E0,0E0,0E0,0E0,0E0,0E0,0E0,0E0,0E0,0E0,0E0,0E0,0E0,0E0,0E0,0E0,0E0,0E0,0E0,0E0,0E0],"parents":[2147483647,0,0,1,1,2,2,3,3,4,4,5,5,6,6,8,8,9,9,10,10,11,11,12,12,13,13,14,14,15,15,16,16,17,17,18,18,19,19,20,20,21,21,22,22,23,23,24,24,25,25,26,26,27,27,28,28,29,29,30,30,31,31,32,32,33,33,34,34,35,35,36,36,37,37,38,38,39,39,40,40,41,41,42,42,43,43,44,44,45,45,46,46,47,47,49,49,50,50,51,51,52,52,53,53,54,54,55,55],"right_children":[2,4,6,8,10,12,14,-1,16,18,20,22,24,26,28,30,32,34,36,38,40,42,44,46,48,50,52,54,56,58,60,62,64,66,68,70,72,74,76,78,80,82,84,86,88,90,92,94,-1,96,98,100,102,104,106,108,-1,-1,-1,-1,-1,-1,-1,-1,-1,-1,-1,-1,-1,-1,-1,-1,-1,-1,-1,-1,-1,-1,-1,-1,-1,-1,-1,-1,-1,-1,-1,-1,-1,-1,-1,-1,-1,-1,-1,-1,-1,-1,-1,-1,-1,-1,-1,-1,-1,-1,-1,-1,-1],"split_conditions":[1.7E1,6E0,4.7E1,1E0,1.5E1,2E1,1E0,-4.3748888E-1,1.1E1,1.8E1,1.1E1,1E0,1E0,4.2E1,7.3E1,6E0,2.2458334E1,9E0,1E0,1.6E1,3.3E1,1.2E1,2.6E1,2E0,4.1E1,4.4E1,3.4E1,6E1,1.5E1,1.7E1,1E0,2.9E1,1E0,1E0,6.234898E-1,1.8E1,1E0,1.6095238E1,2.3E1,1E0,4E0,3.1E1,1E0,2.09E1,3.37E3,3.236905E1,3.9E1,9.3901E4,1.9353056E0,2.9E1,6.234898E-1,1.5E1,6.234898E-1,4.9333332E1,2.7494047E1,1E-1,2.190831E0,-3.536045E-1,-1.693244E-1,-3.0555695E-1,-2.0656617E-1,-2.3903778E-1,7.442463E-3,-9.866093E-2,2.7293903E-1,-2.4161398E-1,-1.3372658E-1,-1.137378E-1,-1.9618239E-1,-1.1327868E-1,4.837283E-2,2.5253097E-2,3.7688908E-1,-8.1791006E-2,-1.9231446E-1,-4.2013757E-2,2.6070082E-1,8.376642E-2,3.3230287E-1,1.3020985E-1,5.6294626E-1,-5.666251E-2,2.6996875E-1,1.4023685E-1,3.6569613E-1,4.5053908E-1,2.1634717E-2,1.1049051E0,3.9006191E-1,1.6630612E-1,3.2931563E-1,4.1294408E-1,7.000466E-1,1.4551139E0,7.79106E-1,4.5066428E-1,6.4864016E-1,1.0518893E0,6.84081E-1,5.185115E-1,8.878517E-1,1.1467634E0,7.6235974E-1,1.5674716E0,9.994403E-1,2.5694911E0,9.698225E-1,4.7846627E0,2.6973426E0],"split_indices":[4,7,2,4,7,7,48,0,2,2,4,48,48,7,2,2,11,4,50,19,7,7,2,14,3,4,4,4,13,1,27,2,50,49,26,13,48,12,7,50,15,4,27,38,69,9,4,40,0,7,26,19,26,8,12,37,0,0,0,0,0,0,0,0,0,0,0,0,0,0,0,0,0,0,0,0,0,0,0,0,0,0,0,0,0,0,0,0,0,0,0,0,0,0,0,0,0,0,0,0,0,0,0,0,0,0,0,0,0],"split_type":[0,0,0,0,0,0,0,0,0,0,0,0,0,0,0,0,0,0,0,0,0,0,0,0,0,0,0,0,0,0,0,0,0,0,0,0,0,0,0,0,0,0,0,0,0,0,0,0,0,0,0,0,0,0,0,0,0,0,0,0,0,0,0,0,0,0,0,0,0,0,0,0,0,0,0,0,0,0,0,0,0,0,0,0,0,0,0,0,0,0,0,0,0,0,0,0,0,0,0,0,0,0,0,0,0,0,0,0,0],"sum_hessian":[1.6224E4,1.0478E4,5.746E3,6.265E3,4.213E3,3.692E3,2.054E3,4.796E3,1.469E3,2.98E3,1.233E3,1.342E3,2.35E3,1.979E3,7.5E1,1.069E3,4E2,1.543E3,1.437E3,3.07E2,9.26E2,1.282E3,6E1,2.322E3,2.8E1,1.189E3,7.9E2,5.4E1,2.1E1,3.62E2,7.07E2,3.88E2,1.2E1,1.004E3,5.39E2,1.314E3,1.23E2,1.54E2,1.53E2,8.18E2,1.08E2,2.62E2,1.02E3,2.7E1,3.3E1,7.64E2,1.558E3,1.7E1,1.1E1,9.02E2,2.87E2,2.62E2,5.28E2,1.9E1,3.5E1,1.2E1,9E0,3.57E2,5E0,6.55E2,5.2E1,3.82E2,6E0,7E0,5E0,9.45E2,5.9E1,1.94E2,3.45E2,1.234E3,8E1,1.13E2,1E1,1.01E2,5.3E1,1.35E2,1.8E1,7.5E2,6.8E1,5.1E1,5.7E1,2.47E2,1.5E1,9.12E2,1.08E2,1.6E1,1.1E1,2.6E1,7E0,3.14E2,4.5E2,1.278E3,2.8E2,6E0,1.1E1,3.69E2,5.33E2,1.16E2,1.71E2,7.8E1,1.84E2,4.08E2,1.2E2,6E0,1.3E1,2.9E1,6E0,6E0,6E0],"tree_param":{"num_deleted":"0","num_feature":"72","num_nodes":"109","size_leaf_vector":"1"}},{"base_weights":[9.116548E-3,-5.040251E0,9.968638E0,-7.4381037E0,-1.0359887E0,9.271939E0,3.9517303E1,-8.255085E0,-5.111917E0,-2.8205192E0,1.1620185E0,6.8261137E0,1.5600648E1,2.6235142E1,5.765697E1,-4.1561863E-1,-6.7791457E0,-5.680999E0,-4.172754E0,-3.033841E0,2.3785975E0,3.51934E-1,5.265471E0,4.3598366E0,9.368406E0,1.3343659E1,2.0179708E1,2.3291876E1,2.3796554E0,4.906597E1,3.8731773E0,-3.434577E-1,-2.2265418E-1,-5.9269066E0,-4.7457933E0,-4.5647483E0,-3.1939857E0,-4.151013E0,-2.2751782E0,6.166208E-1,1.3649045E0,-6.883405E-1,3.0795484E0,3.0361328E0,7.7769766E0,1.6386799E0,5.3934927E0,5.8896327E0,1.0637776E1,8.652492E0,1.4889385E1,1.488124E1,2.2448711E1,2.9175072E1,1.9092947E1,1.3584833E0,5.1483967E1,-3.205807E-1,-2.7307096E-1,-2.6040712E-1,-1.7547478E-1,-2.4046741E-1,-1.4662687E-1,-1.705953E-1,5.6257248E-2,-1.5820755E-1,-2.3006018E-1,-7.556208E-2,-1.5430526E-1,6.685165E-3,3.8935283E-1,-4.3424997E-2,4.0503502E-1,5.0743986E-2,2.6202163E-1,1.0251293E-1,2.5711668E-1,2.2366336E-1,5.4383403E-1,-5.501019E-2,1.1848624E-1,3.5006505E-1,2.1137284E-1,-3.8925413E-2,3.162874E-1,4.6350113E-1,7.116365E-1,3.3897272E-1,6.124887E-1,6.2121195E-1,8.2717365E-1,3.2513332E-1,8.258611E-1,1.1953949E0,7.151438E-1,1.6328865E0,9.478486E-1,1.9731902E-1,1.051521E0,2.7588947E0,1.6284484E0],"categories":[],"categories_nodes":[],"categories_segments":[],"categories_sizes":[],"default_left":[0,0,0,0,0,0,0,0,0,0,0,0,0,0,0,0,0,0,0,0,0,0,0,0,0,0,0,0,0,0,0,0,0,0,0,0,0,0,0,0,0,0,0,0,0,0,0,0,0,0,0,0,0,0,0,0,0,0,0,0,0,0,0,0,0,0,0,0,0,0,0,0,0,0,0,0,0,0,0,0,0,0,0,0,0,0,0,0,0,0,0,0,0,0,0,0,0,0,0,0,0],"id":11,"left_children":[1,3,5,7,9,11,13,15,17,19,21,23,25,27,29,-1,31,33,35,37,39,41,43,45,47,49,51,53,-1,55,-1,-1,-1,57,59,61,63,65,67,-1,69,71,73,75,77,79,81,83,85,87,89,91,93,95,97,-1,99,-1,-1,-1,-1,-1,-1,-1,-1,-1,-1,-1,-1,-1,-1,-1,-1,-1,-1,-1,-1,-1,-1,-1,-1,-1,-1,-1,-1,-1,-1,-1,-1,-1,-1,-1,-1,-1,-1,-1,-1,-1,-1,-1,-1],"loss_changes":[8.131781E5,1.0301697E5,1.1161944E5,1.2710375E4,1.5771536E4,8.217716E4,2.859575E4,3.619375E2,9.090117E2,2.4683398E3,5.9876914E3,2.4009484E4,1.5033344E4,3.5361875E3,5.0347344E3,0E0,8.268555E0,2.2032422E2,2.3901953E2,1.7969023E3,8.69728E2,4.275585E3,1.638208E3,5.4724883E3,8.272828E3,7.0838125E3,5.517047E3,1.0932383E3,0E0,6.582031E2,0E0,0E0,0E0,1.5670508E2,1.1289014E2,1.7316406E2,1.8572412E2,3.671875E2,7.82876E2,0E0,6.386306E2,1.7338326E3,1.8500447E3,3.1889294E2,1.3732432E3,1.0799431E3,2.6164453E3,1.479875E3,6.6610312E3,1.5927734E3,2.8375E3,1.9326641E3,3.6836719E3,3.0098828E2,1.147043E3,0E0,5.697344E2,0E0,0E0,0E0,0E0,0E0,0E0,0E0,0E0,0E0,0E0,0E0,0E0,0E0,0E0,0E0,0E0,0E0,0E0,0E0,0E0,0E0,0E0,0E0,0E0,0E0,0E0,0E0,0E0,0E0,0E0,0E0,0E0,0E0,0E0,0E0,0E0,0E0,0E0,0E0,0E0,0E0,0E0,0E0,0E0],"parents":[2147483647,0,0,1,1,2,2,3,3,4,4,5,5,6,6,7,7,8,8,9,9,10,10,11,11,12,12,13,13,14,14,16,16,17,17,18,18,19,19,20,20,21,21,22,22,23,23,24,24,25,25,26,26,27,27,29,29,33,33,34,34,35,35,36,36,37,37,38,38,40,40,41,41,42,42,43,43,44,44,45,45,46,46,47,47,48,48,49,49,50,50,51,51,52,52,53,53,54,54,56,56],"right_children":[2,4,6,8,10,12,14,16,18,20,22,24,26,28,30,-1,32,34,36,38,40,42,44,46,48,50,52,54,-1,56,-1,-1,-1,58,60,62,64,66,68,-1,70,72,74,76,78,80,82,84,86,88,90,92,94,96,98,-1,100,-1,-1,-1,-1,-1,-1,-1,-1,-1,-1,-1,-1,-1,-1,-1,-1,-1,-1,-1,-1,-1,-1,-1,-1,-1,-1,-1,-1,-1,-1,-1,-1,-1,-1,-1,-1,-1,-1,-1,-1,-1,-1,-1,-1],"split_conditions":[1.8E1,7E0,1E0,3E0,1.2E1,5.3E1,3.9E1,1E0,1.2E1,2.3E1,1E0,2.7E1,4.8E1,9.2E1,5.6907757E1,-4.1561863E-1,1E0,1E0,1E0,1.5E1,-2.2252093E-1,1.8E1,2.35E1,1.7E1,2.3E1,2.6E1,1.7941885E1,1.82E1,2.3796554E0,1.08E3,3.8731773E0,-3.434577E-1,-2.2265418E-1,1E1,1.6755705E1,1.7E1,2E1,6.234898E-1,6.234898E-1,6.166208E-1,3.5E1,1E0,2.4208334E1,1.7E1,1E0,1.1E1,6.234898E-1,3E0,1E0,1E0,6E1,9E0,6.234898E-1,5E0,1.8E1,1.3584833E0,3.25E3,-3.205807E-1,-2.7307096E-1,-2.6040712E-1,-1.7547478E-1,-2.4046741E-1,-1.4662687E-1,-1.705953E-1,5.6257248E-2,-1.5820755E-1,-2.3006018E-1,-7.556208E-2,-1.5430526E-1,6.685165E-3,3.8935283E-1,-4.3424997E-2,4.0503502E-1,5.0743986E-2,2.6202163E-1,1.0251293E-1,2.5711668E-1,2.2366336E-1,5.4383403E-1,-5.501019E-2,1.1848624E-1,3.5006505E-1,2.1137284E-1,-3.8925413E-2,3.162874E-1,4.6350113E-1,7.116365E-1,3.3897272E-1,6.124887E-1,6.2121195E-1,8.2717365E-1,3.2513332E-1,8.258611E-1,1.1953949E0,7.151438E-1,1.6328865E0,9.478486E-1,1.9731902E-1,1.051521E0,2.7588947E0,1.6284484E0],"split_indices":[6,4,48,6,6,3,6,4,2,4,31,6,6,4,10,0,49,18,18,2,26,13,8,4,4,4,10,38,0,70,0,0,0,13,10,13,1,26,26,0,4,48,8,19,14,4,26,19,18,31,3,19,26,14,5,0,69,0,0,0,0,0,0,0,0,0,0,0,0,0,0,0,0,0,0,0,0,0,0,0,0,0,0,0,0,0,0,0,0,0,0,0,0,0,0,0,0,0,0,0,0],"split_type":[0,0,0,0,0,0,0,0,0,0,0,0,0,0,0,0,0,0,0,0,0,0,0,0,0,0,0,0,0,0,0,0,0,0,0,0,0,0,0,0,0,0,0,0,0,0,0,0,0,0,0,0,0,0,0,0,0,0,0,0,0,0,0,0,0,0,0,0,0,0,0,0,0,0,0,0,0,0,0,0,0,0,0,0,0,0,0,0,0,0,0,0,0,0,0,0,0,0,0,0,0],"sum_hessian":[1.6168E4,1.0729E4,5.439E3,6.71E3,4.019E3,5.315E3,1.24E2,4.964E3,1.746E3,2.218E3,1.801E3,3.835E3,1.48E3,7.3E1,5.1E1,4.774E3,1.9E2,1.084E3,6.62E2,2.131E3,8.7E1,1.505E3,2.96E2,1.948E3,1.887E3,9.94E2,4.86E2,6.6E1,7E0,3.8E1,1.3E1,1.81E2,9E0,8.54E2,2.3E2,4.7E2,1.92E2,8.6E2,1.271E3,7E0,8E1,1.09E3,4.15E2,1.58E2,1.38E2,5.37E2,1.411E3,5.06E2,1.381E3,2.48E2,7.46E2,1.48E2,3.38E2,2.5E1,4.1E1,5E0,3.3E1,4.12E2,4.42E2,1.65E2,6.5E1,4.07E2,6.3E1,1.83E2,9E0,2.72E2,5.88E2,6.56E2,6.15E2,6.8E1,1.2E1,1.069E3,2.1E1,2.13E2,2.02E2,1.09E2,4.9E1,6.8E1,7E1,1.13E2,4.24E2,5.91E2,8.2E2,3.1E1,4.75E2,1.003E3,3.78E2,1.65E2,8.3E1,3.03E2,4.43E2,2.5E1,1.23E2,2.85E2,5.3E1,1.7E1,8E0,5E0,3.6E1,2.6E1,7E0],"tree_param":{"num_deleted":"0","num_feature":"72","num_nodes":"101","size_leaf_vector":"1"}},{"base_weights":[-3.4799208E-3,-4.7921014E0,9.463874E0,-7.0612483E0,-9.568429E-1,6.350775E0,1.5162476E1,-7.8857756E0,-5.034978E0,-2.3592691E0,1.4657658E0,4.7749677E0,9.885323E0,1.4017553E1,5.1753983E1,-3.948281E-1,-3.2680666E-1,-5.857917E0,-4.2815604E0,-2.512829E0,6.0087824E0,5.37932E-1,5.0640116E0,2.9570875E0,7.0613194E0,9.324037E0,2.3612907E1,1.1354018E1,1.8076736E1,3.699712E1,7.259716E1,-5.888143E0,-8.053386E-2,-4.455571E0,-2.0441933E0,-3.7585175E0,-1.6498919E0,4.440183E0,6.446053E-1,-6.650693E-1,2.8791964E0,2.6074815E0,7.72351E0,2.2810833E-1,3.6860344E0,6.4134254E0,1.4031142E1,1.2878967E1,7.545803E0,1.9958178E1,1.6651114E0,9.030239E0,1.4316583E1,1.470586E1,2.0998228E1,4.0363842E1,8.634364E-1,2.2376914E0,4.098763E0,-3.1051067E-1,-2.7404305E-1,-2.3509765E-1,-1.489978E-1,-2.2412269E-1,-5.4577824E-2,-2.1301709E-1,-1.3996905E-1,-9.644266E-2,8.4705524E-2,2.833885E-1,-1.352063E-2,-1.1239194E-1,2.229253E-2,8.085295E-2,3.409319E-1,1.0838552E-1,3.8845274E-1,5.033836E-1,2.1836148E-1,-7.3857047E-3,3.1168658E-1,2.669267E-1,9.705811E-2,2.0889972E-1,3.6488834E-1,8.704177E-1,4.3145204E-1,3.888763E-1,7.226495E-1,2.9591748E-1,5.968675E-1,1.1025609E0,5.957748E-1,3.1059843E-1,5.321999E-1,6.109329E-1,8.838462E-1,2.703404E-1,7.9176337E-1,6.9175667E-1,1.1570659E0,1.2619677E0,2.2819564E0],"categories":[],"categories_nodes":[],"categories_segments":[],"categories_sizes":[],"default_left":[0,0,0,0,0,0,0,0,0,0,0,0,0,0,0,0,0,0,0,0,0,0,0,0,0,0,0,0,0,0,0,0,0,0,0,0,0,0,0,0,0,0,0,0,0,0,0,0,0,0,0,0,0,0,0,0,0,0,0,0,0,0,0,0,0,0,0,0,0,0,0,0,0,0,0,0,0,0,0,0,0,0,0,0,0,0,0,0,0,0,0,0,0,0,0,0,0,0,0,0,0,0,0],"id":12,"left_children":[1,3,5,7,9,11,13,15,17,19,21,23,25,27,29,-1,-1,31,33,35,37,39,41,43,45,47,49,51,53,55,57,59,-1,61,63,65,67,69,-1,71,73,75,77,79,81,83,85,87,89,91,-1,93,95,97,99,101,-1,-1,-1,-1,-1,-1,-1,-1,-1,-1,-1,-1,-1,-1,-1,-1,-1,-1,-1,-1,-1,-1,-1,-1,-1,-1,-1,-1,-1,-1,-1,-1,-1,-1,-1,-1,-1,-1,-1,-1,-1,-1,-1,-1,-1,-1,-1],"loss_changes":[7.352972E5,9.372992E4,9.655075E4,1.126475E4,1.3610654E4,1.958475E4,7.9872875E4,1.690625E1,1.1891367E3,3.274787E3,4.901082E3,1.0119523E4,8.1442812E3,1.9977406E4,1.5142781E4,0E0,0E0,1.09671875E2,3.9008203E2,2.6720352E3,4.3769348E2,3.2946763E3,1.9453013E3,2.7061787E3,4.7849375E3,6.506742E3,8.1731836E2,7.6476875E3,6.955453E3,1.6883242E3,2.3243203E3,8.639258E1,0E0,3.3133398E2,1.7108081E2,4.7783105E2,1.3783079E3,2.2759625E2,0E0,1.3603716E3,1.962061E3,3.4081116E2,1.0875332E3,6.515592E2,3.0856797E3,1.9254766E3,1.5073867E3,2.671707E3,4.9233438E3,2.8936133E2,0E0,2.8247266E3,3.2706484E3,3.5460938E3,5.7091406E3,1.2345898E3,0E0,0E0,0E0,0E0,0E0,0E0,0E0,0E0,0E0,0E0,0E0,0E0,0E0,0E0,0E0,0E0,0E0,0E0,0E0,0E0,0E0,0E0,0E0,0E0,0E0,0E0,0E0,0E0,0E0,0E0,0E0,0E0,0E0,0E0,0E0,0E0,0E0,0E0,0E0,0E0,0E0,0E0,0E0,0E0,0E0,0E0,0E0],"parents":[2147483647,0,0,1,1,2,2,3,3,4,4,5,5,6,6,7,7,8,8,9,9,10,10,11,11,12,12,13,13,14,14,17,17,18,18,19,19,20,20,21,21,22,22,23,23,24,24,25,25,26,26,27,27,28,28,29,29,30,30,31,31,33,33,34,34,35,35,36,36,37,37,39,39,40,40,41,41,42,42,43,43,44,44,45,45,46,46,47,47,48,48,49,49,51,51,52,52,53,53,54,54,55,55],"right_children":[2,4,6,8,10,12,14,16,18,20,22,24,26,28,30,-1,-1,32,34,36,38,40,42,44,46,48,50,52,54,56,58,60,-1,62,64,66,68,70,-1,72,74,76,78,80,82,84,86,88,90,92,-1,94,96,98,100,102,-1,-1,-1,-1,-1,-1,-1,-1,-1,-1,-1,-1,-1,-1,-1,-1,-1,-1,-1,-1,-1,-1,-1,-1,-1,-1,-1,-1,-1,-1,-1,-1,-1,-1,-1,-1,-1,-1,-1,-1,-1,-1,-1,-1,-1,-1,-1],"split_conditions":[1.8E1,7E0,3.5E1,2E0,1.4E1,4.5E1,1E0,2E0,9E0,1E0,1E0,2.5E1,1E0,5.9E1,2E0,-3.948281E-1,-3.2680666E-1,1E0,1E0,1.7E1,1.7E1,1.8E1,2.3416666E1,1.3E1,1E0,6.234898E-1,2.8E1,4.9E1,1.9782879E1,2.5625E1,1.06E2,7E0,-8.053386E-2,1E1,1.1E1,1.7E1,1.8E1,2.43E1,6.446053E-1,1.4625E1,1.4958333E1,1E0,1E0,2E1,6.234898E-1,1.9E1,7.818315E-1,1.9E1,6.6E1,4.2E1,1.6651114E0,5E0,1E0,2E0,1E0,6.6E1,8.634364E-1,2.2376914E0,4.098763E0,-3.1051067E-1,-2.7404305E-1,-2.3509765E-1,-1.489978E-1,-2.2412269E-1,-5.4577824E-2,-2.1301709E-1,-1.3996905E-1,-9.644266E-2,8.4705524E-2,2.833885E-1,-1.352063E-2,-1.1239194E-1,2.229253E-2,8.085295E-2,3.409319E-1,1.0838552E-1,3.8845274E-1,5.033836E-1,2.1836148E-1,-7.3857047E-3,3.1168658E-1,2.669267E-1,9.705811E-2,2.0889972E-1,3.6488834E-1,8.704177E-1,4.3145204E-1,3.888763E-1,7.226495E-1,2.9591748E-1,5.968675E-1,1.1025609E0,5.957748E-1,3.1059843E-1,5.321999E-1,6.109329E-1,8.838462E-1,2.703404E-1,7.9176337E-1,6.9175667E-1,1.1570659E0,1.2619677E0,2.2819564E0],"split_indices":[6,6,6,6,7,0,48,7,3,48,31,7,48,3,50,0,0,48,27,0,13,13,8,5,50,26,7,0,10,12,0,2,0,7,0,3,13,38,0,11,11,49,26,13,26,5,25,5,0,2,0,15,18,15,18,0,0,0,0,0,0,0,0,0,0,0,0,0,0,0,0,0,0,0,0,0,0,0,0,0,0,0,0,0,0,0,0,0,0,0,0,0,0,0,0,0,0,0,0,0,0,0,0],"split_type":[0,0,0,0,0,0,0,0,0,0,0,0,0,0,0,0,0,0,0,0,0,0,0,0,0,0,0,0,0,0,0,0,0,0,0,0,0,0,0,0,0,0,0,0,0,0,0,0,0,0,0,0,0,0,0,0,0,0,0,0,0,0,0,0,0,0,0,0,0,0,0,0,0,0,0,0,0,0,0,0,0,0,0,0,0,0,0,0,0,0,0,0,0,0,0,0,0,0,0,0,0,0,0],"sum_hessian":[1.6217E4,1.077E4,5.447E3,6.766E3,4.004E3,3.524E3,1.923E3,4.807E3,1.959E3,2.536E3,1.468E3,2.439E3,1.085E3,1.866E3,5.7E1,4.764E3,4.3E1,9.33E2,1.026E3,2.491E3,4.5E1,1.168E3,3E2,1.36E3,1.079E3,1.044E3,4.1E1,1.129E3,7.37E2,3.5E1,2.2E1,9.26E2,7E0,9.51E2,7.5E1,1.018E3,1.473E3,3.8E1,7E0,7.72E2,3.96E2,1.57E2,1.43E2,2.87E2,1.073E3,9.89E2,9E1,3.46E2,6.98E2,3.2E1,9E0,6.35E2,4.94E2,3.45E2,3.92E2,2.9E1,6E0,7E0,1.5E1,5.09E2,4.17E2,8.13E2,1.38E2,2E1,5.5E1,6.66E2,3.52E2,1.36E3,1.13E2,3E1,8E0,3.18E2,4.54E2,3.01E2,9.5E1,1.46E2,1.1E1,8.3E1,6E1,2.71E2,1.6E1,5.5E2,5.23E2,2.82E2,7.07E2,5.4E1,3.6E1,8.3E1,2.63E2,5.11E2,1.87E2,2.4E1,8E0,2.33E2,4.02E2,3.07E2,1.87E2,3.8E1,3.07E2,9.2E1,3E2,9E0,2E1],"tree_param":{"num_deleted":"0","num_feature":"72","num_nodes":"103","size_leaf_vector":"1"}},{"base_weights":[-5.4516427E-2,-4.591924E0,8.828674E0,-6.7331686E0,-9.945096E-1,5.767297E0,1.4005421E1,-7.493819E0,-4.795222E0,-2.4229875E0,1.6774787E0,4.8502684E0,1.095242E1,1.288601E1,4.386759E1,-3.7509125E-1,-3.0911887E-1,-5.1927724E0,-3.571722E0,-3.4986737E0,-1.5087721E0,-1.2297382E0,2.6843514E0,7.3197045E0,2.6352897E0,9.899365E0,2.5586926E1,1.0892493E1,1.7197187E1,3.356591E1,6.621849E1,-5.634341E0,-4.6643806E0,-4.025229E0,-1.3866129E0,-3.8732462E0,-2.5929005E0,-1.748806E0,1.1830614E0,-2.3255363E0,-2.639894E-1,1.8086195E0,5.3555765E0,6.2801933E0,1.2498562E1,8.7285346E-1,4.3670263E0,1.6472021E1,8.494109E0,1.9431795E1,1.7621844E0,9.045723E0,1.3987857E1,2.0559631E1,1.2487901E1,4.6361285E-1,3.6530903E1,7.457361E1,1.5746293E0,-2.834477E-1,-5.112889E-2,-2.4727182E-1,-1.999173E-1,-2.050689E-1,3.400901E-2,-2.390071E-1,-1.7796539E-2,-2.0073588E-1,-1.09914854E-1,-7.600009E-2,-1.590647E-1,-9.780797E-2,6.507082E-2,2.1937842E-2,3.5194004E-1,-3.841756E-2,-1.7144753E-1,-2.6841907E-2,1.1989087E-1,7.1521334E-2,3.123723E-1,1.2721722E-1,3.6062238E-1,2.8568554E-1,5.8538026E-1,5.270533E-1,8.3661884E-1,2.7203264E-3,1.6853407E-1,1.36051E-1,3.1401366E-1,3.8710532E-1,9.3670434E-1,2.9498106E-1,5.2026397E-1,1.2081016E0,4.688932E-1,2.8166423E-2,4.695029E-1,2.0607923E-1,7.2931856E-1,8.3785117E-1,1.2230738E0,7.463182E-1,5.1778764E-1,1.9637059E0,5.8402395E-1,2.7935014E0,4.9767585E0],"categories":[],"categories_nodes":[],"categories_segments":[],"categories_sizes":[],"default_left":[0,0,0,0,0,0,0,0,0,0,0,0,0,0,0,0,0,0,0,0,0,0,0,0,0,0,0,0,0,0,0,0,0,0,0,0,0,0,0,0,0,0,0,0,0,0,0,0,0,0,0,0,0,0,0,0,0,0,0,0,0,0,0,0,0,0,0,0,0,0,0,0,0,0,0,0,0,0,0,0,0,0,0,0,0,0,0,0,0,0,0,0,0,0,0,0,0,0,0,0,0,0,0,0,0,0,0,0,0],"id":13,"left_children":[1,3,5,7,9,11,13,15,17,19,21,23,25,27,29,-1,-1,31,33,35,37,39,41,43,45,47,49,51,53,55,57,59,61,63,65,67,69,71,73,75,77,79,81,83,85,87,89,91,93,95,-1,97,99,101,103,-1,105,107,-1,-1,-1,-1,-1,-1,-1,-1,-1,-1,-1,-1,-1,-1,-1,-1,-1,-1,-1,-1,-1,-1,-1,-1,-1,-1,-1,-1,-1,-1,-1,-1,-1,-1,-1,-1,-1,-1,-1,-1,-1,-1,-1,-1,-1,-1,-1,-1,-1,-1,-1],"loss_changes":[6.521212E5,8.248334E4,8.660569E4,9.858469E3,1.5260193E4,1.6297422E4,6.735478E4,2.8125E0,9.023086E2,2.556001E3,4.081033E3,1.5973258E4,7.695199E3,1.6654875E4,1.4575719E4,0E0,0E0,3.058672E2,4.5764795E2,3.9508594E2,9.1317065E2,3.790445E2,2.4107495E3,7.3595938E3,4.7050166E3,4.318703E3,1.3305996E3,7.548328E3,9.525797E3,3.4022852E3,4.0239297E3,1.1692578E2,1.0213086E2,1.4179785E2,2.8459222E2,1.9054492E2,2.1753833E2,8.2166504E2,5.0174454E2,2.8560663E2,1.405451E2,1.3013855E3,1.3117969E3,3.4763047E3,1.7270586E3,1.5654382E3,2.4320996E3,1.5111133E3,1.9203867E3,8.638799E2,0E0,2.4588594E3,2.8905703E3,4.9125312E3,1.1946797E3,0E0,2.6719844E3,2.3602266E3,0E0,0E0,0E0,0E0,0E0,0E0,0E0,0E0,0E0,0E0,0E0,0E0,0E0,0E0,0E0,0E0,0E0,0E0,0E0,0E0,0E0,0E0,0E0,0E0,0E0,0E0,0E0,0E0,0E0,0E0,0E0,0E0,0E0,0E0,0E0,0E0,0E0,0E0,0E0,0E0,0E0,0E0,0E0,0E0,0E0,0E0,0E0,0E0,0E0,0E0,0E0],"parents":[2147483647,0,0,1,1,2,2,3,3,4,4,5,5,6,6,7,7,8,8,9,9,10,10,11,11,12,12,13,13,14,14,17,17,18,18,19,19,20,20,21,21,22,22,23,23,24,24,25,25,26,26,27,27,28,28,29,29,30,30,31,31,32,32,33,33,34,34,35,35,36,36,37,37,38,38,39,39,40,40,41,41,42,42,43,43,44,44,45,45,46,46,47,47,48,48,49,49,51,51,52,52,53,53,54,54,56,56,57,57],"right_children":[2,4,6,8,10,12,14,16,18,20,22,24,26,28,30,-1,-1,32,34,36,38,40,42,44,46,48,50,52,54,56,58,60,62,64,66,68,70,72,74,76,78,80,82,84,86,88,90,92,94,96,-1,98,100,102,104,-1,106,108,-1,-1,-1,-1,-1,-1,-1,-1,-1,-1,-1,-1,-1,-1,-1,-1,-1,-1,-1,-1,-1,-1,-1,-1,-1,-1,-1,-1,-1,-1,-1,-1,-1,-1,-1,-1,-1,-1,-1,-1,-1,-1,-1,-1,-1,-1,-1,-1,-1,-1,-1],"split_conditions":[1.8E1,7E0,4.7E1,2E0,1.5E1,4E1,1E0,2E0,1.4E1,1.8E1,1.1E1,6.234898E-1,1E0,4.3E1,2E0,-3.7509125E-1,-3.0911887E-1,8E0,1E0,1E1,1E0,1.6E1,2.6E1,2.8E1,3.2E1,6.234898E-1,6.1E1,4.1E1,6.234898E-1,3.2E1,3.557E3,1E0,4E0,2.3E1,1E0,1E0,6.234898E-1,1.8E1,1E0,2.4375E1,1E0,1E0,1.6E1,1E0,4E0,1E0,1E0,2.8E1,1E0,5.5684525E1,1.7621844E0,3E0,3E0,4.8E1,1.4E1,4.6361285E-1,5.9559525E1,2.513E3,1.5746293E0,-2.834477E-1,-5.112889E-2,-2.4727182E-1,-1.999173E-1,-2.050689E-1,3.400901E-2,-2.390071E-1,-1.7796539E-2,-2.0073588E-1,-1.09914854E-1,-7.600009E-2,-1.590647E-1,-9.780797E-2,6.507082E-2,2.1937842E-2,3.5194004E-1,-3.841756E-2,-1.7144753E-1,-2.6841907E-2,1.1989087E-1,7.1521334E-2,3.123723E-1,1.2721722E-1,3.6062238E-1,2.8568554E-1,5.8538026E-1,5.270533E-1,8.3661884E-1,2.7203264E-3,1.6853407E-1,1.36051E-1,3.1401366E-1,3.8710532E-1,9.3670434E-1,2.9498106E-1,5.2026397E-1,1.2081016E0,4.688932E-1,2.8166423E-2,4.695029E-1,2.0607923E-1,7.2931856E-1,8.3785117E-1,1.2230738E0,7.463182E-1,5.1778764E-1,1.9637059E0,5.8402395E-1,2.7935014E0,4.9767585E0],"split_indices":[4,7,2,6,7,4,48,7,0,2,5,26,48,4,50,0,0,3,27,4,50,19,6,5,5,26,5,7,26,6,69,48,14,5,14,50,26,13,27,9,49,50,19,50,14,31,14,7,14,9,0,19,19,1,13,0,9,69,0,0,0,0,0,0,0,0,0,0,0,0,0,0,0,0,0,0,0,0,0,0,0,0,0,0,0,0,0,0,0,0,0,0,0,0,0,0,0,0,0,0,0,0,0,0,0,0,0,0,0],"split_type":[0,0,0,0,0,0,0,0,0,0,0,0,0,0,0,0,0,0,0,0,0,0,0,0,0,0,0,0,0,0,0,0,0,0,0,0,0,0,0,0,0,0,0,0,0,0,0,0,0,0,0,0,0,0,0,0,0,0,0,0,0,0,0,0,0,0,0,0,0,0,0,0,0,0,0,0,0,0,0,0,0,0,0,0,0,0,0,0,0,0,0,0,0,0,0,0,0,0,0,0,0,0,0,0,0,0,0,0,0],"sum_hessian":[1.6177E4,1.0708E4,5.469E3,6.712E3,3.996E3,3.438E3,2.031E3,4.818E3,1.894E3,2.604E3,1.392E3,2.923E3,5.15E2,1.959E3,7.2E1,4.784E3,3.4E1,1.427E3,4.67E2,1.195E3,1.409E3,3.58E2,1.034E3,1.381E3,1.542E3,4.82E2,3.3E1,1.342E3,6.17E2,5.1E1,2.1E1,7.72E2,6.55E2,3.86E2,8.1E1,8.43E2,3.52E2,1.294E3,1.15E2,1.67E2,1.91E2,7.8E2,2.54E2,1.152E3,2.29E2,7.65E2,7.77E2,8.3E1,3.99E2,2.2E1,1.1E1,8.43E2,4.99E2,3.58E2,2.59E2,6E0,4.5E1,1.6E1,5E0,7.66E2,6E0,4.56E2,1.99E2,3.8E2,6E0,1.8E1,6.3E1,7.76E2,6.7E1,1.26E2,2.26E2,1.212E3,8.2E1,1.03E2,1.2E1,7E1,9.7E1,1.74E2,1.7E1,7.2E2,6E1,1.02E2,1.52E2,1.045E3,1.07E2,1.59E2,7E1,5.77E2,1.88E2,4.19E2,3.58E2,1.8E1,6.5E1,1.71E2,2.28E2,1.4E1,8E0,3.3E1,8.1E2,2.9E1,4.7E2,1.84E2,1.74E2,1.18E2,1.41E2,4E1,5E0,1.1E1,5E0],"tree_param":{"num_deleted":"0","num_feature":"72","num_nodes":"109","size_leaf_vector":"1"}},{"base_weights":[3.562962E-2,-4.4981217E0,8.2370405E0,-6.5671735E0,-1.3944341E0,5.8073583E0,1.4172113E1,-7.080956E0,-4.5836973E0,-2.6846187E0,8.363559E-1,3.8476913E0,8.580086E0,1.3010626E1,4.6507782E1,-3.5635456E-1,-2.9599607E-1,-4.94107E0,-3.5455022E0,-3.674328E0,-1.7597303E0,-1.6817835E-1,3.3540232E0,2.7483494E0,6.7109246E0,7.853488E0,1.5590406E1,1.091627E1,1.698145E1,4.1859894E1,3.9898071E0,-4.293955E0,-5.481628E0,-3.7127752E0,1.271936E0,-3.9907584E0,-2.6228006E0,-1.9907421E0,8.162216E-1,-7.419656E-1,3.2859433E0,2.8011281E0,8.796623E0,1.7160027E0,4.503404E0,5.51642E0,1.2538608E1,6.908713E0,1.3016332E1,1.3644681E1,2.5962418E1,6.130604E0,1.2258888E1,2.010359E1,1.2480305E1,4.54245E1,8.059215E-1,-2.2640507E-1,-1.3457887E-1,-1.9696477E-1,-2.792195E-1,-1.9239117E-1,-5.9506662E-2,-3.3626895E-2,1.672583E-1,-2.0145853E-1,5.9574302E-2,-1.4578508E-1,-5.3044338E-2,-1.1164311E-1,-5.307657E-3,-6.0049244E-3,2.6139656E-1,-1.0218599E-1,1.7901873E-2,2.147764E-1,-2.1338223E-1,1.2303696E-1,4.1346055E-1,2.4951278E-1,8.155298E-1,1.0074681E-1,-2.440873E-1,2.6807538E-1,1.3479055E-1,2.4652214E-1,4.7939092E-1,5.057586E-1,8.526444E-1,2.594714E-1,4.3543178E-1,9.797959E-1,5.535493E-1,5.060751E-1,7.991569E-1,9.262824E-1,1.5411164E0,3.6076447E-1,-2.614873E-2,1.8222852E-1,6.5656596E-1,7.809082E-1,1.1864603E0,3.7416083E-1,7.16941E-1,2.5438116E0,1.4661118E0],"categories":[],"categories_nodes":[],"categories_segments":[],"categories_sizes":[],"default_left":[0,0,0,0,0,0,0,0,0,0,0,0,0,0,0,0,0,0,0,0,0,0,0,0,0,0,0,0,0,0,0,0,0,0,0,0,0,0,0,0,0,0,0,0,0,0,0,0,0,0,0,0,0,0,0,0,0,0,0,0,0,0,0,0,0,0,0,0,0,0,0,0,0,0,0,0,0,0,0,0,0,0,0,0,0,0,0,0,0,0,0,0,0,0,0,0,0,0,0,0,0,0,0,0,0,0,0],"id":14,"left_children":[1,3,5,7,9,11,13,15,17,19,21,23,25,27,29,-1,-1,31,33,35,37,39,41,43,45,47,49,51,53,55,-1,57,59,61,63,65,67,69,71,73,75,77,79,81,83,85,87,89,91,93,95,97,99,101,103,105,-1,-1,-1,-1,-1,-1,-1,-1,-1,-1,-1,-1,-1,-1,-1,-1,-1,-1,-1,-1,-1,-1,-1,-1,-1,-1,-1,-1,-1,-1,-1,-1,-1,-1,-1,-1,-1,-1,-1,-1,-1,-1,-1,-1,-1,-1,-1,-1,-1,-1,-1],"loss_changes":[6.057882E5,6.736644E4,8.355375E4,6.3814375E3,1.2084825E4,2.2335969E4,6.263575E4,2.2420312E2,4.632207E2,2.427875E3,3.893141E3,7.57909E3,8.554852E3,1.3342469E4,5.621367E3,0E0,0E0,3.123457E2,2.757251E2,4.1610547E2,8.2116064E2,2.1842896E3,1.2952334E3,3.1550967E3,4.5860664E3,7.4490547E3,2.850582E3,6.785258E3,7.6156406E3,4.1248594E3,0E0,1.532998E2,5.9624023E1,1.0563721E2,5.089312E1,2.0116016E2,1.337544E2,5.762886E2,4.7204666E2,1.3540776E3,1.2156141E3,7.230886E2,1.0605137E3,2.1810388E3,9.867529E2,1.2801348E3,1.0610176E3,4.0042227E3,2.8262852E3,9.5609375E2,2.9146973E2,1.7076631E3,6.2108047E3,4.975797E3,2.0451406E3,2.5382969E3,0E0,0E0,0E0,0E0,0E0,0E0,0E0,0E0,0E0,0E0,0E0,0E0,0E0,0E0,0E0,0E0,0E0,0E0,0E0,0E0,0E0,0E0,0E0,0E0,0E0,0E0,0E0,0E0,0E0,0E0,0E0,0E0,0E0,0E0,0E0,0E0,0E0,0E0,0E0,0E0,0E0,0E0,0E0,0E0,0E0,0E0,0E0,0E0,0E0,0E0,0E0],"parents":[2147483647,0,0,1,1,2,2,3,3,4,4,5,5,6,6,7,7,8,8,9,9,10,10,11,11,12,12,13,13,14,14,17,17,18,18,19,19,20,20,21,21,22,22,23,23,24,24,25,25,26,26,27,27,28,28,29,29,31,31,32,32,33,33,34,34,35,35,36,36,37,37,38,38,39,39,40,40,41,41,42,42,43,43,44,44,45,45,46,46,47,47,48,48,49,49,50,50,51,51,52,52,53,53,54,54,55,55],"right_children":[2,4,6,8,10,12,14,16,18,20,22,24,26,28,30,-1,-1,32,34,36,38,40,42,44,46,48,50,52,54,56,-1,58,60,62,64,66,68,70,72,74,76,78,80,82,84,86,88,90,92,94,96,98,100,102,104,106,-1,-1,-1,-1,-1,-1,-1,-1,-1,-1,-1,-1,-1,-1,-1,-1,-1,-1,-1,-1,-1,-1,-1,-1,-1,-1,-1,-1,-1,-1,-1,-1,-1,-1,-1,-1,-1,-1,-1,-1,-1,-1,-1,-1,-1,-1,-1,-1,-1,-1,-1],"split_conditions":[1.7E1,6E0,3.7E1,3E0,1.3E1,2.7E1,1E0,1E0,1.3E1,9E0,1.9E1,2.9E1,1E0,5.9E1,1.51E2,-3.5635456E-1,-2.9599607E-1,6.234898E-1,1E0,1E1,1E0,1E0,1E0,2.1E1,1E0,4.5E1,1E0,2.8E1,6.234898E-1,2.618E3,3.9898071E0,6E0,-8.660254E-1,2.9E1,9E0,1E0,4.6E1,1.8E1,1.6E1,1.2E1,2.8017857E1,1.2E1,1.7291666E1,5.5684525E1,6.234898E-1,1E0,1E0,4.1E1,6.234898E-1,3E0,2.01E3,4.282738E1,9E0,5.1E1,4.2291668E1,4.3388373E-1,8.059215E-1,-2.2640507E-1,-1.3457887E-1,-1.9696477E-1,-2.792195E-1,-1.9239117E-1,-5.9506662E-2,-3.3626895E-2,1.672583E-1,-2.0145853E-1,5.9574302E-2,-1.4578508E-1,-5.3044338E-2,-1.1164311E-1,-5.307657E-3,-6.0049244E-3,2.6139656E-1,-1.0218599E-1,1.7901873E-2,2.147764E-1,-2.1338223E-1,1.2303696E-1,4.1346055E-1,2.4951278E-1,8.155298E-1,1.0074681E-1,-2.440873E-1,2.6807538E-1,1.3479055E-1,2.4652214E-1,4.7939092E-1,5.057586E-1,8.526444E-1,2.594714E-1,4.3543178E-1,9.797959E-1,5.535493E-1,5.060751E-1,7.991569E-1,9.262824E-1,1.5411164E0,3.6076447E-1,-2.614873E-2,1.8222852E-1,6.5656596E-1,7.809082E-1,1.1864603E0,3.7416083E-1,7.16941E-1,2.5438116E0,1.4661118E0],"split_indices":[6,6,6,4,4,7,48,4,0,7,7,4,50,0,4,0,0,26,48,6,50,27,50,7,27,4,27,7,26,71,0,5,24,0,2,48,19,36,7,6,12,15,11,9,26,50,50,2,26,14,70,9,19,6,8,25,0,0,0,0,0,0,0,0,0,0,0,0,0,0,0,0,0,0,0,0,0,0,0,0,0,0,0,0,0,0,0,0,0,0,0,0,0,0,0,0,0,0,0,0,0,0,0,0,0,0,0],"split_type":[0,0,0,0,0,0,0,0,0,0,0,0,0,0,0,0,0,0,0,0,0,0,0,0,0,0,0,0,0,0,0,0,0,0,0,0,0,0,0,0,0,0,0,0,0,0,0,0,0,0,0,0,0,0,0,0,0,0,0,0,0,0,0,0,0,0,0,0,0,0,0,0,0,0,0,0,0,0,0,0,0,0,0,0,0,0,0,0,0,0,0,0,0,0,0,0,0,0,0,0,0,0,0,0,0,0,0],"sum_hessian":[1.629E4,1.0491E4,5.799E3,6.294E3,4.197E3,4.116E3,1.683E3,4.997E3,1.297E3,2.659E3,1.538E3,2.413E3,1.703E3,1.626E3,5.7E1,4.801E3,1.96E2,9.62E2,3.35E2,1.283E3,1.376E3,1.1E3,4.38E2,1.745E3,6.68E2,1.545E3,1.58E2,1.067E3,5.59E2,5.2E1,5E0,4.42E2,5.2E2,3.24E2,1.1E1,9.84E2,2.99E2,1.263E3,1.13E2,9.44E2,1.56E2,3.99E2,3.9E1,1.1E3,6.45E2,5.56E2,1.12E2,1.308E3,2.37E2,1.35E2,2.3E1,2.35E2,8.32E2,3.28E2,2.31E2,4.5E1,7E0,3.84E2,5.8E1,3.5E1,4.85E2,3.07E2,1.7E1,6E0,5E0,9.77E2,7E0,2.51E2,4.8E1,1.119E3,1.44E2,9.4E1,1.9E1,4.32E2,5.12E2,1.38E2,1.8E1,3.77E2,2.2E1,2.7E1,1.2E1,1.053E3,4.7E1,4.36E2,2.09E2,4.88E2,6.8E1,7.5E1,3.7E1,6.71E2,6.37E2,5.2E1,1.85E2,5.6E1,7.9E1,1.1E1,1.2E1,2.02E2,3.3E1,7.7E1,7.55E2,1.49E2,1.79E2,6.4E1,1.67E2,3.2E1,1.3E1],"tree_param":{"num_deleted":"0","num_feature":"72","num_nodes":"107","size_leaf_vector":"1"}},{"base_weights":[3.4543484E-2,-4.1289544E0,8.196165E0,-6.0738254E0,-8.817905E-1,5.8596153E0,1.38353615E1,-6.7247324E0,-4.2212343E0,-2.320384E0,9.2412984E-1,3.4560385E0,8.098711E0,1.011418E1,1.962011E1,-3.385402E-1,-5.589967E0,-4.67673E0,-3.4491982E0,-2.4256814E0,6.096207E0,2.6761264E-1,4.153325E0,1.325712E0,4.431398E0,6.2118335E0,1.0536891E1,9.619098E0,3.933543E1,1.6805513E1,3.3968853E1,-2.8504997E-1,-4.226919E0,-4.895431E0,-3.8001306E0,-3.6703327E0,-2.1864107E0,-1.4500153E0,-3.125598E0,8.194457E0,-8.061256E-3,-5.7318765E-1,2.4484143E0,2.3764727E0,6.864985E0,9.0479636E-1,5.4850817E0,3.9906983E0,9.294547E0,2.1036994E0,7.0459356E0,7.9030523E0,1.43361225E1,8.101865E0,1.4297303E1,3.1526709E0,2.2813305E1,1.3392249E1,1.9768316E1,2.6376379E1,4.715294E1,-1.2482645E-1,-2.412914E-1,-2.6722738E-1,-2.2320192E-1,-2.2595513E-1,-1.6367362E-1,-2.721993E-1,-1.7590342E-1,-1.1996794E-1,7.665016E-2,-1.0194924E-1,5.6577515E-2,-1.8018149E-1,-6.820233E-2,2.4806774E-1,6.968806E-1,-4.9150206E-2,1.3772516E-1,3.729139E-2,2.0255546E-1,2.3262393E-2,2.0612705E-1,2.0845535E-1,5.52521E-1,-7.0113E-2,7.8972526E-2,2.0484228E-1,5.979973E-1,1.6830304E-1,3.1620753E-1,7.300032E-1,3.5527283E-1,-4.7372002E-2,1.8672219E-1,4.3879467E-1,2.2742534E-1,1.8290834E-1,4.51776E-1,6.7576516E-1,1.1575189E0,2.963402E-1,4.6739236E-1,1.3831196E0,6.629927E-1,1.5126604E0,5.777258E-1,7.1917135E-1,2.1860309E-1,7.2209805E-1,1.0876518E0,1.0673248E0,1.99543E0,1.8439652E0,3.0327919E0],"categories":[],"categories_nodes":[],"categories_segments":[],"categories_sizes":[],"default_left":[0,0,0,0,0,0,0,0,0,0,0,0,0,0,0,0,0,0,0,0,0,0,0,0,0,0,0,0,0,0,0,0,0,0,0,0,0,0,0,0,0,0,0,0,0,0,0,0,0,0,0,0,0,0,0,0,0,0,0,0,0,0,0,0,0,0,0,0,0,0,0,0,0,0,0,0,0,0,0,0,0,0,0,0,0,0,0,0,0,0,0,0,0,0,0,0,0,0,0,0,0,0,0,0,0,0,0,0,0,0,0,0,0,0,0],"id":15,"left_children":[1,3,5,7,9,11,13,15,17,19,21,23,25,27,29,-1,31,33,35,37,39,41,43,45,47,49,51,53,55,57,59,-1,61,63,65,67,69,71,73,75,-1,77,79,81,83,85,87,89,91,93,95,97,99,101,103,-1,105,107,109,111,113,-1,-1,-1,-1,-1,-1,-1,-1,-1,-1,-1,-1,-1,-1,-1,-1,-1,-1,-1,-1,-1,-1,-1,-1,-1,-1,-1,-1,-1,-1,-1,-1,-1,-1,-1,-1,-1,-1,-1,-1,-1,-1,-1,-1,-1,-1,-1,-1,-1,-1,-1,-1,-1,-1],"loss_changes":[5.520539E5,6.793409E4,7.222828E4,8.083578E3,1.0474763E4,2.0863156E4,3.439103E4,2.2110938E2,5.991621E2,2.0031533E3,3.7890464E3,3.8874102E3,9.175375E3,1.3794305E4,2.4786422E4,0E0,5.1782227E0,1.912207E2,1.740166E2,1.5089658E3,3.69755E2,2.7281821E3,1.4378638E3,1.0273368E3,2.7155762E3,3.873457E3,8.640227E3,6.7314375E3,4.8229004E3,5.0613906E3,8.959102E3,0E0,6.910492E0,1.4488086E2,6.9245605E1,1.2983691E2,8.2969086E1,1.4133876E3,1.0808682E3,3.1889294E2,0E0,1.4671897E3,1.1261917E3,6.116549E2,1.2951343E3,8.380543E2,4.3478296E2,1.697666E3,1.1252002E3,9.641131E2,4.0329336E3,2.4606113E3,2.2663125E3,1.9241406E3,2.8875195E3,0E0,5.6766504E2,2.1525117E3,2.6422031E3,3.7023555E3,2.7473594E3,0E0,0E0,0E0,0E0,0E0,0E0,0E0,0E0,0E0,0E0,0E0,0E0,0E0,0E0,0E0,0E0,0E0,0E0,0E0,0E0,0E0,0E0,0E0,0E0,0E0,0E0,0E0,0E0,0E0,0E0,0E0,0E0,0E0,0E0,0E0,0E0,0E0,0E0,0E0,0E0,0E0,0E0,0E0,0E0,0E0,0E0,0E0,0E0,0E0,0E0,0E0,0E0,0E0,0E0],"parents":[2147483647,0,0,1,1,2,2,3,3,4,4,5,5,6,6,7,7,8,8,9,9,10,10,11,11,12,12,13,13,14,14,16,16,17,17,18,18,19,19,20,20,21,21,22,22,23,23,24,24,25,25,26,26,27,27,28,28,29,29,30,30,32,32,33,33,34,34,35,35,36,36,37,37,38,38,39,39,41,41,42,42,43,43,44,44,45,45,46,46,47,47,48,48,49,49,50,50,51,51,52,52,53,53,54,54,56,56,57,57,58,58,59,59,60,60],"right_children":[2,4,6,8,10,12,14,16,18,20,22,24,26,28,30,-1,32,34,36,38,40,42,44,46,48,50,52,54,56,58,60,-1,62,64,66,68,70,72,74,76,-1,78,80,82,84,86,88,90,92,94,96,98,100,102,104,-1,106,108,110,112,114,-1,-1,-1,-1,-1,-1,-1,-1,-1,-1,-1,-1,-1,-1,-1,-1,-1,-1,-1,-1,-1,-1,-1,-1,-1,-1,-1,-1,-1,-1,-1,-1,-1,-1,-1,-1,-1,-1,-1,-1,-1,-1,-1,-1,-1,-1,-1,-1,-1,-1,-1,-1,-1,-1],"split_conditions":[1.8E1,7E0,5.2E1,3E0,1.2E1,2.7E1,1E0,1E0,1.2E1,3E1,1E0,2.9E1,1E0,1.51E2,1E0,-3.385402E-1,1E0,1E0,1.4125E1,6.234898E-1,2.846E3,1.8E1,2E0,1E0,1E0,1.9E1,2.7E1,7.7E1,1.32E1,6.1E1,5.6E1,-2.8504997E-1,5E0,1E1,6E0,3E0,3.1E1,2.4E1,1.9E1,5.9E1,-8.061256E-3,1E0,1.1833333E1,2.75E1,9.875E0,1.4E1,4.5E1,2.9E1,7.7E0,1.6E1,6.234898E-1,1.9E1,1E0,2.8E1,9.089E4,3.1526709E0,2.7494047E1,2.902E3,2.9E1,3.7E1,1.2714E3,-1.2482645E-1,-2.412914E-1,-2.6722738E-1,-2.2320192E-1,-2.2595513E-1,-1.6367362E-1,-2.721993E-1,-1.7590342E-1,-1.1996794E-1,7.665016E-2,-1.0194924E-1,5.6577515E-2,-1.8018149E-1,-6.820233E-2,2.4806774E-1,6.968806E-1,-4.9150206E-2,1.3772516E-1,3.729139E-2,2.0255546E-1,2.3262393E-2,2.0612705E-1,2.0845535E-1,5.52521E-1,-7.0113E-2,7.8972526E-2,2.0484228E-1,5.979973E-1,1.6830304E-1,3.1620753E-1,7.300032E-1,3.5527283E-1,-4.7372002E-2,1.8672219E-1,4.3879467E-1,2.2742534E-1,1.8290834E-1,4.51776E-1,6.7576516E-1,1.1575189E0,2.963402E-1,4.6739236E-1,1.3831196E0,6.629927E-1,1.5126604E0,5.777258E-1,7.1917135E-1,2.1860309E-1,7.2209805E-1,1.0876518E0,1.0673248E0,1.99543E0,1.8439652E0,3.0327919E0],"split_indices":[6,4,0,6,6,6,18,4,2,4,31,3,18,0,50,0,50,18,11,26,69,13,14,50,50,5,5,0,38,0,4,0,5,13,1,19,38,0,5,0,0,50,11,9,11,4,0,4,36,19,26,4,50,6,40,0,12,69,5,5,71,0,0,0,0,0,0,0,0,0,0,0,0,0,0,0,0,0,0,0,0,0,0,0,0,0,0,0,0,0,0,0,0,0,0,0,0,0,0,0,0,0,0,0,0,0,0,0,0,0,0,0,0,0,0],"split_type":[0,0,0,0,0,0,0,0,0,0,0,0,0,0,0,0,0,0,0,0,0,0,0,0,0,0,0,0,0,0,0,0,0,0,0,0,0,0,0,0,0,0,0,0,0,0,0,0,0,0,0,0,0,0,0,0,0,0,0,0,0,0,0,0,0,0,0,0,0,0,0,0,0,0,0,0,0,0,0,0,0,0,0,0,0,0,0,0,0,0,0,0,0,0,0,0,0,0,0,0,0,0,0,0,0,0,0,0,0,0,0,0,0,0,0],"sum_hessian":[1.6244E4,1.0757E4,5.487E3,6.727E3,4.03E3,3.881E3,1.606E3,4.976E3,1.751E3,2.243E3,1.787E3,1.873E3,2.008E3,9.79E2,6.27E2,4.777E3,1.99E2,1.098E3,6.53E2,2.216E3,2.7E1,1.486E3,3.01E2,5.89E2,1.284E3,1.134E3,8.74E2,9.64E2,1.5E1,5.26E2,1.01E2,1.81E2,1.8E1,8.75E2,2.23E2,5.54E2,9.9E1,9.27E2,1.289E3,2E1,7E0,1.073E3,4.13E2,1.83E2,1.18E2,5.36E2,5.3E1,1.179E3,1.05E2,1.92E2,9.42E2,5.18E2,3.56E2,7.3E2,2.34E2,5E0,1E1,2.47E2,2.79E2,6.6E1,3.5E1,6E0,1.2E1,4.23E2,4.52E2,9.1E1,1.32E2,4.1E1,5.13E2,9.4E1,5E0,7.55E2,1.72E2,1.013E3,2.76E2,1.4E1,6E0,9.56E2,1.17E2,2.01E2,2.12E2,8.8E1,9.5E1,7.3E1,4.5E1,1.21E2,4.15E2,4.5E1,8E0,9.32E2,2.47E2,2.9E1,7.6E1,6.7E1,1.25E2,5.55E2,3.87E2,1.1E2,4.08E2,3.28E2,2.8E1,2.68E2,4.62E2,1.5E1,2.19E2,5E0,5E0,2.22E2,2.5E1,7.8E1,2.01E2,5E1,1.6E1,2.2E1,1.3E1],"tree_param":{"num_deleted":"0","num_feature":"72","num_nodes":"115","size_leaf_vector":"1"}},{"base_weights":[-2.3957906E-2,-3.9276814E0,7.799373E0,-5.7689147E0,-8.3594596E-1,7.25946E0,2.9638315E1,-6.3884773E0,-4.0271635E0,-1.6677277E0,1.9883912E0,5.4655447E0,1.2715353E1,1.9368225E1,4.166727E1,-3.2161713E-1,-5.2909837E0,-4.4483514E0,-3.2983868E0,-2.8560474E0,-6.037256E-1,4.432709E0,1.0289247E0,3.9887705E0,8.212783E0,1.6818827E1,1.0458816E1,1.736836E1,1.6591797E0,3.7502647E1,3.6093826E0,-5.364546E0,-1.569505E-1,-4.6464305E0,-3.6804059E0,-3.4687169E0,-1.4066529E0,-1.834001E0,-3.4903097E0,-1.1953514E0,6.5443325E-1,1.9187809E0,6.4578624E0,1.84239E-1,4.1480527E0,1.9125857E0,5.1047573E0,6.792151E0,1.0496914E1,1.0103987E1,1.968578E1,6.4878483E0,1.2787111E1,1.8665135E-1,1.8440754E1,2.9258564E0,3.4162045E1,-2.72938E-1,-1.82709E-1,-2.3889294E-1,-1.8843357E-1,-2.0680793E-1,-1.4104688E-1,-2.632731E-1,-1.6621898E-1,-1.3485214E-1,4.3383274E-2,-1.1358712E-1,-2.0782989E-2,-1.7740951E-1,5.6181606E-2,-7.108605E-2,4.8216946E-2,1.8328251E-2,1.7952812E-1,2.7631927E-1,7.456639E-2,2.5352463E-1,4.6821734E-1,-2.774102E-2,1.388296E-1,1.7013177E-1,4.120395E-1,-3.3034217E-2,1.2565584E-1,3.462772E-1,1.8659246E-1,-3.5104533E-3,3.6085066E-1,4.4539133E-1,6.963577E-1,2.2205709E-1,5.86991E-1,6.9116306E-1,1.2087896E0,1.7196082E-1,4.1039363E-1,3.769594E-1,7.093767E-1,1.6425654E0,8.114686E-1,8.1739473E-1,1.9154017E0],"categories":[],"categories_nodes":[],"categories_segments":[],"categories_sizes":[],"default_left":[0,0,0,0,0,0,0,0,0,0,0,0,0,0,0,0,0,0,0,0,0,0,0,0,0,0,0,0,0,0,0,0,0,0,0,0,0,0,0,0,0,0,0,0,0,0,0,0,0,0,0,0,0,0,0,0,0,0,0,0,0,0,0,0,0,0,0,0,0,0,0,0,0,0,0,0,0,0,0,0,0,0,0,0,0,0,0,0,0,0,0,0,0,0,0,0,0,0,0,0,0,0,0],"id":16,"left_children":[1,3,5,7,9,11,13,15,17,19,21,23,25,27,29,-1,31,33,35,37,39,41,43,45,47,49,51,53,-1,55,-1,57,-1,59,61,63,65,67,69,71,73,75,77,79,81,83,85,87,89,91,93,95,97,-1,99,-1,101,-1,-1,-1,-1,-1,-1,-1,-1,-1,-1,-1,-1,-1,-1,-1,-1,-1,-1,-1,-1,-1,-1,-1,-1,-1,-1,-1,-1,-1,-1,-1,-1,-1,-1,-1,-1,-1,-1,-1,-1,-1,-1,-1,-1,-1,-1],"loss_changes":[4.956048E5,6.162267E4,6.3476844E4,7.295078E3,9.49888E3,5.1537688E4,1.5246875E4,2.0565625E2,5.3184766E2,3.9465713E3,2.1525144E3,1.6072508E4,1.18959375E4,1.4078809E3,4.781047E3,0E0,1.3654297E1,1.535E2,2.0633057E2,9.492295E2,1.2282849E3,1.3053638E3,1.7429626E3,5.9766523E3,4.427672E3,8.672891E3,7.7183906E3,8.794004E2,0E0,1.7825234E3,0E0,9.758301E0,0E0,8.4041016E1,8.007886E1,1.3775781E2,1.6686948E2,3.508186E2,2.4698535E2,5.4994946E2,4.4456335E2,1.7148013E2,5.277036E2,1.00186395E3,4.0095752E2,1.4003682E3,4.172707E3,2.5027656E3,2.7626602E3,1.2431299E3,8.1379453E3,1.6171357E3,3.7933438E3,0E0,1.3739707E3,0E0,2.9872812E3,0E0,0E0,0E0,0E0,0E0,0E0,0E0,0E0,0E0,0E0,0E0,0E0,0E0,0E0,0E0,0E0,0E0,0E0,0E0,0E0,0E0,0E0,0E0,0E0,0E0,0E0,0E0,0E0,0E0,0E0,0E0,0E0,0E0,0E0,0E0,0E0,0E0,0E0,0E0,0E0,0E0,0E0,0E0,0E0,0E0,0E0],"parents":[2147483647,0,0,1,1,2,2,3,3,4,4,5,5,6,6,7,7,8,8,9,9,10,10,11,11,12,12,13,13,14,14,16,16,17,17,18,18,19,19,20,20,21,21,22,22,23,23,24,24,25,25,26,26,27,27,29,29,31,31,33,33,34,34,35,35,36,36,37,37,38,38,39,39,40,40,41,41,42,42,43,43,44,44,45,45,46,46,47,47,48,48,49,49,50,50,51,51,52,52,54,54,56,56],"right_children":[2,4,6,8,10,12,14,16,18,20,22,24,26,28,30,-1,32,34,36,38,40,42,44,46,48,50,52,54,-1,56,-1,58,-1,60,62,64,66,68,70,72,74,76,78,80,82,84,86,88,90,92,94,96,98,-1,100,-1,102,-1,-1,-1,-1,-1,-1,-1,-1,-1,-1,-1,-1,-1,-1,-1,-1,-1,-1,-1,-1,-1,-1,-1,-1,-1,-1,-1,-1,-1,-1,-1,-1,-1,-1,-1,-1,-1,-1,-1,-1,-1,-1,-1,-1,-1,-1],"split_conditions":[1.8E1,7E0,1E0,3E0,1.8E1,5.5E1,3.6E1,1E0,1.2E1,1E1,6.234898E-1,3.1E1,1.4E1,8.5E1,1.57E2,-3.2161713E-1,1E0,1E0,1.9020536E1,6.234898E-1,2.8E1,3.3E1,5.7E1,2E1,4.9E1,1.3E1,1.8333334E1,1.6E1,1.6591797E0,3.5E1,3.6093826E0,1E0,-1.569505E-1,1.1E1,1.3244047E1,3E0,1.7E1,1.8E1,1.8E1,1.8E1,1E0,4E0,1E0,1E0,1E0,2E1,6.234898E-1,4E0,1E0,2.95E1,1E0,1.5E1,2.9E1,1.8665135E-1,2.1E1,2.9258564E0,5.4E1,-2.72938E-1,-1.82709E-1,-2.3889294E-1,-1.8843357E-1,-2.0680793E-1,-1.4104688E-1,-2.632731E-1,-1.6621898E-1,-1.3485214E-1,4.3383274E-2,-1.1358712E-1,-2.0782989E-2,-1.7740951E-1,5.6181606E-2,-7.108605E-2,4.8216946E-2,1.8328251E-2,1.7952812E-1,2.7631927E-1,7.456639E-2,2.5352463E-1,