{"learner":{"attributes":{"best_iteration":"114","best_score":"3.8429273922450435","scikit_learn":"{\"_estimator_type\": \"regressor\"}"},"feature_names":["orders_count_lag_24h","orders_count_lag_48h","orders_count_lag_168h","orders_count_lag_336h","food_tickets_count_lag_24h","food_tickets_count_lag_48h","food_tickets_count_lag_168h","food_tickets_count_lag_336h","orders_count_roll_mean_24","orders_count_roll_mean_168","orders_count_roll_std_24","food_tickets_count_roll_mean_24","food_tickets_count_roll_mean_168","hour","weekday","month","quarter","is_weekend","is_friday_saturday","week_of_year","bank_holiday_flag","school_holiday_flag","payday_period_flag","hour_sin","hour_cos","weekday_sin","weekday_cos","month_sin","month_cos","is_food_service","is_breakfast_window","is_lunch_window","is_dinner_window","is_after_food_close","hours_since_food_close","is_live_music_window","temp_c","rain_mm","wind_speed_kmh","weather_severity_flag","airport_arrivals","airport_arrivals_lag1","airport_arrivals_zscore","cruise_ship_flag","ships_in_port_count","cruise_passenger_estimate","major_sports_event_flag","city_event_flag","st_patricks_week_flag","special_event_flag","event_intensity","tourism_pressure","weekend_x_music","rain_x_weekend","aviva_event_flag","croke_park_event_flag","nearby_venue_event_flag","event_impact_score","bloomsday_flag","bloomsday_week_flag","summer_tourism_flag","christmas_market_flag","new_years_eve_flag","new_years_day_flag","college_term_flag","days_from_payday","failte_event_count","failte_free_event_count","failte_festival_count","suffolk_footfall_lag_24h","suffolk_footfall_lag_168h","suffolk_footfall_roll_24h","orders_count_same_slot_4w_avg","food_tickets_count_same_slot_4w_avg"],"feature_types":["float","float","float","float","float","float","float","float","float","float","float","float","float","int","int","int","int","int","int","int","int","float","float","float","float","float","float","float","float","int","int","int","int","int","int","int","float","float","float","float","float","float","float","float","float","float","float","float","float","i","float","float","int","float","float","float","float","float","float","float","float","float","float","float","float","float","int","int","int","float","float","float","float","float"],"gradient_booster":{"model":{"cats":{"enc":[],"feature_segments":[],"sorted_idx":[]},"gbtree_model_param":{"num_parallel_tree":"1","num_trees":"165"},"iteration_indptr":[0,1,2,3,4,5,6,7,8,9,10,11,12,13,14,15,16,17,18,19,20,21,22,23,24,25,26,27,28,29,30,31,32,33,34,35,36,37,38,39,40,41,42,43,44,45,46,47,48,49,50,51,52,53,54,55,56,57,58,59,60,61,62,63,64,65,66,67,68,69,70,71,72,73,74,75,76,77,78,79,80,81,82,83,84,85,86,87,88,89,90,91,92,93,94,95,96,97,98,99,100,101,102,103,104,105,106,107,108,109,110,111,112,113,114,115,116,117,118,119,120,121,122,123,124,125,126,127,128,129,130,131,132,133,134,135,136,137,138,139,140,141,142,143,144,145,146,147,148,149,150,151,152,153,154,155,156,157,158,159,160,161,162,163,164,165],"tree_info":[0,0,0,0,0,0,0,0,0,0,0,0,0,0,0,0,0,0,0,0,0,0,0,0,0,0,0,0,0,0,0,0,0,0,0,0,0,0,0,0,0,0,0,0,0,0,0,0,0,0,0,0,0,0,0,0,0,0,0,0,0,0,0,0,0,0,0,0,0,0,0,0,0,0,0,0,0,0,0,0,0,0,0,0,0,0,0,0,0,0,0,0,0,0,0,0,0,0,0,0,0,0,0,0,0,0,0,0,0,0,0,0,0,0,0,0,0,0,0,0,0,0,0,0,0,0,0,0,0,0,0,0,0,0,0,0,0,0,0,0,0,0,0,0,0,0,0,0,0,0,0,0,0,0,0,0,0,0,0,0,0,0,0,0,0],"trees":[{"base_weights":[-3.2836154E-2,-9.944179E0,1.5603613E1,-1.3994723E1,-4.617047E0,9.832705E0,2.5238821E1,-7.3039913E-1,-1.056463E1,-6.4042716E0,-7.51792E-1,9.042633E0,5.2073288E1,2.4050463E1,1.03286E2,-1.07372265E1,-1.908057E0,-6.6044707E0,7.188247E0,-1.1845528E0,2.0589823E1,5.31147E0,1.23897705E1,3.6059216E1,2.9911032E0,2.0523758E1,3.1347807E1,4.170449E0,6.356831E0,-1.0962389E1,-8.830217E0,-3.7215455E0,7.295372E-2,-7.9171057E0,-4.8108854E0,8.099944E-1,4.983209E0,-3.988468E0,-1.476289E-1,6.839227E-1,1.2240118E0,1.780988E0,6.6247115E0,1.0373693E1,1.5376435E1,1.9901527E0,1.2276927E0,1.837522E1,2.5654095E1,2.6485624E1,3.6322113E1,-5.7799536E-1,-5.2391475E-1,-3.092915E-1,-4.5350972E-1,-2.8310058E-1,-7.5617716E-2,-4.319387E-1,-3.2895923E-1,-3.126254E-1,-2.084171E-1,1.7763937E-1,4.1685137E-1,-2.4018984E-1,-1.3539869E-1,-2.447262E-2,2.3952888E-1,1.593202E-2,2.0509039E-1,2.716076E-1,4.6005487E-1,2.422776E-1,5.605525E-1,6.346403E-1,8.8096267E-1,7.114648E-1,1.043302E0,1.5194362E0,1.1476487E0,1.0295599E0,1.5337445E0,1.9554682E0,1.2511967E0],"categories":[],"categories_nodes":[],"categories_segments":[],"categories_sizes":[],"default_left":[0,0,0,0,0,0,0,0,0,0,0,0,0,0,0,0,0,0,0,0,0,0,0,0,0,0,0,0,0,0,0,0,0,0,0,0,0,0,0,0,0,0,0,0,0,0,0,0,0,0,0,0,0,0,0,0,0,0,0,0,0,0,0,0,0,0,0,0,0,0,0,0,0,0,0,0,0,0,0,0,0,0,0],"id":0,"left_children":[1,3,5,7,9,11,13,-1,15,17,19,21,23,25,27,29,31,33,35,37,39,41,43,45,-1,47,49,-1,-1,51,53,55,-1,57,59,-1,61,63,65,-1,-1,67,69,71,73,-1,-1,75,77,79,81,-1,-1,-1,-1,-1,-1,-1,-1,-1,-1,-1,-1,-1,-1,-1,-1,-1,-1,-1,-1,-1,-1,-1,-1,-1,-1,-1,-1,-1,-1,-1,-1],"loss_changes":[2.5111115E6,2.1392044E5,3.492745E5,1.1692375E4,2.9595594E4,1.3077928E5,2.1583188E5,0E0,1.2601797E3,8.0205547E3,1.2546213E4,4.8163812E4,6.767703E3,5.9058E4,5.9674062E3,2.6232812E2,1.15568825E2,6.759922E3,7.716079E2,3.8659014E3,3.8731055E2,8.462648E3,1.2091375E4,1.3617578E2,0E0,1.679675E4,1.7268E4,0E0,0E0,9.303125E1,2.0200195E0,4.2161926E1,0E0,1.5502344E3,1.1057656E3,0E0,1.4189679E2,3.6104443E2,1.6426456E3,0E0,0E0,1.6849918E3,4.0411172E3,5.5822188E3,4.696797E3,0E0,0E0,1.1141625E4,5.18E3,8.870156E3,1.0666531E4,0E0,0E0,0E0,0E0,0E0,0E0,0E0,0E0,0E0,0E0,0E0,0E0,0E0,0E0,0E0,0E0,0E0,0E0,0E0,0E0,0E0,0E0,0E0,0E0,0E0,0E0,0E0,0E0,0E0,0E0,0E0,0E0],"parents":[2147483647,0,0,1,1,2,2,3,3,4,4,5,5,6,6,8,8,9,9,10,10,11,11,12,12,13,13,14,14,15,15,16,16,17,17,18,18,19,19,20,20,21,21,22,22,23,23,25,25,26,26,29,29,30,30,31,31,33,33,34,34,36,36,37,37,38,38,41,41,42,42,43,43,44,44,47,47,48,48,49,49,50,50],"right_children":[2,4,6,8,10,12,14,-1,16,18,20,22,24,26,28,30,32,34,36,38,40,42,44,46,-1,48,50,-1,-1,52,54,56,-1,58,60,-1,62,64,66,-1,-1,68,70,72,74,-1,-1,76,78,80,82,-1,-1,-1,-1,-1,-1,-1,-1,-1,-1,-1,-1,-1,-1,-1,-1,-1,-1,-1,-1,-1,-1,-1,-1,-1,-1,-1,-1,-1,-1,-1,-1],"split_conditions":[1.575E1,4.75E0,3.175E1,1.75E0,1.125E1,1E0,1E0,-7.3039913E-1,1E0,1E0,1E0,2.275E1,2.025E1,4.475E1,2E0,1.2E1,7E0,8.25E0,-8.660254E-1,1.9E1,6.8083336E1,1.4E1,3.05E1,2.315E3,2.9911032E0,3.9166668E1,5.5E1,4.170449E0,6.356831E0,5.75E0,4.8E0,4.3388373E-1,7.295372E-2,1.5E1,1.5E1,8.099944E-1,1.8E1,1E1,3.6E1,6.839227E-1,1.2240118E0,2.7E1,4E1,2E0,2.6666666E1,1.9901527E0,1.2276927E0,1.7E1,-7.818315E-1,1.6E1,6.234898E-1,-5.7799536E-1,-5.2391475E-1,-3.092915E-1,-4.5350972E-1,-2.8310058E-1,-7.5617716E-2,-4.319387E-1,-3.2895923E-1,-3.126254E-1,-2.084171E-1,1.7763937E-1,4.1685137E-1,-2.4018984E-1,-1.3539869E-1,-2.447262E-2,2.3952888E-1,1.593202E-2,2.0509039E-1,2.716076E-1,4.6005487E-1,2.422776E-1,5.605525E-1,6.346403E-1,8.8096267E-1,7.114648E-1,1.043302E0,1.5194362E0,1.1476487E0,1.0295599E0,1.5337445E0,1.9554682E0,1.2511967E0],"split_indices":[73,73,73,73,73,48,48,0,48,48,48,73,73,73,50,0,72,73,23,0,8,5,8,70,0,8,0,0,0,72,36,25,0,0,0,0,5,5,5,0,0,0,0,15,73,0,0,19,25,19,26,0,0,0,0,0,0,0,0,0,0,0,0,0,0,0,0,0,0,0,0,0,0,0,0,0,0,0,0,0,0,0,0],"split_type":[0,0,0,0,0,0,0,0,0,0,0,0,0,0,0,0,0,0,0,0,0,0,0,0,0,0,0,0,0,0,0,0,0,0,0,0,0,0,0,0,0,0,0,0,0,0,0,0,0,0,0,0,0,0,0,0,0,0,0,0,0,0,0,0,0,0,0,0,0,0,0,0,0,0,0,0,0,0,0,0,0,0,0],"sum_hessian":[1.6201E4,9.916E3,6.285E3,5.632E3,4.284E3,3.932E3,2.353E3,4.775E3,8.57E2,2.929E3,1.355E3,3.861E3,7.1E1,2.319E3,3.4E1,8.4E2,1.7E1,2.887E3,4.2E1,1.329E3,2.6E1,1.827E3,2.034E3,2.5E1,4.6E1,1.566E3,7.53E2,2.1E1,1.3E1,7.47E2,9.3E1,1.1E1,6E0,1.665E3,1.222E3,7E0,3.5E1,3.58E2,9.71E2,1.1E1,1.5E1,4.96E2,1.331E3,1.217E3,8.17E2,1.7E1,8E0,1.107E3,4.59E2,3.84E2,3.69E2,3.24E2,4.23E2,1E1,8.3E1,5E0,6E0,1.078E3,5.87E2,3.74E2,8.48E2,2.6E1,9E0,2.17E2,1.41E2,9.09E2,6.2E1,3.05E2,1.91E2,9.12E2,4.19E2,1.61E2,1.056E3,3.75E2,4.42E2,4.18E2,6.89E2,1.63E2,2.96E2,1.62E2,2.22E2,2.94E2,7.5E1],"tree_param":{"num_deleted":"0","num_feature":"74","num_nodes":"83","size_leaf_vector":"1"}},{"base_weights":[5.900264E-2,-8.945422E0,1.5850988E1,-1.3030716E1,-3.3271265E0,1.0831179E1,2.6330292E1,-6.940548E-1,-9.6811695E0,-5.6463084E0,4.41741E-1,7.947228E0,1.5694983E1,2.4272564E1,8.275371E1,-9.785211E0,-2.1843464E0,-5.8755994E0,8.0407715E0,-5.100924E-2,2.4098192E1,7.416281E0,4.3303143E1,1.1893359E1,1.8408497E1,1.8511248E1,2.9699286E1,2.7007372E0,9.7535576E1,-1.0298449E1,-8.524935E0,-3.5751312E0,5.882057E-2,-7.233687E0,-4.5099554E0,5.347093E0,1.21570015E1,-1.2464068E0,3.0653605E0,5.8606786E-1,2.5824497E1,3.549308E0,8.826057E0,1.5034355E0,2.3870997E0,8.028711E0,1.3177955E1,2.156241E1,1.4773971E1,1.6874027E1,2.326229E1,2.4407633E1,3.3147343E1,2.6429586E0,1.02020386E2,-5.479199E-1,-4.9139667E-1,-4.3868157E-1,-3.1116545E-1,-4.6616476E-2,-2.5489208E-1,-3.8298288E-1,-2.8200424E-1,-2.6432842E-1,-1.6563243E-1,1.3302107E-1,4.220713E-1,3.7437233E-1,8.2309103E-1,-1.2452121E-1,1.352522E-2,1.09602034E-1,3.718166E-1,8.79782E-1,1.4058325E0,5.5120677E-2,2.6987407E-1,4.0971342E-1,7.868774E-1,2.507277E-1,4.8866826E-1,5.666784E-1,7.910304E-1,1.0340163E0,2.0517635E0,6.448068E-1,1.0805073E0,5.803212E-1,9.0809405E-1,3.8445833E-1,1.2200439E0,9.0058327E-1,1.4191091E0,1.7794621E0,1.1815888E0,3.4401994E0,5.5711265E0],"categories":[],"categories_nodes":[],"categories_segments":[],"categories_sizes":[],"default_left":[0,0,0,0,0,0,0,0,0,0,0,0,0,0,0,0,0,0,0,0,0,0,0,0,0,0,0,0,0,0,0,0,0,0,0,0,0,0,0,0,0,0,0,0,0,0,0,0,0,0,0,0,0,0,0,0,0,0,0,0,0,0,0,0,0,0,0,0,0,0,0,0,0,0,0,0,0,0,0,0,0,0,0,0,0,0,0,0,0,0,0,0,0,0,0,0,0],"id":1,"left_children":[1,3,5,7,9,11,13,-1,15,17,19,21,23,25,27,29,31,33,35,37,39,41,43,45,47,49,51,-1,53,55,57,59,-1,61,63,65,67,69,71,-1,73,75,77,-1,-1,79,81,83,85,87,89,91,93,-1,95,-1,-1,-1,-1,-1,-1,-1,-1,-1,-1,-1,-1,-1,-1,-1,-1,-1,-1,-1,-1,-1,-1,-1,-1,-1,-1,-1,-1,-1,-1,-1,-1,-1,-1,-1,-1,-1,-1,-1,-1,-1,-1],"loss_changes":[2.317397E6,2.3817788E5,3.1102225E5,1.697925E4,3.820857E4,5.6022844E4,2.2043612E5,0E0,9.29E2,8.539328E3,1.942373E4,4.6885625E4,1.51381875E4,5.728575E4,2.3179125E4,6.884375E2,8.857933E1,4.9033203E3,4.321958E2,6.0870547E3,4.1999805E2,1.3481875E4,7.302656E2,2.9849688E3,9.616219E3,6.6040938E3,1.6537125E4,0E0,3.2075312E3,1.5416406E2,1.4653125E2,4.695897E1,0E0,8.6034375E2,1.2183184E3,2.1752228E2,2.1607544E2,2.229518E3,1.7119536E3,0E0,4.7691406E1,2.9961973E3,7.7984062E3,0E0,0E0,7.8038086E2,2.0893047E3,7.0808594E3,4.9297656E3,4.351797E3,3.8519219E3,9.118734E3,1.24673125E4,0E0,4.1832812E3,0E0,0E0,0E0,0E0,0E0,0E0,0E0,0E0,0E0,0E0,0E0,0E0,0E0,0E0,0E0,0E0,0E0,0E0,0E0,0E0,0E0,0E0,0E0,0E0,0E0,0E0,0E0,0E0,0E0,0E0,0E0,0E0,0E0,0E0,0E0,0E0,0E0,0E0,0E0,0E0,0E0,0E0],"parents":[2147483647,0,0,1,1,2,2,3,3,4,4,5,5,6,6,8,8,9,9,10,10,11,11,12,12,13,13,14,14,15,15,16,16,17,17,18,18,19,19,20,20,21,21,22,22,23,23,24,24,25,25,26,26,28,28,29,29,30,30,31,31,33,33,34,34,35,35,36,36,37,37,38,38,40,40,41,41,42,42,45,45,46,46,47,47,48,48,49,49,50,50,51,51,52,52,54,54],"right_children":[2,4,6,8,10,12,14,-1,16,18,20,22,24,26,28,30,32,34,36,38,40,42,44,46,48,50,52,-1,54,56,58,60,-1,62,64,66,68,70,72,-1,74,76,78,-1,-1,80,82,84,86,88,90,92,94,-1,96,-1,-1,-1,-1,-1,-1,-1,-1,-1,-1,-1,-1,-1,-1,-1,-1,-1,-1,-1,-1,-1,-1,-1,-1,-1,-1,-1,-1,-1,-1,-1,-1,-1,-1,-1,-1,-1,-1,-1,-1,-1,-1],"split_conditions":[1.725E1,5.5E0,3.5E1,1E0,1.15E1,2.725E1,1E0,-6.940548E-1,1E0,1E0,1E0,1E0,3.9E1,5.625E1,3.05E1,8E0,1E1,8.25E0,9E0,1.8E1,1.8E1,1.7E1,1.875E1,1.8E1,6.234898E-1,3.9E1,3.6E1,2.7007372E0,4.1E1,3.5E0,1E0,6.234898E-1,5.882057E-2,1E1,1.1E1,1.8E1,2.5E1,1.4E1,1E0,5.8606786E-1,2.038E3,1.4E1,1E0,1.5034355E0,2.3870997E0,3.5E1,4E0,6.7E1,4.5125E1,2.875E1,2.3E1,1.7E1,6.234898E-1,2.6429586E0,4.4E1,-5.479199E-1,-4.9139667E-1,-4.3868157E-1,-3.1116545E-1,-4.6616476E-2,-2.5489208E-1,-3.8298288E-1,-2.8200424E-1,-2.6432842E-1,-1.6563243E-1,1.3302107E-1,4.220713E-1,3.7437233E-1,8.2309103E-1,-1.2452121E-1,1.352522E-2,1.09602034E-1,3.718166E-1,8.79782E-1,1.4058325E0,5.5120677E-2,2.6987407E-1,4.0971342E-1,7.868774E-1,2.507277E-1,4.8866826E-1,5.666784E-1,7.910304E-1,1.0340163E0,2.0517635E0,6.448068E-1,1.0805073E0,5.803212E-1,9.0809405E-1,3.8445833E-1,1.2200439E0,9.0058327E-1,1.4191091E0,1.7794621E0,1.1815888E0,3.4401994E0,5.5711265E0],"split_indices":[73,73,6,4,73,73,48,0,48,48,48,48,0,72,73,72,2,73,73,4,4,4,73,4,26,8,4,0,4,73,27,26,0,4,4,5,4,73,27,0,69,5,27,0,0,2,14,0,8,73,4,19,26,0,6,0,0,0,0,0,0,0,0,0,0,0,0,0,0,0,0,0,0,0,0,0,0,0,0,0,0,0,0,0,0,0,0,0,0,0,0,0,0,0,0,0,0],"split_type":[0,0,0,0,0,0,0,0,0,0,0,0,0,0,0,0,0,0,0,0,0,0,0,0,0,0,0,0,0,0,0,0,0,0,0,0,0,0,0,0,0,0,0,0,0,0,0,0,0,0,0,0,0,0,0,0,0,0,0,0,0,0,0,0,0,0,0,0,0,0,0,0,0,0,0,0,0,0,0,0,0,0,0,0,0,0,0,0,0,0,0,0,0,0,0,0,0],"sum_hessian":[1.6295E4,1.0378E4,5.917E3,6.008E3,4.37E3,4.002E3,1.915E3,4.789E3,1.219E3,2.705E3,1.665E3,2.514E3,1.488E3,1.849E3,6.6E1,1.202E3,1.7E1,2.661E3,4.4E1,1.632E3,3.3E1,2.478E3,3.6E1,6.22E2,8.66E2,8.99E2,9.5E2,2.4E1,4.2E1,8.49E2,3.53E2,1.2E1,5E0,1.332E3,1.329E3,2.8E1,1.6E1,1.18E3,4.52E2,5E0,2.8E1,6.63E2,1.815E3,1.1E1,2.5E1,1.57E2,4.65E2,4.61E2,4.05E2,6.72E2,2.27E2,3.78E2,5.72E2,5E0,3.7E1,3.44E2,5.05E2,3.16E2,3.7E1,5E0,7E0,1.048E3,2.84E2,8.04E2,5.25E2,1.6E1,1.2E1,9E0,7E0,6.48E2,5.32E2,3.78E2,7.4E1,8E0,2E1,2.86E2,3.77E2,1.665E3,1.5E2,5.9E1,9.8E1,2.77E2,1.88E2,4.43E2,1.8E1,3.2E2,8.5E1,1.34E2,5.38E2,1.6E1,2.11E2,1.47E2,2.31E2,4.53E2,1.19E2,1E1,2.7E1],"tree_param":{"num_deleted":"0","num_feature":"74","num_nodes":"97","size_leaf_vector":"1"}},{"base_weights":[-2.4826813E-2,-8.954328E0,1.4044392E1,-1.2546958E1,-4.026212E0,8.997607E0,2.3264141E1,-6.5935886E-1,-9.421E0,-6.139508E0,-1.3510208E0,8.321295E0,4.7104965E1,2.2214636E1,9.051697E1,-9.561636E0,-1.7844598E0,-6.3423505E0,7.0439925E0,-1.71993E0,1.7868002E1,4.8656836E0,1.1503241E1,3.483511E1,2.6708941E0,1.89851E1,2.8300634E1,3.7108154E0,1.0621006E2,-5.1139504E-1,-8.950783E0,-2.9248395E0,2.870126E-2,-7.478155E0,-5.2156553E0,4.7798877E0,7.1791863E-1,-3.6688478E0,-3.657787E-1,3.2329258E-1,2.0484045E1,3.1533437E0,7.697776E0,1.0732849E1,1.790108E1,3.8142517E1,1.1099848E0,1.4713275E1,2.1491297E1,2.5993807E1,3.715124E1,3.2054956E0,6.0419574E0,-4.6705866E-1,-4.0770337E-1,-6.134079E-2,-1.9101262E-1,-3.949282E-1,-3.280852E-1,-3.1041512E-1,-2.2666644E-1,1.4160061E-1,4.0938255E-1,-2.43107E-1,-1.4161515E-1,-4.198563E-2,2.0569335E-1,4.9498174E-1,1.1175119E0,9.523811E-2,2.821197E-1,3.361172E-1,6.7943376E-1,5.084949E-1,8.801948E-1,7.583234E-1,1.1080599E0,1.3730111E0,2.2188554E0,8.6854166E-1,5.6043863E-1,9.350646E-1,1.2002805E0,1.0504435E0,1.4724587E0,1.3405056E0,2.098181E0],"categories":[],"categories_nodes":[],"categories_segments":[],"categories_sizes":[],"default_left":[0,0,0,0,0,0,0,0,0,0,0,0,0,0,0,0,0,0,0,0,0,0,0,0,0,0,0,0,0,0,0,0,0,0,0,0,0,0,0,0,0,0,0,0,0,0,0,0,0,0,0,0,0,0,0,0,0,0,0,0,0,0,0,0,0,0,0,0,0,0,0,0,0,0,0,0,0,0,0,0,0,0,0,0,0,0,0],"id":2,"left_children":[1,3,5,7,9,11,13,-1,15,17,19,21,23,25,27,29,31,33,35,37,39,41,43,45,-1,47,49,-1,51,-1,53,55,-1,57,59,61,-1,63,65,-1,67,69,71,73,75,77,-1,79,81,83,85,-1,-1,-1,-1,-1,-1,-1,-1,-1,-1,-1,-1,-1,-1,-1,-1,-1,-1,-1,-1,-1,-1,-1,-1,-1,-1,-1,-1,-1,-1,-1,-1,-1,-1,-1,-1],"loss_changes":[2.0440178E6,1.7616469E5,2.9371788E5,1.1392875E4,2.3724227E4,1.04857375E5,1.556585E5,0E0,1.0364375E3,6.315547E3,1.3174115E4,4.4078625E4,3.6299219E3,4.2718375E4,7.9690625E2,2.98875E2,5.301582E1,2.9158438E3,5.2563367E2,4.80147E3,9.0885547E2,9.314785E3,1.01013125E4,2.7555664E2,0E0,1.51075625E4,1.45651875E4,0E0,1.4728125E3,0E0,8.1015625E1,1.4574165E1,0E0,3.8903516E2,7.5849023E2,1.6820947E2,0E0,7.3014746E2,2.285412E3,0E0,3.2858887E2,3.7240518E3,4.0725977E3,7.039875E3,2.2580625E3,1.06203125E2,0E0,4.794422E3,5.9023438E3,9.831719E3,6.5817188E3,0E0,0E0,0E0,0E0,0E0,0E0,0E0,0E0,0E0,0E0,0E0,0E0,0E0,0E0,0E0,0E0,0E0,0E0,0E0,0E0,0E0,0E0,0E0,0E0,0E0,0E0,0E0,0E0,0E0,0E0,0E0,0E0,0E0,0E0,0E0,0E0],"parents":[2147483647,0,0,1,1,2,2,3,3,4,4,5,5,6,6,8,8,9,9,10,10,11,11,12,12,13,13,14,14,15,15,16,16,17,17,18,18,19,19,20,20,21,21,22,22,23,23,25,25,26,26,28,28,30,30,31,31,33,33,34,34,35,35,37,37,38,38,40,40,41,41,42,42,43,43,44,44,45,45,47,47,48,48,49,49,50,50],"right_children":[2,4,6,8,10,12,14,-1,16,18,20,22,24,26,28,30,32,34,36,38,40,42,44,46,-1,48,50,-1,52,-1,54,56,-1,58,60,62,-1,64,66,-1,68,70,72,74,76,78,-1,80,82,84,86,-1,-1,-1,-1,-1,-1,-1,-1,-1,-1,-1,-1,-1,-1,-1,-1,-1,-1,-1,-1,-1,-1,-1,-1,-1,-1,-1,-1,-1,-1,-1,-1,-1,-1,-1,-1],"split_conditions":[1.575E1,5E0,3.275E1,1E0,1E1,1E0,1E0,-6.5935886E-1,1E0,1E0,1E0,2.3E1,2.075E1,4.475E1,9.6E1,3.6666667E0,1E1,1.4E1,1.7E1,1.1E1,1.0666667E1,2.3E1,4.5E1,2.315E3,2.6708941E0,2.9916666E1,5.2E1,3.7108154E0,4.5E1,-5.1139504E-1,6E0,6.234898E-1,2.870126E-2,8E0,8E0,1.1E1,7.1791863E-1,5E0,2.5E1,3.2329258E-1,1.8E1,2.025E1,1E0,1.2E1,4.4791668E1,1.1034E3,1.1099848E0,1.4E1,1E0,5E0,1E0,3.2054956E0,6.0419574E0,-4.6705866E-1,-4.0770337E-1,-6.134079E-2,-1.9101262E-1,-3.949282E-1,-3.280852E-1,-3.1041512E-1,-2.2666644E-1,1.4160061E-1,4.0938255E-1,-2.43107E-1,-1.4161515E-1,-4.198563E-2,2.0569335E-1,4.9498174E-1,1.1175119E0,9.523811E-2,2.821197E-1,3.361172E-1,6.7943376E-1,5.084949E-1,8.801948E-1,7.583234E-1,1.1080599E0,1.3730111E0,2.2188554E0,8.6854166E-1,5.6043863E-1,9.350646E-1,1.2002805E0,1.0504435E0,1.4724587E0,1.3405056E0,2.098181E0],"split_indices":[73,73,73,4,73,48,48,0,48,48,48,73,73,73,4,73,2,2,13,4,73,4,4,70,0,8,4,0,6,0,4,26,0,4,4,65,0,15,4,0,4,73,27,15,8,71,0,13,18,15,18,0,0,0,0,0,0,0,0,0,0,0,0,0,0,0,0,0,0,0,0,0,0,0,0,0,0,0,0,0,0,0,0,0,0,0,0],"split_type":[0,0,0,0,0,0,0,0,0,0,0,0,0,0,0,0,0,0,0,0,0,0,0,0,0,0,0,0,0,0,0,0,0,0,0,0,0,0,0,0,0,0,0,0,0,0,0,0,0,0,0,0,0,0,0,0,0,0,0,0,0,0,0,0,0,0,0,0,0,0,0,0,0,0,0,0,0,0,0,0,0,0,0,0,0,0,0],"sum_hessian":[1.6268E4,9.952E3,6.316E3,5.755E3,4.197E3,4.083E3,2.233E3,4.774E3,9.81E2,2.344E3,1.853E3,4.013E3,7E1,2.2E3,3.3E1,9.63E2,1.8E1,2.309E3,3.5E1,1.819E3,3.4E1,1.925E3,2.088E3,2.6E1,4.4E1,1.44E3,7.6E2,1.9E1,1.4E1,4.53E2,5.1E2,1.2E1,6E0,1.147E3,1.162E3,2.8E1,7E0,7.45E2,1.074E3,7E0,2.7E1,1.201E3,7.24E2,1.866E3,2.22E2,1.9E1,7E0,5.35E2,9.05E2,6.06E2,1.54E2,5E0,9E0,3.35E2,1.75E2,5E0,7E0,7.81E2,3.66E2,4.7E2,6.92E2,1.9E1,9E0,3.05E2,4.4E2,9.72E2,1.02E2,5E0,2.2E1,8.01E2,4E2,6.23E2,1.01E2,1.727E3,1.39E2,1.38E2,8.4E1,9E0,1E1,3.02E2,2.33E2,4.33E2,4.72E2,2.51E2,3.55E2,5.1E1,1.03E2],"tree_param":{"num_deleted":"0","num_feature":"74","num_nodes":"87","size_leaf_vector":"1"}},{"base_weights":[-3.309639E-2,-8.686409E0,1.3230655E1,-1.2061751E1,-4.2303534E0,8.476152E0,2.2240503E1,-6.2639964E-1,-9.158724E0,-6.1956015E0,-1.8592414E0,7.7758517E0,4.418936E1,2.1420649E1,8.3637695E1,-9.316267E0,-1.0277938E0,-6.364456E0,4.738212E0,-2.1477947E0,1.534662E1,3.5409067E0,1.0347944E1,3.0538193E1,5.2479137E1,1.8273964E1,2.7144382E1,3.564097E0,5.9552236E0,-4.9603173E-1,-8.779502E0,-1.4294425E-1,1.2419193E-1,-7.295794E0,-5.1004863E0,5.6675005E-1,6.316976E0,-2.9315193E0,4.170808E-1,8.3041525E0,1.8165735E1,1.3691239E0,5.467575E0,7.3472447E0,1.2199855E1,9.446573E-1,1.6211265E0,1.4917746E0,5.437193E1,1.3208158E1,2.018223E1,2.2870499E1,3.2582592E1,-4.4945335E-1,-3.5339472E-1,-3.8096973E-1,-2.9989737E-1,-3.04038E-1,-2.1766631E-1,1.3765958E-1,-8.487416E-2,1.21224284E-1,3.809092E-1,-1.7661645E-1,-6.363291E-2,-3.3177067E-2,2.7625948E-1,5.2853346E-1,2.3184717E-1,4.4976243E-1,1.0163962E0,-2.975371E-2,1.1132345E-1,2.3305607E-1,5.6206375E-1,1.2864374E-1,4.113875E-1,3.9359513E-1,6.6647893E-1,2.2609723E0,3.073222E0,4.9557003E-1,8.145544E-1,8.796837E-1,1.1312119E0,9.2418283E-1,1.3352259E0,1.1011289E0,1.7743896E0],"categories":[],"categories_nodes":[],"categories_segments":[],"categories_sizes":[],"default_left":[0,0,0,0,0,0,0,0,0,0,0,0,0,0,0,0,0,0,0,0,0,0,0,0,0,0,0,0,0,0,0,0,0,0,0,0,0,0,0,0,0,0,0,0,0,0,0,0,0,0,0,0,0,0,0,0,0,0,0,0,0,0,0,0,0,0,0,0,0,0,0,0,0,0,0,0,0,0,0,0,0,0,0,0,0,0,0,0,0],"id":3,"left_children":[1,3,5,7,9,11,13,-1,15,17,19,21,23,25,27,29,31,33,35,37,39,41,43,45,47,49,51,-1,-1,-1,53,-1,-1,55,57,59,61,63,65,67,69,71,73,75,77,-1,-1,-1,79,81,83,85,87,-1,-1,-1,-1,-1,-1,-1,-1,-1,-1,-1,-1,-1,-1,-1,-1,-1,-1,-1,-1,-1,-1,-1,-1,-1,-1,-1,-1,-1,-1,-1,-1,-1,-1,-1,-1],"loss_changes":[1.8747409E6,1.4862488E5,2.7606638E5,7.4951875E3,1.9847836E4,1.0526841E5,1.10297875E5,0E0,9.911172E2,4.332039E3,9.628614E3,4.5090312E4,7.555453E3,3.9105188E4,4.199328E3,1.5984375E2,1.1002042E2,2.6631797E3,2.328186E2,3.824791E3,4.8181543E2,6.548635E3,1.4228844E4,1.0642969E2,4.695E2,1.34764375E4,1.7331812E4,0E0,0E0,0E0,8.37207E1,0E0,0E0,5.0689844E2,6.8806055E2,5.9235813E1,1.1221399E2,1.4471562E3,2.4660435E3,4.089337E1,2.5043506E2,1.244277E3,3.8106758E3,4.122754E3,7.6768438E3,0E0,0E0,0E0,6.616406E1,3.8200703E3,6.1151562E3,6.8855312E3,9.643531E3,0E0,0E0,0E0,0E0,0E0,0E0,0E0,0E0,0E0,0E0,0E0,0E0,0E0,0E0,0E0,0E0,0E0,0E0,0E0,0E0,0E0,0E0,0E0,0E0,0E0,0E0,0E0,0E0,0E0,0E0,0E0,0E0,0E0,0E0,0E0,0E0],"parents":[2147483647,0,0,1,1,2,2,3,3,4,4,5,5,6,6,8,8,9,9,10,10,11,11,12,12,13,13,14,14,15,15,16,16,17,17,18,18,19,19,20,20,21,21,22,22,23,23,24,24,25,25,26,26,30,30,33,33,34,34,35,35,36,36,37,37,38,38,39,39,40,40,41,41,42,42,43,43,44,44,48,48,49,49,50,50,51,51,52,52],"right_children":[2,4,6,8,10,12,14,-1,16,18,20,22,24,26,28,30,32,34,36,38,40,42,44,46,48,50,52,-1,-1,-1,54,-1,-1,56,58,60,62,64,66,68,70,72,74,76,78,-1,-1,-1,80,82,84,86,88,-1,-1,-1,-1,-1,-1,-1,-1,-1,-1,-1,-1,-1,-1,-1,-1,-1,-1,-1,-1,-1,-1,-1,-1,-1,-1,-1,-1,-1,-1,-1,-1,-1,-1,-1,-1],"split_conditions":[1.525E1,4.5E0,3.275E1,1E0,9.5E0,1E0,1E0,-6.2639964E-1,1E0,1E0,1E0,2.125E1,2.025E1,4.475E1,9.8E1,6E0,2E1,1.4E1,5.6666665E0,1.6E1,2E1,1.8E1,3.4E1,1.32E1,9.6E0,1.4675969E1,5.8E1,3.564097E0,5.9552236E0,-4.9603173E-1,1E0,-1.4294425E-1,1.2419193E-1,9E0,8E0,9.3E0,1.2E1,1.3E1,1E0,2.35E1,1.15E1,2E1,1E0,2E0,1E0,9.446573E-1,1.6211265E0,1.4917746E0,5.3E1,5E0,1E0,5E0,1E0,-4.4945335E-1,-3.5339472E-1,-3.8096973E-1,-2.9989737E-1,-3.04038E-1,-2.1766631E-1,1.3765958E-1,-8.487416E-2,1.21224284E-1,3.809092E-1,-1.7661645E-1,-6.363291E-2,-3.3177067E-2,2.7625948E-1,5.2853346E-1,2.3184717E-1,4.4976243E-1,1.0163962E0,-2.975371E-2,1.1132345E-1,2.3305607E-1,5.6206375E-1,1.2864374E-1,4.113875E-1,3.9359513E-1,6.6647893E-1,2.2609723E0,3.073222E0,4.9557003E-1,8.145544E-1,8.796837E-1,1.1312119E0,9.2418283E-1,1.3352259E0,1.1011289E0,1.7743896E0],"split_indices":[73,73,73,4,73,48,48,0,48,48,48,73,73,73,5,2,0,2,73,4,4,4,0,38,38,10,0,0,0,0,27,0,0,4,4,36,4,73,27,38,73,1,27,15,14,0,0,0,2,15,18,15,18,0,0,0,0,0,0,0,0,0,0,0,0,0,0,0,0,0,0,0,0,0,0,0,0,0,0,0,0,0,0,0,0,0,0,0,0],"split_type":[0,0,0,0,0,0,0,0,0,0,0,0,0,0,0,0,0,0,0,0,0,0,0,0,0,0,0,0,0,0,0,0,0,0,0,0,0,0,0,0,0,0,0,0,0,0,0,0,0,0,0,0,0,0,0,0,0,0,0,0,0,0,0,0,0,0,0,0,0,0,0,0,0,0,0,0,0,0,0,0,0,0,0,0,0,0,0,0,0],"sum_hessian":[1.6332E4,9.884E3,6.448E3,5.623E3,4.261E3,4.222E3,2.226E3,4.842E3,7.81E2,2.329E3,1.932E3,4.142E3,8E1,2.198E3,2.8E1,7.66E2,1.5E1,2.294E3,3.5E1,1.901E3,3.1E1,1.566E3,2.576E3,3.2E1,4.8E1,1.421E3,7.77E2,2.3E1,5E0,3.52E2,4.14E2,1E1,5E0,1.318E3,9.76E2,1E1,2.5E1,1.456E3,4.45E2,1E1,2.1E1,7.37E2,8.29E2,9.85E2,1.591E3,6E0,2.6E1,5E0,4.3E1,3.91E2,1.03E3,4.38E2,3.39E2,3.65E2,4.9E1,1.051E3,2.67E2,4.19E2,5.57E2,5E0,5E0,7E0,1.8E1,1.068E3,3.88E2,3.68E2,7.7E1,5E0,5E0,5E0,1.6E1,2.24E2,5.13E2,7.29E2,1E2,1.54E2,8.31E2,3.31E2,1.26E3,2.2E1,2.1E1,1.91E2,2E2,5.04E2,5.26E2,2.07E2,2.31E2,7.5E1,2.64E2],"tree_param":{"num_deleted":"0","num_feature":"74","num_nodes":"89","size_leaf_vector":"1"}},{"base_weights":[3.971824E-2,-7.930552E0,1.3205289E1,-1.1165842E1,-3.1761475E0,8.844216E0,2.2645164E1,-5.949978E-1,-8.2376585E0,-4.737815E0,1.2593265E-1,6.099975E0,1.299466E1,2.1049538E1,7.1396706E1,-8.359031E0,-9.5134324E-1,-4.9145975E0,5.9007854E0,-2.5996643E-1,1.7931492E1,3.0956366E0,8.46297E0,1.2365943E1,3.9668335E1,1.647006E1,2.624647E1,4.510042E1,8.312171E1,-8.833591E0,-7.2805905E0,-2.6948075E0,1.9198926E-1,-6.094102E0,-3.6631985E0,4.674519E0,5.5643684E-1,-2.9078844E0,5.471286E-1,4.3197384E-1,9.785759E-1,2.2148755E0,5.385535E0,6.1534133E0,9.785672E0,1.0185497E1,1.7804346E1,1.0744376E0,4.3076992E1,1.3923068E1,1.962086E1,2.207697E1,2.9987066E1,1.3743042E0,2.5153544E0,4.395551E0,2.3643177E0,-4.703233E-1,-4.204289E-1,-3.7938985E-1,-2.4148758E-1,-1.6597703E-2,-2.034662E-1,-3.169522E-1,-1.6265094E-1,-1.9721259E-1,-2.6632238E-2,7.408037E-2,2.8604922E-1,-1.614043E-1,1.3221E-1,2.856276E-6,2.657126E-1,4.1221254E-2,1.9191602E-1,1.784006E-1,3.76254E-1,1.5313362E-1,3.617291E-1,5.5804676E-1,3.0979037E-1,3.911929E-1,6.011525E-1,7.300216E-1,1.0905883E0,2.4273975E0,1.4353628E0,2.7114055E-1,7.412321E-1,1.1469157E0,8.4093505E-1,5.939285E-1,1.1792514E0,1.0736401E0,1.6072003E0],"categories":[],"categories_nodes":[],"categories_segments":[],"categories_sizes":[],"default_left":[0,0,0,0,0,0,0,0,0,0,0,0,0,0,0,0,0,0,0,0,0,0,0,0,0,0,0,0,0,0,0,0,0,0,0,0,0,0,0,0,0,0,0,0,0,0,0,0,0,0,0,0,0,0,0,0,0,0,0,0,0,0,0,0,0,0,0,0,0,0,0,0,0,0,0,0,0,0,0,0,0,0,0,0,0,0,0,0,0,0,0,0,0,0,0],"id":4,"left_children":[1,3,5,7,9,11,13,-1,15,17,19,21,23,25,27,29,31,33,35,37,39,41,43,45,47,49,51,53,55,57,59,61,-1,63,65,67,-1,69,71,-1,-1,73,75,77,79,81,83,-1,85,87,89,91,93,-1,-1,-1,-1,-1,-1,-1,-1,-1,-1,-1,-1,-1,-1,-1,-1,-1,-1,-1,-1,-1,-1,-1,-1,-1,-1,-1,-1,-1,-1,-1,-1,-1,-1,-1,-1,-1,-1,-1,-1,-1,-1],"loss_changes":[1.7071579E6,1.5584306E5,2.5236225E5,1.28621875E4,2.1169523E4,4.773325E4,1.4924356E5,0E0,1.0629531E3,5.270465E3,9.069475E3,1.7926617E4,2.7510469E4,4.4258375E4,1.5046125E4,5.44125E2,1.8564937E2,4.0239766E3,2.4129785E2,2.762988E3,2.5478711E2,2.2361025E3,4.2608047E3,1.9180203E4,1.4226602E3,7.7565312E3,1.30264375E4,5.354297E2,2.8661875E3,1.1950781E2,2.406875E2,5.017353E1,0E0,9.596406E2,1.1702949E3,1.2111316E2,0E0,5.454851E2,2.5839536E3,0E0,0E0,1.8180261E3,1.1736406E3,1.7077656E3,4.362547E3,4.9726406E3,5.6610938E3,0E0,1.0356953E3,4.186211E3,3.7469844E3,6.160422E3,7.7521875E3,0E0,0E0,0E0,0E0,0E0,0E0,0E0,0E0,0E0,0E0,0E0,0E0,0E0,0E0,0E0,0E0,0E0,0E0,0E0,0E0,0E0,0E0,0E0,0E0,0E0,0E0,0E0,0E0,0E0,0E0,0E0,0E0,0E0,0E0,0E0,0E0,0E0,0E0,0E0,0E0,0E0,0E0],"parents":[2147483647,0,0,1,1,2,2,3,3,4,4,5,5,6,6,8,8,9,9,10,10,11,11,12,12,13,13,14,14,15,15,16,16,17,17,18,18,19,19,20,20,21,21,22,22,23,23,24,24,25,25,26,26,27,27,28,28,29,29,30,30,31,31,33,33,34,34,35,35,37,37,38,38,41,41,42,42,43,43,44,44,45,45,46,46,48,48,49,49,50,50,51,51,52,52],"right_children":[2,4,6,8,10,12,14,-1,16,18,20,22,24,26,28,30,32,34,36,38,40,42,44,46,48,50,52,54,56,58,60,62,-1,64,66,68,-1,70,72,-1,-1,74,76,78,80,82,84,-1,86,88,90,92,94,-1,-1,-1,-1,-1,-1,-1,-1,-1,-1,-1,-1,-1,-1,-1,-1,-1,-1,-1,-1,-1,-1,-1,-1,-1,-1,-1,-1,-1,-1,-1,-1,-1,-1,-1,-1,-1,-1,-1,-1,-1,-1],"split_conditions":[1.625E1,5.5E0,3.5E1,1.75E0,1.1666667E1,4E1,1E0,-5.949978E-1,1E0,1E0,1E0,2.2E1,1E0,5.75E1,4.275E1,8E0,1.2E1,8.5E0,1.7E1,1.9E1,2.4125E1,1E0,2.9E1,3.225E1,2.5E1,4.7E1,1.9782879E1,7.7E0,2E1,6E0,1E0,6.234898E-1,1.9198926E-1,1E0,1E0,2.4E1,5.5643684E-1,1E0,1E0,4.3197384E-1,9.785759E-1,1.8E1,1.2071428E1,2E0,6.234898E-1,2.375E1,1E0,1.0744376E0,1.2743E3,2.575E1,6.234898E-1,9E0,1E0,1.3743042E0,2.5153544E0,4.395551E0,2.3643177E0,-4.703233E-1,-4.204289E-1,-3.7938985E-1,-2.4148758E-1,-1.6597703E-2,-2.034662E-1,-3.169522E-1,-1.6265094E-1,-1.9721259E-1,-2.6632238E-2,7.408037E-2,2.8604922E-1,-1.614043E-1,1.3221E-1,2.856276E-6,2.657126E-1,4.1221254E-2,1.9191602E-1,1.784006E-1,3.76254E-1,1.5313362E-1,3.617291E-1,5.5804676E-1,3.0979037E-1,3.911929E-1,6.011525E-1,7.300216E-1,1.0905883E0,2.4273975E0,1.4353628E0,2.7114055E-1,7.412321E-1,1.1469157E0,8.4093505E-1,5.939285E-1,1.1792514E0,1.0736401E0,1.6072003E0],"split_indices":[73,73,6,73,73,0,48,0,48,48,48,73,48,72,72,72,2,73,13,0,11,31,0,73,3,0,10,36,13,2,27,26,0,27,27,0,0,49,27,0,0,13,12,15,26,73,18,0,71,73,26,19,18,0,0,0,0,0,0,0,0,0,0,0,0,0,0,0,0,0,0,0,0,0,0,0,0,0,0,0,0,0,0,0,0,0,0,0,0,0,0,0,0,0,0],"split_type":[0,0,0,0,0,0,0,0,0,0,0,0,0,0,0,0,0,0,0,0,0,0,0,0,0,0,0,0,0,0,0,0,0,0,0,0,0,0,0,0,0,0,0,0,0,0,0,0,0,0,0,0,0,0,0,0,0,0,0,0,0,0,0,0,0,0,0,0,0,0,0,0,0,0,0,0,0,0,0,0,0,0,0,0,0,0,0,0,0,0,0,0,0,0,0],"sum_hessian":[1.6267E4,1.0133E4,6.134E3,6.029E3,4.104E3,4.197E3,1.937E3,4.818E3,1.211E3,2.786E3,1.318E3,2.528E3,1.669E3,1.877E3,6E1,1.191E3,2E1,2.741E3,4.5E1,1.291E3,2.7E1,1.114E3,1.414E3,1.632E3,3.7E1,1E3,8.77E2,2E1,4E1,8.22E2,3.69E2,1.5E1,5E0,1.409E3,1.332E3,3.8E1,7E0,3.01E2,9.9E2,5E0,2.2E1,8.06E2,3.08E2,5.17E2,8.97E2,1.167E3,4.65E2,7E0,3E1,5.56E2,4.44E2,4.18E2,4.59E2,6E0,1.4E1,3.4E1,6E0,3.41E2,4.81E2,3.26E2,4.3E1,6E0,9E0,1.296E3,1.13E2,1.222E3,1.1E2,1E1,2.8E1,2.85E2,1.6E1,8.89E2,1.01E2,4.35E2,3.71E2,1.68E2,1.4E2,1.35E2,3.82E2,6.47E2,2.5E2,5.13E2,6.54E2,2.61E2,2.04E2,2E1,1E1,5.4E1,5.02E2,2E2,2.44E2,5.5E1,3.63E2,9.5E1,3.64E2],"tree_param":{"num_deleted":"0","num_feature":"74","num_nodes":"95","size_leaf_vector":"1"}},{"base_weights":[2.2779789E-2,-7.4373274E0,1.2476378E1,-1.0732315E1,-3.1554232E0,8.64075E0,2.1527529E1,-5.6534E-1,-7.9453917E0,-4.6617727E0,2.857712E-1,4.683674E0,1.1845026E1,2.0203299E1,6.180433E1,-8.5877E0,-6.882542E0,-6.207826E0,-3.2615151E0,-5.1101834E-1,5.404448E0,2.4097037E0,7.185032E0,1.1308396E1,3.290998E1,1.504882E1,2.4680037E1,4.454804E1,7.137548E1,-4.5669076E-1,-8.158753E0,-7.028655E0,-2.900584E0,-7.1092854E0,-5.3997855E0,-3.985414E0,-1.9141104E0,-3.204193E0,4.8870024E-1,1.2357243E1,3.9405997E0,1.1030382E0,5.1403093E0,4.1762333E0,8.288766E0,8.568872E0,1.4604857E1,2.0956993E1,1.9096653E0,1.2656042E1,1.7296593E1,2.132984E1,2.9030346E1,2.401368E0,1.3334373E0,2.023486E0,3.7587059E0,-4.129665E-1,-3.2221407E-1,-2.7719554E-1,-3.754083E-1,-2.2175145E-1,-8.399292E-2,-3.5859042E-1,-4.5464143E-2,-2.7888438E-1,-1.7672844E-1,-2.0955741E-1,-2.9479546E-2,-1.1124686E-1,8.1950985E-2,-1.8367882E-1,2.0955376E-2,1.1976291E-1,-3.5204865E-2,2.840689E-1,8.7574667E-1,1.20068185E-1,3.6466742E-1,-4.667842E-2,1.08814776E-1,2.1471937E-1,5.9998274E-1,9.365156E-2,3.059127E-1,3.4886158E-1,5.8616424E-1,3.8777578E-1,7.1530724E-1,6.2967944E-1,8.91369E-1,1.1823113E0,5.3622067E-1,4.3688193E-1,7.324343E-1,7.753682E-1,1.0993905E0,8.2676643E-1,1.1758084E0,1.0439492E0,1.6061779E0],"categories":[],"categories_nodes":[],"categories_segments":[],"categories_sizes":[],"default_left":[0,0,0,0,0,0,0,0,0,0,0,0,0,0,0,0,0,0,0,0,0,0,0,0,0,0,0,0,0,0,0,0,0,0,0,0,0,0,0,0,0,0,0,0,0,0,0,0,0,0,0,0,0,0,0,0,0,0,0,0,0,0,0,0,0,0,0,0,0,0,0,0,0,0,0,0,0,0,0,0,0,0,0,0,0,0,0,0,0,0,0,0,0,0,0,0,0,0,0,0,0],"id":5,"left_children":[1,3,5,7,9,11,13,-1,15,17,19,21,23,25,27,29,31,33,35,37,39,41,43,45,47,49,51,53,55,-1,57,59,61,63,65,67,69,71,73,75,77,79,81,83,85,87,89,91,-1,93,95,97,99,-1,-1,-1,-1,-1,-1,-1,-1,-1,-1,-1,-1,-1,-1,-1,-1,-1,-1,-1,-1,-1,-1,-1,-1,-1,-1,-1,-1,-1,-1,-1,-1,-1,-1,-1,-1,-1,-1,-1,-1,-1,-1,-1,-1,-1,-1,-1,-1],"loss_changes":[1.5053431E6,1.4292944E5,2.1054212E5,9.075875E3,2.2851273E4,5.402122E4,9.5067625E4,0E0,6.097344E2,6.6163047E3,5.4806875E3,1.0845832E4,2.6255844E4,4.0006312E4,6.223047E3,6.617969E1,1.9680078E2,1.0209375E3,1.563127E3,3.1331182E3,1.7918633E3,3.5688296E3,2.9828477E3,2.0634219E4,2.856457E3,4.1668906E3,1.30028125E4,1.4248047E2,1.0551562E3,0E0,5.65625E0,2.1408398E2,2.003534E1,2.5820312E2,2.3554297E2,7.2852344E2,6.276958E2,5.375908E2,1.9325984E3,9.6556445E2,7.607781E2,1.4863163E3,1.8268408E3,1.0880669E3,2.9073164E3,5.7572344E3,6.526E3,2.9332715E2,0E0,2.9850547E3,3.1638203E3,5.1837812E3,9.5104375E3,0E0,0E0,0E0,0E0,0E0,0E0,0E0,0E0,0E0,0E0,0E0,0E0,0E0,0E0,0E0,0E0,0E0,0E0,0E0,0E0,0E0,0E0,0E0,0E0,0E0,0E0,0E0,0E0,0E0,0E0,0E0,0E0,0E0,0E0,0E0,0E0,0E0,0E0,0E0,0E0,0E0,0E0,0E0,0E0,0E0,0E0,0E0,0E0],"parents":[2147483647,0,0,1,1,2,2,3,3,4,4,5,5,6,6,8,8,9,9,10,10,11,11,12,12,13,13,14,14,15,15,16,16,17,17,18,18,19,19,20,20,21,21,22,22,23,23,24,24,25,25,26,26,27,27,28,28,30,30,31,31,32,32,33,33,34,34,35,35,36,36,37,37,38,38,39,39,40,40,41,41,42,42,43,43,44,44,45,45,46,46,47,47,49,49,50,50,51,51,52,52],"right_children":[2,4,6,8,10,12,14,-1,16,18,20,22,24,26,28,30,32,34,36,38,40,42,44,46,48,50,52,54,56,-1,58,60,62,64,66,68,70,72,74,76,78,80,82,84,86,88,90,92,-1,94,96,98,100,-1,-1,-1,-1,-1,-1,-1,-1,-1,-1,-1,-1,-1,-1,-1,-1,-1,-1,-1,-1,-1,-1,-1,-1,-1,-1,-1,-1,-1,-1,-1,-1,-1,-1,-1,-1,-1,-1,-1,-1,-1,-1,-1,-1,-1,-1,-1,-1],"split_conditions":[1.6E1,5E0,3.6E1,1E0,1.3E1,2.3E1,1E0,-5.6534E-1,9E0,1.5666667E1,2.6E1,2.1E1,1E0,5.575E1,4.275E1,5.75E0,2.6E1,1.1E1,2.2666666E1,1E1,6.234898E-1,1.8E1,1.6E1,4.075E1,2.7E1,3.2E1,5.8E1,4.875E1,6.6E0,-4.5669076E-1,1E0,6.234898E-1,2.278E3,1E0,1.2E1,1E0,1E0,2.1E1,6.234898E-1,1.2164E3,3.5E1,1.2E1,1E0,1.6E1,1E0,1E0,1E0,2.64E1,1.9096653E0,5E0,1E0,1.6E1,1E0,2.401368E0,1.3334373E0,2.023486E0,3.7587059E0,-4.129665E-1,-3.2221407E-1,-2.7719554E-1,-3.754083E-1,-2.2175145E-1,-8.399292E-2,-3.5859042E-1,-4.5464143E-2,-2.7888438E-1,-1.7672844E-1,-2.0955741E-1,-2.9479546E-2,-1.1124686E-1,8.1950985E-2,-1.8367882E-1,2.0955376E-2,1.1976291E-1,-3.5204865E-2,2.840689E-1,8.7574667E-1,1.20068185E-1,3.6466742E-1,-4.667842E-2,1.08814776E-1,2.1471937E-1,5.9998274E-1,9.365156E-2,3.059127E-1,3.4886158E-1,5.8616424E-1,3.8777578E-1,7.1530724E-1,6.2967944E-1,8.91369E-1,1.1823113E0,5.3622067E-1,4.3688193E-1,7.324343E-1,7.753682E-1,1.0993905E0,8.2676643E-1,1.1758084E0,1.0439492E0,1.6061779E0],"split_indices":[6,6,6,4,4,4,48,0,0,72,4,7,48,72,72,72,0,72,72,6,26,4,5,72,72,4,0,11,36,0,50,26,69,48,15,49,50,4,26,71,4,4,27,4,18,27,18,38,0,15,18,19,18,0,0,0,0,0,0,0,0,0,0,0,0,0,0,0,0,0,0,0,0,0,0,0,0,0,0,0,0,0,0,0,0,0,0,0,0,0,0,0,0,0,0,0,0,0,0,0,0],"split_type":[0,0,0,0,0,0,0,0,0,0,0,0,0,0,0,0,0,0,0,0,0,0,0,0,0,0,0,0,0,0,0,0,0,0,0,0,0,0,0,0,0,0,0,0,0,0,0,0,0,0,0,0,0,0,0,0,0,0,0,0,0,0,0,0,0,0,0,0,0,0,0,0,0,0,0,0,0,0,0,0,0,0,0,0,0,0,0,0,0,0,0,0,0,0,0,0,0,0,0,0,0],"sum_hessian":[1.6201E4,1.0132E4,6.069E3,5.725E3,4.407E3,4.264E3,1.805E3,4.744E3,9.81E2,3.065E3,1.342E3,1.909E3,2.355E3,1.749E3,5.6E1,6.07E2,3.74E2,1.455E3,1.61E3,1.162E3,1.8E2,1.001E3,9.08E2,2.298E3,5.7E1,8.15E2,9.34E2,2.2E1,3.4E1,2.58E2,3.49E2,3.6E2,1.4E1,6.84E2,7.71E2,1.046E3,5.64E2,3.14E2,8.48E2,3E1,1.5E2,6.78E2,3.23E2,2.45E2,6.63E2,1.257E3,1.041E3,1.9E1,3.8E1,3.98E2,4.17E2,5.31E2,4.03E2,1.7E1,5E0,5E0,2.9E1,3.26E2,2.3E1,9.1E1,2.69E2,5E0,9E0,6.77E2,7E0,7.02E2,6.9E1,9.86E2,6E1,5.19E2,4.5E1,2.78E2,3.6E1,3.26E2,5.22E2,1.4E1,1.6E1,1.04E2,4.6E1,2.34E2,4.44E2,2.89E2,3.4E1,1.13E2,1.32E2,4.82E2,1.81E2,1.103E3,1.54E2,6.44E2,3.97E2,1.4E1,5E0,1.36E2,2.62E2,3.05E2,1.12E2,1.69E2,3.62E2,1.13E2,2.9E2],"tree_param":{"num_deleted":"0","num_feature":"74","num_nodes":"101","size_leaf_vector":"1"}},{"base_weights":[-2.2085652E-2,-6.777052E0,1.2533444E1,-9.841319E0,-2.102629E0,8.956633E0,2.104036E1,-5.369658E-1,-7.151246E0,-4.07161E0,6.5464646E-1,6.312311E0,1.2305163E1,1.9555128E1,6.269891E1,-7.3023257E0,4.2006323E-1,-4.2116942E0,6.198495E0,1.382053E-1,2.1417288E1,4.526927E0,9.161426E0,1.5908418E1,9.610994E0,1.5063786E1,2.3599052E1,2.0442028E0,7.021242E1,-8.07228E0,-6.638798E0,-1.7406964E0,3.3296611E0,-5.334139E0,-3.2639315E0,4.2950387E0,5.7987076E-1,-1.1107638E0,1.9368099E0,1.2928582E1,2.5650694E1,1.4900655E0,5.2722483E0,8.52919E0,1.7544992E1,1.38693E1,2.4291996E1,8.173058E0,1.5321583E1,1.2770895E1,1.8013466E1,2.0856379E1,2.9382633E1,2.003573E0,7.523639E1,-4.312323E-1,-3.837888E-1,-3.4131983E-1,-2.3696278E-1,-1.2369382E-1,1.21753095E-2,5.2462425E-2,2.4481574E-1,-3.0491042E-1,-2.2870336E-1,-1.8016359E-1,-2.14114E-2,3.1186038E-1,7.5053714E-2,-1.5866263E-1,-2.4790095E-2,6.292389E-2,3.045351E-1,3.31449E-1,7.590156E-1,6.375403E-1,1.399918E0,5.3078115E-2,4.362874E-1,5.9056457E-2,2.8540564E-1,3.4602734E-1,5.1974237E-1,9.796128E-1,5.113433E-1,6.195405E-1,8.913051E-1,4.054757E-1,1.3188548E0,3.4515002E-1,5.7281667E-1,7.26813E-1,1.5224441E0,4.528192E-1,7.3272437E-1,1.0737631E0,7.801748E-1,7.3610896E-1,1.1266781E0,1.6369667E0,1.0643153E0,4.308617E0,2.6725647E0],"categories":[],"categories_nodes":[],"categories_segments":[],"categories_sizes":[],"default_left":[0,0,0,0,0,0,0,0,0,0,0,0,0,0,0,0,0,0,0,0,0,0,0,0,0,0,0,0,0,0,0,0,0,0,0,0,0,0,0,0,0,0,0,0,0,0,0,0,0,0,0,0,0,0,0,0,0,0,0,0,0,0,0,0,0,0,0,0,0,0,0,0,0,0,0,0,0,0,0,0,0,0,0,0,0,0,0,0,0,0,0,0,0,0,0,0,0,0,0,0,0,0,0],"id":6,"left_children":[1,3,5,7,9,11,13,-1,15,17,19,21,23,25,27,29,31,33,35,37,39,41,43,45,47,49,51,-1,53,55,57,59,61,63,65,67,-1,69,71,73,75,77,79,81,83,85,87,89,91,93,95,97,99,-1,101,-1,-1,-1,-1,-1,-1,-1,-1,-1,-1,-1,-1,-1,-1,-1,-1,-1,-1,-1,-1,-1,-1,-1,-1,-1,-1,-1,-1,-1,-1,-1,-1,-1,-1,-1,-1,-1,-1,-1,-1,-1,-1,-1,-1,-1,-1,-1,-1],"loss_changes":[1.3676809E6,1.501619E5,1.7145081E5,1.5219875E4,2.2549738E4,3.509975E4,1.02031E5,0E0,1.8202266E3,3.511832E3,1.8555848E4,1.1259945E4,1.6852594E4,2.8937062E4,6.4609688E3,7.403828E2,2.0713695E2,2.5253047E3,2.8772742E2,3.7986526E3,1.173832E3,3.0878496E3,4.379586E3,1.2446422E4,8.1249453E3,4.9543438E3,1.2817656E4,0E0,3.1821562E3,8.8984375E1,2.6653906E2,2.846622E1,4.4284607E1,6.057949E2,1.2480391E3,1.3094879E2,0E0,1.2638752E3,1.9442786E3,1.2414917E2,4.5660742E2,8.299972E2,1.9504922E3,2.3182656E3,6.8059766E2,3.3095547E3,4.67525E3,3.2758906E3,1.9407305E3,2.9084375E3,2.4393672E3,5.6111094E3,6.6354688E3,0E0,3.4802031E3,0E0,0E0,0E0,0E0,0E0,0E0,0E0,0E0,0E0,0E0,0E0,0E0,0E0,0E0,0E0,0E0,0E0,0E0,0E0,0E0,0E0,0E0,0E0,0E0,0E0,0E0,0E0,0E0,0E0,0E0,0E0,0E0,0E0,0E0,0E0,0E0,0E0,0E0,0E0,0E0,0E0,0E0,0E0,0E0,0E0,0E0,0E0,0E0],"parents":[2147483647,0,0,1,1,2,2,3,3,4,4,5,5,6,6,8,8,9,9,10,10,11,11,12,12,13,13,14,14,15,15,16,16,17,17,18,18,19,19,20,20,21,21,22,22,23,23,24,24,25,25,26,26,28,28,29,29,30,30,31,31,32,32,33,33,34,34,35,35,37,37,38,38,39,39,40,40,41,41,42,42,43,43,44,44,45,45,46,46,47,47,48,48,49,49,50,50,51,51,52,52,54,54],"right_children":[2,4,6,8,10,12,14,-1,16,18,20,22,24,26,28,30,32,34,36,38,40,42,44,46,48,50,52,-1,54,56,58,60,62,64,66,68,-1,70,72,74,76,78,80,82,84,86,88,90,92,94,96,98,100,-1,102,-1,-1,-1,-1,-1,-1,-1,-1,-1,-1,-1,-1,-1,-1,-1,-1,-1,-1,-1,-1,-1,-1,-1,-1,-1,-1,-1,-1,-1,-1,-1,-1,-1,-1,-1,-1,-1,-1,-1,-1,-1,-1,-1,-1,-1,-1,-1,-1],"split_conditions":[1.8E1,6.25E0,3.7E1,1.75E0,1.175E1,2.7E1,1E0,-5.369658E-1,1E0,1E0,1E0,2.6E1,6.234898E-1,5.7E1,4.275E1,7.5E0,8.5E0,1.6E1,3.3E1,1.6E1,2.5E1,1.4E1,1E0,1.943882E1,6.6E1,4.9E1,2.2786303E1,2.0442028E0,4.3E1,6E0,1E0,1.6E1,4.282738E1,8E0,1E0,1.9E1,5.7987076E-1,1.6E1,1E0,1.6E1,1.2E1,1E0,2E0,1.3917394E1,1.1E1,4.8E1,1.8E1,2.9E1,1E0,5E0,6.234898E-1,1.5718943E1,6.234898E-1,2.003573E0,1.35E2,-4.312323E-1,-3.837888E-1,-3.4131983E-1,-2.3696278E-1,-1.2369382E-1,1.21753095E-2,5.2462425E-2,2.4481574E-1,-3.0491042E-1,-2.2870336E-1,-1.8016359E-1,-2.14114E-2,3.1186038E-1,7.5053714E-2,-1.5866263E-1,-2.4790095E-2,6.292389E-2,3.045351E-1,3.31449E-1,7.590156E-1,6.375403E-1,1.399918E0,5.3078115E-2,4.362874E-1,5.9056457E-2,2.8540564E-1,3.4602734E-1,5.1974237E-1,9.796128E-1,5.113433E-1,6.195405E-1,8.913051E-1,4.054757E-1,1.3188548E0,3.4515002E-1,5.7281667E-1,7.26813E-1,1.5224441E0,4.528192E-1,7.3272437E-1,1.0737631E0,7.801748E-1,7.3610896E-1,1.1266781E0,1.6369667E0,1.0643153E0,4.308617E0,2.6725647E0],"split_indices":[73,73,6,73,73,4,48,0,48,48,48,73,26,72,72,72,72,0,4,4,4,4,50,10,0,0,10,0,4,0,27,4,9,73,27,4,0,1,27,4,13,50,15,10,65,0,5,6,48,15,26,10,26,0,0,0,0,0,0,0,0,0,0,0,0,0,0,0,0,0,0,0,0,0,0,0,0,0,0,0,0,0,0,0,0,0,0,0,0,0,0,0,0,0,0,0,0,0,0,0,0,0,0],"split_type":[0,0,0,0,0,0,0,0,0,0,0,0,0,0,0,0,0,0,0,0,0,0,0,0,0,0,0,0,0,0,0,0,0,0,0,0,0,0,0,0,0,0,0,0,0,0,0,0,0,0,0,0,0,0,0,0,0,0,0,0,0,0,0,0,0,0,0,0,0,0,0,0,0,0,0,0,0,0,0,0,0,0,0,0,0,0,0,0,0,0,0,0,0,0,0,0,0,0,0,0,0,0,0],"sum_hessian":[1.6124E4,1.0484E4,5.64E3,6.332E3,4.152E3,3.972E3,1.668E3,4.745E3,1.587E3,2.422E3,1.73E3,2.221E3,1.751E3,1.612E3,5.6E1,1.556E3,3.1E1,2.39E3,3.2E1,1.689E3,4.1E1,1.367E3,8.54E2,7.47E2,1.004E3,7.66E2,8.46E2,1.6E1,4E1,7.15E2,8.41E2,1.8E1,1.3E1,1.092E3,1.298E3,2.5E1,7E0,9.97E2,6.92E2,1.5E1,2.6E1,2.7E2,1.097E3,7.96E2,5.8E1,6.03E2,1.44E2,8.04E2,2E2,4.34E2,3.32E2,5.77E2,2.69E2,7E0,3.3E1,2.9E2,4.25E2,7.63E2,7.8E1,1.3E1,5E0,6E0,7E0,5.41E2,5.51E2,1.159E3,1.39E2,1.4E1,1.1E1,2.28E2,7.69E2,5.96E2,9.6E1,5E0,1E1,5E0,2.1E1,2.56E2,1.4E1,1.06E2,9.91E2,4.3E2,3.66E2,4.4E1,1.4E1,4.42E2,1.61E2,1.7E1,1.27E2,5.82E2,2.22E2,1.92E2,8E0,1.48E2,2.86E2,1.33E2,1.99E2,1.26E2,4.51E2,1.88E2,8.1E1,2E1,1.3E1],"tree_param":{"num_deleted":"0","num_feature":"74","num_nodes":"103","size_leaf_vector":"1"}},{"base_weights":[2.7260015E-2,-7.084401E0,1.0892954E1,-9.775557E0,-3.4282794E0,6.201834E0,1.7324512E1,-5.1021713E-1,-7.4245424E0,-4.843811E0,-1.2270689E0,5.7206984E0,3.408407E1,1.6506575E1,6.778362E1,-7.5458975E0,-1.2017044E0,-5.899506E0,-3.6392329E0,-1.6266177E0,9.471496E0,3.4458766E0,8.261715E0,1.1046089E0,4.1389465E1,1.3773766E1,2.1841972E1,1.7796478E0,7.2039055E1,-7.9297523E0,-6.903908E0,-2.6181746E0,6.919583E-2,-6.0327067E0,-3.7049549E0,-4.12263E0,-2.5232322E0,-3.4269817E0,-5.526631E-1,4.191256E0,1.4102316E1,1.5253567E0,4.9616013E0,4.9504566E0,9.5255375E0,1.3863893E0,2.233486E0,1.2168853E1,1.8281235E1,1.6785797E1,2.4761099E1,1.856088E0,3.8165853E0,-4.154714E-1,-3.7776583E-1,-3.5019758E-1,-1.4960536E-1,-4.265556E-2,-2.1121931E-1,-3.0736822E-1,-2.1989349E-1,-1.23819366E-1,-2.4053769E-1,-2.3880892E-1,-1.7106526E-1,-2.5728884E-1,-1.1265142E-1,-1.8940566E-1,-5.23204E-2,-4.971198E-2,1.5478025E-1,8.5469015E-2,3.3605835E-1,4.5910063E-1,9.7069854E-1,9.446987E-4,1.3824819E-1,2.2133075E-1,4.624207E-1,3.1303892E-1,1.4133215E-1,4.4314557E-1,7.3391956E-1,4.5605293E-1,6.885495E-1,7.6465636E-1,1.0935267E0,6.4520454E-1,1.0317966E0,9.433462E-1,1.317687E0],"categories":[],"categories_nodes":[],"categories_segments":[],"categories_sizes":[],"default_left":[0,0,0,0,0,0,0,0,0,0,0,0,0,0,0,0,0,0,0,0,0,0,0,0,0,0,0,0,0,0,0,0,0,0,0,0,0,0,0,0,0,0,0,0,0,0,0,0,0,0,0,0,0,0,0,0,0,0,0,0,0,0,0,0,0,0,0,0,0,0,0,0,0,0,0,0,0,0,0,0,0,0,0,0,0,0,0,0,0,0,0],"id":7,"left_children":[1,3,5,7,9,11,13,-1,15,17,19,21,23,25,27,29,31,33,35,37,39,41,43,-1,45,47,49,-1,51,53,55,57,-1,59,61,63,65,67,69,71,73,75,77,79,81,-1,-1,83,85,87,89,-1,-1,-1,-1,-1,-1,-1,-1,-1,-1,-1,-1,-1,-1,-1,-1,-1,-1,-1,-1,-1,-1,-1,-1,-1,-1,-1,-1,-1,-1,-1,-1,-1,-1,-1,-1,-1,-1,-1,-1],"loss_changes":[1.2581614E6,9.6792625E4,1.94223E5,5.6363125E3,1.2999145E4,4.978589E4,1.10968625E5,0E0,6.5310156E2,3.2076133E3,7.003588E3,2.114961E4,4.598414E3,3.8684125E4,3.3155312E3,1.5594531E2,6.967095E1,3.7188672E2,6.3036426E2,3.0468516E3,1.3817231E3,5.6245293E3,7.191164E3,0E0,4.5708594E2,1.2586031E4,1.29229375E4,0E0,2.7009375E3,1.1261719E1,1.0719043E2,2.9909164E1,0E0,2.1052734E2,9.604199E1,3.6235254E2,2.4418726E2,5.019165E2,1.5961362E3,1.6975671E2,6.2906445E2,1.5963151E3,2.4368457E3,1.3171758E3,4.139E3,0E0,0E0,6.2639375E3,4.6275938E3,4.7220156E3,4.8584062E3,0E0,0E0,0E0,0E0,0E0,0E0,0E0,0E0,0E0,0E0,0E0,0E0,0E0,0E0,0E0,0E0,0E0,0E0,0E0,0E0,0E0,0E0,0E0,0E0,0E0,0E0,0E0,0E0,0E0,0E0,0E0,0E0,0E0,0E0,0E0,0E0,0E0,0E0,0E0,0E0],"parents":[2147483647,0,0,1,1,2,2,3,3,4,4,5,5,6,6,8,8,9,9,10,10,11,11,12,12,13,13,14,14,15,15,16,16,17,17,18,18,19,19,20,20,21,21,22,22,24,24,25,25,26,26,28,28,29,29,30,30,31,31,33,33,34,34,35,35,36,36,37,37,38,38,39,39,40,40,41,41,42,42,43,43,44,44,47,47,48,48,49,49,50,50],"right_children":[2,4,6,8,10,12,14,-1,16,18,20,22,24,26,28,30,32,34,36,38,40,42,44,-1,46,48,50,-1,52,54,56,58,-1,60,62,64,66,68,70,72,74,76,78,80,82,-1,-1,84,86,88,90,-1,-1,-1,-1,-1,-1,-1,-1,-1,-1,-1,-1,-1,-1,-1,-1,-1,-1,-1,-1,-1,-1,-1,-1,-1,-1,-1,-1,-1,-1,-1,-1,-1,-1,-1,-1,-1,-1,-1,-1],"split_conditions":[1.525E1,4.75E0,3.025E1,1.5E0,2E1,1E0,1E0,-5.1021713E-1,1E0,8E0,1E0,2.2666666E1,2E1,4.325E1,4.1E1,8E0,1E1,4.9E1,1.2E1,1.025E1,9E0,1.8E1,2.4208334E1,1.1046089E0,1.299E3,3.975E1,1.7941885E1,1.7796478E0,3.1E1,3.5E0,1E0,4.4559525E1,6.919583E-2,1E0,3.4809525E1,8E0,4E0,1E0,1E0,1.8E1,2.7E1,5E0,1E0,8.660254E-1,1.2E1,1.3863893E0,2.233486E0,1.7E1,1E0,1.7E1,1E0,1.856088E0,3.8165853E0,-4.154714E-1,-3.7776583E-1,-3.5019758E-1,-1.4960536E-1,-4.265556E-2,-2.1121931E-1,-3.0736822E-1,-2.1989349E-1,-1.23819366E-1,-2.4053769E-1,-2.3880892E-1,-1.7106526E-1,-2.5728884E-1,-1.1265142E-1,-1.8940566E-1,-5.23204E-2,-4.971198E-2,1.5478025E-1,8.5469015E-2,3.3605835E-1,4.5910063E-1,9.7069854E-1,9.446987E-4,1.3824819E-1,2.2133075E-1,4.624207E-1,3.1303892E-1,1.4133215E-1,4.4314557E-1,7.3391956E-1,4.5605293E-1,6.885495E-1,7.6465636E-1,1.0935267E0,6.4520454E-1,1.0317966E0,9.433462E-1,1.317687E0],"split_indices":[73,73,73,73,0,48,48,0,48,73,48,73,73,73,4,0,13,19,6,73,73,4,8,0,69,8,10,0,73,73,18,9,0,27,9,4,19,27,27,5,4,15,27,28,15,0,0,19,18,19,18,0,0,0,0,0,0,0,0,0,0,0,0,0,0,0,0,0,0,0,0,0,0,0,0,0,0,0,0,0,0,0,0,0,0,0,0,0,0,0,0],"split_type":[0,0,0,0,0,0,0,0,0,0,0,0,0,0,0,0,0,0,0,0,0,0,0,0,0,0,0,0,0,0,0,0,0,0,0,0,0,0,0,0,0,0,0,0,0,0,0,0,0,0,0,0,0,0,0,0,0,0,0,0,0,0,0,0,0,0,0,0,0,0,0,0,0,0,0,0,0,0,0,0,0,0,0,0,0,0,0,0,0,0,0],"sum_hessian":[1.628E4,9.84E3,6.44E3,5.667E3,4.173E3,3.725E3,2.715E3,4.79E3,8.77E2,2.539E3,1.634E3,3.663E3,6.2E1,2.673E3,4.2E1,8.6E2,1.7E1,1.351E3,1.188E3,1.576E3,5.8E1,1.934E3,1.729E3,2.5E1,3.7E1,1.77E3,9.03E2,6E0,3.6E1,5.31E2,3.29E2,1.1E1,6E0,1.272E3,7.9E1,8.27E2,3.61E2,5.88E2,9.88E2,2.8E1,3E1,8.54E2,1.08E3,4.79E2,1.25E3,9E0,2.8E1,1.308E3,4.62E2,3.33E2,5.7E2,5E0,3.1E1,2.53E2,2.78E2,3.2E2,9E0,6E0,5E0,1.186E3,8.6E1,3.9E1,4E1,4.25E2,4.02E2,3.2E1,3.29E2,5.1E2,7.8E1,8.82E2,1.06E2,1.5E1,1.3E1,1.7E1,1.3E1,3.86E2,4.68E2,9.62E2,1.18E2,2.95E2,1.84E2,1.11E3,1.4E2,4.53E2,8.55E2,2.55E2,2.07E2,1.68E2,1.65E2,1.24E2,4.46E2],"tree_param":{"num_deleted":"0","num_feature":"74","num_nodes":"91","size_leaf_vector":"1"}},{"base_weights":[-4.697522E-2,-6.7163033E0,1.0204601E1,-9.329731E0,-3.2932615E0,6.46401E0,1.733036E1,-4.8473144E-1,-7.118764E0,-5.024674E0,-1.6155872E0,5.523994E0,1.4581972E1,1.6720625E1,8.634E1,-7.2168283E0,-2.9676461E0,-5.7214737E0,-3.7605755E0,-2.816056E0,1.10357374E-1,2.6905198E0,7.7678013E0,1.1493862E1,3.1934566E1,1.2586865E1,2.003904E1,2.399205E0,5.017197E0,-7.5549726E0,-6.604299E0,4.1884433E-2,-4.2986035E0,-6.2233562E0,-5.07157E0,-3.922138E0,-1.4800264E0,-2.983166E0,7.292134E0,-1.8862337E-1,9.644137E0,1.0975111E-1,3.5389087E0,7.0167007E0,1.2927793E1,6.911035E0,1.400614E1,2.8468298E1,4.6353683E1,9.463103E0,1.5136993E1,1.5313724E1,2.2989895E1,-3.8728744E-1,-3.473202E-1,-3.560401E-1,-2.9104385E-1,-2.518803E-1,-1.360043E-1,-3.1911895E-1,-2.3361616E-1,-2.8946117E-1,-2.2130612E-1,-2.4782677E-1,-1.7811552E-1,1.18865155E-1,-1.1276404E-1,-1.6528705E-1,-3.370165E-2,2.4031368E-1,5.7814795E-1,-1.8347368E-2,3.478524E-1,6.528126E-2,6.8676513E-1,-7.720506E-2,4.304692E-2,1.5551122E-1,3.6196288E-1,2.5105116E-1,4.0712318E-1,5.064706E-1,8.4194845E-1,3.0452517E-1,1.0398127E0,6.482348E-1,1.3819816E0,8.0894417E-1,1.525943E0,2.8301084E0,1.418146E0,3.470722E-1,5.877902E-1,6.351508E-1,9.568861E-1,6.58421E-1,9.361143E-1,9.6834534E-1,1.4600735E0],"categories":[],"categories_nodes":[],"categories_segments":[],"categories_sizes":[],"default_left":[0,0,0,0,0,0,0,0,0,0,0,0,0,0,0,0,0,0,0,0,0,0,0,0,0,0,0,0,0,0,0,0,0,0,0,0,0,0,0,0,0,0,0,0,0,0,0,0,0,0,0,0,0,0,0,0,0,0,0,0,0,0,0,0,0,0,0,0,0,0,0,0,0,0,0,0,0,0,0,0,0,0,0,0,0,0,0,0,0,0,0,0,0,0,0,0,0,0,0],"id":8,"left_children":[1,3,5,7,9,11,13,-1,15,17,19,21,23,25,27,29,31,33,35,37,39,41,43,45,47,49,51,-1,-1,53,55,-1,57,59,61,63,65,67,69,71,73,75,77,79,81,83,85,87,89,91,93,95,97,-1,-1,-1,-1,-1,-1,-1,-1,-1,-1,-1,-1,-1,-1,-1,-1,-1,-1,-1,-1,-1,-1,-1,-1,-1,-1,-1,-1,-1,-1,-1,-1,-1,-1,-1,-1,-1,-1,-1,-1,-1,-1,-1,-1,-1,-1],"loss_changes":[1.1074069E6,8.7753875E4,1.7004819E5,4.4182188E3,1.2336391E4,3.1876125E4,9.0990625E4,0E0,2.9997266E2,1.8193359E3,4.4759775E3,2.3851484E4,2.2885242E4,2.9634938E4,5.3758125E3,1.0879297E2,1.0524176E2,4.0633984E2,2.6851953E2,2.173338E3,2.5310842E3,3.635998E3,8.026836E3,4.161047E3,1.9216406E3,7.6052188E3,1.6474219E4,0E0,0E0,1.7324219E0,7.176953E1,0E0,3.0194092E0,1.5529492E2,2.4757422E2,2.4054688E2,1.5786026E2,9.3143945E2,1.657384E2,1.0990184E3,9.016472E2,5.131105E2,1.9593018E3,4.0714297E3,2.7271484E3,1.3859551E3,3.0168477E3,8.875781E2,4.142578E2,2.4603477E3,4.9536406E3,3.1651562E3,1.6105375E4,0E0,0E0,0E0,0E0,0E0,0E0,0E0,0E0,0E0,0E0,0E0,0E0,0E0,0E0,0E0,0E0,0E0,0E0,0E0,0E0,0E0,0E0,0E0,0E0,0E0,0E0,0E0,0E0,0E0,0E0,0E0,0E0,0E0,0E0,0E0,0E0,0E0,0E0,0E0,0E0,0E0,0E0,0E0,0E0,0E0,0E0],"parents":[2147483647,0,0,1,1,2,2,3,3,4,4,5,5,6,6,8,8,9,9,10,10,11,11,12,12,13,13,14,14,15,15,16,16,17,17,18,18,19,19,20,20,21,21,22,22,23,23,24,24,25,25,26,26,29,29,30,30,32,32,33,33,34,34,35,35,36,36,37,37,38,38,39,39,40,40,41,41,42,42,43,43,44,44,45,45,46,46,47,47,48,48,49,49,50,50,51,51,52,52],"right_children":[2,4,6,8,10,12,14,-1,16,18,20,22,24,26,28,30,32,34,36,38,40,42,44,46,48,50,52,-1,-1,54,56,-1,58,60,62,64,66,68,70,72,74,76,78,80,82,84,86,88,90,92,94,96,98,-1,-1,-1,-1,-1,-1,-1,-1,-1,-1,-1,-1,-1,-1,-1,-1,-1,-1,-1,-1,-1,-1,-1,-1,-1,-1,-1,-1,-1,-1,-1,-1,-1,-1,-1,-1,-1,-1,-1,-1,-1,-1,-1,-1,-1,-1],"split_conditions":[1.525E1,4.5E0,3.275E1,1E0,1.7E1,1E0,2E0,-4.8473144E-1,2.1E1,1.5E1,1.15E1,2.225E1,4.163095E1,1.7742727E1,8.4833336E1,8E0,1.1053E3,1.1E1,1E0,2E0,3.0282606E1,1.3E1,5.8E1,2.025E1,5.9E1,5E0,1E0,2.399205E0,5.017197E0,7E0,1.467E3,4.1884433E-2,1.88E3,1E0,5E0,8E0,4.8E0,1E0,2E1,5.3E1,1E0,2.1E1,1.2E1,3.5E1,4.3083332E1,2.6762508E1,2E0,1.6333334E1,5.5684525E1,1E0,5.525E1,7.3E1,4.9E1,-3.8728744E-1,-3.473202E-1,-3.560401E-1,-2.9104385E-1,-2.518803E-1,-1.360043E-1,-3.1911895E-1,-2.3361616E-1,-2.8946117E-1,-2.2130612E-1,-2.4782677E-1,-1.7811552E-1,1.18865155E-1,-1.1276404E-1,-1.6528705E-1,-3.370165E-2,2.4031368E-1,5.7814795E-1,-1.8347368E-2,3.478524E-1,6.528126E-2,6.8676513E-1,-7.720506E-2,4.304692E-2,1.5551122E-1,3.6196288E-1,2.5105116E-1,4.0712318E-1,5.064706E-1,8.4194845E-1,3.0452517E-1,1.0398127E0,6.482348E-1,1.3819816E0,8.0894417E-1,1.525943E0,2.8301084E0,1.418146E0,3.470722E-1,5.877902E-1,6.351508E-1,9.568861E-1,6.58421E-1,9.361143E-1,9.6834534E-1,1.4600735E0],"split_indices":[73,73,73,5,0,50,50,0,11,2,73,73,9,10,8,0,71,72,50,50,10,5,0,73,2,15,18,0,0,2,69,0,69,50,15,73,36,50,5,0,50,0,15,2,8,10,50,73,9,18,72,0,1,0,0,0,0,0,0,0,0,0,0,0,0,0,0,0,0,0,0,0,0,0,0,0,0,0,0,0,0,0,0,0,0,0,0,0,0,0,0,0,0,0,0,0,0,0,0],"split_type":[0,0,0,0,0,0,0,0,0,0,0,0,0,0,0,0,0,0,0,0,0,0,0,0,0,0,0,0,0,0,0,0,0,0,0,0,0,0,0,0,0,0,0,0,0,0,0,0,0,0,0,0,0,0,0,0,0,0,0,0,0,0,0,0,0,0,0,0,0,0,0,0,0,0,0,0,0,0,0,0,0,0,0,0,0,0,0,0,0,0,0,0,0,0,0,0,0,0,0],"sum_hessian":[1.6195E4,9.812E3,6.383E3,5.563E3,4.249E3,4.187E3,2.196E3,4.772E3,7.91E2,2.09E3,2.159E3,3.754E3,4.33E2,2.178E3,1.8E1,7.72E2,1.9E1,1.345E3,7.45E2,1.273E3,8.86E2,1.66E3,2.094E3,3.69E2,6.4E1,9.72E2,1.206E3,6E0,1.2E1,4.9E2,2.82E2,5E0,1.4E1,7.54E2,5.91E2,6.95E2,5E1,1.253E3,2E1,8.6E2,2.6E1,4.11E2,1.249E3,1.83E3,2.64E2,1.32E2,2.37E2,5.4E1,1E1,4.39E2,5.33E2,4.66E2,7.4E2,3.64E2,1.26E2,1.65E2,1.17E2,8E0,6E0,6.81E2,7.3E1,2.76E2,3.15E2,1.76E2,5.19E2,8E0,4.2E1,1.099E3,1.54E2,1.4E1,6E0,8.4E2,2E1,9E0,1.7E1,1.28E2,2.83E2,1.121E3,1.28E2,6.62E2,1.168E3,1.56E2,1.08E2,1.26E2,6E0,2.22E2,1.5E1,9E0,4.5E1,5E0,5E0,2.11E2,2.28E2,3.34E2,1.99E2,2.89E2,1.77E2,4.7E2,2.7E2],"tree_param":{"num_deleted":"0","num_feature":"74","num_nodes":"99","size_leaf_vector":"1"}},{"base_weights":[5.996946E-2,-5.8227515E0,1.0870961E1,-8.589424E0,-1.9779911E0,1.0214383E1,5.031002E1,-4.604202E-1,-6.3123803E0,-2.850322E0,2.692333E0,6.967926E0,1.7137297E1,3.277476E1,6.9935326E1,-6.581058E0,-3.9363413E0,-4.3814974E0,-1.480174E0,1.5870223E0,1.4937504E1,4.536883E0,9.323782E0,1.3269783E1,2.0519514E1,7.1484876E-1,3.5387203E1,1.8464981E0,7.5324425E1,-7.0633817E0,-5.8923125E0,-4.7050123E0,-5.2902764E-1,-4.996421E0,-3.34725E0,-2.3572898E0,2.7753082E-1,5.3847995E0,8.4856725E-1,9.915737E0,2.1925518E1,3.5878594E0,7.0184493E0,7.612793E0,1.1771878E1,9.670093E0,1.5979276E1,2.2963133E1,1.507928E1,1.0151628E0,1.8398942E0,8.535182E1,5.101043E1,-3.745757E-1,-3.3716848E-1,-3.0328852E-1,-2.1596824E-1,-3.1557927E-1,-2.0657058E-1,-1.1582726E-1,7.1449675E-2,-2.870742E-1,-2.3356405E-1,-1.1330469E-1,-1.9747083E-1,-1.3430837E-1,4.210788E-2,-5.623998E-3,2.2930145E-1,3.6624655E-1,1.3072555E-1,-2.4547096E-2,1.382862E-1,5.63635E-1,7.308184E-2,1.2168158E0,6.462109E-1,2.69903E-2,2.069907E-1,2.9928753E-1,6.1469525E-1,3.5986495E-1,7.561466E-1,4.1606137E-1,6.443457E-1,3.799633E-1,6.720657E-1,9.007748E-1,6.2342745E-1,1.0175282E0,1.3966274E0,5.527794E-1,9.1494554E-1,4.7007704E0,2.1837595E0,3.158449E0,1.3140316E0],"categories":[],"categories_nodes":[],"categories_segments":[],"categories_sizes":[],"default_left":[0,0,0,0,0,0,0,0,0,0,0,0,0,0,0,0,0,0,0,0,0,0,0,0,0,0,0,0,0,0,0,0,0,0,0,0,0,0,0,0,0,0,0,0,0,0,0,0,0,0,0,0,0,0,0,0,0,0,0,0,0,0,0,0,0,0,0,0,0,0,0,0,0,0,0,0,0,0,0,0,0,0,0,0,0,0,0,0,0,0,0,0,0,0,0,0,0],"id":9,"left_children":[1,3,5,7,9,11,13,-1,15,17,19,21,23,25,27,29,31,33,35,37,39,41,43,45,47,-1,49,-1,51,53,55,57,59,61,63,65,67,69,71,73,75,77,79,81,83,85,87,89,91,-1,-1,93,95,-1,-1,-1,-1,-1,-1,-1,-1,-1,-1,-1,-1,-1,-1,-1,-1,-1,-1,-1,-1,-1,-1,-1,-1,-1,-1,-1,-1,-1,-1,-1,-1,-1,-1,-1,-1,-1,-1,-1,-1,-1,-1,-1,-1],"loss_changes":[1.0278082E6,1.1131081E5,1.4695094E5,8.518219E3,1.7856184E4,1.2580531E5,2.9702156E4,0E0,8.055039E2,7.7385117E3,9.313598E3,2.1811266E4,2.311275E4,1.9509844E3,4.8554062E3,3.457539E2,3.5056616E2,1.0909609E3,3.0071987E3,1.7728525E3,1.7796611E3,4.4012812E3,8.0219062E3,8.006453E3,1.2305719E4,0E0,1.8342969E2,0E0,4.4095625E3,4.163672E1,1.059082E2,7.4248535E1,9.439902E1,2.3643555E2,4.155547E2,1.3713931E3,1.0931978E3,5.334514E2,1.3677872E3,3.8376636E2,1.8085352E2,2.288707E3,2.7520723E3,3.4555625E3,2.9494844E3,2.7228086E3,3.1750547E3,7.9305312E3,3.655289E3,0E0,0E0,4.5457344E3,2.239754E3,0E0,0E0,0E0,0E0,0E0,0E0,0E0,0E0,0E0,0E0,0E0,0E0,0E0,0E0,0E0,0E0,0E0,0E0,0E0,0E0,0E0,0E0,0E0,0E0,0E0,0E0,0E0,0E0,0E0,0E0,0E0,0E0,0E0,0E0,0E0,0E0,0E0,0E0,0E0,0E0,0E0,0E0,0E0,0E0],"parents":[2147483647,0,0,1,1,2,2,3,3,4,4,5,5,6,6,8,8,9,9,10,10,11,11,12,12,13,13,14,14,15,15,16,16,17,17,18,18,19,19,20,20,21,21,22,22,23,23,24,24,26,26,28,28,29,29,30,30,31,31,32,32,33,33,34,34,35,35,36,36,37,37,38,38,39,39,40,40,41,41,42,42,43,43,44,44,45,45,46,46,47,47,48,48,51,51,52,52],"right_children":[2,4,6,8,10,12,14,-1,16,18,20,22,24,26,28,30,32,34,36,38,40,42,44,46,48,-1,50,-1,52,54,56,58,60,62,64,66,68,70,72,74,76,78,80,82,84,86,88,90,92,-1,-1,94,96,-1,-1,-1,-1,-1,-1,-1,-1,-1,-1,-1,-1,-1,-1,-1,-1,-1,-1,-1,-1,-1,-1,-1,-1,-1,-1,-1,-1,-1,-1,-1,-1,-1,-1,-1,-1,-1,-1,-1,-1,-1,-1,-1,-1],"split_conditions":[1.7666666E1,5.75E0,1E0,1.75E0,1.8E1,3.525E1,4.275E1,-4.604202E-1,1E0,1.8E1,1E0,2.5E1,4.9E1,1.875E1,8.1E0,8E0,1E0,9E0,1.35E1,0E0,1.35E1,2.8E1,4.4E1,5E0,6.234898E-1,7.1484876E-1,2.4E1,1.8464981E0,1E-1,6E0,1.2E1,3.25E0,7.25E0,1.1E1,6.234898E-1,1E0,1E0,2.8791666E1,1.55E1,2.68E1,4.2E1,1.2E1,1E0,1.2E1,2.3E1,4.6E1,1.5E1,2.2540142E1,4.25E1,1.0151628E0,1.8398942E0,3.37E3,9.1E0,-3.745757E-1,-3.3716848E-1,-3.0328852E-1,-2.1596824E-1,-3.1557927E-1,-2.0657058E-1,-1.1582726E-1,7.1449675E-2,-2.870742E-1,-2.3356405E-1,-1.1330469E-1,-1.9747083E-1,-1.3430837E-1,4.210788E-2,-5.623998E-3,2.2930145E-1,3.6624655E-1,1.3072555E-1,-2.4547096E-2,1.382862E-1,5.63635E-1,7.308184E-2,1.2168158E0,6.462109E-1,2.69903E-2,2.069907E-1,2.9928753E-1,6.1469525E-1,3.5986495E-1,7.561466E-1,4.1606137E-1,6.443457E-1,3.799633E-1,6.720657E-1,9.007748E-1,6.2342745E-1,1.0175282E0,1.3966274E0,5.527794E-1,9.1494554E-1,4.7007704E0,2.1837595E0,3.158449E0,1.3140316E0],"split_indices":[73,73,48,73,4,73,72,0,27,2,48,73,0,73,38,3,50,4,73,65,73,4,2,15,26,0,3,0,37,0,15,73,72,2,26,50,50,9,73,38,2,5,27,15,4,73,13,10,8,0,0,70,36,0,0,0,0,0,0,0,0,0,0,0,0,0,0,0,0,0,0,0,0,0,0,0,0,0,0,0,0,0,0,0,0,0,0,0,0,0,0,0,0,0,0,0,0],"split_type":[0,0,0,0,0,0,0,0,0,0,0,0,0,0,0,0,0,0,0,0,0,0,0,0,0,0,0,0,0,0,0,0,0,0,0,0,0,0,0,0,0,0,0,0,0,0,0,0,0,0,0,0,0,0,0,0,0,0,0,0,0,0,0,0,0,0,0,0,0,0,0,0,0,0,0,0,0,0,0,0,0,0,0,0,0,0,0,0,0,0,0,0,0,0,0,0,0],"sum_hessian":[1.6159E4,1.0465E4,5.694E3,6.085E3,4.38E3,5.602E3,9.2E1,4.782E3,1.303E3,3.691E3,6.89E2,3.815E3,1.787E3,5E1,4.2E1,1.169E3,1.34E2,1.742E3,1.949E3,6.33E2,5.6E1,1.879E3,1.936E3,8.36E2,9.51E2,7E0,4.3E1,7E0,3.5E1,6.82E2,4.87E2,1.09E2,2.5E1,1.09E3,6.52E2,1.3E3,6.49E2,1.02E2,5.31E2,3.4E1,2.2E1,1.361E3,5.18E2,1.142E3,7.94E2,3.61E2,4.75E2,6.54E2,2.97E2,5E0,3.8E1,2.3E1,1.2E1,2.82E2,4E2,4.36E2,5.1E1,2.6E1,8.3E1,1.3E1,1.2E1,3.26E2,7.64E2,2.35E2,4.17E2,1.179E3,1.21E2,5.96E2,5.3E1,5.9E1,4.3E1,3.13E2,2.18E2,2.9E1,5E0,1.6E1,6E0,2.09E2,1.152E3,4.35E2,8.3E1,1.084E3,5.8E1,1.96E2,5.98E2,2.35E2,1.26E2,2.98E2,1.77E2,4.32E2,2.22E2,1.34E2,1.63E2,1.8E1,5E0,7E0,5E0],"tree_param":{"num_deleted":"0","num_feature":"74","num_nodes":"97","size_leaf_vector":"1"}},{"base_weights":[-7.896927E-3,-5.538821E0,1.0101591E1,-8.063562E0,-1.7659754E0,7.123281E0,1.7333872E1,-4.3748417E-1,-5.844675E0,-3.2337024E0,7.691452E-1,5.027706E0,1.0670835E1,1.5987973E1,5.2046032E1,-6.508949E0,-4.950353E0,-4.175631E0,-1.8308797E0,4.7325004E-2,4.6874137E0,2.613279E0,6.812865E0,1.0067208E1,2.7061636E1,1.2336901E1,1.9345364E1,3.5075565E1,6.256187E1,-6.6354856E0,-4.7920713E0,-5.333588E0,-3.6673388E0,-5.4571543E0,-3.7611945E0,-2.0447109E0,1.7449895E0,-9.7091246E-1,2.7513635E0,2.9127188E0,6.622491E0,1.0632491E0,4.2459273E0,6.289674E0,1.3039244E1,8.49149E0,1.59906025E1,2.3253569E1,3.6982334E1,6.513427E0,1.3383211E1,2.2779346E1,1.6774054E1,3.9118202E1,7.5318706E-1,1.8133134E0,6.647824E1,-3.5420358E-1,-3.146939E-1,-2.6589224E-1,-7.581334E-2,-2.7293965E-1,-1.7472807E-1,-1.2882303E-1,-2.1629873E-1,-2.7538905E-1,-6.538652E-2,-2.1674387E-1,-1.5896027E-1,-1.3405626E-1,-6.39009E-2,3.0167976E-2,3.4351373E-1,-6.519042E-2,3.4094945E-1,3.823189E-2,2.609981E-1,9.074246E-2,2.76573E-1,2.4050303E-1,5.3713095E-1,-7.006077E-2,8.984679E-2,3.188568E-1,1.1155428E-1,2.655847E-1,4.378093E-1,3.3386976E-1,7.431292E-1,2.5153944E-1,4.9423486E-1,5.31431E-1,8.576712E-1,1.3785855E0,8.398606E-1,1.1046833E0,2.1756773E0,4.0015122E-1,-5.619848E-3,2.449029E-1,6.9925445E-1,9.902695E-1,1.4160169E0,4.1190454E-1,8.948308E-1,1.2389586E0,2.3014219E0,2.09081E0,3.811303E0],"categories":[],"categories_nodes":[],"categories_segments":[],"categories_sizes":[],"default_left":[0,0,0,0,0,0,0,0,0,0,0,0,0,0,0,0,0,0,0,0,0,0,0,0,0,0,0,0,0,0,0,0,0,0,0,0,0,0,0,0,0,0,0,0,0,0,0,0,0,0,0,0,0,0,0,0,0,0,0,0,0,0,0,0,0,0,0,0,0,0,0,0,0,0,0,0,0,0,0,0,0,0,0,0,0,0,0,0,0,0,0,0,0,0,0,0,0,0,0,0,0,0,0,0,0,0,0,0,0],"id":10,"left_children":[1,3,5,7,9,11,13,-1,15,17,19,21,23,25,27,29,31,33,35,37,39,41,43,45,47,49,51,53,55,57,59,61,63,65,67,69,71,73,75,77,79,81,83,85,87,89,91,93,95,97,99,101,103,105,-1,-1,107,-1,-1,-1,-1,-1,-1,-1,-1,-1,-1,-1,-1,-1,-1,-1,-1,-1,-1,-1,-1,-1,-1,-1,-1,-1,-1,-1,-1,-1,-1,-1,-1,-1,-1,-1,-1,-1,-1,-1,-1,-1,-1,-1,-1,-1,-1,-1,-1,-1,-1,-1,-1],"loss_changes":[9.0727325E5,9.988778E4,1.234705E5,9.5128125E3,1.5652692E4,3.0172094E4,7.732197E4,0E0,8.5001953E2,3.5118555E3,4.3633486E3,1.1006582E4,1.4653781E4,1.9518188E4,8.860281E3,1.5172266E2,2.932412E2,8.246094E2,8.232837E2,3.5932222E3,8.039585E2,2.750837E3,4.704711E3,1.34608125E4,1.1362734E3,4.633047E3,7.013375E3,1.5087285E3,1.3891719E3,7.498047E1,9.80376E1,9.2625E1,9.5937744E1,7.3413086E1,3.8845703E2,4.899668E2,3.5202936E2,2.466717E3,1.7462908E3,3.543562E2,7.9806055E2,1.0151185E3,2.2607559E3,3.2278477E3,1.2093828E3,5.5079453E3,1.7165859E3,6.7549414E2,2.9619922E2,1.1860654E3,3.2798203E3,5.3006875E3,4.478125E3,9.3318164E2,0E0,0E0,4.2531562E3,0E0,0E0,0E0,0E0,0E0,0E0,0E0,0E0,0E0,0E0,0E0,0E0,0E0,0E0,0E0,0E0,0E0,0E0,0E0,0E0,0E0,0E0,0E0,0E0,0E0,0E0,0E0,0E0,0E0,0E0,0E0,0E0,0E0,0E0,0E0,0E0,0E0,0E0,0E0,0E0,0E0,0E0,0E0,0E0,0E0,0E0,0E0,0E0,0E0,0E0,0E0,0E0],"parents":[2147483647,0,0,1,1,2,2,3,3,4,4,5,5,6,6,8,8,9,9,10,10,11,11,12,12,13,13,14,14,15,15,16,16,17,17,18,18,19,19,20,20,21,21,22,22,23,23,24,24,25,25,26,26,27,27,28,28,29,29,30,30,31,31,32,32,33,33,34,34,35,35,36,36,37,37,38,38,39,39,40,40,41,41,42,42,43,43,44,44,45,45,46,46,47,47,48,48,49,49,50,50,51,51,52,52,53,53,56,56],"right_children":[2,4,6,8,10,12,14,-1,16,18,20,22,24,26,28,30,32,34,36,38,40,42,44,46,48,50,52,54,56,58,60,62,64,66,68,70,72,74,76,78,80,82,84,86,88,90,92,94,96,98,100,102,104,106,-1,-1,108,-1,-1,-1,-1,-1,-1,-1,-1,-1,-1,-1,-1,-1,-1,-1,-1,-1,-1,-1,-1,-1,-1,-1,-1,-1,-1,-1,-1,-1,-1,-1,-1,-1,-1,-1,-1,-1,-1,-1,-1,-1,-1,-1,-1,-1,-1,-1,-1,-1,-1,-1,-1],"split_conditions":[1.7E1,6E0,3.7E1,1E0,1.3E1,2.9E1,1E0,-4.3748417E-1,9E0,1.95E1,1E0,2.1E1,1E0,5.7E1,1E0,1E0,9E0,1.1E1,1E0,1.8E1,1.1732142E1,1.8E1,1E0,5.5E1,2.9E1,2.2E1,1.4E1,2E1,4.1E1,6E0,1E0,1E0,2E0,1E0,8E0,1.2E1,1.1E1,1E0,2.4416666E1,3E0,2E0,1.1E1,6.234898E-1,4.3E1,2.5E1,1E0,4.875E1,2.154E3,1.81E3,2.2184525E1,9E0,3.9E1,1.5718943E1,8.6E0,7.5318706E-1,1.8133134E0,4.4E1,-3.5420358E-1,-3.146939E-1,-2.6589224E-1,-7.581334E-2,-2.7293965E-1,-1.7472807E-1,-1.2882303E-1,-2.1629873E-1,-2.7538905E-1,-6.538652E-2,-2.1674387E-1,-1.5896027E-1,-1.3405626E-1,-6.39009E-2,3.0167976E-2,3.4351373E-1,-6.519042E-2,3.4094945E-1,3.823189E-2,2.609981E-1,9.074246E-2,2.76573E-1,2.4050303E-1,5.3713095E-1,-7.006077E-2,8.984679E-2,3.188568E-1,1.1155428E-1,2.655847E-1,4.378093E-1,3.3386976E-1,7.431292E-1,2.5153944E-1,4.9423486E-1,5.31431E-1,8.576712E-1,1.3785855E0,8.398606E-1,1.1046833E0,2.1756773E0,4.0015122E-1,-5.619848E-3,2.449029E-1,6.9925445E-1,9.902695E-1,1.4160169E0,4.1190454E-1,8.948308E-1,1.2389586E0,2.3014219E0,2.09081E0,3.811303E0],"split_indices":[6,6,6,4,4,4,48,0,3,72,31,7,48,72,18,27,4,72,49,13,12,4,50,3,7,4,13,13,4,2,50,50,65,48,4,6,15,48,8,14,14,4,26,2,7,14,72,70,69,12,19,8,10,36,0,0,6,0,0,0,0,0,0,0,0,0,0,0,0,0,0,0,0,0,0,0,0,0,0,0,0,0,0,0,0,0,0,0,0,0,0,0,0,0,0,0,0,0,0,0,0,0,0,0,0,0,0,0,0],"split_type":[0,0,0,0,0,0,0,0,0,0,0,0,0,0,0,0,0,0,0,0,0,0,0,0,0,0,0,0,0,0,0,0,0,0,0,0,0,0,0,0,0,0,0,0,0,0,0,0,0,0,0,0,0,0,0,0,0,0,0,0,0,0,0,0,0,0,0,0,0,0,0,0,0,0,0,0,0,0,0,0,0,0,0,0,0,0,0,0,0,0,0,0,0,0,0,0,0,0,0,0,0,0,0,0,0,0,0,0,0],"sum_hessian":[1.6224E4,1.0487E4,5.737E3,6.282E3,4.205E3,4.065E3,1.672E3,4.796E3,1.486E3,2.663E3,1.542E3,2.557E3,1.508E3,1.611E3,6.1E1,8.49E2,6.37E2,1.592E3,1.071E3,1.303E3,2.39E2,1.088E3,1.469E3,1.456E3,5.2E1,7.74E2,8.37E2,2.5E1,3.6E1,7.88E2,6.1E1,4.88E2,1.49E2,3.86E2,1.206E3,1.011E3,6E1,9.47E2,3.56E2,1.26E2,1.13E2,5.59E2,5.29E2,1.357E3,1.12E2,1.152E3,3.04E2,4E1,1.2E1,1.19E2,6.55E2,3.55E2,4.82E2,2E1,5E0,6E0,3E1,3.32E2,4.56E2,5.2E1,9E0,4.55E2,3.3E1,5.8E1,9.1E1,3.81E2,5E0,6.04E2,6.02E2,5.51E2,4.6E2,5E1,1E1,9.09E2,3.8E1,1.98E2,1.58E2,9E1,3.6E1,8E1,3.3E1,1.28E2,4.31E2,2.56E2,2.73E2,9.74E2,3.83E2,2.6E1,8.6E1,3.32E2,8.2E2,5.6E1,2.48E2,2.2E1,1.8E1,5E0,7E0,9.7E1,2.2E1,4.4E1,6.11E2,2.34E2,1.21E2,5.7E1,4.25E2,8E0,1.2E1,1E1,2E1],"tree_param":{"num_deleted":"0","num_feature":"74","num_nodes":"109","size_leaf_vector":"1"}},{"base_weights":[1.0984808E-2,-5.469328E0,9.258401E0,-7.9034057E0,-2.2862287E0,6.6513047E0,1.6866385E1,-4.1561413E-1,-5.900963E0,-3.600493E0,4.1783776E-2,3.5240607E0,9.048621E0,1.5340638E1,5.5454094E1,-6.1979265E0,-4.3060455E0,-4.4992E0,-2.4112678E0,-6.310108E-1,3.7714646E0,1.521793E0,5.275929E0,8.62541E0,2.526543E1,1.1212775E1,1.8156525E1,5.0338284E1,4.5692363E0,-6.4769096E0,-5.5989165E0,-4.7498417E0,-2.265648E0,-4.8797975E0,-3.6536167E0,-2.6342275E0,8.655733E-1,-2.539258E0,1.7758283E-1,8.858035E0,2.5060215E0,-9.409354E-1,2.3418229E0,3.28208E0,6.5566177E0,7.361515E0,1.3280708E1,2.7282578E1,4.9479577E-1,8.783885E0,1.4011611E1,1.5371193E1,2.407107E1,3.4476944E1,5.514551E1,-3.2713756E-1,-2.596616E-1,-2.853537E-1,-1.6070604E-1,-2.529816E-1,-8.0624856E-2,2.8493772E-3,-1.426424E-1,-2.583363E-1,-2.0602773E-1,-9.4838895E-2,-2.0193397E-1,-1.7429042E-1,-9.6859656E-2,-1.9104581E-2,1.555382E-1,-3.951463E-2,-1.524896E-1,-1.6694764E-2,1.12931885E-1,5.220178E-1,-1.7305573E-2,5.9133716E-2,2.4615791E-1,-1.4056383E-1,-9.664725E-3,1.5548061E-1,5.4405946E-2,1.4476986E-1,5.746898E-1,2.6550123E-1,4.4802234E-1,3.229656E-1,5.752613E-1,5.239741E-1,8.814538E-1,1.2455623E0,1.9192079E0,3.4611014E-1,6.179394E-1,4.808434E-1,8.437242E-1,5.426177E-1,8.5902995E-1,1.2612437E0,7.011847E-1,9.561573E-1,2.1288452E0,1.8835232E0,3.0756645E0],"categories":[],"categories_nodes":[],"categories_segments":[],"categories_sizes":[],"default_left":[0,0,0,0,0,0,0,0,0,0,0,0,0,0,0,0,0,0,0,0,0,0,0,0,0,0,0,0,0,0,0,0,0,0,0,0,0,0,0,0,0,0,0,0,0,0,0,0,0,0,0,0,0,0,0,0,0,0,0,0,0,0,0,0,0,0,0,0,0,0,0,0,0,0,0,0,0,0,0,0,0,0,0,0,0,0,0,0,0,0,0,0,0,0,0,0,0,0,0,0,0,0,0,0,0],"id":11,"left_children":[1,3,5,7,9,11,13,-1,15,17,19,21,23,25,27,29,31,33,35,37,39,41,43,45,47,49,51,53,-1,55,57,59,61,63,65,67,69,71,73,75,77,79,81,83,85,87,89,91,-1,93,95,97,99,101,103,-1,-1,-1,-1,-1,-1,-1,-1,-1,-1,-1,-1,-1,-1,-1,-1,-1,-1,-1,-1,-1,-1,-1,-1,-1,-1,-1,-1,-1,-1,-1,-1,-1,-1,-1,-1,-1,-1,-1,-1,-1,-1,-1,-1,-1,-1,-1,-1,-1,-1],"loss_changes":[8.1947544E5,7.864547E4,1.1923116E5,4.6598125E3,1.3465908E4,3.3575875E4,8.951547E4,0E0,4.3594922E2,2.9948984E3,3.9899856E3,6.8208027E3,1.7190453E4,1.6973156E4,6.0468906E3,1.000625E2,1.3070361E2,4.9656445E2,8.886797E2,2.0791033E3,1.5407991E3,1.8400979E3,2.6280273E3,1.4456719E4,1.7104648E3,3.967086E3,1.4073719E4,2.1309844E3,0E0,1.1755859E1,5.0148438E1,1.15579834E2,4.135771E1,2.1763086E2,3.3066846E2,6.670132E2,2.1995865E2,3.5526123E2,1.0089468E3,7.036904E2,6.205144E2,3.1797845E2,6.536394E2,1.2608159E3,1.8418496E3,7.2064297E3,6.231703E3,5.1169922E2,0E0,2.0755059E3,3.33275E3,4.7084062E3,2.8766875E3,1.0451016E3,2.0126719E3,0E0,0E0,0E0,0E0,0E0,0E0,0E0,0E0,0E0,0E0,0E0,0E0,0E0,0E0,0E0,0E0,0E0,0E0,0E0,0E0,0E0,0E0,0E0,0E0,0E0,0E0,0E0,0E0,0E0,0E0,0E0,0E0,0E0,0E0,0E0,0E0,0E0,0E0,0E0,0E0,0E0,0E0,0E0,0E0,0E0,0E0,0E0,0E0,0E0,0E0],"parents":[2147483647,0,0,1,1,2,2,3,3,4,4,5,5,6,6,8,8,9,9,10,10,11,11,12,12,13,13,14,14,15,15,16,16,17,17,18,18,19,19,20,20,21,21,22,22,23,23,24,24,25,25,26,26,27,27,29,29,30,30,31,31,32,32,33,33,34,34,35,35,36,36,37,37,38,38,39,39,40,40,41,41,42,42,43,43,44,44,45,45,46,46,47,47,49,49,50,50,51,51,52,52,53,53,54,54],"right_children":[2,4,6,8,10,12,14,-1,16,18,20,22,24,26,28,30,32,34,36,38,40,42,44,46,48,50,52,54,-1,56,58,60,62,64,66,68,70,72,74,76,78,80,82,84,86,88,90,92,-1,94,96,98,100,102,104,-1,-1,-1,-1,-1,-1,-1,-1,-1,-1,-1,-1,-1,-1,-1,-1,-1,-1,-1,-1,-1,-1,-1,-1,-1,-1,-1,-1,-1,-1,-1,-1,-1,-1,-1,-1,-1,-1,-1,-1,-1,-1,-1,-1,-1,-1,-1,-1,-1,-1],"split_conditions":[1.6E1,5E0,3.8E1,1E0,1.2E1,2.3E1,1E0,-4.1561413E-1,1.3E1,1.7E1,2.4E1,2E1,1E0,1E0,1.85E2,8E0,1E0,8E0,1E0,1E1,6.234898E-1,1.2E1,1.7E1,1E0,2.68E1,-2.5881904E-1,4.8E1,1.26E1,4.5692363E0,1E0,1E0,1E1,6.234898E-1,1E0,-2.2252093E-1,1E1,1E1,1E0,2E1,2.4938E3,4.8E1,2E1,6.234898E-1,1E0,1E0,4.5E1,3.8E1,8.5E1,4.9479577E-1,4.1291668E1,1.1916667E1,3.3E1,5E-1,1.2483E3,4E0,-3.2713756E-1,-2.596616E-1,-2.853537E-1,-1.6070604E-1,-2.529816E-1,-8.0624856E-2,2.8493772E-3,-1.426424E-1,-2.583363E-1,-2.0602773E-1,-9.4838895E-2,-2.0193397E-1,-1.7429042E-1,-9.6859656E-2,-1.9104581E-2,1.555382E-1,-3.951463E-2,-1.524896E-1,-1.6694764E-2,1.12931885E-1,5.220178E-1,-1.7305573E-2,5.9133716E-2,2.4615791E-1,-1.4056383E-1,-9.664725E-3,1.5548061E-1,5.4405946E-2,1.4476986E-1,5.746898E-1,2.6550123E-1,4.4802234E-1,3.229656E-1,5.752613E-1,5.239741E-1,8.814538E-1,1.2455623E0,1.9192079E0,3.4611014E-1,6.179394E-1,4.808434E-1,8.437242E-1,5.426177E-1,8.5902995E-1,1.2612437E0,7.011847E-1,9.561573E-1,2.1288452E0,1.8835232E0,3.0756645E0],"split_indices":[6,6,6,4,4,4,48,0,0,3,4,7,48,18,0,3,27,4,49,6,26,4,4,18,38,23,1,38,0,49,49,7,26,18,26,6,4,65,7,71,0,3,26,49,18,4,1,4,0,8,11,1,24,71,14,0,0,0,0,0,0,0,0,0,0,0,0,0,0,0,0,0,0,0,0,0,0,0,0,0,0,0,0,0,0,0,0,0,0,0,0,0,0,0,0,0,0,0,0,0,0,0,0,0,0],"split_type":[0,0,0,0,0,0,0,0,0,0,0,0,0,0,0,0,0,0,0,0,0,0,0,0,0,0,0,0,0,0,0,0,0,0,0,0,0,0,0,0,0,0,0,0,0,0,0,0,0,0,0,0,0,0,0,0,0,0,0,0,0,0,0,0,0,0,0,0,0,0,0,0,0,0,0,0,0,0,0,0,0,0,0,0,0,0,0,0,0,0,0,0,0,0,0,0,0,0,0,0,0,0,0,0,0],"sum_hessian":[1.6168E4,1.0152E4,6.016E3,5.752E3,4.4E3,4.482E3,1.534E3,4.774E3,9.78E2,2.812E3,1.588E3,1.946E3,2.536E3,1.477E3,5.7E1,8.22E2,1.56E2,1.6E3,1.212E3,1.346E3,2.42E2,9.09E2,1.037E3,2.473E3,6.3E1,6.01E2,8.76E2,5.2E1,5E0,5.54E2,2.68E2,1.27E2,2.9E1,1.1E3,5E2,1.135E3,7.7E1,4E2,9.46E2,4.7E1,1.95E2,2.27E2,6.82E2,4.07E2,6.3E2,1.947E3,5.26E2,5.5E1,8E0,3.24E2,2.77E2,5.98E2,2.78E2,1.4E1,3.8E1,5.23E2,3.1E1,2.55E2,1.3E1,1.15E2,1.2E1,6E0,2.3E1,7.94E2,3.06E2,9.1E1,4.09E2,5.09E2,6.26E2,5E1,2.7E1,9.1E1,3.09E2,7.6E2,1.86E2,4E1,7E0,1.27E2,6.8E1,6.4E1,1.63E2,4.22E2,2.6E2,3.9E2,1.7E1,4.17E2,2.13E2,1.601E3,3.46E2,3.22E2,2.04E2,4.8E1,7E0,2.15E2,1.09E2,1.11E2,1.66E2,1.73E2,4.25E2,2.48E2,3E1,6E0,8E0,1.2E1,2.6E1],"tree_param":{"num_deleted":"0","num_feature":"74","num_nodes":"105","size_leaf_vector":"1"}},{"base_weights":[-3.8469334E-3,-4.8142333E0,9.506537E0,-7.0664573E0,-1.0075631E0,6.377528E0,1.5234267E1,-7.885215E0,-5.0543385E0,-2.0483859E0,2.6322465E0,4.8051524E0,9.736337E0,1.4105377E1,5.1308464E1,-3.948376E-1,-3.273233E-1,-5.54522E0,-3.8621378E0,-3.2710319E0,-8.461504E-1,5.2860446E0,1.5242665E0,3.2149336E0,6.9002433E0,5.012664E0,1.1374695E1,1.0389112E1,1.728929E1,3.653728E1,6.8079254E1,-6.0252132E0,-5.0094852E0,-2.5322218E0,-4.3864055E0,-3.360036E0,3.6740735E0,-1.9964211E0,-1.0079602E-1,4.135361E0,1.0201558E1,6.261081E-1,5.258188E0,7.1249694E-1,4.0679092E0,2.40459E0,7.3567095E0,2.9552221E0,8.273618E0,1.0890293E1,2.3156424E1,8.664127E0,1.26577215E1,1.4039285E1,2.0434689E1,4.0413403E1,6.1712486E-1,4.1528698E1,8.78634E1,-3.1929928E-1,-2.844413E-1,-2.739426E-1,-2.3396409E-1,-1.556032E-1,-1.0182622E-2,-2.2359657E-1,5.8711737E-2,-2.1633986E-1,-1.40817E-1,3.2289836E-1,1.1719148E-2,-1.9270575E-1,-8.3406985E-2,-2.00983E-2,1.5985125E-1,1.8615675E-1,4.6746776E-1,6.2498134E-1,2.3371585E-1,-1.287967E-2,1.9946073E-1,1.5898816E-1,3.6414227E-1,-8.223265E-2,8.133679E-2,2.9768416E-1,1.0961956E-1,-9.292784E-2,2.3166886E-1,2.4254024E-1,4.1665873E-1,1.0674293E-1,4.5300624E-1,2.9844317E-1,5.66596E-1,4.8881075E-1,8.11298E-1,5.8925414E-1,1.3544668E0,2.1869245E-1,4.692758E-1,5.446415E-1,7.5641185E-1,2.6551595E-1,7.5126547E-1,8.2607174E-1,1.1806241E0,1.1969728E0,2.2900505E0,2.4146757E0,1.2785411E0,5.26125E0,2.7727687E0],"categories":[],"categories_nodes":[],"categories_segments":[],"categories_sizes":[],"default_left":[0,0,0,0,0,0,0,0,0,0,0,0,0,0,0,0,0,0,0,0,0,0,0,0,0,0,0,0,0,0,0,0,0,0,0,0,0,0,0,0,0,0,0,0,0,0,0,0,0,0,0,0,0,0,0,0,0,0,0,0,0,0,0,0,0,0,0,0,0,0,0,0,0,0,0,0,0,0,0,0,0,0,0,0,0,0,0,0,0,0,0,0,0,0,0,0,0,0,0,0,0,0,0,0,0,0,0,0,0,0,0,0,0],"id":12,"left_children":[1,3,5,7,9,11,13,15,17,19,21,23,25,27,29,-1,-1,31,33,35,37,39,41,43,45,47,49,51,53,55,57,59,61,63,65,67,69,71,73,75,77,79,81,83,85,87,89,91,93,95,97,99,101,103,105,107,-1,109,111,-1,-1,-1,-1,-1,-1,-1,-1,-1,-1,-1,-1,-1,-1,-1,-1,-1,-1,-1,-1,-1,-1,-1,-1,-1,-1,-1,-1,-1,-1,-1,-1,-1,-1,-1,-1,-1,-1,-1,-1,-1,-1,-1,-1,-1,-1,-1,-1,-1,-1,-1,-1,-1,-1],"loss_changes":[7.419965E5,9.233695E4,9.754041E4,1.11070625E4,1.5177862E4,1.8568375E4,7.762231E4,2.1125E1,1.1246914E3,4.575585E3,2.6111172E3,7.9827656E3,8.6323125E3,2.1908438E4,1.1870125E4,0E0,0E0,3.251211E2,3.891084E2,9.667246E2,1.3473579E3,1.4383037E3,2.1089204E3,2.9166445E3,2.1073242E3,1.9268105E3,4.4984297E3,3.2693047E3,9.973094E3,2.5907266E3,9.995492E3,5.0572266E1,7.579297E1,2.21818E2,2.0104443E2,7.886758E2,1.8933182E2,3.6990356E2,9.495161E2,4.2384375E2,5.6225244E2,1.5141396E3,4.8918408E2,7.547678E2,3.5936719E3,9.3054877E2,2.258371E3,8.810216E2,7.200781E2,4.606133E3,1.1079824E3,1.4864844E3,1.4502383E3,4.1958438E3,5.923125E3,1.3817188E3,0E0,1.6108789E2,2.0258125E3,0E0,0E0,0E0,0E0,0E0,0E0,0E0,0E0,0E0,0E0,0E0,0E0,0E0,0E0,0E0,0E0,0E0,0E0,0E0,0E0,0E0,0E0,0E0,0E0,0E0,0E0,0E0,0E0,0E0,0E0,0E0,0E0,0E0,0E0,0E0,0E0,0E0,0E0,0E0,0E0,0E0,0E0,0E0,0E0,0E0,0E0,0E0,0E0,0E0,0E0,0E0,0E0,0E0,0E0],"parents":[2147483647,0,0,1,1,2,2,3,3,4,4,5,5,6,6,7,7,8,8,9,9,10,10,11,11,12,12,13,13,14,14,17,17,18,18,19,19,20,20,21,21,22,22,23,23,24,24,25,25,26,26,27,27,28,28,29,29,30,30,31,31,32,32,33,33,34,34,35,35,36,36,37,37,38,38,39,39,40,40,41,41,42,42,43,43,44,44,45,45,46,46,47,47,48,48,49,49,50,50,51,51,52,52,53,53,54,54,55,55,57,57,58,58],"right_children":[2,4,6,8,10,12,14,16,18,20,22,24,26,28,30,-1,-1,32,34,36,38,40,42,44,46,48,50,52,54,56,58,60,62,64,66,68,70,72,74,76,78,80,82,84,86,88,90,92,94,96,98,100,102,104,106,108,-1,110,112,-1,-1,-1,-1,-1,-1,-1,-1,-1,-1,-1,-1,-1,-1,-1,-1,-1,-1,-1,-1,-1,-1,-1,-1,-1,-1,-1,-1,-1,-1,-1,-1,-1,-1,-1,-1,-1,-1,-1,-1,-1,-1,-1,-1,-1,-1,-1,-1,-1,-1,-1,-1,-1,-1],"split_conditions":[1.8E1,7E0,3.5E1,2E0,1.8E1,3.1E1,1E0,1E0,1.3E1,2.0333334E1,6.234898E-1,2.5E1,1E0,5.475E1,4.875E1,-3.948376E-1,-3.273233E-1,8E0,6.234898E-1,1E0,1.2E1,2.7E1,4E1,1.4E1,4E0,4.3E1,1E0,4.7E1,1.9782879E1,2.618E3,8.4E0,2E0,1.6E1,9E0,4.5E1,1.5E1,1.01E1,5E0,1E0,3.8E1,1E1,1E0,1.4809524E1,2.1E1,6.234898E-1,3E0,1.9E1,6.7E1,8E1,6E1,2.8E1,1.8E1,2.122E3,4E0,4.9E1,1.1034E3,6.1712486E-1,8.2E1,1.81E1,-3.1929928E-1,-2.844413E-1,-2.739426E-1,-2.3396409E-1,-1.556032E-1,-1.0182622E-2,-2.2359657E-1,5.8711737E-2,-2.1633986E-1,-1.40817E-1,3.2289836E-1,1.1719148E-2,-1.9270575E-1,-8.3406985E-2,-2.00983E-2,1.5985125E-1,1.8615675E-1,4.6746776E-1,6.2498134E-1,2.3371585E-1,-1.287967E-2,1.9946073E-1,1.5898816E-1,3.6414227E-1,-8.223265E-2,8.133679E-2,2.9768416E-1,1.0961956E-1,-9.292784E-2,2.3166886E-1,2.4254024E-1,4.1665873E-1,1.0674293E-1,4.5300624E-1,2.9844317E-1,5.66596E-1,4.8881075E-1,8.11298E-1,5.8925414E-1,1.3544668E0,2.1869245E-1,4.692758E-1,5.446415E-1,7.5641185E-1,2.6551595E-1,7.5126547E-1,8.2607174E-1,1.1806241E0,1.1969728E0,2.2900505E0,2.4146757E0,1.2785411E0,5.26125E0,2.7727687E0],"split_indices":[6,6,6,6,4,4,48,4,0,72,26,7,14,72,72,0,0,3,26,48,6,4,5,5,19,4,48,0,10,71,36,14,19,5,1,2,36,19,31,1,65,31,12,0,26,14,5,5,1,3,3,5,70,19,6,71,0,2,38,0,0,0,0,0,0,0,0,0,0,0,0,0,0,0,0,0,0,0,0,0,0,0,0,0,0,0,0,0,0,0,0,0,0,0,0,0,0,0,0,0,0,0,0,0,0,0,0,0,0,0,0,0,0],"split_type":[0,0,0,0,0,0,0,0,0,0,0,0,0,0,0,0,0,0,0,0,0,0,0,0,0,0,0,0,0,0,0,0,0,0,0,0,0,0,0,0,0,0,0,0,0,0,0,0,0,0,0,0,0,0,0,0,0,0,0,0,0,0,0,0,0,0,0,0,0,0,0,0,0,0,0,0,0,0,0,0,0,0,0,0,0,0,0,0,0,0,0,0,0,0,0,0,0,0,0,0,0,0,0,0,0,0,0,0,0,0,0,0,0],"sum_hessian":[1.6217E4,1.077E4,5.447E3,6.766E3,4.004E3,3.524E3,1.923E3,4.807E3,1.959E3,3.114E3,8.9E2,2.402E3,1.122E3,1.866E3,5.7E1,4.761E3,4.6E1,1.385E3,5.74E2,1.543E3,1.571E3,2.61E2,6.29E2,1.367E3,1.035E3,2.9E2,8.32E2,8.63E2,1.003E3,3.2E1,2.5E1,7.25E2,6.6E2,1.64E2,4.1E2,1.524E3,1.9E1,6.17E2,9.54E2,2.13E2,4.8E1,5.08E2,1.21E2,3.48E2,1.019E3,9.6E1,9.39E2,1.79E2,1.11E2,8.01E2,3.1E1,4.93E2,3.7E2,4.96E2,5.07E2,2.7E1,5E0,1.2E1,1.3E1,3.41E2,3.84E2,2.66E2,3.94E2,1.31E2,3.3E1,4.04E2,6E0,5.46E2,9.78E2,1E1,9E0,9.1E1,5.26E2,8.75E2,7.9E1,1.99E2,1.4E1,3.3E1,1.5E1,4.03E2,1.05E2,6.1E1,6E1,9.7E1,2.51E2,5.07E2,5.12E2,3.3E1,6.3E1,2.65E2,6.74E2,1.59E2,2E1,6.5E1,4.6E1,6.65E2,1.36E2,9E0,2.2E1,7.2E1,4.21E2,2.19E2,1.51E2,5.1E1,4.45E2,2.3E2,2.77E2,8E0,1.9E1,7E0,5E0,7E0,6E0],"tree_param":{"num_deleted":"0","num_feature":"74","num_nodes":"113","size_leaf_vector":"1"}},{"base_weights":[-5.0287038E-2,-4.9529486E0,8.236296E0,-7.1451845E0,-2.0801258E0,5.817035E0,1.4647341E1,-3.7510017E-1,-5.4037695E0,-3.1677988E0,3.2339346E-1,3.7551148E0,8.731684E0,1.3328972E1,4.8704777E1,-5.666794E0,-4.236617E0,-4.072407E0,-1.9294441E0,-4.361835E-1,3.7345197E0,1.632476E0,5.3278656E0,1.1897214E1,6.5241413E0,1.0700859E1,1.7231495E1,3.6284855E1,7.2346375E1,-5.332989E0,-3.0593038E-1,-4.486888E0,-1.6598312E0,-3.3868964E0,-4.642045E0,-2.200674E0,1.2947894E0,1.3837831E0,-1.3876346E0,2.7114217E0,1.087152E1,7.9962246E-2,3.0253754E0,6.6636863E0,2.9033427E0,1.022504E1,1.7420525E1,4.804591E0,1.0475101E1,9.39938E0,1.5007632E1,1.4380363E1,2.0861263E1,3.9677002E1,4.651231E-1,1.9534696E0,8.381012E1,-2.7954027E-1,-1.9300005E-1,-2.3239008E-1,-5.5827387E-2,-1.3276258E-1,1.3471832E-2,-1.9354509E-1,-1.1292376E-1,-2.554473E-1,-2.0662239E-1,-1.2694891E-1,-5.872613E-2,-9.429102E-3,1.9141649E-1,2.4722924E-2,1.5858419E-1,-1.01951994E-1,4.0011548E-2,3.6187413E-1,8.168674E-2,7.009057E-1,2.7143452E-1,2.0155726E-2,-1.5790048E-1,1.2943162E-1,4.3997988E-1,2.9069254E-1,5.979543E-1,-3.900023E-2,1.7272718E-1,4.3602142E-1,6.566996E-1,3.2252946E-1,9.4150573E-1,2.2860467E-1,1.0724604E0,4.5648596E-1,8.4314865E-1,1.3964081E-1,5.0081384E-1,9.622814E-1,6.189964E-1,4.5486408E-1,8.106371E-1,7.8050345E-1,1.2346299E0,8.871476E-1,2.1673362E0,4.8073134E0,2.5660436E0],"categories":[],"categories_nodes":[],"categories_segments":[],"categories_sizes":[],"default_left":[0,0,0,0,0,0,0,0,0,0,0,0,0,0,0,0,0,0,0,0,0,0,0,0,0,0,0,0,0,0,0,0,0,0,0,0,0,0,0,0,0,0,0,0,0,0,0,0,0,0,0,0,0,0,0,0,0,0,0,0,0,0,0,0,0,0,0,0,0,0,0,0,0,0,0,0,0,0,0,0,0,0,0,0,0,0,0,0,0,0,0,0,0,0,0,0,0,0,0,0,0,0,0,0,0,0,0],"id":13,"left_children":[1,3,5,7,9,11,13,-1,15,17,19,21,23,25,27,29,31,33,35,37,39,41,43,45,47,49,51,53,55,57,-1,59,61,63,65,67,69,71,73,75,77,79,81,83,85,87,89,91,93,95,97,99,101,103,-1,-1,105,-1,-1,-1,-1,-1,-1,-1,-1,-1,-1,-1,-1,-1,-1,-1,-1,-1,-1,-1,-1,-1,-1,-1,-1,-1,-1,-1,-1,-1,-1,-1,-1,-1,-1,-1,-1,-1,-1,-1,-1,-1,-1,-1,-1,-1,-1,-1,-1,-1,-1],"loss_changes":[6.572929E5,6.4002406E4,9.318984E4,3.5403438E3,1.1506588E4,2.6216656E4,7.329528E4,0E0,2.7708008E2,3.3858262E3,3.5568284E3,8.536863E3,1.2561922E4,1.6089531E4,1.52753125E4,8.687891E1,1.1124365E2,6.668379E2,1.123186E3,1.9465177E3,1.794627E3,2.35873E3,4.740625E3,6.672164E3,7.204004E3,5.1870234E3,6.2887812E3,3.4701953E3,4.342883E3,1.5520117E2,0E0,8.534595E1,3.5521782E1,4.2648145E2,2.0471094E2,4.06979E2,3.769041E2,6.118145E2,1.0535435E3,1.0603776E3,4.528728E2,5.4196454E2,1.426147E3,4.1903984E3,1.0668203E3,2.386832E3,2.5201992E3,2.7862246E3,2.6193516E3,2.9581328E3,2.1974062E3,3.335E3,5.2036094E3,2.2029922E3,0E0,0E0,6.6203125E2,0E0,0E0,0E0,0E0,0E0,0E0,0E0,0E0,0E0,0E0,0E0,0E0,0E0,0E0,0E0,0E0,0E0,0E0,0E0,0E0,0E0,0E0,0E0,0E0,0E0,0E0,0E0,0E0,0E0,0E0,0E0,0E0,0E0,0E0,0E0,0E0,0E0,0E0,0E0,0E0,0E0,0E0,0E0,0E0,0E0,0E0,0E0,0E0,0E0,0E0],"parents":[2147483647,0,0,1,1,2,2,3,3,4,4,5,5,6,6,8,8,9,9,10,10,11,11,12,12,13,13,14,14,15,15,16,16,17,17,18,18,19,19,20,20,21,21,22,22,23,23,24,24,25,25,26,26,27,27,28,28,29,29,31,31,32,32,33,33,34,34,35,35,36,36,37,37,38,38,39,39,40,40,41,41,42,42,43,43,44,44,45,45,46,46,47,47,48,48,49,49,50,50,51,51,52,52,53,53,56,56],"right_children":[2,4,6,8,10,12,14,-1,16,18,20,22,24,26,28,30,32,34,36,38,40,42,44,46,48,50,52,54,56,58,-1,60,62,64,66,68,70,72,74,76,78,80,82,84,86,88,90,92,94,96,98,100,102,104,-1,-1,106,-1,-1,-1,-1,-1,-1,-1,-1,-1,-1,-1,-1,-1,-1,-1,-1,-1,-1,-1,-1,-1,-1,-1,-1,-1,-1,-1,-1,-1,-1,-1,-1,-1,-1,-1,-1,-1,-1,-1,-1,-1,-1,-1,-1,-1,-1,-1,-1,-1,-1],"split_conditions":[1.6E1,5E0,3.7E1,1E0,1.3E1,2.7E1,1E0,-3.7510017E-1,1.2E1,1.7E1,2.4E1,1.8E1,6.234898E-1,6E1,2E0,6.234898E-1,1E0,6.234898E-1,1E0,6.234898E-1,1E0,1.8E1,6.234898E-1,1.943882E1,4.5E1,4.5E1,-2.5881904E-1,4.018E3,4.85E1,8E0,-3.0593038E-1,2.425E1,2.3166666E1,7E0,1.4E1,1.4E1,2.4E1,1.4E1,2.6E1,0E0,1.87E1,2.2184525E1,1E0,2.8E1,2.1E1,3.9E1,1.8E1,1E0,6.6E1,1.7E1,6.234898E-1,2.6E1,1.3958333E1,1.08E3,4.651231E-1,1.9534696E0,1.81E1,-2.7954027E-1,-1.9300005E-1,-2.3239008E-1,-5.5827387E-2,-1.3276258E-1,1.3471832E-2,-1.9354509E-1,-1.1292376E-1,-2.554473E-1,-2.0662239E-1,-1.2694891E-1,-5.872613E-2,-9.429102E-3,1.9141649E-1,2.4722924E-2,1.5858419E-1,-1.01951994E-1,4.0011548E-2,3.6187413E-1,8.168674E-2,7.009057E-1,2.7143452E-1,2.0155726E-2,-1.5790048E-1,1.2943162E-1,4.3997988E-1,2.9069254E-1,5.979543E-1,-3.900023E-2,1.7272718E-1,4.3602142E-1,6.566996E-1,3.2252946E-1,9.4150573E-1,2.2860467E-1,1.0724604E0,4.5648596E-1,8.4314865E-1,1.3964081E-1,5.0081384E-1,9.622814E-1,6.189964E-1,4.5486408E-1,8.106371E-1,7.8050345E-1,1.2346299E0,8.871476E-1,2.1673362E0,4.8073134E0,2.5660436E0],"split_indices":[6,4,6,4,4,4,48,0,2,2,4,4,26,3,50,26,50,26,50,26,50,7,26,10,4,4,23,69,72,1,0,72,8,5,0,7,3,5,5,65,38,12,50,5,5,1,5,48,4,5,26,5,11,70,0,0,38,0,0,0,0,0,0,0,0,0,0,0,0,0,0,0,0,0,0,0,0,0,0,0,0,0,0,0,0,0,0,0,0,0,0,0,0,0,0,0,0,0,0,0,0,0,0,0,0,0,0],"split_type":[0,0,0,0,0,0,0,0,0,0,0,0,0,0,0,0,0,0,0,0,0,0,0,0,0,0,0,0,0,0,0,0,0,0,0,0,0,0,0,0,0,0,0,0,0,0,0,0,0,0,0,0,0,0,0,0,0,0,0,0,0,0,0,0,0,0,0,0,0,0,0,0,0,0,0,0,0,0,0,0,0,0,0,0,0,0,0,0,0,0,0,0,0,0,0,0,0,0,0,0,0,0,0,0,0,0,0],"sum_hessian":[1.6177E4,1.0164E4,6.013E3,5.764E3,4.4E3,4.367E3,1.646E3,4.781E3,9.83E2,3.029E3,1.371E3,2.559E3,1.808E3,1.586E3,6E1,7.99E2,1.84E2,1.749E3,1.28E3,1.122E3,2.49E2,1.09E3,1.469E3,7.41E2,1.067E3,9.5E2,6.36E2,4.1E1,1.9E1,4.67E2,3.32E2,1.67E2,1.7E1,7.97E2,9.52E2,1.181E3,9.9E1,3.85E2,7.37E2,2.19E2,3E1,5.16E2,5.74E2,9.46E2,5.23E2,5.71E2,1.7E2,7.45E2,3.22E2,7.32E2,2.18E2,3.59E2,2.77E2,3.6E1,5E0,6E0,1.3E1,3.95E2,7.2E1,1.59E2,8E0,1.1E1,6E0,5.56E2,2.41E2,4.92E2,4.6E2,8.87E2,2.94E2,6.3E1,3.6E1,2.58E2,1.27E2,5.68E2,1.69E2,4.1E1,1.78E2,1.8E1,1.2E1,4.7E2,4.6E1,5.35E2,3.9E1,8.17E2,1.29E2,6.8E1,4.55E2,3.79E2,1.92E2,2E1,1.5E2,7.36E2,9E0,2.68E2,5.4E1,6.3E1,6.69E2,8.1E1,1.37E2,9.4E1,2.65E2,1.19E2,1.58E2,6E0,3E1,8E0,5E0],"tree_param":{"num_deleted":"0","num_feature":"74","num_nodes":"107","size_leaf_vector":"1"}},{"base_weights":[3.92095E-2,-4.3094087E0,8.80326E0,-6.381388E0,-8.2680625E-1,8.301332E0,4.0486023E1,-7.1166935E0,-4.5790124E0,-1.06341E0,1.1273573E1,6.052537E0,1.3827205E1,3.1822657E1,5.501599E1,-3.563281E-1,-2.9078376E-1,-4.690842E0,1.4206787E0,-2.2427914E0,8.6570644E-1,4.6249986E0,1.4700759E1,4.5910683E0,8.44595E0,1.193467E1,1.8333529E1,7.3911494E-1,3.399766E1,4.2188087E1,4.2503357E0,-5.3068223E0,-4.241789E0,-3.8383167E-2,4.471923E0,-3.2153275E0,-1.5616766E0,4.7371784E-1,4.6462884E0,2.612061E0,5.77688E-1,1.1321706E1,1.8317793E1,4.159583E0,9.740584E0,2.7733908E0,9.019281E0,1.3724096E1,7.550152E0,2.4839136E1,1.6224703E1,3.537702E1,9.214652E-1,2.369414E0,1.1758949E0,-2.706434E-1,-2.1008681E-1,-2.189776E-1,-1.4683713E-1,-8.090989E-2,4.436475E-2,6.378602E-2,3.279197E-1,-1.9805287E-1,-1.3293222E-1,-9.363809E-2,5.5062562E-2,6.762778E-3,2.1396592E-1,2.1113227E-1,6.764216E-1,-1.342835E-2,1.8252169E-1,6.1890453E-1,2.5962743E-1,1.1964573E0,6.0764855E-1,2.4501772E-1,6.4164065E-2,7.298998E-1,4.129177E-1,-3.7998307E-2,2.75866E-1,4.2613927E-1,7.325422E-1,4.9514267E-1,8.0059624E-1,2.4192731E-1,5.194079E-1,1.5298599E0,9.523811E-1,7.36393E-1,1.1222259E0,1.4658625E0,2.0162265E0],"categories":[],"categories_nodes":[],"categories_segments":[],"categories_sizes":[],"default_left":[0,0,0,0,0,0,0,0,0,0,0,0,0,0,0,0,0,0,0,0,0,0,0,0,0,0,0,0,0,0,0,0,0,0,0,0,0,0,0,0,0,0,0,0,0,0,0,0,0,0,0,0,0,0,0,0,0,0,0,0,0,0,0,0,0,0,0,0,0,0,0,0,0,0,0,0,0,0,0,0,0,0,0,0,0,0,0,0,0,0,0,0,0,0,0],"id":14,"left_children":[1,3,5,7,9,11,13,15,17,19,21,23,25,27,29,-1,-1,31,33,35,37,39,41,43,45,47,49,-1,51,53,-1,55,57,59,61,63,65,67,69,71,-1,73,75,77,79,81,83,85,87,89,91,93,-1,-1,-1,-1,-1,-1,-1,-1,-1,-1,-1,-1,-1,-1,-1,-1,-1,-1,-1,-1,-1,-1,-1,-1,-1,-1,-1,-1,-1,-1,-1,-1,-1,-1,-1,-1,-1,-1,-1,-1,-1,-1,-1],"loss_changes":[6.2091294E5,7.856772E4,8.558E4,9.0140625E3,1.1643318E4,6.6023625E4,8.814344E3,1.9515625E1,1.3361328E3,9.070885E3,1.707377E3,1.3192484E4,1.2894781E4,1.5310156E3,7.942547E3,0E0,0E0,5.1453906E2,1.6533731E2,1.6333008E3,2.23947E3,3.5892493E2,4.1297754E2,5.181875E3,4.6342812E3,8.414766E3,5.8076875E3,0E0,3.7341406E2,1.1114727E3,0E0,7.1921875E1,1.895664E2,3.953131E1,7.087529E1,4.1141406E2,1.2091147E3,1.7661873E3,4.754253E2,7.011537E1,0E0,1.2173682E2,5.012207E2,4.618801E3,1.1803223E3,1.2941411E3,3.5104766E3,6.570453E3,2.3877031E3,3.0471562E3,2.8777031E3,1.0000391E2,0E0,0E0,0E0,0E0,0E0,0E0,0E0,0E0,0E0,0E0,0E0,0E0,0E0,0E0,0E0,0E0,0E0,0E0,0E0,0E0,0E0,0E0,0E0,0E0,0E0,0E0,0E0,0E0,0E0,0E0,0E0,0E0,0E0,0E0,0E0,0E0,0E0,0E0,0E0,0E0,0E0,0E0,0E0],"parents":[2147483647,0,0,1,1,2,2,3,3,4,4,5,5,6,6,7,7,8,8,9,9,10,10,11,11,12,12,13,13,14,14,17,17,18,18,19,19,20,20,21,21,22,22,23,23,24,24,25,25,26,26,28,28,29,29,31,31,32,32,33,33,34,34,35,35,36,36,37,37,38,38,39,39,41,41,42,42,43,43,44,44,45,45,46,46,47,47,48,48,49,49,50,50,51,51],"right_children":[2,4,6,8,10,12,14,16,18,20,22,24,26,28,30,-1,-1,32,34,36,38,40,42,44,46,48,50,-1,52,54,-1,56,58,60,62,64,66,68,70,72,-1,74,76,78,80,82,84,86,88,90,92,94,-1,-1,-1,-1,-1,-1,-1,-1,-1,-1,-1,-1,-1,-1,-1,-1,-1,-1,-1,-1,-1,-1,-1,-1,-1,-1,-1,-1,-1,-1,-1,-1,-1,-1,-1,-1,-1,-1,-1,-1,-1,-1,-1],"split_conditions":[1.9E1,7E0,1E0,2E0,1E0,3.7E1,3.2666668E1,1.75E0,1E0,1.325E1,1.15E1,2.85E1,4.1291668E1,1.032E3,1.53E2,-3.563281E-1,-2.9078376E-1,8E0,5.6666665E0,1.7E1,1E0,1E0,1.6E1,1.2E1,2E0,1.5E1,1.4E1,7.3911494E-1,4.224E3,1.35E2,4.2503357E0,1E0,1.2E1,7E0,4.232143E1,5E0,1E0,1.2E1,1E0,1.776E3,5.77688E-1,2.2E1,2.258E3,8.660254E-1,3.2142857E1,1E0,1.2E1,4.1E1,5E0,6E0,5.1416668E1,3.8E1,9.214652E-1,2.369414E0,1.1758949E0,-2.706434E-1,-2.1008681E-1,-2.189776E-1,-1.4683713E-1,-8.090989E-2,4.436475E-2,6.378602E-2,3.279197E-1,-1.9805287E-1,-1.3293222E-1,-9.363809E-2,5.5062562E-2,6.762778E-3,2.1396592E-1,2.1113227E-1,6.764216E-1,-1.342835E-2,1.8252169E-1,6.1890453E-1,2.5962743E-1,1.1964573E0,6.0764855E-1,2.4501772E-1,6.4164065E-2,7.298998E-1,4.129177E-1,-3.7998307E-2,2.75866E-1,4.2613927E-1,7.325422E-1,4.9514267E-1,8.0059624E-1,2.4192731E-1,5.194079E-1,1.5298599E0,9.523811E-1,7.36393E-1,1.1222259E0,1.4658625E0,2.0162265E0],"split_indices":[73,73,48,6,48,73,73,73,48,73,73,73,8,69,0,0,0,3,73,0,50,20,13,15,15,13,13,0,69,0,0,27,15,3,9,15,27,15,27,70,0,7,69,28,9,64,15,7,15,14,8,6,0,0,0,0,0,0,0,0,0,0,0,0,0,0,0,0,0,0,0,0,0,0,0,0,0,0,0,0,0,0,0,0,0,0,0,0,0,0,0,0,0,0,0],"split_type":[0,0,0,0,0,0,0,0,0,0,0,0,0,0,0,0,0,0,0,0,0,0,0,0,0,0,0,0,0,0,0,0,0,0,0,0,0,0,0,0,0,0,0,0,0,0,0,0,0,0,0,0,0,0,0,0,0,0,0,0,0,0,0,0,0,0,0,0,0,0,0,0,0,0,0,0,0,0,0,0,0,0,0,0,0,0,0,0,0,0,0,0,0,0,0],"sum_hessian":[1.629E4,1.0888E4,5.402E3,6.826E3,4.062E3,5.319E3,8.3E1,4.846E3,1.98E3,3.985E3,7.7E1,3.782E3,1.537E3,5.4E1,2.9E1,4.805E3,4.1E1,1.944E3,3.6E1,2.473E3,1.512E3,2.7E1,5E1,2.35E3,1.432E3,1.085E3,4.52E2,7E0,4.7E1,2.2E1,7E0,8.15E2,1.129E3,2.5E1,1.1E1,1.017E3,1.456E3,1.371E3,1.41E2,2.2E1,5E0,2.8E1,2.2E1,2.17E3,1.8E2,1.32E2,1.3E3,7.69E2,3.16E2,1.08E2,3.44E2,4.2E1,5E0,1.6E1,6E0,7.4E2,7.5E1,1.019E3,1.1E2,9E0,1.6E1,5E0,6E0,4.32E2,5.85E2,1.304E3,1.52E2,1.26E3,1.11E2,1.36E2,5E0,6E0,1.6E1,2.3E1,5E0,1E1,1.2E1,1.725E3,4.45E2,4E1,1.4E2,5.8E1,7.4E1,1.197E3,1.03E2,2.9E2,4.79E2,1.63E2,1.53E2,5.2E1,5.6E1,2.8E2,6.4E1,2.2E1,2E1],"tree_param":{"num_deleted":"0","num_feature":"74","num_nodes":"95","size_leaf_vector":"1"}},{"base_weights":[3.805158E-2,-4.307939E0,8.018357E0,-6.0718765E0,-1.0908613E0,5.113786E0,1.2680743E1,-6.756691E0,-4.366336E0,-1.3179696E0,1.1144134E1,3.434025E0,7.420375E0,1.1744287E1,3.8671772E1,-3.3853635E-1,-5.6696095E0,-4.470465E0,1.2883742E0,-2.1865082E0,4.925729E-1,5.1057115E0,1.4993687E1,2.2226894E0,4.7049947E0,1.0784583E1,5.562227E0,8.370376E0,1.4263573E1,2.575267E1,5.091054E1,-2.9538235E-1,-1.5666886E-1,-5.0394526E0,-4.014938E0,-3.0708589E-2,2.9607514E-1,-2.9017916E0,-1.4177902E0,1.5301974E-1,3.8826175E0,3.2051654E0,7.742449E0,1.1764871E1,2.272092E1,1.8839686E0,6.5331025E0,1.9491727E0,5.5147643E0,8.721736E0,1.5309307E1,4.6883764E0,1.20051155E1,4.580303E0,9.667875E0,1.2044372E1,1.8004295E1,4.967042E-1,2.7783813E1,4.1840885E1,3.983957E0,-2.5692767E-1,-1.9499943E-1,-2.0258729E-1,1.579361E-1,6.409779E-2,-1.15216866E-1,-1.8978386E-1,-1.2225037E-1,-8.855668E-2,7.820045E-2,-2.0209458E-2,9.174032E-2,1.1991503E-1,3.1717494E-1,4.762513E-2,2.1218942E-1,5.186904E-1,1.9020073E-1,8.1711674E-1,3.772731E-1,6.804115E-1,1.4015063E0,-4.860344E-3,1.231146E-1,4.3446574E-1,8.914285E-2,1.9704756E-1,5.475984E-2,1.422459E-1,3.2920736E-1,3.4307182E-1,6.600755E-1,1.042597E0,6.5832275E-1,2.0067294E-1,5.0255686E-1,5.438184E-1,1.2794491E0,4.4243608E-2,3.3025223E-1,3.8139218E-1,5.6402165E-1,3.8861856E-1,6.7713255E-1,6.1224914E-1,1.0450252E0,8.5229176E-1,1.6086949E0,2.326319E0,9.5577186E-1],"categories":[],"categories_nodes":[],"categories_segments":[],"categories_sizes":[],"default_left":[0,0,0,0,0,0,0,0,0,0,0,0,0,0,0,0,0,0,0,0,0,0,0,0,0,0,0,0,0,0,0,0,0,0,0,0,0,0,0,0,0,0,0,0,0,0,0,0,0,0,0,0,0,0,0,0,0,0,0,0,0,0,0,0,0,0,0,0,0,0,0,0,0,0,0,0,0,0,0,0,0,0,0,0,0,0,0,0,0,0,0,0,0,0,0,0,0,0,0,0,0,0,0,0,0,0,0,0,0,0,0],"id":15,"left_children":[1,3,5,7,9,11,13,15,17,19,21,23,25,27,29,-1,31,33,35,37,39,41,43,45,47,49,51,53,55,57,59,-1,-1,61,63,65,-1,67,69,71,73,75,77,79,81,83,85,87,89,91,93,95,97,99,101,103,105,-1,107,109,-1,-1,-1,-1,-1,-1,-1,-1,-1,-1,-1,-1,-1,-1,-1,-1,-1,-1,-1,-1,-1,-1,-1,-1,-1,-1,-1,-1,-1,-1,-1,-1,-1,-1,-1,-1,-1,-1,-1,-1,-1,-1,-1,-1,-1,-1,-1,-1,-1,-1,-1],"loss_changes":[5.634495E5,5.9679406E4,7.750328E4,7.903453E3,1.0367019E4,1.3654352E4,5.303903E4,3.43125E1,1.1536875E3,5.7551177E3,1.5021113E3,3.1372715E3,9.233906E3,1.79235E4,1.0697898E4,0E0,2.163794E1,4.7495312E2,2.207842E2,1.3552354E3,1.3653584E3,1.1440411E2,7.5218555E2,1.518418E3,2.2133906E3,4.792332E3,5.346963E3,4.4293203E3,9.858078E3,9.732832E2,6.5690156E3,0E0,0E0,7.469922E1,2.9489258E2,8.9607124E1,0E0,5.127363E2,1.2607881E3,1.01295953E3,3.7840686E2,3.755217E1,7.311792E1,4.7304053E2,1.4658789E2,1.116446E3,7.6189404E2,3.8299243E2,2.1787422E3,2.9492188E3,1.6698867E3,3.0239043E3,1.4659746E3,1.7442627E3,2.1391719E3,4.7890938E3,7.2468438E3,0E0,1.0494297E3,2.4049375E3,0E0,0E0,0E0,0E0,0E0,0E0,0E0,0E0,0E0,0E0,0E0,0E0,0E0,0E0,0E0,0E0,0E0,0E0,0E0,0E0,0E0,0E0,0E0,0E0,0E0,0E0,0E0,0E0,0E0,0E0,0E0,0E0,0E0,0E0,0E0,0E0,0E0,0E0,0E0,0E0,0E0,0E0,0E0,0E0,0E0,0E0,0E0,0E0,0E0,0E0,0E0],"parents":[2147483647,0,0,1,1,2,2,3,3,4,4,5,5,6,6,7,7,8,8,9,9,10,10,11,11,12,12,13,13,14,14,16,16,17,17,18,18,19,19,20,20,21,21,22,22,23,23,24,24,25,25,26,26,27,27,28,28,29,29,30,30,33,33,34,34,35,35,37,37,38,38,39,39,40,40,41,41,42,42,43,43,44,44,45,45,46,46,47,47,48,48,49,49,50,50,51,51,52,52,53,53,54,54,55,55,56,56,58,58,59,59],"right_children":[2,4,6,8,10,12,14,16,18,20,22,24,26,28,30,-1,32,34,36,38,40,42,44,46,48,50,52,54,56,58,60,-1,-1,62,64,66,-1,68,70,72,74,76,78,80,82,84,86,88,90,92,94,96,98,100,102,104,106,-1,108,110,-1,-1,-1,-1,-1,-1,-1,-1,-1,-1,-1,-1,-1,-1,-1,-1,-1,-1,-1,-1,-1,-1,-1,-1,-1,-1,-1,-1,-1,-1,-1,-1,-1,-1,-1,-1,-1,-1,-1,-1,-1,-1,-1,-1,-1,-1,-1,-1,-1,-1,-1],"split_conditions":[1.7666666E1,7E0,4.7E1,2.25E0,1E0,3.9E1,1E0,1E0,1E0,1.325E1,1.15E1,3.4E1,6.234898E-1,3.775E1,3.25E1,-3.3853635E-1,3.3708332E1,8.25E0,2.1E1,1E1,1E0,2.334E3,1.2E1,1E0,1.6E1,4.9E1,5.3E1,2.1E1,2.1384295E1,6.1E0,1.53E2,-2.9538235E-1,-1.5666886E-1,1E0,2E0,1.2E1,2.9607514E-1,1.5E1,1E0,1.8E1,2E1,1.6E1,2.4632E3,2.7E1,1.575E1,2E0,1.605403E1,2.5708334E1,2E0,3.9E1,1.4E1,1E0,1E0,2.6666666E1,1.7022524E1,1.5E1,1E0,4.967042E-1,5.3E1,1.37E2,3.983957E0,-2.5692767E-1,-1.9499943E-1,-2.0258729E-1,1.579361E-1,6.409779E-2,-1.15216866E-1,-1.8978386E-1,-1.2225037E-1,-8.855668E-2,7.820045E-2,-2.0209458E-2,9.174032E-2,1.1991503E-1,3.1717494E-1,4.762513E-2,2.1218942E-1,5.186904E-1,1.9020073E-1,8.1711674E-1,3.772731E-1,6.804115E-1,1.4015063E0,-4.860344E-3,1.231146E-1,4.3446574E-1,8.914285E-2,1.9704756E-1,5.475984E-2,1.422459E-1,3.2920736E-1,3.4307182E-1,6.600755E-1,1.042597E0,6.5832275E-1,2.0067294E-1,5.0255686E-1,5.438184E-1,1.2794491E0,4.4243608E-2,3.3025223E-1,3.8139218E-1,5.6402165E-1,3.8861856E-1,6.7713255E-1,6.1224914E-1,1.0450252E0,8.5229176E-1,1.6086949E0,2.326319E0,9.5577186E-1],"split_indices":[73,73,2,73,48,0,48,4,48,73,73,2,26,73,73,0,9,72,5,4,50,69,65,50,5,0,4,5,10,36,0,0,0,18,50,5,0,2,27,13,4,3,71,3,73,15,10,9,14,1,13,50,48,73,10,19,18,0,2,0,0,0,0,0,0,0,0,0,0,0,0,0,0,0,0,0,0,0,0,0,0,0,0,0,0,0,0,0,0,0,0,0,0,0,0,0,0,0,0,0,0,0,0,0,0,0,0,0,0,0,0],"split_type":[0,0,0,0,0,0,0,0,0,0,0,0,0,0,0,0,0,0,0,0,0,0,0,0,0,0,0,0,0,0,0,0,0,0,0,0,0,0,0,0,0,0,0,0,0,0,0,0,0,0,0,0,0,0,0,0,0,0,0,0,0,0,0,0,0,0,0,0,0,0,0,0,0,0,0,0,0,0,0,0,0,0,0,0,0,0,0,0,0,0,0,0,0,0,0,0,0,0,0,0,0,0,0,0,0,0,0,0,0,0,0],"sum_hessian":[1.6244E4,1.0517E4,5.727E3,6.792E3,3.725E3,3.53E3,2.197E3,4.844E3,1.948E3,3.658E3,6.7E1,2.044E3,1.486E3,2.122E3,7.5E1,4.777E3,6.7E1,1.913E3,3.5E1,2.472E3,1.186E3,2.7E1,4E1,1.048E3,9.96E2,5.27E2,9.59E2,9.09E2,1.213E3,3.8E1,3.7E1,6E1,7E0,8.46E2,1.067E3,2.8E1,7E0,1.279E3,1.193E3,1.079E3,1.07E2,1.7E1,1E1,3E1,1E1,9.73E2,7.5E1,2.27E2,7.69E2,3.64E2,1.63E2,8.46E2,1.13E2,2.33E2,6.76E2,7.64E2,4.49E2,5E0,3.3E1,3E1,7E0,7.75E2,7.1E1,1.062E3,5E0,1.8E1,1E1,4.3E2,8.49E2,1.067E3,1.26E2,8.11E2,2.68E2,6.8E1,3.9E1,6E0,1.1E1,5E0,5E0,1.3E1,1.7E1,5E0,5E0,2.2E2,7.53E2,5.1E1,2.4E1,6.7E1,1.6E2,2.21E2,5.48E2,2.59E2,1.05E2,4.3E1,1.2E2,7.53E2,9.3E1,1.06E2,7E0,8.3E1,1.5E2,3.01E2,3.75E2,2E2,5.64E2,1.52E2,2.97E2,1.1E1,2.2E1,2.4E1,6E0],"tree_param":{"num_deleted":"0","num_feature":"74","num_nodes":"111","size_leaf_vector":"1"}},{"base_weights":[-2.371555E-2,-4.101249E0,7.5648546E0,-5.7642436E0,-1.0424283E0,7.0919614E0,3.3842525E1,-6.41103E0,-4.1232004E0,-1.2489634E0,1.0406386E1,4.461657E0,1.1302985E1,2.567643E1,4.9641075E1,-3.2160273E-1,-5.290221E0,-4.2088184E0,1.270698E0,-2.1687386E0,3.2972166E-1,5.7545433E0,1.4880818E1,2.7118757E0,5.7587986E0,8.200846E0,1.3613963E1,1.2529603E1,2.772537E1,8.547722E-1,5.4838673E1,-5.427936E0,-1.1515863E-1,-4.626785E0,-3.701414E0,-1.6193328E0,3.1864717E0,-3.4100063E0,-1.7823279E0,-2.1083131E-2,3.914786E0,2.7669213E0,9.817795E0,2.9901472E-1,1.6633516E1,2.3256483E0,6.8629446E0,3.7482588E0,6.8347764E0,4.8368645E0,1.004809E1,1.1526983E1,2.052702E1,2.712422E-1,8.7647146E-1,2.934003E1,7.8316647E-1,6.734973E1,3.521439E1,-2.1387045E-1,-2.865665E-1,-2.326899E-1,7.017163E-4,-2.470928E-1,-1.7673658E-1,-1.0993569E-1,-2.8013472E-2,2.4947663E-1,-3.0149722E-2,-2.4454606E-1,-1.5982139E-1,-9.676406E-2,3.3760887E-2,-2.8331378E-2,8.877521E-2,1.3501565E-1,3.1368622E-1,2.0915304E-1,3.9043095E-2,2.109556E-1,6.2241364E-1,1.0758462E0,5.9625584E-1,2.7921705E-2,1.5700616E-1,2.6788074E-1,5.2674264E-1,1.3785064E-1,2.9528385E-1,2.2700329E-1,4.0786406E-1,-1.7139358E-2,2.8867093E-1,3.5747483E-1,5.567528E-1,4.110758E-1,6.889365E-1,8.199647E-1,1.1963199E0,1.8103827E0,1.1979815E0,1.3957838E0,4.136371E0,1.050626E0,2.2185674E0],"categories":[],"categories_nodes":[],"categories_segments":[],"categories_sizes":[],"default_left":[0,0,0,0,0,0,0,0,0,0,0,0,0,0,0,0,0,0,0,0,0,0,0,0,0,0,0,0,0,0,0,0,0,0,0,0,0,0,0,0,0,0,0,0,0,0,0,0,0,0,0,0,0,0,0,0,0,0,0,0,0,0,0,0,0,0,0,0,0,0,0,0,0,0,0,0,0,0,0,0,0,0,0,0,0,0,0,0,0,0,0,0,0,0,0,0,0,0,0,0,0,0,0,0,0],"id":16,"left_children":[1,3,5,7,9,11,13,15,17,19,21,23,25,27,29,-1,31,33,35,37,39,41,43,45,47,49,51,53,55,-1,57,59,-1,61,63,65,67,69,71,73,75,77,79,-1,81,83,85,87,89,91,93,95,97,-1,-1,99,-1,101,103,-1,-1,-1,-1,-1,-1,-1,-1,-1,-1,-1,-1,-1,-1,-1,-1,-1,-1,-1,-1,-1,-1,-1,-1,-1,-1,-1,-1,-1,-1,-1,-1,-1,-1,-1,-1,-1,-1,-1,-1,-1,-1,-1,-1,-1,-1],"loss_changes":[5.0213706E5,5.368961E4,7.0239125E4,7.2303906E3,8.805962E3,6.1676062E4,1.1619109E4,8.034375E1,8.9971484E2,5.3066367E3,1.2860513E3,7.7731953E3,1.5242125E4,1.4803125E3,4.6375625E3,0E0,2.6216064E1,3.8626172E2,1.7695267E2,1.1008896E3,1.6932792E3,3.843181E2,4.1306348E2,2.3286836E3,4.2350117E3,5.6482266E3,1.7448172E4,2.9335828E2,6.655508E2,0E0,4.4926484E3,6.2487793E0,0E0,1.3103516E2,1.6073926E2,6.4690437E0,1.3326744E2,1.5656934E2,6.64126E2,1.2034901E3,3.2594568E2,5.530049E1,1.5199341E2,0E0,3.6087598E2,1.9266074E3,6.273706E2,1.4563008E3,3.8522656E3,1.5888057E3,1.7806094E3,6.910789E3,3.5745625E3,0E0,0E0,9.739922E2,0E0,7.3820156E3,7.517041E2,0E0,0E0,0E0,0E0,0E0,0E0,0E0,0E0,0E0,0E0,0E0,0E0,0E0,0E0,0E0,0E0,0E0,0E0,0E0,0E0,0E0,0E0,0E0,0E0,0E0,0E0,0E0,0E0,0E0,0E0,0E0,0E0,0E0,0E0,0E0,0E0,0E0,0E0,0E0,0E0,0E0,0E0,0E0,0E0,0E0,0E0],"parents":[2147483647,0,0,1,1,2,2,3,3,4,4,5,5,6,6,7,7,8,8,9,9,10,10,11,11,12,12,13,13,14,14,16,16,17,17,18,18,19,19,20,20,21,21,22,22,23,23,24,24,25,25,26,26,27,27,28,28,30,30,31,31,33,33,34,34,35,35,36,36,37,37,38,38,39,39,40,40,41,41,42,42,44,44,45,45,46,46,47,47,48,48,49,49,50,50,51,51,52,52,55,55,57,57,58,58],"right_children":[2,4,6,8,10,12,14,16,18,20,22,24,26,28,30,-1,32,34,36,38,40,42,44,46,48,50,52,54,56,-1,58,60,-1,62,64,66,68,70,72,74,76,78,80,-1,82,84,86,88,90,92,94,96,98,-1,-1,100,-1,102,104,-1,-1,-1,-1,-1,-1,-1,-1,-1,-1,-1,-1,-1,-1,-1,-1,-1,-1,-1,-1,-1,-1,-1,-1,-1,-1,-1,-1,-1,-1,-1,-1,-1,-1,-1,-1,-1,-1,-1,-1,-1,-1,-1,-1,-1,-1],"split_conditions":[1.775E1,7E0,1E0,2.3333333E0,1E0,3.2666668E1,3.2666668E1,1.5E0,1E0,1.275E1,2.7E1,3.4E1,1E0,1.875E1,6.9E0,-3.2160273E-1,1.6357143E1,9.25E0,8.5E0,7E0,1E0,1.15E1,1.2E1,1E0,3.2E1,1.8E1,6.1E1,2.9E1,2.618E3,8.547722E-1,1.81E1,1E0,-1.1515863E-1,2E0,6E0,1.88E3,1.1666667E1,4E0,2.1E1,1.8E1,3.2E1,1E1,1.6E1,2.9901472E-1,2.258E3,1.8E1,2.9E1,1E0,2E0,1E0,1.475E1,3.6E1,4.8E1,2.712422E-1,8.7647146E-1,4.3388373E-1,7.8316647E-1,1.14E1,6.6E1,-2.1387045E-1,-2.865665E-1,-2.326899E-1,7.017163E-4,-2.470928E-1,-1.7673658E-1,-1.0993569E-1,-2.8013472E-2,2.4947663E-1,-3.0149722E-2,-2.4454606E-1,-1.5982139E-1,-9.676406E-2,3.3760887E-2,-2.8331378E-2,8.877521E-2,1.3501565E-1,3.1368622E-1,2.0915304E-1,3.9043095E-2,2.109556E-1,6.2241364E-1,1.0758462E0,5.9625584E-1,2.7921705E-2,1.5700616E-1,2.6788074E-1,5.2674264E-1,1.3785064E-1,2.9528385E-1,2.2700329E-1,4.0786406E-1,-1.7139358E-2,2.8867093E-1,3.5747483E-1,5.567528E-1,4.110758E-1,6.889365E-1,8.199647E-1,1.1963199E0,1.8103827E0,1.1979815E0,1.3957838E0,4.136371E0,1.050626E0,2.2185674E0],"split_indices":[73,73,48,73,48,73,73,73,48,73,4,2,18,73,36,0,12,72,72,4,50,73,13,50,1,19,0,3,71,0,38,65,0,50,19,69,72,19,4,13,0,7,4,0,69,4,4,31,14,64,12,1,1,0,0,25,0,38,3,0,0,0,0,0,0,0,0,0,0,0,0,0,0,0,0,0,0,0,0,0,0,0,0,0,0,0,0,0,0,0,0,0,0,0,0,0,0,0,0,0,0,0,0,0,0],"split_type":[0,0,0,0,0,0,0,0,0,0,0,0,0,0,0,0,0,0,0,0,0,0,0,0,0,0,0,0,0,0,0,0,0,0,0,0,0,0,0,0,0,0,0,0,0,0,0,0,0,0,0,0,0,0,0,0,0,0,0,0,0,0,0,0,0,0,0,0,0,0,0,0,0,0,0,0,0,0,0,0,0,0,0,0,0,0,0,0,0,0,0,0,0,0,0,0,0,0,0,0,0,0,0,0,0],"sum_hessian":[1.6226E4,1.0555E4,5.671E3,6.837E3,3.718E3,5.572E3,9.9E1,4.902E3,1.935E3,3.653E3,6.5E1,3.431E3,2.141E3,6.7E1,3.2E1,4.807E3,9.5E1,1.905E3,3E1,2.308E3,1.345E3,3.3E1,3.2E1,1.462E3,1.969E3,9.16E2,1.225E3,1E1,5.7E1,5E0,2.7E1,9E1,5E0,1.04E3,8.65E2,1.2E1,1.8E1,5.46E2,1.762E3,1.226E3,1.19E2,2E1,1.3E1,6E0,2.6E1,1.339E3,1.23E2,6.88E2,1.281E3,3.26E2,5.9E2,9.43E2,2.82E2,5E0,5E0,4.9E1,8E0,1.5E1,1.2E1,2.2E1,6.8E1,1.034E3,6E0,9.9E1,7.66E2,7E0,5E0,1.2E1,6E0,6.6E1,4.8E2,1.659E3,1.03E2,9.41E2,2.85E2,8E1,3.9E1,1.1E1,9E0,5E0,8E0,1.1E1,1.5E1,4.23E2,9.16E2,8.9E1,3.4E1,4.73E2,2.15E2,4.7E2,8.11E2,5E1,2.76E2,1.63E2,4.27E2,3.84E2,5.59E2,1.3E2,1.52E2,1.9E1,3E1,5E0,1E1,6E0,6E0],"tree_param":{"num_deleted":"0","num_feature":"74","num_nodes":"105","size_leaf_vector":"1"}},{"base_weights":[7.650314E-3,-3.556858E0,7.8113556E0,-5.3606844E0,-3.4939197E-1,7.3597364E0,3.6260418E1,-6.090171E0,-3.7646108E0,-5.947737E-1,1.1829667E1,5.193835E0,1.1519884E1,2.4703863E1,4.6907963E1,-3.055255E-1,-5.02407E0,-3.858435E0,1.6075609E0,-1.7242332E0,8.3446425E-1,7.7473598E0,1.7001917E1,5.699571E-1,5.6394906E0,1.0239474E1,1.6570528E1,7.078549E-1,2.614573E1,6.409724E1,3.4026512E1,-5.152082E0,-1.1036034E-1,-4.3756857E0,-3.4002368E0,-9.97921E-1,3.4678059E0,-1.9221259E0,4.1769877E-1,4.9299794E-1,4.803109E0,4.785435E0,1.0258897E1,4.9667063E-1,1.879094E1,1.4486477E0,-2.4924126E0,4.5331497E0,7.4173574E0,6.186797E0,1.1958895E1,1.2609981E1,2.1098774E1,1.8961746E1,3.0221432E1,3.9077504E0,1.7421843E0,2.481391E0,2.6482527E1,-2.0497286E-1,-2.7210477E-1,-2.2443569E-1,-1.6223545E-1,-1.7755467E-1,-9.654047E-2,7.902572E-3,-1.16532326E-1,2.727535E-1,5.9161227E-2,-1.0755652E-1,1.3177796E-2,1.7931478E-1,-1.5374437E-1,4.6607885E-3,1.9325824E-1,4.0199476E-1,1.511172E-1,1.3646972E-1,4.143419E-1,2.5556737E-1,5.669617E-1,1.0980371E0,5.1761717E-1,2.74644E-2,2.0836262E-1,-2.0371158E-1,-6.654175E-2,2.0292763E-1,4.6146193E-1,3.4286556E-1,6.37299E-1,2.2220798E-1,5.4411465E-1,5.6017053E-1,1.0481504E0,4.911436E-1,9.0120757E-1,1.0065755E0,1.9606001E0,1.2481607E0,4.2612338E-1,1.643409E0,9.275495E-1,6.775463E-1,1.5062946E0],"categories":[],"categories_nodes":[],"categories_segments":[],"categories_sizes":[],"default_left":[0,0,0,0,0,0,0,0,0,0,0,0,0,0,0,0,0,0,0,0,0,0,0,0,0,0,0,0,0,0,0,0,0,0,0,0,0,0,0,0,0,0,0,0,0,0,0,0,0,0,0,0,0,0,0,0,0,0,0,0,0,0,0,0,0,0,0,0,0,0,0,0,0,0,0,0,0,0,0,0,0,0,0,0,0,0,0,0,0,0,0,0,0,0,0,0,0,0,0,0,0,0,0,0,0],"id":17,"left_children":[1,3,5,7,9,11,13,15,17,19,21,23,25,27,29,-1,31,33,35,37,39,41,43,45,47,49,51,-1,53,55,57,59,-1,61,63,65,67,69,71,73,75,77,79,-1,81,83,85,87,89,91,93,95,97,99,101,-1,-1,-1,103,-1,-1,-1,-1,-1,-1,-1,-1,-1,-1,-1,-1,-1,-1,-1,-1,-1,-1,-1,-1,-1,-1,-1,-1,-1,-1,-1,-1,-1,-1,-1,-1,-1,-1,-1,-1,-1,-1,-1,-1,-1,-1,-1,-1,-1,-1],"loss_changes":[4.4995806E5,6.424211E4,6.4894562E4,8.250875E3,1.1954009E4,4.493678E4,8.554906E3,7.3921875E1,1.1314453E3,6.329451E3,1.5338682E3,6.7674766E3,1.0879578E4,2.3410352E2,6.6660938E3,0E0,2.2869629E1,5.0433203E2,1.9273413E2,9.2923486E2,2.3428818E3,2.9159546E2,2.4042383E2,7.838602E2,5.8600625E3,9.442844E3,5.8999844E3,0E0,4.1754297E2,3.8453203E3,1.6205176E3,4.8217773E0,0E0,1.1594336E2,2.5150879E2,2.6775717E1,9.730307E1,1.0043208E3,2.0694656E3,2.1495146E3,7.6425635E2,1.4185791E2,7.3862305E1,0E0,4.6488965E2,5.498101E2,1.1346872E2,4.0843984E3,3.336586E3,3.2967676E3,6.2786875E3,2.6268848E3,1.9903906E3,7.2366797E2,2.8945312E0,0E0,0E0,0E0,4.825752E2,0E0,0E0,0E0,0E0,0E0,0E0,0E0,0E0,0E0,0E0,0E0,0E0,0E0,0E0,0E0,0E0,0E0,0E0,0E0,0E0,0E0,0E0,0E0,0E0,0E0,0E0,0E0,0E0,0E0,0E0,0E0,0E0,0E0,0E0,0E0,0E0,0E0,0E0,0E0,0E0,0E0,0E0,0E0,0E0,0E0,0E0],"parents":[2147483647,0,0,1,1,2,2,3,3,4,4,5,5,6,6,7,7,8,8,9,9,10,10,11,11,12,12,13,13,14,14,16,16,17,17,18,18,19,19,20,20,21,21,22,22,23,23,24,24,25,25,26,26,28,28,29,29,30,30,31,31,33,33,34,34,35,35,36,36,37,37,38,38,39,39,40,40,41,41,42,42,44,44,45,45,46,46,47,47,48,48,49,49,50,50,51,51,52,52,53,53,54,54,58,58],"right_children":[2,4,6,8,10,12,14,16,18,20,22,24,26,28,30,-1,32,34,36,38,40,42,44,46,48,50,52,-1,54,56,58,60,-1,62,64,66,68,70,72,74,76,78,80,-1,82,84,86,88,90,92,94,96,98,100,102,-1,-1,-1,104,-1,-1,-1,-1,-1,-1,-1,-1,-1,-1,-1,-1,-1,-1,-1,-1,-1,-1,-1,-1,-1,-1,-1,-1,-1,-1,-1,-1,-1,-1,-1,-1,-1,-1,-1,-1,-1,-1,-1,-1,-1,-1,-1,-1,-1,-1],"split_conditions":[2.025E1,7.6666665E0,1E0,2.3333333E0,1E0,3.5666668E1,4.275E1,1.5E0,1E0,1.35E1,1.5E1,2E0,5.325E1,1.3E1,1.4E1,-3.055255E-1,3.9482143E1,9.25E0,8.5E0,1E0,1.2E1,1.15E1,1.1034E3,1.1047619E1,2.85E1,1.7E1,2.4E1,7.078549E-1,9.1E0,1E-1,3.6E1,1E0,-1.1036034E-1,1E0,