{"learner":{"attributes":{"best_iteration":"310","best_score":"6.398868424219094","scikit_learn":"{\"_estimator_type\": \"regressor\"}"},"feature_names":["orders_count_lag_24h","orders_count_lag_48h","orders_count_lag_168h","orders_count_lag_336h","food_tickets_count_lag_24h","food_tickets_count_lag_48h","food_tickets_count_lag_168h","food_tickets_count_lag_336h","orders_count_roll_mean_24","orders_count_roll_mean_168","orders_count_roll_std_24","food_tickets_count_roll_mean_24","food_tickets_count_roll_mean_168","hour","weekday","month","quarter","is_weekend","is_friday_saturday","week_of_year","bank_holiday_flag","school_holiday_flag","payday_period_flag","hour_sin","hour_cos","weekday_sin","weekday_cos","month_sin","month_cos","is_food_service","is_breakfast_window","is_lunch_window","is_dinner_window","is_after_food_close","hours_since_food_close","is_live_music_window","temp_c","rain_mm","wind_speed_kmh","weather_severity_flag","airport_arrivals","airport_arrivals_lag1","airport_arrivals_zscore","cruise_ship_flag","ships_in_port_count","cruise_passenger_estimate","major_sports_event_flag","city_event_flag","st_patricks_week_flag","special_event_flag","event_intensity","tourism_pressure","weekend_x_music","rain_x_weekend","aviva_event_flag","croke_park_event_flag","nearby_venue_event_flag","event_impact_score","bloomsday_flag","bloomsday_week_flag","summer_tourism_flag","christmas_market_flag","new_years_eve_flag","new_years_day_flag","college_term_flag","days_from_payday","failte_event_count","failte_free_event_count","failte_festival_count","suffolk_footfall_lag_24h","suffolk_footfall_lag_168h","suffolk_footfall_roll_24h"],"feature_types":["float","float","float","float","float","float","float","float","float","float","float","float","float","int","int","int","int","int","int","int","int","float","float","float","float","float","float","float","float","int","int","int","int","int","int","int","float","float","float","float","float","float","float","float","float","float","float","float","float","i","float","float","int","float","float","float","float","float","float","float","float","float","float","float","float","float","int","int","int","float","float","float"],"gradient_booster":{"model":{"cats":{"enc":[],"feature_segments":[],"sorted_idx":[]},"gbtree_model_param":{"num_parallel_tree":"1","num_trees":"361"},"iteration_indptr":[0,1,2,3,4,5,6,7,8,9,10,11,12,13,14,15,16,17,18,19,20,21,22,23,24,25,26,27,28,29,30,31,32,33,34,35,36,37,38,39,40,41,42,43,44,45,46,47,48,49,50,51,52,53,54,55,56,57,58,59,60,61,62,63,64,65,66,67,68,69,70,71,72,73,74,75,76,77,78,79,80,81,82,83,84,85,86,87,88,89,90,91,92,93,94,95,96,97,98,99,100,101,102,103,104,105,106,107,108,109,110,111,112,113,114,115,116,117,118,119,120,121,122,123,124,125,126,127,128,129,130,131,132,133,134,135,136,137,138,139,140,141,142,143,144,145,146,147,148,149,150,151,152,153,154,155,156,157,158,159,160,161,162,163,164,165,166,167,168,169,170,171,172,173,174,175,176,177,178,179,180,181,182,183,184,185,186,187,188,189,190,191,192,193,194,195,196,197,198,199,200,201,202,203,204,205,206,207,208,209,210,211,212,213,214,215,216,217,218,219,220,221,222,223,224,225,226,227,228,229,230,231,232,233,234,235,236,237,238,239,240,241,242,243,244,245,246,247,248,249,250,251,252,253,254,255,256,257,258,259,260,261,262,263,264,265,266,267,268,269,270,271,272,273,274,275,276,277,278,279,280,281,282,283,284,285,286,287,288,289,290,291,292,293,294,295,296,297,298,299,300,301,302,303,304,305,306,307,308,309,310,311,312,313,314,315,316,317,318,319,320,321,322,323,324,325,326,327,328,329,330,331,332,333,334,335,336,337,338,339,340,341,342,343,344,345,346,347,348,349,350,351,352,353,354,355,356,357,358,359,360,361],"tree_info":[0,0,0,0,0,0,0,0,0,0,0,0,0,0,0,0,0,0,0,0,0,0,0,0,0,0,0,0,0,0,0,0,0,0,0,0,0,0,0,0,0,0,0,0,0,0,0,0,0,0,0,0,0,0,0,0,0,0,0,0,0,0,0,0,0,0,0,0,0,0,0,0,0,0,0,0,0,0,0,0,0,0,0,0,0,0,0,0,0,0,0,0,0,0,0,0,0,0,0,0,0,0,0,0,0,0,0,0,0,0,0,0,0,0,0,0,0,0,0,0,0,0,0,0,0,0,0,0,0,0,0,0,0,0,0,0,0,0,0,0,0,0,0,0,0,0,0,0,0,0,0,0,0,0,0,0,0,0,0,0,0,0,0,0,0,0,0,0,0,0,0,0,0,0,0,0,0,0,0,0,0,0,0,0,0,0,0,0,0,0,0,0,0,0,0,0,0,0,0,0,0,0,0,0,0,0,0,0,0,0,0,0,0,0,0,0,0,0,0,0,0,0,0,0,0,0,0,0,0,0,0,0,0,0,0,0,0,0,0,0,0,0,0,0,0,0,0,0,0,0,0,0,0,0,0,0,0,0,0,0,0,0,0,0,0,0,0,0,0,0,0,0,0,0,0,0,0,0,0,0,0,0,0,0,0,0,0,0,0,0,0,0,0,0,0,0,0,0,0,0,0,0,0,0,0,0,0,0,0,0,0,0,0,0,0,0,0,0,0,0,0,0,0,0,0,0,0,0,0,0,0,0,0,0,0,0,0,0,0,0,0,0,0,0,0,0,0,0,0,0,0,0,0,0,0,0,0,0,0,0,0],"trees":[{"base_weights":[6.77721E-3,-1.239219E1,1.5808338E1,-1.9953674E1,-5.1984596E0,1.42313385E1,8.2232635E1,-2.2850615E1,-1.502319E1,-7.6952133E0,1.5919156E0,8.412929E0,2.6415428E1,6.69146E1,1.2283418E2,-2.4495773E1,-1.9598845E1,-1.6716682E1,-1.129839E1,-1.0841574E1,-3.9886281E0,7.296785E-1,2.9883495E1,5.334307E0,1.535575E1,1.9943943E1,3.4027596E1,4.628004E1,8.0129845E1,5.0264373E0,8.172189E0,-2.5763939E1,-2.3098515E1,-2.075529E1,-1.718915E1,-1.709555E1,-4.415527E0,-1.2504069E1,-6.9846425E0,-1.3254705E1,-8.792264E0,-6.714453E0,-2.3304644E0,9.771763E0,-1.4691424E0,1.3499725E1,3.7203716E1,1.0246775E0,8.172532E0,1.1397823E1,2.1269363E1,1.4570098E1,2.4076172E1,2.772936E1,4.1212585E1,2.1551245E1,5.192096E1,6.5745964E1,9.469236E1,-1.2912339E0,-6.9001275E-1,-1.1686858E0,-1.0262116E0,-1.0422758E0,-5.555338E-1,-7.644281E-1,-9.18357E-1,-9.368672E-1,-7.636668E-1,-4.1785508E-1,1.0433145E-1,-6.6952217E-1,-4.9671254E-1,-3.8082534E-1,2.8734872E-1,-6.841571E-1,-3.6639878E-1,-4.7793826E-1,-1.9929533E-1,-3.6414683E-1,7.579749E-2,-1.730574E-2,-2.467963E-1,3.6804217E-1,1.133364E0,-1.5634647E-1,2.5219628E-1,3.7348736E-2,1.0682162E0,9.1234875E-1,2.0512776E0,-2.3976238E-2,3.2477984E-1,5.8853024E-1,2.659632E-1,1.0673683E-1,6.3478065E-1,1.1514674E0,3.498059E-1,1.3938981E-2,7.8971475E-1,7.390696E-1,1.3563789E0,1.568331E0,1.104042E0,2.2485082E0,1.7015533E0,4.290154E-1,1.5456821E0,2.788938E0,1.0373487E0,1.9514159E0,3.4655004E0,3.7731438E0,5.5801425E0],"categories":[],"categories_nodes":[],"categories_segments":[],"categories_sizes":[],"default_left":[0,0,0,0,0,0,0,0,0,0,0,0,0,0,0,0,0,0,0,0,0,0,0,0,0,0,0,0,0,0,0,0,0,0,0,0,0,0,0,0,0,0,0,0,0,0,0,0,0,0,0,0,0,0,0,0,0,0,0,0,0,0,0,0,0,0,0,0,0,0,0,0,0,0,0,0,0,0,0,0,0,0,0,0,0,0,0,0,0,0,0,0,0,0,0,0,0,0,0,0,0,0,0,0,0,0,0,0,0,0,0,0,0,0,0],"id":0,"left_children":[1,3,5,7,9,11,13,15,17,19,21,23,25,27,29,31,33,35,37,39,41,43,45,47,49,51,53,55,57,-1,-1,59,61,63,65,67,69,71,73,75,77,79,81,83,85,87,89,91,93,95,97,99,101,103,105,107,109,111,113,-1,-1,-1,-1,-1,-1,-1,-1,-1,-1,-1,-1,-1,-1,-1,-1,-1,-1,-1,-1,-1,-1,-1,-1,-1,-1,-1,-1,-1,-1,-1,-1,-1,-1,-1,-1,-1,-1,-1,-1,-1,-1,-1,-1,-1,-1,-1,-1,-1,-1,-1,-1,-1,-1,-1,-1],"loss_changes":[3.1745412E6,4.9374862E5,7.4506675E5,6.2870875E4,7.891628E4,4.9318288E5,9.4381125E4,1.441975E4,1.0159625E4,3.964192E4,3.0516488E4,1.0063181E5,1.1010625E5,2.9547188E4,2.3398625E4,2.671E3,2.2616875E3,5.1700938E3,2.5944219E3,8.980531E3,7.0525176E3,2.4191607E4,3.9301992E3,3.9939445E4,3.362228E4,2.6692188E4,4.5551125E4,5.8483516E3,9.049281E3,0E0,0E0,3.365E2,1.4496875E2,3.1428125E2,4.121172E2,2.9773438E3,9.1507104E2,7.803242E2,9.6909424E2,2.0381875E3,3.6372656E3,2.7768164E3,5.033486E3,7.22958E3,1.0586114E4,1.2856687E3,1.0567148E3,1.0685437E4,2.0149953E4,1.0418125E4,1.438075E4,9.301539E3,1.9079625E4,1.06635E4,1.14145625E4,1.0666318E3,3.645625E3,1.0930312E3,2.6155625E3,0E0,0E0,0E0,0E0,0E0,0E0,0E0,0E0,0E0,0E0,0E0,0E0,0E0,0E0,0E0,0E0,0E0,0E0,0E0,0E0,0E0,0E0,0E0,0E0,0E0,0E0,0E0,0E0,0E0,0E0,0E0,0E0,0E0,0E0,0E0,0E0,0E0,0E0,0E0,0E0,0E0,0E0,0E0,0E0,0E0,0E0,0E0,0E0,0E0,0E0,0E0,0E0,0E0,0E0,0E0,0E0],"parents":[2147483647,0,0,1,1,2,2,3,3,4,4,5,5,6,6,7,7,8,8,9,9,10,10,11,11,12,12,13,13,14,14,15,15,16,16,17,17,18,18,19,19,20,20,21,21,22,22,23,23,24,24,25,25,26,26,27,27,28,28,31,31,32,32,33,33,34,34,35,35,36,36,37,37,38,38,39,39,40,40,41,41,42,42,43,43,44,44,45,45,46,46,47,47,48,48,49,49,50,50,51,51,52,52,53,53,54,54,55,55,56,56,57,57,58,58],"right_children":[2,4,6,8,10,12,14,16,18,20,22,24,26,28,30,32,34,36,38,40,42,44,46,48,50,52,54,56,58,-1,-1,60,62,64,66,68,70,72,74,76,78,80,82,84,86,88,90,92,94,96,98,100,102,104,106,108,110,112,114,-1,-1,-1,-1,-1,-1,-1,-1,-1,-1,-1,-1,-1,-1,-1,-1,-1,-1,-1,-1,-1,-1,-1,-1,-1,-1,-1,-1,-1,-1,-1,-1,-1,-1,-1,-1,-1,-1,-1,-1,-1,-1,-1,-1,-1,-1,-1,-1,-1,-1,-1,-1,-1,-1,-1,-1],"split_conditions":[3.2E1,1.8E1,1E0,1.4E1,3.4E1,5.3E1,6.5E1,1.1E1,1.9E1,2.5E1,1E0,4.7E1,3.9E1,3.5E1,2E0,8E0,1.5E1,1E0,2.8E1,2E1,2.3E1,6.234898E-1,2E1,3.3E1,3.6E1,1E0,6.7E1,3.9E1,9.9E1,5.0264373E0,8.172189E0,1E0,1.1E1,1E0,2.5881904E-1,1.4E1,1.3E1,2.6E1,3.1E1,1E0,1E0,1E0,6.234898E-1,4.8E1,5.3E1,1.784E3,2.4E1,4.1E1,6.234898E-1,2.9E1,4.282738E1,3E0,3.2E1,6.234898E-1,-7.818315E-1,2.2E1,2.58E1,3.8E1,2E0,-1.2912339E0,-6.9001275E-1,-1.1686858E0,-1.0262116E0,-1.0422758E0,-5.555338E-1,-7.644281E-1,-9.18357E-1,-9.368672E-1,-7.636668E-1,-4.1785508E-1,1.0433145E-1,-6.6952217E-1,-4.9671254E-1,-3.8082534E-1,2.8734872E-1,-6.841571E-1,-3.6639878E-1,-4.7793826E-1,-1.9929533E-1,-3.6414683E-1,7.579749E-2,-1.730574E-2,-2.467963E-1,3.6804217E-1,1.133364E0,-1.5634647E-1,2.5219628E-1,3.7348736E-2,1.0682162E0,9.1234875E-1,2.0512776E0,-2.3976238E-2,3.2477984E-1,5.8853024E-1,2.659632E-1,1.0673683E-1,6.3478065E-1,1.1514674E0,3.498059E-1,1.3938981E-2,7.8971475E-1,7.390696E-1,1.3563789E0,1.568331E0,1.104042E0,2.2485082E0,1.7015533E0,4.290154E-1,1.5456821E0,2.788938E0,1.0373487E0,1.9514159E0,3.4655004E0,3.7731438E0,5.5801425E0],"split_indices":[2,2,48,0,0,3,2,2,3,3,48,2,8,3,50,3,3,48,0,0,0,26,3,0,8,18,2,0,0,0,0,48,13,48,23,2,2,3,4,50,50,49,26,0,0,69,2,3,26,0,9,19,1,26,25,3,38,2,50,0,0,0,0,0,0,0,0,0,0,0,0,0,0,0,0,0,0,0,0,0,0,0,0,0,0,0,0,0,0,0,0,0,0,0,0,0,0,0,0,0,0,0,0,0,0,0,0,0,0,0,0,0,0,0,0],"split_type":[0,0,0,0,0,0,0,0,0,0,0,0,0,0,0,0,0,0,0,0,0,0,0,0,0,0,0,0,0,0,0,0,0,0,0,0,0,0,0,0,0,0,0,0,0,0,0,0,0,0,0,0,0,0,0,0,0,0,0,0,0,0,0,0,0,0,0,0,0,0,0,0,0,0,0,0,0,0,0,0,0,0,0,0,0,0,0,0,0,0,0,0,0,0,0,0,0,0,0,0,0,0,0,0,0,0,0,0,0,0,0,0,0,0,0],"sum_hessian":[1.6201E4,9.078E3,7.123E3,4.425E3,4.653E3,6.959E3,1.64E2,2.785E3,1.64E3,3.402E3,1.251E3,4.711E3,2.248E3,1.21E2,4.3E1,1.845E3,9.4E2,1.125E3,5.15E2,1.839E3,1.563E3,1.215E3,3.6E1,3.265E3,1.446E3,1.217E3,1.031E3,4.9E1,7.2E1,3E1,1.3E1,9.58E2,8.87E2,6.3E2,3.1E2,1.091E3,3.4E1,4.01E2,1.14E2,8.42E2,9.97E2,5.9E2,9.73E2,2.37E2,9.78E2,1.2E1,2.4E1,1.297E3,1.968E3,8.68E2,5.78E2,5.31E2,6.86E2,5.52E2,4.79E2,1E1,3.9E1,3.9E1,3.3E1,9.52E2,6E0,7.94E2,9.3E1,6.23E2,7E0,1.24E2,1.86E2,5.69E2,5.22E2,2.1E1,1.3E1,2.95E2,1.06E2,1.09E2,5E0,7.84E2,5.8E1,8.59E2,1.38E2,5.52E2,3.8E1,5.53E2,4.2E2,2.01E2,3.6E1,7.8E2,1.98E2,5E0,7E0,5E0,1.9E1,1.018E3,2.79E2,8.69E2,1.099E3,1.07E2,7.61E2,5.14E2,6.4E1,4.2E1,4.89E2,1.71E2,5.15E2,3.33E2,2.19E2,3.11E2,1.68E2,5E0,5E0,3.4E1,5E0,6E0,3.3E1,1.8E1,1.5E1],"tree_param":{"num_deleted":"0","num_feature":"72","num_nodes":"115","size_leaf_vector":"1"}},{"base_weights":[4.276808E-2,-1.1507385E1,1.4679719E1,-1.7972288E1,-2.9718115E0,1.2997954E1,6.788625E1,-2.1111412E1,-1.2916598E1,-6.951257E0,1.0457423E0,5.3342957E0,2.286634E1,3.4284134E1,9.611675E1,-2.3108364E1,-1.8084469E1,-1.4079416E1,-9.657625E0,-1.0975798E1,-5.4423985E0,-4.944705E0,2.7634325E0,-1.6394402E-1,8.707501E0,1.723889E1,3.0544153E1,1.7932451E1,4.7929523E1,1.08308975E2,3.249778E0,-2.461564E1,-2.2109892E1,-1.939716E1,-1.6190384E1,-1.2757241E1,-1.6539692E1,-9.874932E0,3.9252743E-1,-1.1542989E1,-1.3421931E0,-5.912727E0,2.8266907E0,-9.490722E0,-2.502462E0,3.5989836E-1,6.5407987E0,-1.4102007E0,7.80748E0,7.264235E0,1.5999048E1,1.1898824E1,2.0549992E1,3.615244E1,2.5421497E1,1.0421776E1,1.5504731E0,2.9748046E0,3.705231E1,1.0088848E2,7.656087E0,-1.2350482E0,-7.384328E-1,-1.1199623E0,-9.54877E-1,-8.528641E-1,-9.977698E-1,-8.271429E-1,-5.6036794E-1,-6.505009E-1,3.2859313E-1,-8.445808E-1,4.437022E-2,-6.423854E-1,-4.3287045E-1,-8.2146496E-1,-5.515636E-1,-2.7175352E-1,3.893178E-1,-3.4538794E-1,-1.5698758E-1,4.66125E-1,-2.503967E-1,-6.961431E-1,-4.1196617E-1,-1.9560967E-1,1.1165223E-1,-3.114117E-1,4.3524142E-2,1.9380526E-1,5.1051044E-1,-1.7243539E-1,1.6222194E-1,4.7601387E-1,5.26742E-2,3.2529423E-1,8.6556274E-1,6.1664927E-1,1.3242505E0,4.9023262E-1,8.701665E-1,9.2247295E-1,1.5401042E0,1.3689386E0,2.1476567E0,1.0498203E0,1.6927347E0,2.812085E-1,1.3369173E0,2.1526818E0,5.155768E-1,5.217981E0,2.1780236E0],"categories":[],"categories_nodes":[],"categories_segments":[],"categories_sizes":[],"default_left":[0,0,0,0,0,0,0,0,0,0,0,0,0,0,0,0,0,0,0,0,0,0,0,0,0,0,0,0,0,0,0,0,0,0,0,0,0,0,0,0,0,0,0,0,0,0,0,0,0,0,0,0,0,0,0,0,0,0,0,0,0,0,0,0,0,0,0,0,0,0,0,0,0,0,0,0,0,0,0,0,0,0,0,0,0,0,0,0,0,0,0,0,0,0,0,0,0,0,0,0,0,0,0,0,0,0,0,0,0,0,0,0,0],"id":1,"left_children":[1,3,5,7,9,11,13,15,17,19,21,23,25,27,29,31,33,35,37,39,41,43,45,47,49,51,53,55,57,59,-1,61,63,65,67,69,71,73,-1,75,77,79,81,83,85,87,89,91,93,95,97,99,101,103,105,107,-1,-1,109,111,-1,-1,-1,-1,-1,-1,-1,-1,-1,-1,-1,-1,-1,-1,-1,-1,-1,-1,-1,-1,-1,-1,-1,-1,-1,-1,-1,-1,-1,-1,-1,-1,-1,-1,-1,-1,-1,-1,-1,-1,-1,-1,-1,-1,-1,-1,-1,-1,-1,-1,-1,-1,-1],"loss_changes":[2.7551552E6,5.0259412E5,6.42298E5,8.19805E4,6.2791312E4,5.2692625E5,2.0538475E5,1.889675E4,7.395375E3,1.1919594E4,2.0129873E4,7.277952E4,1.3107575E5,2.189268E4,3.8096E4,2.343625E3,2.8524688E3,4.5450625E3,2.0789688E3,2.9174297E3,5.605785E3,4.8157305E3,1.3797079E4,1.4842491E4,2.5474953E4,3.0871688E4,3.6049375E4,4.3871084E3,4.705539E3,1.2459125E4,0E0,2.6725E2,5.844375E2,6.3296875E2,7.392031E2,4.7571094E3,3.1321562E3,1.7687227E3,0E0,1.0837266E3,1.2003074E3,3.7298164E3,4.0167122E3,7.261172E2,1.9115049E3,3.1332175E3,5.7377285E3,1.2270371E4,2.3256943E3,1.5367133E4,1.5084805E4,7.6191562E3,2.2792125E4,3.533325E4,2.4510438E4,2.3513574E3,0E0,0E0,4.5255938E3,1.036375E4,0E0,0E0,0E0,0E0,0E0,0E0,0E0,0E0,0E0,0E0,0E0,0E0,0E0,0E0,0E0,0E0,0E0,0E0,0E0,0E0,0E0,0E0,0E0,0E0,0E0,0E0,0E0,0E0,0E0,0E0,0E0,0E0,0E0,0E0,0E0,0E0,0E0,0E0,0E0,0E0,0E0,0E0,0E0,0E0,0E0,0E0,0E0,0E0,0E0,0E0,0E0,0E0,0E0],"parents":[2147483647,0,0,1,1,2,2,3,3,4,4,5,5,6,6,7,7,8,8,9,9,10,10,11,11,12,12,13,13,14,14,15,15,16,16,17,17,18,18,19,19,20,20,21,21,22,22,23,23,24,24,25,25,26,26,27,27,28,28,29,29,31,31,32,32,33,33,34,34,35,35,36,36,37,37,39,39,40,40,41,41,42,42,43,43,44,44,45,45,46,46,47,47,48,48,49,49,50,50,51,51,52,52,53,53,54,54,55,55,58,58,59,59],"right_children":[2,4,6,8,10,12,14,16,18,20,22,24,26,28,30,32,34,36,38,40,42,44,46,48,50,52,54,56,58,60,-1,62,64,66,68,70,72,74,-1,76,78,80,82,84,86,88,90,92,94,96,98,100,102,104,106,108,-1,-1,110,112,-1,-1,-1,-1,-1,-1,-1,-1,-1,-1,-1,-1,-1,-1,-1,-1,-1,-1,-1,-1,-1,-1,-1,-1,-1,-1,-1,-1,-1,-1,-1,-1,-1,-1,-1,-1,-1,-1,-1,-1,-1,-1,-1,-1,-1,-1,-1,-1,-1,-1,-1,-1,-1],"split_conditions":[3.2E1,2.1E1,1E0,1.5E1,3E1,4.6E1,3.5E1,1.1E1,1.1E1,1.9E1,2.2E1,3.1E1,3.9E1,2.3E1,0E0,7E0,1.5E1,2.5881904E-1,1E0,1E0,1E0,1.9E1,4.1E1,5.5E1,3.5E1,2.9791666E1,-7.818315E-1,1.3E1,1E1,1E0,3.249778E0,1E0,1.1E1,1.2246469E-16,1E0,2.5251202E1,3.868694E1,1.2E1,3.9252743E-1,3E0,1.6041666E1,1.7E1,1.2E1,1.5E1,2.4E1,4E0,3.2E1,4.3388373E-1,1E1,1E0,3.9541668E1,3.8E1,4.8E1,5.8E1,2.2E1,1.7E1,1.5504731E0,2.9748046E0,1E-1,3.918E3,7.656087E0,-1.2350482E0,-7.384328E-1,-1.1199623E0,-9.54877E-1,-8.528641E-1,-9.977698E-1,-8.271429E-1,-5.6036794E-1,-6.505009E-1,3.2859313E-1,-8.445808E-1,4.437022E-2,-6.423854E-1,-4.3287045E-1,-8.2146496E-1,-5.515636E-1,-2.7175352E-1,3.893178E-1,-3.4538794E-1,-1.5698758E-1,4.66125E-1,-2.503967E-1,-6.961431E-1,-4.1196617E-1,-1.9560967E-1,1.1165223E-1,-3.114117E-1,4.3524142E-2,1.9380526E-1,5.1051044E-1,-1.7243539E-1,1.6222194E-1,4.7601387E-1,5.26742E-2,3.2529423E-1,8.6556274E-1,6.1664927E-1,1.3242505E0,4.9023262E-1,8.701665E-1,9.2247295E-1,1.5401042E0,1.3689386E0,2.1476567E0,1.0498203E0,1.6927347E0,2.812085E-1,1.3369173E0,2.1526818E0,5.155768E-1,5.217981E0,2.1780236E0],"split_indices":[0,3,48,0,3,3,3,3,6,0,0,3,8,3,25,3,3,23,48,50,27,1,3,0,6,8,25,6,65,46,0,48,13,23,50,10,10,13,0,19,11,6,19,0,6,19,1,25,65,27,8,6,6,0,13,13,0,0,37,70,0,0,0,0,0,0,0,0,0,0,0,0,0,0,0,0,0,0,0,0,0,0,0,0,0,0,0,0,0,0,0,0,0,0,0,0,0,0,0,0,0,0,0,0,0,0,0,0,0,0,0,0,0],"split_type":[0,0,0,0,0,0,0,0,0,0,0,0,0,0,0,0,0,0,0,0,0,0,0,0,0,0,0,0,0,0,0,0,0,0,0,0,0,0,0,0,0,0,0,0,0,0,0,0,0,0,0,0,0,0,0,0,0,0,0,0,0,0,0,0,0,0,0,0,0,0,0,0,0,0,0,0,0,0,0,0,0,0,0,0,0,0,0,0,0,0,0,0,0,0,0,0,0,0,0,0,0,0,0,0,0,0,0,0,0,0,0,0,0],"sum_hessian":[1.6295E4,9.108E3,7.187E3,5.182E3,3.926E3,6.968E3,2.19E2,3.195E3,1.987E3,1.972E3,1.954E3,3.923E3,3.045E3,1.01E2,1.18E2,1.921E3,1.274E3,1.462E3,5.25E2,5.36E2,1.436E3,4.35E2,1.519E3,1.492E3,2.431E3,1.759E3,1.286E3,4.7E1,5.4E1,8.3E1,3.5E1,7.56E2,1.165E3,7.47E2,5.27E2,9.55E2,5.07E2,5.19E2,6E0,5.06E2,3E1,1.359E3,7.7E1,1.51E2,2.84E2,9.29E2,5.9E2,1.291E3,2.01E2,2.031E3,4E2,6.75E2,1.084E3,6.11E2,6.75E2,3.1E1,1.6E1,2.4E1,3E1,7.4E1,9E0,7.48E2,8E0,1.057E3,1.08E2,1.5E2,5.97E2,4.9E2,3.7E1,9.43E2,1.2E1,4.97E2,1E1,1.48E2,3.71E2,4.5E1,4.61E2,2.1E1,9E0,9.99E2,3.6E2,4.2E1,3.5E1,3.1E1,1.2E2,2.19E2,6.5E1,6.6E1,8.63E2,3.43E2,2.47E2,8.98E2,3.93E2,1.6E2,4.1E1,1.89E3,1.41E2,2.98E2,1.02E2,4.91E2,1.84E2,9.02E2,1.82E2,2.69E2,3.42E2,4.45E2,2.3E2,2.5E1,6E0,2.4E1,6E0,6.9E1,5E0],"tree_param":{"num_deleted":"0","num_feature":"72","num_nodes":"113","size_leaf_vector":"1"}},{"base_weights":[-6.222538E-2,-1.20941305E1,1.3155329E1,-1.8123444E1,-5.542038E0,1.1692604E1,7.498152E1,-2.1091587E1,-1.4479296E1,-8.31612E0,-1.3321437E0,6.537652E0,2.3387941E1,6.215895E1,1.2418622E2,-2.3037315E1,-1.9474176E1,-1.6168478E1,-1.195366E1,-8.691891E0,1.3531039E1,-2.2317567E0,7.4517107E0,2.772727E0,1.1459374E1,1.5612647E1,2.8543427E1,4.435224E1,7.4710236E1,3.6983125E0,6.6877136E0,-2.311594E1,-6.061052E-1,-2.0363398E1,-1.6798632E1,-1.6355228E1,-4.1785687E-1,-1.2290622E1,3.781957E-3,-9.634225E0,-4.102381E0,5.5979733E0,2.8990173E1,-3.4474247E0,2.1941686E0,5.250537E0,1.6251382E0,3.428422E-1,5.748099E0,7.6096253E0,1.487215E1,7.8751526E0,1.829283E1,2.3997293E1,3.7269127E1,7.774193E-1,4.8329693E1,6.444504E1,8.984718E1,-1.1879109E0,-1.0852963E0,-1.0242649E0,-4.757783E-1,-8.63605E-1,-5.6635267E-1,-7.302958E-1,-8.733716E-1,-2.628522E-1,1.6906363E-1,-6.38135E-1,-3.803273E-1,-2.159947E-1,4.3315807E-1,-5.9638554E-1,-4.125189E-1,7.1190298E-3,-3.1596437E-1,-9.78143E-2,5.525675E-1,9.203338E-1,1.846493E0,-2.1242826E-1,8.383505E-2,-1.3983491E-1,2.6995692E-1,1.8094009E-1,5.114168E-1,-2.4557881E-1,5.817793E-2,-3.968299E-2,3.4584254E-1,3.5057005E-1,9.7290677E-1,5.7673687E-1,9.5854515E-1,1.7434852E-1,5.491974E-1,5.446033E-1,1.0091943E0,9.96144E-1,1.4830929E0,1.555265E0,2.0429103E0,2.554634E0,8.8468343E-1,1.8726084E0,3.3545978E0,3.046705E0,5.134884E0],"categories":[],"categories_nodes":[],"categories_segments":[],"categories_sizes":[],"default_left":[0,0,0,0,0,0,0,0,0,0,0,0,0,0,0,0,0,0,0,0,0,0,0,0,0,0,0,0,0,0,0,0,0,0,0,0,0,0,0,0,0,0,0,0,0,0,0,0,0,0,0,0,0,0,0,0,0,0,0,0,0,0,0,0,0,0,0,0,0,0,0,0,0,0,0,0,0,0,0,0,0,0,0,0,0,0,0,0,0,0,0,0,0,0,0,0,0,0,0,0,0,0,0,0,0,0,0,0,0],"id":2,"left_children":[1,3,5,7,9,11,13,15,17,19,21,23,25,27,29,31,33,35,37,39,41,43,45,47,49,51,53,55,57,-1,-1,59,-1,61,63,65,67,69,71,73,75,77,79,81,83,85,-1,87,89,91,93,95,97,99,101,-1,103,105,107,-1,-1,-1,-1,-1,-1,-1,-1,-1,-1,-1,-1,-1,-1,-1,-1,-1,-1,-1,-1,-1,-1,-1,-1,-1,-1,-1,-1,-1,-1,-1,-1,-1,-1,-1,-1,-1,-1,-1,-1,-1,-1,-1,-1,-1,-1,-1,-1,-1,-1],"loss_changes":[2.5874565E6,3.3635788E5,7.00255E5,4.7661625E4,4.7671664E4,4.5653262E5,1.05198625E5,7.23225E3,8.310844E3,2.0320734E4,1.2841167E4,9.7415625E4,9.2427875E4,2.8858188E4,7.38425E3,6.62875E2,2.8422812E3,3.4976562E3,3.2367266E3,1.0425234E4,4.985066E3,7.933102E3,8.151968E3,2.1549482E4,2.9826812E4,1.9056625E4,5.4317625E4,6.345258E3,7.0912188E3,0E0,0E0,4.705E2,0E0,1.1256875E3,6.823125E2,2.0335938E3,2.9373352E2,1.6278672E3,8.989863E2,6.269453E3,3.8973564E3,1.2172194E3,4.91125E2,4.7529287E3,5.101953E3,1.0987439E3,0E0,7.08628E3,1.0251328E4,7.466422E3,1.7092312E4,3.2343213E3,9.391781E3,2.0591375E4,9.2300625E3,0E0,3.660039E3,1.2635469E3,5.243828E3,0E0,0E0,0E0,0E0,0E0,0E0,0E0,0E0,0E0,0E0,0E0,0E0,0E0,0E0,0E0,0E0,0E0,0E0,0E0,0E0,0E0,0E0,0E0,0E0,0E0,0E0,0E0,0E0,0E0,0E0,0E0,0E0,0E0,0E0,0E0,0E0,0E0,0E0,0E0,0E0,0E0,0E0,0E0,0E0,0E0,0E0,0E0,0E0,0E0,0E0],"parents":[2147483647,0,0,1,1,2,2,3,3,4,4,5,5,6,6,7,7,8,8,9,9,10,10,11,11,12,12,13,13,14,14,15,15,16,16,17,17,18,18,19,19,20,20,21,21,22,22,23,23,24,24,25,25,26,26,27,27,28,28,31,31,33,33,34,34,35,35,36,36,37,37,38,38,39,39,40,40,41,41,42,42,43,43,44,44,45,45,47,47,48,48,49,49,50,50,51,51,52,52,53,53,54,54,56,56,57,57,58,58],"right_children":[2,4,6,8,10,12,14,16,18,20,22,24,26,28,30,32,34,36,38,40,42,44,46,48,50,52,54,56,58,-1,-1,60,-1,62,64,66,68,70,72,74,76,78,80,82,84,86,-1,88,90,92,94,96,98,100,102,-1,104,106,108,-1,-1,-1,-1,-1,-1,-1,-1,-1,-1,-1,-1,-1,-1,-1,-1,-1,-1,-1,-1,-1,-1,-1,-1,-1,-1,-1,-1,-1,-1,-1,-1,-1,-1,-1,-1,-1,-1,-1,-1,-1,-1,-1,-1,-1,-1,-1,-1,-1,-1],"split_conditions":[3E1,1.8E1,1E0,1.2E1,2.7E1,5.3E1,7.3E1,8E0,1.7E1,1E0,1E0,4.1E1,1E0,3.5E1,6.8083336E1,1E0,1.3E1,1E0,2.4E1,1.8E1,1.9E1,2.4E1,2.3375E1,3.8E1,3.1E1,3E0,4.8E1,1.2E1,2E0,3.6983125E0,6.6877136E0,8E0,-6.061052E-1,1E0,1.3E1,2.5881904E-1,1.3E1,1E0,3.2875E1,1.9E1,2E0,1.184E3,1.7E1,2.2E1,1E0,1.8E1,1.6251382E0,2.3E1,2.4E1,1E0,5.3E1,2E0,3.8E1,3.9E1,4.0708332E1,7.774193E-1,2.65E1,5.7E0,4.6E1,-1.1879109E0,-1.0852963E0,-1.0242649E0,-4.757783E-1,-8.63605E-1,-5.6635267E-1,-7.302958E-1,-8.733716E-1,-2.628522E-1,1.6906363E-1,-6.38135E-1,-3.803273E-1,-2.159947E-1,4.3315807E-1,-5.9638554E-1,-4.125189E-1,7.1190298E-3,-3.1596437E-1,-9.78143E-2,5.525675E-1,9.203338E-1,1.846493E0,-2.1242826E-1,8.383505E-2,-1.3983491E-1,2.6995692E-1,1.8094009E-1,5.114168E-1,-2.4557881E-1,5.817793E-2,-3.968299E-2,3.4584254E-1,3.5057005E-1,9.7290677E-1,5.7673687E-1,9.5854515E-1,1.7434852E-1,5.491974E-1,5.446033E-1,1.0091943E0,9.96144E-1,1.4830929E0,1.555265E0,2.0429103E0,2.554634E0,8.8468343E-1,1.8726084E0,3.3545978E0,3.046705E0,5.134884E0],"split_indices":[2,2,48,2,3,2,2,2,3,48,50,3,18,3,8,48,3,48,4,4,3,4,11,2,8,14,1,13,50,0,0,3,0,48,4,23,4,50,8,3,65,69,13,13,14,6,0,3,1,49,3,14,1,8,8,0,38,36,2,0,0,0,0,0,0,0,0,0,0,0,0,0,0,0,0,0,0,0,0,0,0,0,0,0,0,0,0,0,0,0,0,0,0,0,0,0,0,0,0,0,0,0,0,0,0,0,0,0,0],"split_type":[0,0,0,0,0,0,0,0,0,0,0,0,0,0,0,0,0,0,0,0,0,0,0,0,0,0,0,0,0,0,0,0,0,0,0,0,0,0,0,0,0,0,0,0,0,0,0,0,0,0,0,0,0,0,0,0,0,0,0,0,0,0,0,0,0,0,0,0,0,0,0,0,0,0,0,0,0,0,0,0,0,0,0,0,0,0,0,0,0,0,0,0,0,0,0,0,0,0,0,0,0,0,0,0,0,0,0,0,0],"sum_hessian":[1.6268E4,8.516E3,7.752E3,4.434E3,4.082E3,7.574E3,1.78E2,2.441E3,1.993E3,2.46E3,1.622E3,5.258E3,2.316E3,1.43E2,3.5E1,1.102E3,1.339E3,1.191E3,8.02E2,2.419E3,4.1E1,1.472E3,1.5E2,2.98E3,2.278E3,9.25E2,1.391E3,6.1E1,8.2E1,7E0,2.8E1,1.093E3,9E0,1E3,3.39E2,1.177E3,1.4E1,7.8E2,2.2E1,2.006E3,4.13E2,2.8E1,1.3E1,1.155E3,3.17E2,1.39E2,1.1E1,1.641E3,1.339E3,1.072E3,1.206E3,2.39E2,6.86E2,9.17E2,4.74E2,8E0,5.3E1,5.2E1,3E1,7.4E2,3.53E2,9.88E2,1.2E1,3.1E2,2.9E1,4.63E2,7.14E2,6E0,8E0,7.07E2,7.3E1,1.5E1,7E0,7.52E2,1.254E3,1.42E2,2.71E2,1.2E1,1.6E1,7E0,6E0,9.99E2,1.56E2,1.24E2,1.93E2,1.06E2,3.3E1,2.21E2,1.42E3,2.03E2,1.136E3,1.022E3,5E1,6.81E2,5.25E2,1E2,1.39E2,1.41E2,5.45E2,5.36E2,3.81E2,1.78E2,2.96E2,4.8E1,5E0,6E0,4.6E1,1.1E1,1.9E1],"tree_param":{"num_deleted":"0","num_feature":"72","num_nodes":"109","size_leaf_vector":"1"}},{"base_weights":[2.1284798E-2,-1.1992273E1,1.1348934E1,-1.736E1,-6.122557E0,1.0221115E1,7.59937E1,-1.219864E1,-1.9047817E1,-6.7252245E0,2.8498312E1,5.4699936E0,2.1999554E1,6.0389942E1,1.07921486E2,-1.3008857E1,5.679278E-1,-2.13278E1,-1.7170124E1,-8.268442E0,-1.3343344E0,1.0110205E1,3.644391E1,2.058616E0,9.4341135E0,1.6383005E1,2.8869244E1,4.9977386E1,7.512523E1,8.276278E1,6.473873E0,-1.3580998E1,-7.0973063E0,-3.89502E0,8.86397E0,-2.1510557E1,-1.0382456E1,-1.746399E1,5.133612E-1,-9.716354E0,-3.5102642E0,-3.2496243E0,2.9724076E0,1.4506517E-1,1.5266772E1,2.8351795E1,4.7001427E1,6.9768226E-1,8.140306E0,7.1733613E0,1.5039109E1,1.1230852E1,2.0794544E1,3.2582066E1,1.9697346E1,4.0476982E1,6.2034893E1,2.9996517E0,5.2082458E0,4.550043E0,2.7449505E0,-7.540424E-1,-5.7540673E-1,-3.937262E-1,2.3454411E-1,-2.9075763E-1,1.783567E-1,-1.4063972E-1,6.712403E-1,-1.0221269E0,-1.1256402E0,-6.8026024E-1,-2.8745228E-1,-9.1888237E-1,-7.3917973E-1,-1.8040287E-1,4.3574315E-1,-5.698847E-1,-3.8257787E-1,-2.5251865E-1,3.1070936E-1,5.6022186E-2,-2.316219E-1,-1.5718444E-1,2.6916456E-1,3.012319E-1,1.0496675E0,1.5778874E0,7.105705E-1,1.4640654E0,2.6706522E0,-1.897349E-2,3.1870523E-1,3.068121E-1,7.917353E-1,-9.7356044E-2,4.021689E-1,1.7408813E0,6.776633E-1,-7.610129E-2,6.3567275E-1,5.976384E-1,1.1938531E0,6.6527265E-1,1.7155077E0,7.548231E-1,1.1650201E0,1.5298616E0,2.4600103E0,1.4919246E0,3.4293535E0],"categories":[],"categories_nodes":[],"categories_segments":[],"categories_sizes":[],"default_left":[0,0,0,0,0,0,0,0,0,0,0,0,0,0,0,0,0,0,0,0,0,0,0,0,0,0,0,0,0,0,0,0,0,0,0,0,0,0,0,0,0,0,0,0,0,0,0,0,0,0,0,0,0,0,0,0,0,0,0,0,0,0,0,0,0,0,0,0,0,0,0,0,0,0,0,0,0,0,0,0,0,0,0,0,0,0,0,0,0,0,0,0,0,0,0,0,0,0,0,0,0,0,0,0,0,0,0,0,0,0,0],"id":3,"left_children":[1,3,5,7,9,11,13,15,17,19,21,23,25,27,29,31,33,35,37,39,41,43,45,47,49,51,53,55,57,59,-1,61,63,65,67,69,71,73,75,77,79,81,83,-1,85,87,89,91,93,95,97,99,101,103,105,107,109,-1,-1,-1,-1,-1,-1,-1,-1,-1,-1,-1,-1,-1,-1,-1,-1,-1,-1,-1,-1,-1,-1,-1,-1,-1,-1,-1,-1,-1,-1,-1,-1,-1,-1,-1,-1,-1,-1,-1,-1,-1,-1,-1,-1,-1,-1,-1,-1,-1,-1,-1,-1,-1,-1],"loss_changes":[2.2228185E6,2.4964762E5,6.121486E5,3.5829875E4,7.9225625E4,4.6233688E5,6.5205625E4,1.0590234E4,1.2978375E4,3.0969125E4,9.12368E3,7.963053E4,9.11595E4,1.1422656E4,1.42095625E4,3.1552656E3,2.33056E3,2.582E3,8.922781E3,1.9909453E4,6.8560737E3,7.3452637E2,2.5043594E3,2.6205992E4,3.4407062E4,2.9515438E4,3.5688188E4,4.4663906E3,1.0872359E4,4.9860938E2,0E0,2.54725E3,8.343491E2,6.0842944E2,1.2104503E3,1.0126875E3,2.9315527E2,3.8564062E3,1.01220734E3,7.614422E3,1.0170504E4,3.4802622E3,3.791918E3,0E0,5.0593042E2,8.1627734E2,4.7278906E2,1.5833121E4,8.828859E3,1.5433914E4,2.25045E4,1.1478375E4,1.88985E4,2.4789062E4,4.7833438E3,1.6754141E3,3.2175312E3,0E0,0E0,0E0,0E0,0E0,0E0,0E0,0E0,0E0,0E0,0E0,0E0,0E0,0E0,0E0,0E0,0E0,0E0,0E0,0E0,0E0,0E0,0E0,0E0,0E0,0E0,0E0,0E0,0E0,0E0,0E0,0E0,0E0,0E0,0E0,0E0,0E0,0E0,0E0,0E0,0E0,0E0,0E0,0E0,0E0,0E0,0E0,0E0,0E0,0E0,0E0,0E0,0E0,0E0],"parents":[2147483647,0,0,1,1,2,2,3,3,4,4,5,5,6,6,7,7,8,8,9,9,10,10,11,11,12,12,13,13,14,14,15,15,16,16,17,17,18,18,19,19,20,20,21,21,22,22,23,23,24,24,25,25,26,26,27,27,28,28,29,29,31,31,32,32,33,33,34,34,35,35,36,36,37,37,38,38,39,39,40,40,41,41,42,42,44,44,45,45,46,46,47,47,48,48,49,49,50,50,51,51,52,52,53,53,54,54,55,55,56,56],"right_children":[2,4,6,8,10,12,14,16,18,20,22,24,26,28,30,32,34,36,38,40,42,44,46,48,50,52,54,56,58,60,-1,62,64,66,68,70,72,74,76,78,80,82,84,-1,86,88,90,92,94,96,98,100,102,104,106,108,110,-1,-1,-1,-1,-1,-1,-1,-1,-1,-1,-1,-1,-1,-1,-1,-1,-1,-1,-1,-1,-1,-1,-1,-1,-1,-1,-1,-1,-1,-1,-1,-1,-1,-1,-1,-1,-1,-1,-1,-1,-1,-1,-1,-1,-1,-1,-1,-1,-1,-1,-1,-1,-1,-1],"split_conditions":[2.8E1,1.7E1,1E0,2.5881904E-1,1E0,5.3E1,5.1E1,3.7708332E1,9E0,1.8E1,2.1E1,3.9E1,3.9E1,2.8E1,2E0,1.3E1,1E0,1E0,1E0,1.8E1,2.3E1,1.446E3,1.8E1,2.8E1,3.7041668E1,1E0,6.234898E-1,1.9E1,1E0,1.3262E3,6.473873E0,2.4708334E1,1E0,1.4E1,2.4153345E1,7.0710677E-1,3.0282606E1,1.1E1,1.958E3,2.2E1,3.2875E1,6.234898E-1,2.525E1,1.4506517E-1,2.4E1,6.9E1,2.5419916E1,2.2E1,1E0,4E0,1.1E1,2E0,3.2E1,3E1,6.2E1,2.7E1,4.64E2,2.9996517E0,5.2082458E0,4.550043E0,2.7449505E0,-7.540424E-1,-5.7540673E-1,-3.937262E-1,2.3454411E-1,-2.9075763E-1,1.783567E-1,-1.4063972E-1,6.712403E-1,-1.0221269E0,-1.1256402E0,-6.8026024E-1,-2.8745228E-1,-9.1888237E-1,-7.3917973E-1,-1.8040287E-1,4.3574315E-1,-5.698847E-1,-3.8257787E-1,-2.5251865E-1,3.1070936E-1,5.6022186E-2,-2.316219E-1,-1.5718444E-1,2.6916456E-1,3.012319E-1,1.0496675E0,1.5778874E0,7.105705E-1,1.4640654E0,2.6706522E0,-1.897349E-2,3.1870523E-1,3.068121E-1,7.917353E-1,-9.7356044E-2,4.021689E-1,1.7408813E0,6.776633E-1,-7.610129E-2,6.3567275E-1,5.976384E-1,1.1938531E0,6.6527265E-1,1.7155077E0,7.548231E-1,1.1650201E0,1.5298616E0,2.4600103E0,1.4919246E0,3.4293535E0],"split_indices":[3,3,48,23,48,3,3,8,3,4,3,3,8,6,50,6,50,48,48,13,6,70,13,6,8,18,26,13,18,71,0,8,18,6,10,23,10,13,70,3,8,26,8,0,1,1,10,13,18,19,19,15,1,1,1,5,70,0,0,0,0,0,0,0,0,0,0,0,0,0,0,0,0,0,0,0,0,0,0,0,0,0,0,0,0,0,0,0,0,0,0,0,0,0,0,0,0,0,0,0,0,0,0,0,0,0,0,0,0,0,0],"split_type":[0,0,0,0,0,0,0,0,0,0,0,0,0,0,0,0,0,0,0,0,0,0,0,0,0,0,0,0,0,0,0,0,0,0,0,0,0,0,0,0,0,0,0,0,0,0,0,0,0,0,0,0,0,0,0,0,0,0,0,0,0,0,0,0,0,0,0,0,0,0,0,0,0,0,0,0,0,0,0,0,0,0,0,0,0,0,0,0,0,0,0,0,0,0,0,0,0,0,0,0,0,0,0,0,0,0,0,0,0,0,0],"sum_hessian":[1.6332E4,7.926E3,8.406E3,4.139E3,3.787E3,8.263E3,1.43E2,1.022E3,3.117E3,3.723E3,6.4E1,5.889E3,2.374E3,9.8E1,4.5E1,9.61E2,6.1E1,1.403E3,1.714E3,2.894E3,8.29E2,2E1,4.4E1,3.166E3,2.723E3,1.308E3,1.066E3,6E1,3.8E1,2.3E1,2.2E1,8.75E2,8.6E1,4E1,2.1E1,1.379E3,2.4E1,1.686E3,2.8E1,2.218E3,6.76E2,5.74E2,2.55E2,9E0,1.1E1,2.7E1,1.7E1,2.588E3,5.78E2,1.942E3,7.81E2,6.05E2,7.03E2,7.57E2,3.09E2,3.6E1,2.4E1,2.7E1,1.1E1,1.6E1,7E0,5.04E2,3.71E2,8.1E1,5E0,3.2E1,8E0,6E0,1.5E1,6.78E2,7.01E2,1.3E1,1.1E1,1.253E3,4.33E2,1.9E1,9E0,1.22E3,9.98E2,5.84E2,9.2E1,1.38E2,4.36E2,7.2E1,1.83E2,5E0,6E0,2.1E1,6E0,6E0,1.1E1,2.176E3,4.12E2,4.6E2,1.18E2,1.69E2,1.773E3,5.3E1,7.28E2,6.3E1,5.42E2,1.83E2,5.2E2,6.3E1,6.94E2,1.38E2,1.71E2,1.9E1,1.7E1,5E0,1.9E1],"tree_param":{"num_deleted":"0","num_feature":"72","num_nodes":"111","size_leaf_vector":"1"}},{"base_weights":[8.800263E-2,-1.0206014E1,1.3190657E1,-1.634768E1,-4.3876023E0,1.1857082E1,6.9289406E1,-1.8470798E1,-1.1835867E1,-6.4613714E0,1.1496024E0,6.7332425E0,2.2088655E1,5.353752E1,1.04761024E2,-2.0278925E1,-1.6309095E1,-1.3163002E1,-8.485362E0,-8.917545E0,-3.523029E0,3.289486E-1,2.411816E1,4.619426E0,1.3507314E1,1.629152E1,2.8538416E1,4.500959E1,4.0146613E0,3.594183E0,1.1436703E2,-1.0704659E0,-1.9355715E1,-1.7535841E1,-1.4889542E1,-1.398536E1,-8.20576E0,-8.765254E0,2.4119E-1,-1.0838733E1,-7.276599E0,-6.8503513E0,-2.5803642E0,7.1976905E0,-1.3641847E0,8.628705E0,2.9653934E1,7.3877877E-1,7.0794597E0,8.410419E0,1.6220459E1,1.0031149E1,1.9139297E1,1.984001E1,3.2083492E1,5.538525E-1,4.8597588E1,6.273729E0,4.3574653E0,-9.731213E-1,-7.298383E-1,-8.916975E-1,-7.542277E-1,-6.623758E-1,-7.868709E-1,-7.689744E-1,-6.3487285E-1,-6.4212483E-1,-2.913457E-1,-2.8753492E-1,-4.7065493E-1,-5.5555344E-1,-2.4370559E-1,-3.970351E-1,8.950363E-3,-3.6803967E-1,1.10465184E-1,-5.515611E-2,-2.4333894E-1,6.9796413E-1,1.9068132E-1,-1.1404236E-1,3.8034707E-1,3.4596186E-2,7.659265E-1,7.3206043E-1,1.627572E0,-2.7230635E-1,8.684908E-2,5.192072E-1,2.162538E-1,3.7934133E-1,9.55348E-1,6.2244874E-1,1.0757033E0,1.7932887E-1,6.8756616E-1,7.9907197E-1,1.2367467E0,8.128151E-1,1.3299049E0,1.1195606E0,1.7979153E0,1.241898E0,2.507261E0],"categories":[],"categories_nodes":[],"categories_segments":[],"categories_sizes":[],"default_left":[0,0,0,0,0,0,0,0,0,0,0,0,0,0,0,0,0,0,0,0,0,0,0,0,0,0,0,0,0,0,0,0,0,0,0,0,0,0,0,0,0,0,0,0,0,0,0,0,0,0,0,0,0,0,0,0,0,0,0,0,0,0,0,0,0,0,0,0,0,0,0,0,0,0,0,0,0,0,0,0,0,0,0,0,0,0,0,0,0,0,0,0,0,0,0,0,0,0,0,0,0,0,0,0,0],"id":4,"left_children":[1,3,5,7,9,11,13,15,17,19,21,23,25,27,29,31,33,35,37,39,41,43,45,47,49,51,53,55,-1,-1,57,-1,59,61,63,65,67,69,-1,71,73,75,77,79,81,83,85,87,89,91,93,95,97,99,101,-1,103,-1,-1,-1,-1,-1,-1,-1,-1,-1,-1,-1,-1,-1,-1,-1,-1,-1,-1,-1,-1,-1,-1,-1,-1,-1,-1,-1,-1,-1,-1,-1,-1,-1,-1,-1,-1,-1,-1,-1,-1,-1,-1,-1,-1,-1,-1,-1,-1],"loss_changes":[2.1943455E6,3.2550538E5,5.346734E5,4.2233E4,5.374785E4,3.6645612E5,8.712719E4,1.1438375E4,6.204703E3,2.45415E4,2.4041244E4,6.667733E4,8.676175E4,2.3069469E4,7.55125E3,1.288875E3,2.133625E3,4.024875E3,1.555082E3,5.7641875E3,4.8493047E3,1.4349818E4,3.513127E3,3.392233E4,1.51831875E4,2.1751531E4,3.3370938E4,1.0534969E4,0E0,0E0,2.29625E2,0E0,1.75125E2,2.6332812E2,6.866094E2,1.3640156E3,1.5447236E3,7.2163086E2,0E0,1.3282188E3,4.96834E3,1.598331E3,4.084293E3,5.5281113E3,8.1580767E3,6.780435E2,9.106699E2,8.528919E3,1.9751266E4,3.2616855E3,1.4143328E4,9.227238E3,1.4531969E4,7.3618438E3,2.8557625E4,0E0,1.7622188E3,0E0,0E0,0E0,0E0,0E0,0E0,0E0,0E0,0E0,0E0,0E0,0E0,0E0,0E0,0E0,0E0,0E0,0E0,0E0,0E0,0E0,0E0,0E0,0E0,0E0,0E0,0E0,0E0,0E0,0E0,0E0,0E0,0E0,0E0,0E0,0E0,0E0,0E0,0E0,0E0,0E0,0E0,0E0,0E0,0E0,0E0,0E0,0E0],"parents":[2147483647,0,0,1,1,2,2,3,3,4,4,5,5,6,6,7,7,8,8,9,9,10,10,11,11,12,12,13,13,14,14,15,15,16,16,17,17,18,18,19,19,20,20,21,21,22,22,23,23,24,24,25,25,26,26,27,27,30,30,32,32,33,33,34,34,35,35,36,36,37,37,39,39,40,40,41,41,42,42,43,43,44,44,45,45,46,46,47,47,48,48,49,49,50,50,51,51,52,52,53,53,54,54,56,56],"right_children":[2,4,6,8,10,12,14,16,18,20,22,24,26,28,30,32,34,36,38,40,42,44,46,48,50,52,54,56,-1,-1,58,-1,60,62,64,66,68,70,-1,72,74,76,78,80,82,84,86,88,90,92,94,96,98,100,102,-1,104,-1,-1,-1,-1,-1,-1,-1,-1,-1,-1,-1,-1,-1,-1,-1,-1,-1,-1,-1,-1,-1,-1,-1,-1,-1,-1,-1,-1,-1,-1,-1,-1,-1,-1,-1,-1,-1,-1,-1,-1,-1,-1,-1,-1,-1,-1,-1,-1],"split_conditions":[3.2E1,1.8E1,1E0,1.5E1,3.4E1,5.3E1,6.5E1,1E1,2E1,2.5E1,1E0,4.9E1,3.9E1,3E1,-5E-1,7E0,1.3E1,1E0,4.7E1,2E1,2E1,6.234898E-1,2E1,3.3E1,3.9E1,1.5E1,1E0,2.2E1,4.0146613E0,3.594183E0,1.65E1,-1.0704659E0,1E0,1.5E1,1.2246469E-16,1.4E1,1.1E1,1E0,2.4119E-1,1E0,1E0,1E0,6.234898E-1,2E0,6.1E1,1.3048E3,2.4E1,2.1E1,6.234898E-1,1E0,1E0,3.7E1,6.4E1,2.2E1,5.1E1,5.538525E-1,1.2E1,6.273729E0,4.3574653E0,-9.731213E-1,-7.298383E-1,-8.916975E-1,-7.542277E-1,-6.623758E-1,-7.868709E-1,-7.689744E-1,-6.3487285E-1,-6.4212483E-1,-2.913457E-1,-2.8753492E-1,-4.7065493E-1,-5.5555344E-1,-2.4370559E-1,-3.970351E-1,8.950363E-3,-3.6803967E-1,1.10465184E-1,-5.515611E-2,-2.4333894E-1,6.9796413E-1,1.9068132E-1,-1.1404236E-1,3.8034707E-1,3.4596186E-2,7.659265E-1,7.3206043E-1,1.627572E0,-2.7230635E-1,8.684908E-2,5.192072E-1,2.162538E-1,3.7934133E-1,9.55348E-1,6.2244874E-1,1.0757033E0,1.7932887E-1,6.8756616E-1,7.9907197E-1,1.2367467E0,8.128151E-1,1.3299049E0,1.1195606E0,1.7979153E0,1.241898E0,2.507261E0],"split_indices":[2,2,48,0,0,2,2,2,3,3,48,3,8,7,23,2,3,27,0,0,0,26,3,0,0,19,18,3,0,0,38,0,52,2,23,2,2,65,0,49,27,49,26,65,0,71,2,0,26,49,18,0,2,13,0,0,13,0,0,0,0,0,0,0,0,0,0,0,0,0,0,0,0,0,0,0,0,0,0,0,0,0,0,0,0,0,0,0,0,0,0,0,0,0,0,0,0,0,0,0,0,0,0,0,0],"split_type":[0,0,0,0,0,0,0,0,0,0,0,0,0,0,0,0,0,0,0,0,0,0,0,0,0,0,0,0,0,0,0,0,0,0,0,0,0,0,0,0,0,0,0,0,0,0,0,0,0,0,0,0,0,0,0,0,0,0,0,0,0,0,0,0,0,0,0,0,0,0,0,0,0,0,0,0,0,0,0,0,0,0,0,0,0,0,0,0,0,0,0,0,0,0,0,0,0,0,0,0,0,0,0,0,0],"sum_hessian":[1.6267E4,9.11E3,7.157E3,4.431E3,4.679E3,6.992E3,1.65E2,3.011E3,1.42E3,3.404E3,1.275E3,4.66E3,2.332E3,1.16E2,4.9E1,1.635E3,1.376E3,1.015E3,4.05E2,1.853E3,1.551E3,1.232E3,4.3E1,3.553E3,1.107E3,1.23E3,1.102E3,9E1,2.6E1,1.3E1,3.6E1,7.25E2,9.1E2,7.32E2,6.44E2,8.69E2,1.46E2,3.97E2,8E0,8.51E2,1.002E3,3.41E2,1.21E3,2.43E2,9.89E2,1.2E1,3.1E1,1.379E3,2.174E3,3.86E2,7.21E2,3.86E2,8.44E2,3.21E2,7.81E2,9E0,8.1E1,2.3E1,1.3E1,8.87E2,2.3E1,6.47E2,8.5E1,2.25E2,4.19E2,4.12E2,4.57E2,4.8E1,9.8E1,7.2E1,3.25E2,8.13E2,3.8E1,9.2E2,8.2E1,3.23E2,1.8E1,7.36E2,4.74E2,8E1,1.63E2,8.98E2,9.1E1,6E0,6E0,6E0,2.5E1,1.91E2,1.188E3,9.87E2,1.187E3,3.6E2,2.6E1,4.23E2,2.98E2,1.42E2,2.44E2,5.42E2,3.02E2,2.12E2,1.09E2,2.25E2,5.56E2,6E0,7.5E1],"tree_param":{"num_deleted":"0","num_feature":"72","num_nodes":"105","size_leaf_vector":"1"}},{"base_weights":[5.5688642E-2,-9.036525E0,1.3431248E1,-1.5500315E1,-3.5529363E0,1.2185423E1,6.515025E1,-1.8503605E1,-1.2757308E1,-5.0897784E0,3.4681156E0,7.747312E0,2.2258965E1,5.5354282E1,1.0546205E2,-1.9076866E1,-1.5574495E1,-1.4437093E1,-1.0376181E1,-7.6150413E0,-2.552639E0,1.4127796E1,1.3070432E0,3.4123168E0,1.0754874E1,1.42317915E1,2.654777E1,4.16509E1,6.505194E1,2.886791E0,5.64976E0,-1.0182835E0,-1.822544E1,-1.6189848E1,-1.0233986E1,-1.5746042E1,-1.3016192E1,-1.0943145E1,-4.1570153E0,-1.0252912E1,-5.9434714E0,-5.124471E0,-1.1187934E0,1.1841136E1,2.7030317E1,6.3863266E-1,2.3303413E1,-3.0658433E0,4.580015E0,8.230675E0,1.7499151E1,8.07165E0,1.7479626E1,2.1475311E1,3.482067E1,1.0074955E0,4.54174E1,4.2554325E1,7.0224045E1,-9.203793E-1,-7.902541E-1,-6.318713E-1,-8.4406644E-1,-1.3963245E-1,-5.6216115E-1,-7.931852E-1,-4.14556E-1,-5.9311545E-1,-6.9488937E-1,-4.2799965E-1,-6.0253197E-1,-2.6150718E-1,4.0368325E-1,-5.28561E-1,-2.5877213E-1,-1.6111146E-1,-3.8416836E-1,-2.8316483E-1,4.321373E-2,5.3041555E-2,-1.810182E-1,6.645336E-1,1.6327725E-1,1.7255906E0,2.4926093E-1,-2.5698775E-2,3.5492888E-1,4.508941E-1,1.3382534E0,-4.0054223E-1,-6.0403455E-2,1.9728467E-1,7.056086E-1,4.7639474E-1,1.3809136E-1,6.579699E-1,1.1773847E0,1.8818441E-1,6.6548866E-1,9.20235E-1,2.4521546E-1,7.923937E-1,1.2508072E0,1.3078381E0,1.8918848E0,2.4217048E0,1.0838331E0,2.4419417E0,1.1961834E0,2.947242E0,4.274219E0],"categories":[],"categories_nodes":[],"categories_segments":[],"categories_sizes":[],"default_left":[0,0,0,0,0,0,0,0,0,0,0,0,0,0,0,0,0,0,0,0,0,0,0,0,0,0,0,0,0,0,0,0,0,0,0,0,0,0,0,0,0,0,0,0,0,0,0,0,0,0,0,0,0,0,0,0,0,0,0,0,0,0,0,0,0,0,0,0,0,0,0,0,0,0,0,0,0,0,0,0,0,0,0,0,0,0,0,0,0,0,0,0,0,0,0,0,0,0,0,0,0,0,0,0,0,0,0,0,0,0,0],"id":5,"left_children":[1,3,5,7,9,11,13,15,17,19,21,23,25,27,29,31,33,35,37,39,41,43,45,47,49,51,53,55,57,-1,-1,-1,59,61,63,65,67,69,71,73,75,77,79,81,83,85,87,89,91,93,95,97,99,101,103,-1,105,107,109,-1,-1,-1,-1,-1,-1,-1,-1,-1,-1,-1,-1,-1,-1,-1,-1,-1,-1,-1,-1,-1,-1,-1,-1,-1,-1,-1,-1,-1,-1,-1,-1,-1,-1,-1,-1,-1,-1,-1,-1,-1,-1,-1,-1,-1,-1,-1,-1,-1,-1,-1,-1],"loss_changes":[1.9705028E6,3.4184325E5,4.2168412E5,3.62305E4,5.6342906E4,2.8613125E5,5.4959688E4,3.2440625E3,9.1151875E3,2.7420477E4,2.1588078E4,5.7940844E4,6.7026125E4,1.4024094E4,3.885375E3,1.557375E3,9.8515625E2,2.3141875E3,3.3450547E3,9.399992E3,7.877754E3,4.337625E3,1.1465458E4,1.3804344E4,4.4541125E4,1.3541234E4,5.2750625E4,3.532375E3,5.3783125E3,0E0,0E0,0E0,1.7740625E2,5.525781E2,2.6009058E2,4.809375E2,4.998828E2,2.2200312E3,1.1181992E3,1.2867734E3,6.2049883E3,2.4739414E3,7.4958096E3,1.6455117E3,3.6173965E3,5.6556577E3,8.9244434E2,2.5524888E3,9.284293E3,1.353675E4,1.8428375E4,5.3188193E3,5.1073906E3,1.5400625E4,1.1629125E4,0E0,2.2375469E3,6.976719E2,4.7578125E3,0E0,0E0,0E0,0E0,0E0,0E0,0E0,0E0,0E0,0E0,0E0,0E0,0E0,0E0,0E0,0E0,0E0,0E0,0E0,0E0,0E0,0E0,0E0,0E0,0E0,0E0,0E0,0E0,0E0,0E0,0E0,0E0,0E0,0E0,0E0,0E0,0E0,0E0,0E0,0E0,0E0,0E0,0E0,0E0,0E0,0E0,0E0,0E0,0E0,0E0,0E0,0E0],"parents":[2147483647,0,0,1,1,2,2,3,3,4,4,5,5,6,6,7,7,8,8,9,9,10,10,11,11,12,12,13,13,14,14,15,15,16,16,17,17,18,18,19,19,20,20,21,21,22,22,23,23,24,24,25,25,26,26,27,27,28,28,32,32,33,33,34,34,35,35,36,36,37,37,38,38,39,39,40,40,41,41,42,42,43,43,44,44,45,45,46,46,47,47,48,48,49,49,50,50,51,51,52,52,53,53,54,54,56,56,57,57,58,58],"right_children":[2,4,6,8,10,12,14,16,18,20,22,24,26,28,30,32,34,36,38,40,42,44,46,48,50,52,54,56,58,-1,-1,-1,60,62,64,66,68,70,72,74,76,78,80,82,84,86,88,90,92,94,96,98,100,102,104,-1,106,108,110,-1,-1,-1,-1,-1,-1,-1,-1,-1,-1,-1,-1,-1,-1,-1,-1,-1,-1,-1,-1,-1,-1,-1,-1,-1,-1,-1,-1,-1,-1,-1,-1,-1,-1,-1,-1,-1,-1,-1,-1,-1,-1,-1,-1,-1,-1,-1,-1,-1,-1,-1,-1],"split_conditions":[3.4E1,1.8E1,1E0,1.1E1,4E1,5.6E1,7.3E1,1.3E1,1.7E1,2.5E1,6.234898E-1,3.7E1,1E0,4.6E1,6.8083336E1,7E0,2.4E1,1.4E1,3.5E1,2E1,2.4E1,6.1E1,1E0,2.3E1,1E0,4.7E1,5.8E1,1.2E1,7.1E1,2.886791E0,5.64976E0,-1.0182835E0,1.1E1,6.234898E-1,6.234898E-1,1.7E1,2.5881904E-1,6.234898E-1,7E1,1E0,6.234898E-1,1E0,6.234898E-1,1.3E1,2.755E3,6.1E1,2.4E1,1.9E1,1E0,1E0,4.8E1,2.4E1,1E0,3.8E1,3.5083332E1,1.0074955E0,3.487E3,5.5791668E1,1E0,-9.203793E-1,-7.902541E-1,-6.318713E-1,-8.4406644E-1,-1.3963245E-1,-5.6216115E-1,-7.931852E-1,-4.14556E-1,-5.9311545E-1,-6.9488937E-1,-4.2799965E-1,-6.0253197E-1,-2.6150718E-1,4.0368325E-1,-5.28561E-1,-2.5877213E-1,-1.6111146E-1,-3.8416836E-1,-2.8316483E-1,4.321373E-2,5.3041555E-2,-1.810182E-1,6.645336E-1,1.6327725E-1,1.7255906E0,2.4926093E-1,-2.5698775E-2,3.5492888E-1,4.508941E-1,1.3382534E0,-4.0054223E-1,-6.0403455E-2,1.9728467E-1,7.056086E-1,4.7639474E-1,1.3809136E-1,6.579699E-1,1.1773847E0,1.8818441E-1,6.6548866E-1,9.20235E-1,2.4521546E-1,7.923937E-1,1.2508072E0,1.3078381E0,1.8918848E0,2.4217048E0,1.0838331E0,2.4419417E0,1.1961834E0,2.947242E0,4.274219E0],"split_indices":[2,2,48,2,0,2,2,0,0,2,26,0,18,2,8,2,0,2,0,0,0,0,48,0,18,0,0,13,0,0,0,0,13,26,26,13,23,26,1,50,26,50,26,65,69,0,2,1,49,26,0,19,26,1,9,0,69,8,18,0,0,0,0,0,0,0,0,0,0,0,0,0,0,0,0,0,0,0,0,0,0,0,0,0,0,0,0,0,0,0,0,0,0,0,0,0,0,0,0,0,0,0,0,0,0,0,0,0,0,0,0],"split_type":[0,0,0,0,0,0,0,0,0,0,0,0,0,0,0,0,0,0,0,0,0,0,0,0,0,0,0,0,0,0,0,0,0,0,0,0,0,0,0,0,0,0,0,0,0,0,0,0,0,0,0,0,0,0,0,0,0,0,0,0,0,0,0,0,0,0,0,0,0,0,0,0,0,0,0,0,0,0,0,0,0,0,0,0,0,0,0,0,0,0,0,0,0,0,0,0,0,0,0,0,0,0,0,0,0,0,0,0,0,0,0],"sum_hessian":[1.6201E4,9.645E3,6.556E3,4.426E3,5.219E3,6.403E3,1.53E2,2.11E3,2.316E3,4.282E3,9.37E2,4.446E3,1.957E3,1.25E2,2.8E1,1.76E3,3.5E2,1.355E3,9.61E2,2.145E3,2.137E3,1.57E2,7.8E2,1.822E3,2.624E3,6.83E2,1.274E3,5.4E1,7.1E1,5E0,2.3E1,6.91E2,1.069E3,3.12E2,3.8E1,7E2,6.55E2,8.8E2,8.1E1,8.3E2,1.315E3,7.64E2,1.373E3,1.35E2,2.2E1,7.58E2,2.2E1,2.78E2,1.544E3,1.911E3,7.13E2,2.37E2,4.46E2,7.92E2,4.82E2,9E0,4.5E1,1.5E1,5.6E1,9.88E2,8.1E1,5.4E1,2.58E2,5E0,3.3E1,6.88E2,1.2E1,2.9E2,3.65E2,2.82E2,5.98E2,7.5E1,6E0,7.8E2,5E1,5.14E2,8.01E2,7.01E2,6.3E1,7.34E2,6.39E2,1.15E2,2E1,1.6E1,6E0,6.44E2,1.14E2,5E0,1.7E1,7.5E1,2.03E2,1.449E3,9.5E1,1.544E3,3.67E2,4.17E2,2.96E2,1.31E2,1.06E2,4.15E2,3.1E1,3.08E2,4.84E2,1.27E2,3.55E2,3.9E1,6E0,1E1,5E0,3.5E1,2.1E1],"tree_param":{"num_deleted":"0","num_feature":"72","num_nodes":"111","size_leaf_vector":"1"}},{"base_weights":[4.190932E-2,-8.551008E0,1.2826569E1,-1.4404642E1,-2.8784235E0,1.1590844E1,6.2535267E1,-1.6783388E1,-1.0835775E1,-5.059543E0,1.5312494E0,7.3097663E0,2.1025414E1,4.9541794E1,9.808651E1,-1.8050901E1,-1.4439851E1,-1.1757049E1,-6.8997583E0,-6.970672E0,-1.9371637E0,7.95522E0,-5.9194034E-1,4.7100067E0,1.2772688E1,1.5530713E1,2.6571394E1,3.333726E1,5.81705E1,5.4527307E0,3.589908E0,-1.8969492E1,-1.6894302E1,-1.5288783E1,-1.2830662E1,-9.642516E0,-1.314254E1,-7.8227935E0,2.8892214E0,-1.0227727E1,-6.0035744E0,-2.6992047E0,5.508573E0,5.8683367E0,1.9557611E1,-9.9613595E-1,2.1459082E1,2.4077909E-1,6.386329E0,9.58346E0,2.3579712E1,1.0993734E1,1.8631533E1,2.1253485E1,3.2077477E1,2.7143824E1,2.443891E0,4.97604E1,3.9402635E0,-9.020735E-1,-9.7910947E-1,-8.5462666E-1,-7.357232E-1,-7.771355E-1,-6.0935485E-1,-6.5461874E-1,-4.2510328E-1,-5.360056E-1,-3.6296782E-1,-7.378041E-1,-5.767583E-1,-4.317123E-1,-1.419868E-1,3.728235E-2,5.2120185E-1,-6.296352E-1,-4.5174384E-1,-3.1517145E-1,1.26473E-1,-4.559439E-1,-1.1781044E-1,1.8478845E-1,5.289377E-1,-6.9331884E-2,3.5412776E-1,6.5233773E-1,1.3908291E0,-2.1071236E-1,2.9500926E-2,5.235501E-1,1.486745E0,-2.463042E-1,7.442793E-2,4.209536E-1,5.973166E-2,2.2530809E-1,5.917703E-1,1.0088954E0,1.530904E0,1.466695E-1,6.084585E-1,8.4318334E-1,1.4251771E0,5.620184E-1,1.1371611E0,1.5157994E0,2.486154E0,1.5560721E0,6.5338963E-1,2.2696736E0,3.928461E0],"categories":[],"categories_nodes":[],"categories_segments":[],"categories_sizes":[],"default_left":[0,0,0,0,0,0,0,0,0,0,0,0,0,0,0,0,0,0,0,0,0,0,0,0,0,0,0,0,0,0,0,0,0,0,0,0,0,0,0,0,0,0,0,0,0,0,0,0,0,0,0,0,0,0,0,0,0,0,0,0,0,0,0,0,0,0,0,0,0,0,0,0,0,0,0,0,0,0,0,0,0,0,0,0,0,0,0,0,0,0,0,0,0,0,0,0,0,0,0,0,0,0,0,0,0,0,0,0,0,0,0],"id":6,"left_children":[1,3,5,7,9,11,13,15,17,19,21,23,25,27,29,31,33,35,37,39,41,43,45,47,49,51,53,55,57,-1,-1,59,61,63,65,67,69,71,73,75,77,79,81,83,85,87,89,91,93,95,97,99,101,103,105,107,-1,109,-1,-1,-1,-1,-1,-1,-1,-1,-1,-1,-1,-1,-1,-1,-1,-1,-1,-1,-1,-1,-1,-1,-1,-1,-1,-1,-1,-1,-1,-1,-1,-1,-1,-1,-1,-1,-1,-1,-1,-1,-1,-1,-1,-1,-1,-1,-1,-1,-1,-1,-1,-1,-1],"loss_changes":[1.7715628E6,3.201882E5,3.9743262E5,4.0106125E4,4.7126805E4,2.5535144E5,6.76495E4,8.19E3,6.810297E3,1.9546312E4,2.2128402E4,6.1760625E4,5.9737875E4,1.4411031E4,3.9736562E3,1.634E3,1.1725938E3,4.37975E3,3.3030059E3,6.340703E3,7.084338E3,9.640461E3,1.0893101E4,2.2106293E4,4.812661E4,1.3776141E4,2.8037375E4,2.8043945E3,9.081328E3,0E0,0E0,2.223125E2,1.01796875E2,3.2132812E2,2.864297E2,1.4946211E3,2.2313906E3,1.3167812E3,5.0795645E2,1.1930391E3,4.0334375E3,2.4677402E3,1.0256604E3,3.0319229E3,2.9131504E3,6.1230503E3,1.6852031E3,5.2033564E3,2.263654E4,1.2350703E4,7.0149844E3,3.8094102E3,9.794234E3,7.2292656E3,1.34041875E4,1.4365332E3,0E0,3.4662031E3,0E0,0E0,0E0,0E0,0E0,0E0,0E0,0E0,0E0,0E0,0E0,0E0,0E0,0E0,0E0,0E0,0E0,0E0,0E0,0E0,0E0,0E0,0E0,0E0,0E0,0E0,0E0,0E0,0E0,0E0,0E0,0E0,0E0,0E0,0E0,0E0,0E0,0E0,0E0,0E0,0E0,0E0,0E0,0E0,0E0,0E0,0E0,0E0,0E0,0E0,0E0,0E0,0E0],"parents":[2147483647,0,0,1,1,2,2,3,3,4,4,5,5,6,6,7,7,8,8,9,9,10,10,11,11,12,12,13,13,14,14,15,15,16,16,17,17,18,18,19,19,20,20,21,21,22,22,23,23,24,24,25,25,26,26,27,27,28,28,31,31,32,32,33,33,34,34,35,35,36,36,37,37,38,38,39,39,40,40,41,41,42,42,43,43,44,44,45,45,46,46,47,47,48,48,49,49,50,50,51,51,52,52,53,53,54,54,55,55,57,57],"right_children":[2,4,6,8,10,12,14,16,18,20,22,24,26,28,30,32,34,36,38,40,42,44,46,48,50,52,54,56,58,-1,-1,60,62,64,66,68,70,72,74,76,78,80,82,84,86,88,90,92,94,96,98,100,102,104,106,108,-1,110,-1,-1,-1,-1,-1,-1,-1,-1,-1,-1,-1,-1,-1,-1,-1,-1,-1,-1,-1,-1,-1,-1,-1,-1,-1,-1,-1,-1,-1,-1,-1,-1,-1,-1,-1,-1,-1,-1,-1,-1,-1,-1,-1,-1,-1,-1,-1,-1,-1,-1,-1,-1,-1],"split_conditions":[3.4E1,1.9E1,1E0,1.4E1,3.3E1,5.5E1,6.9E1,1.1E1,2.6E1,2.8E1,6.234898E-1,4.7E1,3.8791668E1,7.1E1,1.69E1,8E0,1.5E1,6.234898E-1,4.3E1,1.7E1,1E0,4.8E1,1E0,2.9E1,1E0,1E0,6.7E1,2E0,1E0,5.4527307E0,3.589908E0,7.0710677E-1,1E0,1E0,1E0,1.9E1,1.4E1,1E0,1.8E1,1.7E1,2.0708334E1,1E0,1.7625E1,2.2916666E1,4E0,2.6E1,-1.8369701E-16,2.1E1,6.234898E-1,2E0,6.7E1,2.4291666E1,3.7E1,4.2E1,1E0,1.04E1,2.443891E0,4.5E1,3.9402635E0,-9.020735E-1,-9.7910947E-1,-8.5462666E-1,-7.357232E-1,-7.771355E-1,-6.0935485E-1,-6.5461874E-1,-4.2510328E-1,-5.360056E-1,-3.6296782E-1,-7.378041E-1,-5.767583E-1,-4.317123E-1,-1.419868E-1,3.728235E-2,5.2120185E-1,-6.296352E-1,-4.5174384E-1,-3.1517145E-1,1.26473E-1,-4.559439E-1,-1.1781044E-1,1.8478845E-1,5.289377E-1,-6.9331884E-2,3.5412776E-1,6.5233773E-1,1.3908291E0,-2.1071236E-1,2.9500926E-2,5.235501E-1,1.486745E0,-2.463042E-1,7.442793E-2,4.209536E-1,5.973166E-2,2.2530809E-1,5.917703E-1,1.0088954E0,1.530904E0,1.466695E-1,6.084585E-1,8.4318334E-1,1.4251771E0,5.620184E-1,1.1371611E0,1.5157994E0,2.486154E0,1.5560721E0,6.5338963E-1,2.2696736E0,3.928461E0],"split_indices":[2,2,48,0,0,3,2,2,0,3,26,0,8,0,38,2,3,26,0,0,50,0,48,0,18,18,2,50,18,0,0,23,50,50,50,0,2,50,2,3,11,14,11,8,14,3,24,0,26,14,2,8,5,0,49,36,0,7,0,0,0,0,0,0,0,0,0,0,0,0,0,0,0,0,0,0,0,0,0,0,0,0,0,0,0,0,0,0,0,0,0,0,0,0,0,0,0,0,0,0,0,0,0,0,0,0,0,0,0,0,0],"split_type":[0,0,0,0,0,0,0,0,0,0,0,0,0,0,0,0,0,0,0,0,0,0,0,0,0,0,0,0,0,0,0,0,0,0,0,0,0,0,0,0,0,0,0,0,0,0,0,0,0,0,0,0,0,0,0,0,0,0,0,0,0,0,0,0,0,0,0,0,0,0,0,0,0,0,0,0,0,0,0,0,0,0,0,0,0,0,0,0,0,0,0,0,0,0,0,0,0,0,0,0,0,0,0,0,0,0,0,0,0,0,0],"sum_hessian":[1.6124E4,9.643E3,6.481E3,4.745E3,4.898E3,6.325E3,1.56E2,2.845E3,1.9E3,3.277E3,1.621E3,4.352E3,1.973E3,1.16E2,4E1,1.842E3,1.003E3,1.538E3,3.62E2,2.032E3,1.245E3,4.02E2,1.219E3,2.95E3,1.402E3,9.93E2,9.8E2,4.2E1,7.4E1,2.6E1,1.4E1,1.018E3,8.24E2,6.51E2,3.52E2,6.12E2,9.26E2,3.31E2,3.1E1,4.63E2,1.569E3,1.13E3,1.15E2,3.42E2,6E1,1.198E3,2.1E1,8.05E2,2.145E3,1.084E3,3.18E2,4.05E2,5.88E2,5.01E2,4.79E2,3.2E1,1E1,5.5E1,1.9E1,4.17E2,6.01E2,7.49E2,7.5E1,5.98E2,5.3E1,3.3E2,2.2E1,4.19E2,1.93E2,4.58E2,4.68E2,2.84E2,4.7E1,2.5E1,6E0,1.52E2,3.11E2,1.516E3,5.3E1,5.6E1,1.074E3,8.6E1,2.9E1,4.9E1,2.93E2,3.5E1,2.5E1,3.95E2,8.03E2,1E1,1.1E1,1.56E2,6.49E2,1.541E3,6.04E2,3.34E2,7.5E2,2.17E2,1.01E2,5.2E1,3.53E2,5.01E2,8.7E1,6.6E1,4.35E2,4.38E2,4.1E1,2.4E1,8E0,5E1,5E0],"tree_param":{"num_deleted":"0","num_feature":"72","num_nodes":"111","size_leaf_vector":"1"}},{"base_weights":[4.35088E-2,-8.56892E0,1.1007741E1,-1.3317608E1,-2.2871263E0,5.9458003E0,2.1313599E1,-1.5872247E1,-9.942688E0,-4.7596908E0,1.7165893E0,4.23885E0,2.0503843E1,1.6285461E1,3.6743134E1,-1.7422956E1,-1.4026856E1,-7.943457E0,-1.1366301E1,-8.232819E0,-3.540719E0,-1.8530701E0,3.767541E0,9.107762E0,1.7187395E0,1.5889768E1,3.99471E1,1.1714881E1,2.2203125E1,2.9948448E1,7.1043976E1,-9.4637233E-1,-1.692438E1,-1.1809583E1,-1.4635934E1,-9.085672E0,-2.596776E0,-1.2813491E1,-9.168005E0,-1.0089843E1,-6.1821775E0,-4.252981E0,5.081772E-1,-5.5517187E0,-2.0300514E-1,5.9160924E0,-1.0920497E0,6.0495872E0,1.3951163E1,-1.4487723E0,5.5431437E0,9.163736E0,1.8920614E1,2.8647774E1,6.0647408E1,1.0467695E1,2.3858534E1,2.0325182E1,3.8722366E1,2.5504951E1,3.3955315E1,4.103695E1,9.032696E1,-8.04289E-1,-8.866777E-1,-6.3948554E-1,-3.9822558E-1,-7.86745E-1,-6.826336E-1,-5.2705115E-1,-3.9009464E-1,-1.5111755E-1,4.6194702E-1,-7.197229E-1,-5.6917685E-1,-4.8524442E-1,-2.7196652E-1,-6.539048E-1,-4.6082082E-1,-3.6122832E-1,-1.8541059E-2,-2.8019732E-1,-9.709834E-2,4.988954E-1,-3.1415597E-2,-3.6216342E-1,6.874117E-2,-4.424418E-2,4.370497E-1,1.7372237E-1,5.134593E-1,-2.7040264E-1,7.847014E-2,2.3085932E-1,5.821915E-1,6.1015666E-1,1.1727028E0,-2.1329153E-1,2.3261994E-2,1.5053014E-1,4.504567E-1,5.396282E-1,1.8315844E-1,1.0178976E0,3.7494346E-1,1.0748376E0,2.1130962E0,1.9627854E0,3.6292114E0,2.3008476E-1,6.18123E-1,1.66299E-1,1.2744976E0,8.434543E-1,1.139913E0,1.5349898E0,2.4646158E0,9.641633E-1,1.367672E0,1.7272767E0,8.9372903E-1,1.5902816E0,2.6156433E0,2.2077312E0,4.848107E0],"categories":[],"categories_nodes":[],"categories_segments":[],"categories_sizes":[],"default_left":[0,0,0,0,0,0,0,0,0,0,0,0,0,0,0,0,0,0,0,0,0,0,0,0,0,0,0,0,0,0,0,0,0,0,0,0,0,0,0,0,0,0,0,0,0,0,0,0,0,0,0,0,0,0,0,0,0,0,0,0,0,0,0,0,0,0,0,0,0,0,0,0,0,0,0,0,0,0,0,0,0,0,0,0,0,0,0,0,0,0,0,0,0,0,0,0,0,0,0,0,0,0,0,0,0,0,0,0,0,0,0,0,0,0,0,0,0,0,0,0,0,0,0,0,0],"id":7,"left_children":[1,3,5,7,9,11,13,15,17,19,21,23,25,27,29,31,33,35,37,39,41,43,45,47,49,51,53,55,57,59,61,-1,63,65,67,69,71,73,75,77,79,81,83,85,87,89,91,93,95,97,99,101,103,105,107,109,111,113,115,117,119,121,123,-1,-1,-1,-1,-1,-1,-1,-1,-1,-1,-1,-1,-1,-1,-1,-1,-1,-1,-1,-1,-1,-1,-1,-1,-1,-1,-1,-1,-1,-1,-1,-1,-1,-1,-1,-1,-1,-1,-1,-1,-1,-1,-1,-1,-1,-1,-1,-1,-1,-1,-1,-1,-1,-1,-1,-1,-1,-1,-1,-1,-1,-1],"loss_changes":[1.5374879E6,2.7199025E5,3.7354738E5,4.4612125E4,3.8883594E4,1.1931414E5,1.8241188E5,8.20575E3,6.283125E3,1.0248965E4,1.0988972E4,5.276965E4,4.457486E4,4.790747E4,1.32806E5,8.77E2,1.6530938E3,5.685336E3,4.0351719E3,2.3350938E3,5.190629E3,3.3427476E3,9.957292E3,2.1642766E4,3.43633E4,8.1615E3,2.0708016E4,1.4998234E4,2.324925E4,7.7632188E3,5.12495E4,0E0,5.3378125E2,1.01535156E3,9.254844E2,1.3545547E3,8.6344055E2,1.6082109E3,9.9066797E2,7.359375E2,1.8259844E3,4.765174E3,2.9130107E3,1.990648E3,2.324463E3,6.9885234E3,3.3745144E3,7.164504E3,9.128859E3,8.370568E3,1.1251102E4,1.114791E3,4.457703E3,5.3158555E3,5.5659844E3,1.0111344E4,3.0275742E3,5.5773438E3,5.093008E3,2.1590312E3,1.7690312E3,2.3873125E3,1.31671875E4,0E0,0E0,0E0,0E0,0E0,0E0,0E0,0E0,0E0,0E0,0E0,0E0,0E0,0E0,0E0,0E0,0E0,0E0,0E0,0E0,0E0,0E0,0E0,0E0,0E0,0E0,0E0,0E0,0E0,0E0,0E0,0E0,0E0,0E0,0E0,0E0,0E0,0E0,0E0,0E0,0E0,0E0,0E0,0E0,0E0,0E0,0E0,0E0,0E0,0E0,0E0,0E0,0E0,0E0,0E0,0E0,0E0,0E0,0E0,0E0,0E0,0E0],"parents":[2147483647,0,0,1,1,2,2,3,3,4,4,5,5,6,6,7,7,8,8,9,9,10,10,11,11,12,12,13,13,14,14,15,15,16,16,17,17,18,18,19,19,20,20,21,21,22,22,23,23,24,24,25,25,26,26,27,27,28,28,29,29,30,30,32,32,33,33,34,34,35,35,36,36,37,37,38,38,39,39,40,40,41,41,42,42,43,43,44,44,45,45,46,46,47,47,48,48,49,49,50,50,51,51,52,52,53,53,54,54,55,55,56,56,57,57,58,58,59,59,60,60,61,61,62,62],"right_children":[2,4,6,8,10,12,14,16,18,20,22,24,26,28,30,32,34,36,38,40,42,44,46,48,50,52,54,56,58,60,62,-1,64,66,68,70,72,74,76,78,80,82,84,86,88,90,92,94,96,98,100,102,104,106,108,110,112,114,116,118,120,122,124,-1,-1,-1,-1,-1,-1,-1,-1,-1,-1,-1,-1,-1,-1,-1,-1,-1,-1,-1,-1,-1,-1,-1,-1,-1,-1,-1,-1,-1,-1,-1,-1,-1,-1,-1,-1,-1,-1,-1,-1,-1,-1,-1,-1,-1,-1,-1,-1,-1,-1,-1,-1,-1,-1,-1,-1,-1,-1,-1,-1,-1,-1],"split_conditions":[3.2E1,2.1E1,1E0,1.4E1,3.3E1,7.3E1,6E1,1E1,6.234898E-1,1.9E1,2.5E1,6.234898E-1,1E0,3.8E1,1E0,6E0,1.2246469E-16,2.3E1,2.2E1,1.2E1,1.7291666E1,2.2E1,6.234898E-1,3E1,4.7E1,4.3625E1,1.07E2,1E0,1E0,5E1,5.9083332E1,-9.4637233E-1,6.234898E-1,1.1375E1,1E1,1.5E1,2E0,1.4E1,1E0,4E0,1.7E1,1.6E1,1.2E1,1.9E1,1E0,3.3E1,1.7E1,2.8E1,1E0,1E0,3.75E1,5E-1,5.2815475E1,4.3388373E-1,3.8E1,2.6E1,2.1E1,1.8119122E1,4.9E1,3.8625E1,3.2828827E1,5.5E1,7.6E1,-8.04289E-1,-8.866777E-1,-6.3948554E-1,-3.9822558E-1,-7.86745E-1,-6.826336E-1,-5.2705115E-1,-3.9009464E-1,-1.5111755E-1,4.6194702E-1,-7.197229E-1,-5.6917685E-1,-4.8524442E-1,-2.7196652E-1,-6.539048E-1,-4.6082082E-1,-3.6122832E-1,-1.8541059E-2,-2.8019732E-1,-9.709834E-2,4.988954E-1,-3.1415597E-2,-3.6216342E-1,6.874117E-2,-4.424418E-2,4.370497E-1,1.7372237E-1,5.134593E-1,-2.7040264E-1,7.847014E-2,2.3085932E-1,5.821915E-1,6.1015666E-1,1.1727028E0,-2.1329153E-1,2.3261994E-2,1.5053014E-1,4.504567E-1,5.396282E-1,1.8315844E-1,1.0178976E0,3.7494346E-1,1.0748376E0,2.1130962E0,1.9627854E0,3.6292114E0,2.3008476E-1,6.18123E-1,1.66299E-1,1.2744976E0,8.434543E-1,1.139913E0,1.5349898E0,2.4646158E0,9.641633E-1,1.367672E0,1.7272767E0,8.9372903E-1,1.5902816E0,2.6156433E0,2.2077312E0,4.848107E0],"split_indices":[0,3,18,0,3,0,0,3,26,0,1,26,50,1,50,0,23,0,0,11,11,0,26,8,0,8,0,50,50,1,8,0,26,11,0,1,50,3,50,19,13,6,19,6,49,1,19,5,50,14,8,28,9,25,3,1,1,10,0,8,10,1,0,0,0,0,0,0,0,0,0,0,0,0,0,0,0,0,0,0,0,0,0,0,0,0,0,0,0,0,0,0,0,0,0,0,0,0,0,0,0,0,0,0,0,0,0,0,0,0,0,0,0,0,0,0,0,0,0,0,0,0,0,0,0],"split_type":[0,0,0,0,0,0,0,0,0,0,0,0,0,0,0,0,0,0,0,0,0,0,0,0,0,0,0,0,0,0,0,0,0,0,0,0,0,0,0,0,0,0,0,0,0,0,0,0,0,0,0,0,0,0,0,0,0,0,0,0,0,0,0,0,0,0,0,0,0,0,0,0,0,0,0,0,0,0,0,0,0,0,0,0,0,0,0,0,0,0,0,0,0,0,0,0,0,0,0,0,0,0,0,0,0,0,0,0,0,0,0,0,0,0,0,0,0,0,0,0,0,0,0,0,0],"sum_hessian":[1.628E4,9.118E3,7.162E3,5.192E3,3.926E3,4.804E3,2.358E3,2.953E3,2.239E3,2.427E3,1.499E3,4.301E3,5.03E2,1.78E3,5.78E2,1.6E3,1.353E3,9.34E2,1.305E3,6.29E2,1.798E3,5.47E2,9.52E2,1.466E3,2.835E3,4.08E2,9.5E1,1.006E3,7.74E2,4.84E2,9.4E1,3.89E2,1.211E3,2.96E2,1.057E3,7.69E2,1.65E2,7.84E2,5.21E2,3.28E2,3.01E2,1.529E3,2.69E2,1.68E2,3.79E2,6.6E2,2.92E2,9E2,5.66E2,1.551E3,1.284E3,1.28E2,2.8E2,6.3E1,3.2E1,9.14E2,9.2E1,6.97E2,7.7E1,2.33E2,2.51E2,3.8E1,5.6E1,6.05E2,6.06E2,2.34E2,6.2E1,4.92E2,5.65E2,3.57E2,4.12E2,1.6E2,5E0,3.68E2,4.16E2,4.54E2,6.7E1,7.1E1,2.57E2,2.55E2,4.6E1,9.64E2,5.65E2,2.8E1,2.41E2,1.35E2,3.3E1,3.53E2,2.6E1,4.24E2,2.36E2,1.11E2,1.81E2,7.18E2,1.82E2,4.8E2,8.6E1,6.27E2,9.24E2,7.43E2,5.41E2,9.8E1,3E1,2.48E2,3.2E1,4.3E1,2E1,1.3E1,1.9E1,2.24E2,6.9E2,7E0,8.5E1,2.94E2,4.03E2,4.6E1,3.1E1,5.6E1,1.77E2,2.41E2,1E1,2.3E1,1.5E1,8E0,4.8E1],"tree_param":{"num_deleted":"0","num_feature":"72","num_nodes":"125","size_leaf_vector":"1"}},{"base_weights":[-6.772668E-2,-7.750381E0,1.1479401E1,-1.300513E1,-2.6484046E0,1.0479178E1,5.6307964E1,-1.53058815E1,-9.789487E0,-5.483237E0,1.7943083E-1,6.745313E0,1.8833424E1,2.9132303E1,6.9584816E1,-1.6311872E1,-1.3109907E1,-1.0280315E1,-2.8176973E0,-6.1512156E0,3.2964262E-1,-6.588942E-1,8.276875E0,4.1402116E0,1.1250811E1,1.42536335E1,2.394901E1,1.699515E1,4.6757687E1,5.4386196E1,1.0019232E2,-1.7515808E1,-1.5548803E1,-1.3889156E1,-1.0274277E1,-1.1218774E1,-8.2568655E0,-4.1660504E0,8.933738E0,-8.024968E0,-4.704175E0,-2.1130877E0,1.177823E1,-1.9847525E0,2.9870424E0,6.418717E0,2.4109293E1,3.2717042E0,1.325816E1,7.1823044E0,1.4075991E1,4.382322E0,1.5447889E1,2.6541195E1,1.6951368E1,2.1152212E1,1.4533478E-1,1.3537725E0,2.5922978E0,6.573092E1,2.9220112E1,2.4308164E0,1.1105648E2,-9.2449474E-1,-8.5281223E-1,-7.9004514E-1,-6.585856E-1,-7.075287E-1,-5.428104E-1,-5.6055707E-1,-3.6749423E-1,-5.800312E-1,-3.652992E-1,-5.046603E-1,-3.6044988E-1,-2.4902187E-1,2.6401255E-1,7.699047E-1,1.07410446E-1,-4.4840488E-1,-2.9465333E-1,-3.3777857E-1,-1.8950284E-1,-1.5315013E-1,3.553374E-1,1.5901032E-1,9.582413E-1,-1.7888258E-1,-1.8784663E-2,9.811397E-2,8.251926E-1,2.0938995E-1,6.076435E-1,1.5254781E0,3.7412807E-1,-6.8444304E-2,2.1396966E-1,5.611401E-1,1.7591362E0,-2.3432723E-1,4.0196204E-1,7.666486E-1,1.8253194E-1,7.955036E-2,4.2055854E-1,5.833896E-1,9.080141E-1,9.733097E-1,1.4720186E0,6.2793803E-1,9.809311E-1,5.25795E-1,1.214087E0,1.882711E0,3.5935974E0,5.314772E-1,1.9538449E0,6.1504855E0,3.5880654E0],"categories":[],"categories_nodes":[],"categories_segments":[],"categories_sizes":[],"default_left":[0,0,0,0,0,0,0,0,0,0,0,0,0,0,0,0,0,0,0,0,0,0,0,0,0,0,0,0,0,0,0,0,0,0,0,0,0,0,0,0,0,0,0,0,0,0,0,0,0,0,0,0,0,0,0,0,0,0,0,0,0,0,0,0,0,0,0,0,0,0,0,0,0,0,0,0,0,0,0,0,0,0,0,0,0,0,0,0,0,0,0,0,0,0,0,0,0,0,0,0,0,0,0,0,0,0,0,0,0,0,0,0,0,0,0,0,0,0,0],"id":8,"left_children":[1,3,5,7,9,11,13,15,17,19,21,23,25,27,29,31,33,35,37,39,41,43,45,47,49,51,53,55,57,59,61,63,65,67,69,71,73,75,77,79,81,83,85,87,89,91,93,95,97,99,101,103,105,107,109,111,-1,-1,-1,113,115,-1,117,-1,-1,-1,-1,-1,-1,-1,-1,-1,-1,-1,-1,-1,-1,-1,-1,-1,-1,-1,-1,-1,-1,-1,-1,-1,-1,-1,-1,-1,-1,-1,-1,-1,-1,-1,-1,-1,-1,-1,-1,-1,-1,-1,-1,-1,-1,-1,-1,-1,-1,-1,-1,-1,-1,-1,-1],"loss_changes":[1.4368778E6,2.6071419E5,2.895533E5,3.5293375E4,3.9570652E4,1.9735725E5,4.883672E4,5.948875E3,6.8170625E3,9.573914E3,1.6786867E4,5.1325953E4,4.5457188E4,9.467227E3,3.826353E4,1.4790625E3,1.8037969E3,3.4545156E3,2.1441382E3,5.955867E3,7.157136E3,1.0838812E4,6.6674336E3,2.1930207E4,1.8322094E4,1.2120016E4,1.627E4,1.6931084E3,4.911797E2,1.6627484E4,1.1394781E4,9.203125E0,4.9490625E2,3.9015625E2,4.472578E2,1.8168438E3,1.0723516E3,9.4942114E2,5.7926404E2,1.879918E3,2.3173652E3,1.8693138E3,2.7947734E3,4.211947E3,8.2489795E3,2.621088E3,2.3218848E3,1.1860494E4,1.0354973E4,6.7406016E3,1.2325859E4,1.2563911E3,9.238516E3,1.3185344E4,2.702875E3,5.0676855E2,0E0,0E0,0E0,4.8692344E3,3.6110098E3,0E0,2.4260625E3,0E0,0E0,0E0,0E0,0E0,0E0,0E0,0E0,0E0,0E0,0E0,0E0,0E0,0E0,0E0,0E0,0E0,0E0,0E0,0E0,0E0,0E0,0E0,0E0,0E0,0E0,0E0,0E0,0E0,0E0,0E0,0E0,0E0,0E0,0E0,0E0,0E0,0E0,0E0,0E0,0E0,0E0,0E0,0E0,0E0,0E0,0E0,0E0,0E0,0E0,0E0,0E0,0E0,0E0,0E0,0E0],"parents":[2147483647,0,0,1,1,2,2,3,3,4,4,5,5,6,6,7,7,8,8,9,9,10,10,11,11,12,12,13,13,14,14,15,15,16,16,17,17,18,18,19,19,20,20,21,21,22,22,23,23,24,24,25,25,26,26,27,27,28,28,29,29,30,30,31,31,32,32,33,33,34,34,35,35,36,36,37,37,38,38,39,39,40,40,41,41,42,42,43,43,44,44,45,45,46,46,47,47,48,48,49,49,50,50,51,51,52,52,53,53,54,54,55,55,59,59,60,60,62,62],"right_children":[2,4,6,8,10,12,14,16,18,20,22,24,26,28,30,32,34,36,38,40,42,44,46,48,50,52,54,56,58,60,62,64,66,68,70,72,74,76,78,80,82,84,86,88,90,92,94,96,98,100,102,104,106,108,110,112,-1,-1,-1,114,116,-1,118,-1,-1,-1,-1,-1,-1,-1,-1,-1,-1,-1,-1,-1,-1,-1,-1,-1,-1,-1,-1,-1,-1,-1,-1,-1,-1,-1,-1,-1,-1,-1,-1,-1,-1,-1,-1,-1,-1,-1,-1,-1,-1,-1,-1,-1,-1,-1,-1,-1,-1,-1,-1,-1,-1,-1,-1],"split_conditions":[3.4E1,1.9E1,6.2166668E1,1.3E1,2.7E1,5.5E1,4.9E1,1.1E1,3.2E1,1E0,1E0,4.7E1,3.9E1,2E0,2E0,7E0,1.8E1,1.9E1,2.6458334E1,2.2E1,2.5251202E1,4E1,2.3666666E1,1E0,3.1916666E1,4E0,6E0,2.864881E1,1.5E1,2.5625E1,4E1,5E0,1E0,1E0,2.7E1,1E0,1.7E1,3.1E1,8E0,1.3291667E1,1E0,2.8E1,2.5E1,2.8E1,1E0,4E1,2.1E1,2.7E1,2.6762508E1,3E0,5.2815475E1,7.5E1,1E0,5.1E1,7.1E1,3.6E1,1.4533478E-1,1.3537725E0,2.5922978E0,1.9291666E1,1.9E1,2.4308164E0,1.81E1,-9.2449474E-1,-8.5281223E-1,-7.9004514E-1,-6.585856E-1,-7.075287E-1,-5.428104E-1,-5.6055707E-1,-3.6749423E-1,-5.800312E-1,-3.652992E-1,-5.046603E-1,-3.6044988E-1,-2.4902187E-1,2.6401255E-1,7.699047E-1,1.07410446E-1,-4.4840488E-1,-2.9465333E-1,-3.3777857E-1,-1.8950284E-1,-1.5315013E-1,3.553374E-1,1.5901032E-1,9.582413E-1,-1.7888258E-1,-1.8784663E-2,9.811397E-2,8.251926E-1,2.0938995E-1,6.076435E-1,1.5254781E0,3.7412807E-1,-6.8444304E-2,2.1396966E-1,5.611401E-1,1.7591362E0,-2.3432723E-1,4.0196204E-1,7.666486E-1,1.8253194E-1,7.955036E-2,4.2055854E-1,5.833896E-1,9.080141E-1,9.733097E-1,1.4720186E0,6.2793803E-1,9.809311E-1,5.25795E-1,1.214087E0,1.882711E0,3.5935974E0,5.314772E-1,1.9538449E0,6.1504855E0,3.5880654E0],"split_indices":[2,2,8,2,3,3,2,3,0,50,50,2,8,50,50,2,0,3,11,0,10,0,11,50,8,19,14,12,13,12,3,2,50,50,0,50,0,4,36,11,14,4,2,2,18,0,38,0,10,19,9,3,18,0,0,2,0,0,0,12,13,0,38,0,0,0,0,0,0,0,0,0,0,0,0,0,0,0,0,0,0,0,0,0,0,0,0,0,0,0,0,0,0,0,0,0,0,0,0,0,0,0,0,0,0,0,0,0,0,0,0,0,0,0,0,0,0,0,0],"split_type":[0,0,0,0,0,0,0,0,0,0,0,0,0,0,0,0,0,0,0,0,0,0,0,0,0,0,0,0,0,0,0,0,0,0,0,0,0,0,0,0,0,0,0,0,0,0,0,0,0,0,0,0,0,0,0,0,0,0,0,0,0,0,0,0,0,0,0,0,0,0,0,0,0,0,0,0,0,0,0,0,0,0,0,0,0,0,0,0,0,0,0,0,0,0,0,0,0,0,0,0,0,0,0,0,0,0,0,0,0,0,0,0,0,0,0,0,0,0,0],"sum_hessian":[1.6195E4,9.725E3,6.47E3,4.79E3,4.935E3,6.33E3,1.4E2,2.79E3,2E3,2.464E3,2.471E3,4.376E3,1.954E3,4.7E1,9.3E1,1.909E3,8.81E2,1.868E3,1.32E2,2.21E3,2.54E2,2.24E3,2.31E2,2.774E3,1.602E3,1.033E3,9.21E2,2.9E1,1.8E1,6.4E1,2.9E1,7.32E2,1.177E3,6.88E2,1.93E2,1.273E3,5.95E2,1.19E2,1.3E1,9.61E2,1.249E3,2.1E2,4.4E1,1.643E3,5.97E2,2.08E2,2.3E1,2.534E3,2.4E2,6.58E2,9.44E2,1.12E2,9.21E2,6.7E2,2.51E2,2.2E1,7E0,5E0,1.3E1,4.3E1,2.1E1,6E0,2.3E1,2.22E2,5.1E2,1.059E3,1.18E2,6.3E2,5.8E1,1.44E2,4.9E1,1.158E3,1.15E2,2.13E2,3.82E2,1.1E2,9E0,6E0,7E0,6.64E2,2.97E2,3.83E2,8.66E2,1.91E2,1.9E1,2.1E1,2.3E1,8.25E2,8.18E2,5.56E2,4.1E1,1.51E2,5.7E1,1.6E1,7E0,4.52E2,2.082E3,2.21E2,1.9E1,4.4E1,6.14E2,8.42E2,1.02E2,6.7E1,4.5E1,3.87E2,5.34E2,1.97E2,4.73E2,9.7E1,1.54E2,6E0,1.6E1,9E0,3.4E1,8E0,1.3E1,1.6E1,7E0],"tree_param":{"num_deleted":"0","num_feature":"72","num_nodes":"119","size_leaf_vector":"1"}},{"base_weights":[5.166117E-2,-8.564719E0,9.526664E0,-1.3453513E1,-4.7228017E0,8.48363E0,5.5109467E1,-1.4927902E1,-1.0760112E1,-7.6325135E0,-2.2929869E0,4.6673536E0,1.7071903E1,4.4692738E1,9.60717E1,-1.6084244E1,-1.3650797E1,-1.1356893E1,-6.6243258E0,-8.563529E0,-5.1795287E0,-3.149159E0,4.1652102E0,2.0853221E0,7.966163E0,1.1814864E1,2.1181683E1,3.5230984E1,6.4994995E1,4.1460934E0,7.180031E0,-8.613345E-1,-1.5568882E1,-1.3952819E1,-1.2072218E1,-1.2473723E1,-1.0184499E1,-7.1472936E0,4.3787518E-1,-8.864557E0,-4.697862E0,-5.623648E0,-6.1589116E-1,-5.2791414E0,-1.4186108E0,1.4126439E0,1.6278982E1,1.55095E0,1.008312E1,5.942303E0,1.5027862E1,6.2671394E0,1.4699451E1,1.4066802E1,2.5650908E1,3.0220867E1,4.920672E1,4.3827473E1,7.476591E1,-7.8752196E-1,-6.255829E-1,-7.168826E-1,-6.4619863E-1,-6.1622703E-1,-3.3954328E-1,-6.461279E-1,-4.5443374E-1,-4.4881317E-1,-6.308566E-1,-3.8641864E-1,-1.1503611E-1,-4.7005978E-1,-3.3350536E-1,-4.27373E-1,-1.4876115E-1,-2.6982075E-1,-6.908619E-1,1.7465313E-1,-1.1441939E-1,-3.915103E-1,-1.9846682E-1,-1.3580197E-1,9.370411E-2,-1.4071676E-2,4.1502285E-1,5.250921E-1,1.6426563E0,-9.399283E-3,1.9462933E-1,4.2632824E-1,1.2895256E0,6.719097E-2,3.7765595E-1,5.4942816E-1,1.0481879E0,9.450567E-2,4.9293515E-1,5.0921196E-1,8.357188E-1,-1.3009112E-1,7.2923464E-1,1.0113337E0,1.4675294E0,1.2447218E0,1.9546479E0,1.3273703E0,2.7639706E0,1.3332251E0,2.4597843E0,4.0633492E0,2.1819408E0],"categories":[],"categories_nodes":[],"categories_segments":[],"categories_sizes":[],"default_left":[0,0,0,0,0,0,0,0,0,0,0,0,0,0,0,0,0,0,0,0,0,0,0,0,0,0,0,0,0,0,0,0,0,0,0,0,0,0,0,0,0,0,0,0,0,0,0,0,0,0,0,0,0,0,0,0,0,0,0,0,0,0,0,0,0,0,0,0,0,0,0,0,0,0,0,0,0,0,0,0,0,0,0,0,0,0,0,0,0,0,0,0,0,0,0,0,0,0,0,0,0,0,0,0,0,0,0,0,0,0,0],"id":9,"left_children":[1,3,5,7,9,11,13,15,17,19,21,23,25,27,29,31,33,35,37,39,41,43,45,47,49,51,53,55,57,-1,-1,-1,59,61,63,65,67,69,-1,71,73,75,77,79,81,83,85,87,89,91,93,95,97,99,101,103,105,107,109,-1,-1,-1,-1,-1,-1,-1,-1,-1,-1,-1,-1,-1,-1,-1,-1,-1,-1,-1,-1,-1,-1,-1,-1,-1,-1,-1,-1,-1,-1,-1,-1,-1,-1,-1,-1,-1,-1,-1,-1,-1,-1,-1,-1,-1,-1,-1,-1,-1,-1,-1,-1],"loss_changes":[1.3193879E6,1.5890838E5,3.6547525E5,1.462525E4,3.350068E4,2.4658444E5,6.908334E4,3.3275625E3,3.1834062E3,4.8803516E3,1.4306329E4,4.437628E4,4.9762688E4,2.4401344E4,9.319625E3,4.6803125E2,3.7675E2,1.3803906E3,1.4219004E3,1.7746562E3,1.2038848E3,8.4070625E3,1.0078453E4,1.2484061E4,3.2608438E4,1.6196734E4,4.0909E4,5.2969297E3,5.604875E3,0E0,0E0,0E0,2.8632812E2,1.9128125E2,1.7025E2,7.706797E2,1.5540508E3,4.430791E2,0E0,1.6408906E3,7.3603564E2,9.3450586E2,3.789724E2,3.3859883E3,5.392209E3,2.8969233E3,5.01271E3,1.1170477E4,4.25091E3,1.3173973E4,1.1970672E4,5.4823174E3,5.9135312E3,4.3813125E3,1.5375531E4,2.5173984E3,1.8267617E3,1.5478906E2,2.1071719E3,0E0,0E0,0E0,0E0,0E0,0E0,0E0,0E0,0E0,0E0,0E0,0E0,0E0,0E0,0E0,0E0,0E0,0E0,0E0,0E0,0E0,0E0,0E0,0E0,0E0,0E0,0E0,0E0,0E0,0E0,0E0,0E0,0E0,0E0,0E0,0E0,0E0,0E0,0E0,0E0,0E0,0E0,0E0,0E0,0E0,0E0,0E0,0E0,0E0,0E0,0E0,0E0],"parents":[2147483647,0,0,1,1,2,2,3,3,4,4,5,5,6,6,7,7,8,8,9,9,10,10,11,11,12,12,13,13,14,14,15,15,16,16,17,17,18,18,19,19,20,20,21,21,22,22,23,23,24,24,25,25,26,26,27,27,28,28,32,32,33,33,34,34,35,35,36,36,37,37,39,39,40,40,41,41,42,42,43,43,44,44,45,45,46,46,47,47,48,48,49,49,50,50,51,51,52,52,53,53,54,54,55,55,56,56,57,57,58,58],"right_children":[2,4,6,8,10,12,14,16,18,20,22,24,26,28,30,32,34,36,38,40,42,44,46,48,50,52,54,56,58,-1,-1,-1,60,62,64,66,68,70,-1,72,74,76,78,80,82,84,86,88,90,92,94,96,98,100,102,104,106,108,110,-1,-1,-1,-1,-1,-1,-1,-1,-1,-1,-1,-1,-1,-1,-1,-1,-1,-1,-1,-1,-1,-1,-1,-1,-1,-1,-1,-1,-1,-1,-1,-1,-1,-1,-1,-1,-1,-1,-1,-1,-1,-1,-1,-1,-1,-1,-1,-1,-1,-1,-1,-1],"split_conditions":[3E1,1.6E1,1E0,1.3E1,2.3E1,5.3E1,7.3E1,9E0,2.6E1,2.4E1,1E0,4E1,5E1,3.6E1,1E0,6E0,1.4E1,2E0,6.8E1,1E0,1E0,2.4E1,2.5251202E1,1E0,1E0,1.5E1,1E0,2E0,4E0,4.1460934E0,7.180031E0,-8.613345E-1,1E0,1.1E1,1E0,1.7E1,5E-1,4.1E1,4.3787518E-1,1.7E1,2E0,4.8392857E1,7E0,1E0,4E1,1.8E1,1.7E1,3.9E1,1E0,1E0,3.8E1,3.7E1,4E0,8E0,3.5863094E1,1.9E1,1.3E1,5.9E1,1E-1,-7.8752196E-1,-6.255829E-1,-7.168826E-1,-6.4619863E-1,-6.1622703E-1,-3.3954328E-1,-6.461279E-1,-4.5443374E-1,-4.4881317E-1,-6.308566E-1,-3.8641864E-1,-1.1503611E-1,-4.7005978E-1,-3.3350536E-1,-4.27373E-1,-1.4876115E-1,-2.6982075E-1,-6.908619E-1,1.7465313E-1,-1.1441939E-1,-3.915103E-1,-1.9846682E-1,-1.3580197E-1,9.370411E-2,-1.4071676E-2,4.1502285E-1,5.250921E-1,1.6426563E0,-9.399283E-3,1.9462933E-1,4.2632824E-1,1.2895256E0,6.719097E-2,3.7765595E-1,5.4942816E-1,1.0481879E0,9.450567E-2,4.9293515E-1,5.0921196E-1,8.357188E-1,-1.3009112E-1,7.2923464E-1,1.0113337E0,1.4675294E0,1.2447218E0,1.9546479E0,1.3273703E0,2.7639706E0,1.3332251E0,2.4597843E0,4.0633492E0,2.1819408E0],"split_indices":[2,2,48,0,0,2,2,2,0,2,50,0,0,6,46,0,2,14,1,50,50,2,10,49,18,19,18,50,14,0,0,0,27,0,49,13,23,0,0,13,14,9,36,14,0,6,13,2,28,14,1,0,14,19,9,13,13,2,53,0,0,0,0,0,0,0,0,0,0,0,0,0,0,0,0,0,0,0,0,0,0,0,0,0,0,0,0,0,0,0,0,0,0,0,0,0,0,0,0,0,0,0,0,0,0,0,0,0,0,0,0],"split_type":[0,0,0,0,0,0,0,0,0,0,0,0,0,0,0,0,0,0,0,0,0,0,0,0,0,0,0,0,0,0,0,0,0,0,0,0,0,0,0,0,0,0,0,0,0,0,0,0,0,0,0,0,0,0,0,0,0,0,0,0,0,0,0,0,0,0,0,0,0,0,0,0,0,0,0,0,0,0,0,0,0,0,0,0,0,0,0,0,0,0,0,0,0,0,0,0,0,0,0,0,0,0,0,0,0,0,0,0,0,0,0],"sum_hessian":[1.6159E4,8.463E3,7.696E3,3.723E3,4.74E3,7.525E3,1.71E2,2.403E3,1.32E3,2.156E3,2.584E3,5.211E3,2.314E3,1.38E2,3.3E1,1.255E3,1.148E3,1.152E3,1.68E2,1.561E3,5.95E2,2.282E3,3.02E2,2.924E3,2.287E3,1.017E3,1.297E3,9.6E1,4.2E1,2.8E1,5E0,3.8E2,8.75E2,9.57E2,1.91E2,5.85E2,5.67E2,1.63E2,5E0,1.447E3,1.14E2,5.42E2,5.3E1,1.022E3,1.26E3,2.47E2,5.5E1,2.742E3,1.82E2,1.779E3,5.08E2,3.49E2,6.68E2,5.02E2,7.95E2,7.3E1,2.3E1,1.5E1,2.7E1,8.22E2,5.3E1,6.87E2,2.7E2,1.81E2,1E1,5.14E2,7.1E1,3.82E2,1.85E2,1.45E2,1.8E1,1.16E3,2.87E2,3.4E1,8E1,5.29E2,1.3E1,1.5E1,3.8E1,3.45E2,6.77E2,9.04E2,3.56E2,1.99E2,4.8E1,4.2E1,1.3E1,1.574E3,1.168E3,1.67E2,1.5E1,4.62E2,1.317E3,3.04E2,2.04E2,1.58E2,1.91E2,2.08E2,4.6E2,1.5E1,4.87E2,3.25E2,4.7E2,4.8E1,2.5E1,6E0,1.7E1,5E0,1E1,2.1E1,6E0],"tree_param":{"num_deleted":"0","num_feature":"72","num_nodes":"111","size_leaf_vector":"1"}},{"base_weights":[6.386413E-2,-6.716927E0,1.092662E1,-1.1107309E1,-1.4969863E0,9.802616E0,5.300868E1,-1.3506177E1,-7.9497323E0,-3.699244E0,1.3342426E0,6.229441E0,1.7346607E1,4.214537E1,8.856727E1,-1.5106633E1,-1.2143872E1,-8.972528E0,-5.660933E0,-4.0483184E0,1.6414654E1,5.155602E-1,9.354002E0,4.2604175E0,1.0537211E1,1.3102555E1,2.1516783E1,3.066951E1,4.8583298E1,7.659954E1,6.880863E0,-1.5721178E1,-1.4119414E1,-1.0061043E1,-1.2783306E1,-9.465195E0,-3.7807488E0,-5.7867208E0,5.2011764E-1,-4.53998E0,1.2014312E0,6.7902513E0,2.2812693E1,6.701065E-2,7.3304205E0,7.904906E0,2.3203608E1,1.705416E0,6.0790305E0,4.750602E0,1.2242822E1,3.7872665E0,1.4240904E1,2.0221996E1,3.3985218E1,3.3026688E1,4.3240786E-1,1.1490108E0,5.1143078E1,4.120219E0,1.8847259E0,-7.966488E-1,-6.4619225E-1,-7.1763104E-1,-5.006884E-1,-5.1511717E-1,-7.262265E-2,-6.4671946E-1,-1.5739964E-1,-4.8876816E-1,-3.2616237E-1,-3.8821575E-1,-1.0892927E-2,-3.0825445E-1,-7.5381786E-2,-3.1715035E-1,-1.7084746E-1,5.0868547E-1,-2.0039354E-1,-1.6245922E-1,5.3074956E-1,4.5224258E-1,1.2827641E0,-1.4316397E-2,3.4840766E-1,2.4498823E-1,8.5233754E-1,2.3653987E-1,6.00645E-1,6.778493E-1,1.6174468E0,1.054609E-1,-4.504597E-1,2.7047923E-1,6.725792E-1,-2.8819287E-1,2.9138777E-1,4.5182094E-1,7.5115055E-1,1.03039436E-1,4.833985E-1,3.7007454E-1,7.799184E-1,7.938143E-1,1.1697621E0,1.5267743E0,2.4710746E0,1.9779085E0,1.2494724E0,1.1555866E0,2.6686742E0],"categories":[],"categories_nodes":[],"categories_segments":[],"categories_sizes":[],"default_left":[0,0,0,0,0,0,0,0,0,0,0,0,0,0,0,0,0,0,0,0,0,0,0,0,0,0,0,0,0,0,0,0,0,0,0,0,0,0,0,0,0,0,0,0,0,0,0,0,0,0,0,0,0,0,0,0,0,0,0,0,0,0,0,0,0,0,0,0,0,0,0,0,0,0,0,0,0,0,0,0,0,0,0,0,0,0,0,0,0,0,0,0,0,0,0,0,0,0,0,0,0,0,0,0,0,0,0,0,0,0,0],"id":10,"left_children":[1,3,5,7,9,11,13,15,17,19,21,23,25,27,29,31,33,35,37,39,41,43,45,47,49,51,53,55,57,59,-1,61,63,65,67,69,71,73,-1,75,77,79,81,83,85,87,89,91,93,95,97,99,101,103,105,107,-1,-1,109,-1,-1,-1,-1,-1,-1,-1,-1,-1,-1,-1,-1,-1,-1,-1,-1,-1,-1,-1,-1,-1,-1,-1,-1,-1,-1,-1,-1,-1,-1,-1,-1,-1,-1,-1,-1,-1,-1,-1,-1,-1,-1,-1,-1,-1,-1,-1,-1,-1,-1,-1,-1],"loss_changes":[1.1951761E6,2.2892822E5,2.9443925E5,4.0990312E4,2.8468389E4,1.6364725E5,5.883222E4,6.5335625E3,5.4373438E3,1.8095766E4,1.311233E4,3.493383E4,3.4262E4,7.8110156E3,1.11568125E4,6.323125E2,2.0932656E3,4.1039844E3,1.5286816E3,6.5230703E3,2.551537E3,5.543809E3,3.5263096E3,1.3147906E4,1.2701656E4,1.0230203E4,1.51768125E4,2.2018047E3,3.9948438E3,4.1085938E3,0E0,3.0190625E2,3.8235156E2,8.0853516E2,1.8122812E3,1.2832812E3,2.0129175E3,1.1589102E3,0E0,4.6527383E3,1.0183819E4,7.647929E2,7.8202637E2,4.155327E3,2.5593901E3,2.145123E3,1.0566211E3,5.1193496E3,8.088715E3,3.385999E3,8.758422E3,1.0652642E3,7.9038438E3,1.1939125E4,3.3287422E3,1.2623008E3,0E0,0E0,3.1977969E3,0E0,0E0,0E0,0E0,0E0,0E0,0E0,0E0,0E0,0E0,0E0,0E0,0E0,0E0,0E0,0E0,0E0,0E0,0E0,0E0,0E0,0E0,0E0,0E0,0E0,0E0,0E0,0E0,0E0,0E0,0E0,0E0,0E0,0E0,0E0,0E0,0E0,0E0,0E0,0E0,0E0,0E0,0E0,0E0,0E0,0E0,0E0,0E0,0E0,0E0,0E0,0E0],"parents":[2147483647,0,0,1,1,2,2,3,3,4,4,5,5,6,6,7,7,8,8,9,9,10,10,11,11,12,12,13,13,14,14,15,15,16,16,17,17,18,18,19,19,20,20,21,21,22,22,23,23,24,24,25,25,26,26,27,27,28,28,29,29,31,31,32,32,33,33,34,34,35,35,36,36,37,37,39,39,40,40,41,41,42,42,43,43,44,44,45,45,46,46,47,47,48,48,49,49,50,50,51,51,52,52,53,53,54,54,55,55,58,58],"right_children":[2,4,6,8,10,12,14,16,18,20,22,24,26,28,30,32,34,36,38,40,42,44,46,48,50,52,54,56,58,60,-1,62,64,66,68,70,72,74,-1,76,78,80,82,84,86,88,90,92,94,96,98,100,102,104,106,108,-1,-1,110,-1,-1,-1,-1,-1,-1,-1,-1,-1,-1,-1,-1,-1,-1,-1,-1,-1,-1,-1,-1,-1,-1,-1,-1,-1,-1,-1,-1,-1,-1,-1,-1,-1,-1,-1,-1,-1,-1,-1,-1,-1,-1,-1,-1,-1,-1,-1,-1,-1,-1,-1,-1],"split_conditions":[3.5E1,2.1E1,1E0,1.4E1,3E1,5.5E1,7.3E1,9E0,2.2E1,1E0,1E0,5E1,3.8625E1,3.5E1,1E0,8E0,2.5881904E-1,1E0,2.6041666E1,1E0,2E1,1.2E1,5.35E1,3.6E1,2.8E1,6E0,1E0,2.65E1,6.3E0,2.618E3,6.880863E0,1E0,1E0,4.8E1,1E0,1E0,1.1E1,1E0,5.2011764E-1,2.2E1,3.3059525E1,1.1053E3,1.2E1,4.1E1,4.4E1,3.9E1,3.3E1,5.2815475E1,1E0,3E0,-5E-1,1E0,3E0,-5E-1,8.9E1,2.088E3,4.3240786E-1,1.1490108E0,4.64E2,4.120219E0,1.8847259E0,-7.966488E-1,-6.4619225E-1,-7.1763104E-1,-5.006884E-1,-5.1511717E-1,-7.262265E-2,-6.4671946E-1,-1.5739964E-1,-4.8876816E-1,-3.2616237E-1,-3.8821575E-1,-1.0892927E-2,-3.0825445E-1,-7.5381786E-2,-3.1715035E-1,-1.7084746E-1,5.0868547E-1,-2.0039354E-1,-1.6245922E-1,5.3074956E-1,4.5224258E-1,1.2827641E0,-1.4316397E-2,3.4840766E-1,2.4498823E-1,8.5233754E-1,2.3653987E-1,6.00645E-1,6.778493E-1,1.6174468E0,1.054609E-1,-4.504597E-1,2.7047923E-1,6.725792E-1,-2.8819287E-1,2.9138777E-1,4.5182094E-1,7.5115055E-1,1.03039436E-1,4.833985E-1,3.7007454E-1,7.799184E-1,7.938143E-1,1.1697621E0,1.5267743E0,2.4710746E0,1.9779085E0,1.2494724E0,1.1555866E0,2.6686742E0],"split_indices":[2,2,48,2,3,3,2,2,3,48,50,2,8,3,46,3,23,27,11,27,3,15,8,3,8,19,50,38,36,71,0,27,49,1,48,50,13,50,0,3,9,71,13,4,3,3,4,9,50,19,23,52,14,23,2,70,0,0,70,0,0,0,0,0,0,0,0,0,0,0,0,0,0,0,0,0,0,0,0,0,0,0,0,0,0,0,0,0,0,0,0,0,0,0,0,0,0,0,0,0,0,0,0,0,0,0,0,0,0,0,0],"split_type":[0,0,0,0,0,0,0,0,0,0,0,0,0,0,0,0,0,0,0,0,0,0,0,0,0,0,0,0,0,0,0,0,0,0,0,0,0,0,0,0,0,0,0,0,0,0,0,0,0,0,0,0,0,0,0,0,0,0,0,0,0,0,0,0,0,0,0,0,0,0,0,0,0,0,0,0,0,0,0,0,0,0,0,0,0,0,0,0,0,0,0,0,0,0,0,0,0,0,0,0,0,0,0,0,0,0,0,0,0,0,0],"sum_hessian":[1.6224E4,9.989E3,6.235E3,5.425E3,4.564E3,6.074E3,1.61E2,3.081E3,2.344E3,2.567E3,1.997E3,4.123E3,1.951E3,1.25E2,3.6E1,1.412E3,1.669E3,1.618E3,7.26E2,2.524E3,4.3E1,1.813E3,1.84E2,2.831E3,1.292E3,9.69E2,9.82E2,4.7E1,7.8E1,3.1E1,5E0,8.61E2,5.51E2,3.96E2,1.273E3,1.477E3,1.41E2,7.21E2,5E0,2.308E3,2.16E2,1.8E1,2.5E1,1.702E3,1.11E2,1.68E2,1.6E1,1.178E3,1.653E3,2.95E2,9.97E2,1.06E2,8.63E2,8.92E2,9E1,4.2E1,5E0,8E0,7E1,2.6E1,5E0,7.96E2,6.5E1,5.19E2,3.2E1,3.85E2,1.1E1,1.253E3,2E1,1.334E3,1.43E2,6.6E1,7.5E1,6.62E2,5.9E1,8.84E2,1.424E3,7.9E1,1.37E2,5E0,1.3E1,5E0,2E1,1.62E3,8.2E1,9E1,2.1E1,9.6E1,7.2E1,9E0,7E0,1.136E3,4.2E1,1.517E3,1.36E2,2.7E1,2.68E2,4.65E2,5.32E2,8.3E1,2.3E1,1.44E2,7.19E2,3.79E2,5.13E2,7.6E1,1.4E1,2.1E1,2.1E1,6E0,6.4E1],"tree_param":{"num_deleted":"0","num_feature":"72","num_nodes":"111","size_leaf_vector":"1"}},{"base_weights":[5.5630837E-2,-6.602579E0,1.0050676E1,-1.0855502E1,-1.9404572E0,8.955763E0,5.180157E1,-1.2811222E1,-7.743302E0,-3.1652458E0,2.9567184E0,5.6377444E0,1.6252827E1,4.2413868E1,8.425991E1,-1.4011524E1,-1.0914946E1,-8.456804E0,-4.5355363E0,-4.937991E0,-8.1695044E-1,1.1148585E1,1.348187E0,3.5314474E0,1.0090006E1,1.3226309E1,2.1769253E1,3.53537E1,6.1305706E1,7.232121E1,6.5941606E0,-1.4802672E1,-1.3179141E1,-9.189284E0,-1.1647623E1,-6.520776E0,-9.763533E0,-5.0065207E0,5.8678455E0,-7.9707255E0,-4.248209E0,-1.3692538E0,4.7148366E0,8.303043E0,1.5491506E1,7.074383E-2,9.883863E0,-1.0711274E0,4.683566E0,1.6456942E1,6.258131E0,8.468399E0,1.5261899E1,1.6811289E1,2.4909948E1,3.1415646E1,4.6653706E1,1.753903E0,6.802275E1,2.379587E0,3.877341E0,-7.4794954E-1,-6.1377656E-1,-6.912606E-1,-6.26481E-1,-4.8224553E-1,-1.5538606E-1,-5.932522E-1,-4.4003278E-1,-3.529176E-1,-1.303893E-1,-5.085973E-1,-3.179749E-1,-1.827972E-2,-2.869688E-1,6.568274E-2,5.122665E-1,-5.0112176E-1,-3.5051036E-1,-2.3849483E-1,1.4740908E-1,-3.0781826E-1,-4.6057906E-2,3.6067778E-1,6.259083E-2,3.0870092E-1,7.301234E-1,5.1113766E-1,1.1122049E0,-9.322395E-2,1.0001723E-1,3.2793924E-1,9.862877E-1,-3.239615E-1,1.0469435E-2,3.2173902E-1,1.4986247E-2,6.2889665E-1,1.053404E0,2.0143187E-1,6.3540745E-1,1.5237968E-1,5.680681E-1,5.986497E-1,9.1448754E-1,3.024628E-1,9.132724E-1,1.3982109E0,9.451033E-1,1.2072233E0,1.8585907E0,1.681537E0,2.6308134E0,3.7246072E0,1.7013038E0],"categories":[],"categories_nodes":[],"categories_segments":[],"categories_sizes":[],"default_left":[0,0,0,0,0,0,0,0,0,0,0,0,0,0,0,0,0,0,0,0,0,0,0,0,0,0,0,0,0,0,0,0,0,0,0,0,0,0,0,0,0,0,0,0,0,0,0,0,0,0,0,0,0,0,0,0,0,0,0,0,0,0,0,0,0,0,0,0,0,0,0,0,0,0,0,0,0,0,0,0,0,0,0,0,0,0,0,0,0,0,0,0,0,0,0,0,0,0,0,0,0,0,0,0,0,0,0,0,0,0,0,0,0,0,0],"id":11,"left_children":[1,3,5,7,9,11,13,15,17,19,21,23,25,27,29,31,33,35,37,39,41,43,45,47,49,51,53,55,57,59,-1,61,63,65,67,69,71,73,75,77,79,81,83,85,87,89,91,93,95,97,99,101,103,105,107,109,111,-1,113,-1,-1,-1,-1,-1,-1,-1,-1,-1,-1,-1,-1,-1,-1,-1,-1,-1,-1,-1,-1,-1,-1,-1,-1,-1,-1,-1,-1,-1,-1,-1,-1,-1,-1,-1,-1,-1,-1,-1,-1,-1,-1,-1,-1,-1,-1,-1,-1,-1,-1,-1,-1,-1,-1,-1,-1],"loss_changes":[1.0760992E6,1.9240494E5,2.9506856E5,3.0788188E4,2.7786139E4,1.5246472E5,4.6690562E4,6.9346562E3,4.448586E3,1.5419039E4,1.2198684E4,4.0596938E4,3.2582125E4,1.5162281E4,1.0909797E4,1.0559688E3,1.4232656E3,3.9900703E3,1.7883301E3,4.3809766E3,4.879204E3,1.7474023E3,8.459687E3,1.5611258E4,3.383139E4,1.2207281E4,1.0414781E4,2.843039E3,3.5934531E3,3.029375E2,0E0,1.9604688E2,2.1735938E2,9.829082E2,4.1779688E2,1.3458184E3,1.2613516E3,1.1672793E3,3.0435962E2,6.966113E2,6.479088E3,3.1061387E3,1.2448245E3,1.1684595E3,1.8684443E3,2.5280674E3,3.1732256E3,4.0878289E3,1.806916E4,9.068469E3,1.2457969E4,5.9858926E3,8.650859E3,4.1594453E3,7.247E3,2.2354375E3,7.8085938E0,0E0,3.1728516E3,0E0,0E0,0E0,0E0,0E0,0E0,0E0,0E0,0E0,0E0,0E0,0E0,0E0,0E0,0E0,0E0,0E0,0E0,0E0,0E0,0E0,0E0,0E0,0E0,0E0,0E0,0E0,0E0,0E0,0E0,0E0,0E0,0E0,0E0,0E0,0E0,0E0,0E0,0E0,0E0,0E0,0E0,0E0,0E0,0E0,0E0,0E0,0E0,0E0,0E0,0E0,0E0,0E0,0E0,0E0,0E0],"parents":[2147483647,0,0,1,1,2,2,3,3,4,4,5,5,6,6,7,7,8,8,9,9,10,10,11,11,12,12,13,13,14,14,15,15,16,16,17,17,18,18,19,19,20,20,21,21,22,22,23,23,24,24,25,25,26,26,27,27,28,28,29,29,31,31,32,32,33,33,34,34,35,35,36,36,37,37,38,38,39,39,40,40,41,41,42,42,43,43,44,44,45,45,46,46,47,47,48,48,49,49,50,50,51,51,52,52,53,53,54,54,55,55,56,56,58,58],"right_children":[2,4,6,8,10,12,14,16,18,20,22,24,26,28,30,32,34,36,38,40,42,44,46,48,50,52,54,56,58,60,-1,62,64,66,68,70,72,74,76,78,80,82,84,86,88,90,92,94,96,98,100,102,104,106,108,110,112,-1,114,-1,-1,-1,-1,-1,-1,-1,-1,-1,-1,-1,-1,-1,-1,-1,-1,-1,-1,-1,-1,-1,-1,-1,-1,-1,-1,-1,-1,-1,-1,-1,-1,-1,-1,-1,-1,-1,-1,-1,-1,-1,-1,-1,-1,-1,-1,-1,-1,-1,-1,-1,-1,-1,-1,-1,-1],"split_conditions":[3.4E1,2E1,1E0,1.5E1,4E1,5.5E1,7.3E1,1.1E1,2.8E1,2.8E1,6.234898E-1,4.7E1,6.7E1,3.9E1,1E0,8E0,2.5881904E-1,6.234898E-1,3.5E1,1.7E1,1E0,4.8E1,1E0,2.7E1,6.234898E-1,4.2E1,1.9705807E1,4.6E1,6.1E1,4.3E1,6.5941606E0,1E0,9E0,2.7791666E1,1E0,1.2E1,2E1,6.234898E-1,5.6E1,1.7E1,1E0,1E0,6.234898E-1,5.2E1,4E0,1E0,7E1,1.9E1,6.234898E-1,4.1E1,7.2E1,3.2E1,1E0,9E0,-7.818315E-1,1.7E1,1.35E1,1.753903E0,2.4E1,2.379587E0,3.877341E0,-7.4794954E-1,-6.1377656E-1,-6.912606E-1,-6.26481E-1,-4.8224553E-1,-1.5538606E-1,-5.932522E-1,-4.4003278E-1,-3.529176E-1,-1.303893E-1,-5.085973E-1,-3.179749E-1,-1.827972E-2,-2.869688E-1,6.568274E-2,5.122665E-1,-5.0112176E-1,-3.5051036E-1,-2.3849483E-1,1.4740908E-1,-3.0781826E-1,-4.6057906E-2,3.6067778E-1,6.259083E-2,3.0870092E-1,7.301234E-1,5.1113766E-1,1.1122049E0,-9.322395E-2,1.0001723E-1,3.2793924E-1,9.862877E-1,-3.239615E-1,1.0469435E-2,3.2173902E-1,1.4986247E-2,6.2889665E-1,1.053404E0,2.0143187E-1,6.3540745E-1,1.5237968E-1,5.680681E-1,5.986497E-1,9.1448754E-1,3.024628E-1,9.132724E-1,1.3982109E0,9.451033E-1,1.2072233E0,1.8585907E0,1.681537E0,2.6308134E0,3.7246072E0,1.7013038E0],"split_indices":[2,2,48,0,0,3,2,2,0,3,26,0,2,6,46,3,23,26,4,0,50,0,50,0,26,0,10,3,4,1,0,27,0,8,50,5,5,26,1,3,27,14,26,3,14,14,1,1,26,1,0,1,18,19,25,13,38,0,38,0,0,0,0,0,0,0,0,0,0,0,0,0,0,0,0,0,0,0,0,0,0,0,0,0,0,0,0,0,0,0,0,0,0,0,0,0,0,0,0,0,0,0,0,0,0,0,0,0,0,0,0,0,0,0,0],"split_type":[0,0,0,0,0,0,0,0,0,0,0,0,0,0,0,0,0,0,0,0,0,0,0,0,0,0,0,0,0,0,0,0,0,0,0,0,0,0,0,0,0,0,0,0,0,0,0,0,0,0,0,0,0,0,0,0,0,0,0,0,0,0,0,0,0,0,0,0,0,0,0,0,0,0,0,0,0,0,0,0,0,0,0,0,0,0,0,0,0,0,0,0,0,0,0,0,0,0,0,0,0,0,0,0,0,0,0,0,0,0,0,0,0,0,0],"sum_hessian":[1.6168E4,9.704E3,6.464E3,5.074E3,4.63E3,6.3E3,1.64E2,3.114E3,1.96E3,3.704E3,9.26E2,4.332E3,1.968E3,1.29E2,3.5E1,1.903E3,1.211E3,1.602E3,3.58E2,2.11E3,1.594E3,1.51E2,7.75E2,2.942E3,1.39E3,1.273E3,6.95E2,9.6E1,3.3E1,3E1,5E0,9.67E2,9.36E2,3.65E2,8.46E2,6.48E2,9.54E2,3.43E2,1.5E1,3.89E2,1.721E3,1.45E3,1.44E2,9.3E1,5.8E1,6.75E2,1E2,5.89E2,2.353E3,5.21E2,8.69E2,3.83E2,8.9E2,2.72E2,4.23E2,7.4E1,2.2E1,8E0,2.5E1,7E0,2.3E1,9.06E2,6.1E1,4.59E2,4.77E2,3.39E2,2.6E1,7.83E2,6.3E1,5.69E2,7.9E1,8.5E2,1.04E2,4.7E1,2.96E2,8E0,7E0,1.21E2,2.68E2,1.605E3,1.16E2,1.23E2,1.327E3,8.3E1,6.1E1,7.1E1,2.2E1,3.4E1,2.4E1,3.37E2,3.38E2,7.6E1,2.4E1,1.12E2,4.77E2,1.681E3,6.72E2,2.85E2,2.36E2,6.47E2,2.22E2,1.34E2,2.49E2,4.29E2,4.61E2,3.3E1,2.39E2,2.78E2,1.45E2,3.5E1,3.9E1,9E0,1.3E1,2E1,5E0],"tree_param":{"num_deleted":"0","num_feature":"72","num_nodes":"115","size_leaf_vector":"1"}},{"base_weights":[-3.166491E-2,-6.8714657E0,8.775172E0,-1.0964111E1,-2.9682136E0,7.839621E0,4.873539E1,-1.255127E1,-8.257313E0,-5.8194246E0,-9.835593E-1,4.3437047E0,1.4640798E1,3.5944748E1,7.23026E1,-1.3624767E1,-1.1061659E1,-8.6940565E0,-3.5208573E0,-7.155643E0,-4.2317266E0,-1.7404288E0,5.4359612E0,1.8134896E0,7.310125E0,1.0512765E1,1.87528E1,2.8733213E1,5.194574E1,5.257952E1,1.0038919E2,-1.4843564E1,-1.31475315E1,-1.1705504E1,-9.897103E0,-7.031803E0,-9.601486E0,-5.046543E0,9.0124625E-1,-7.541896E0,-3.1871634E0,-4.6445627E0,6.804739E-1,-3.5893881E0,1.5686593E0,3.4122272E0,1.4252864E1,-5.936452E-1,3.457499E0,5.3992786E0,1.0675727E1,1.1869304E1,2.4148421E0,1.2716744E1,2.1344019E1,1.0343879E1,3.236206E1,3.0549939E0,1.7902361E0,1.4111737E0,5.874711E1,3.6559284E0,6.582235E0,-7.5350046E-1,-6.4093274E-1,-6.8130857E-1,-6.188017E-1,-6.2056506E-1,-5.587297E-1,-5.293479E-1,-4.4311762E-1,-3.9829656E-1,-2.4660228E-1,-4.2408156E-1,-5.440546E-1,-2.8376815E-1,7.423909E-2,-2.5357383E-1,9.980465E-2,-4.3980455E-1,-3.271286E-1,-2.2607134E-1,2.3765074E-1,-2.91983E-1,-1.6333346E-1,-4.4111814E-2,2.7591535E-1,-2.0656283E-1,1.3286518E-2,3.1892527E-2,2.843551E-1,4.9318853E-1,-9.212629E-2,3.5791075E-1,1.0807047E0,-8.902176E-3,-4.7222E-1,1.3626131E-1,4.9872205E-1,2.3013738E-1,7.109609E-1,4.075637E-1,8.7702006E-1,4.986666E-1,8.862522E-1,3.454398E-2,3.6668345E-1,5.117803E-1,8.9465296E-1,7.9462934E-1,1.3126206E0,1.1979505E0,5.33474E-3,1.7204555E0,3.581786E-1,1.7264436E0,3.2746027E0],"categories":[],"categories_nodes":[],"categories_segments":[],"categories_sizes":[],"default_left":[0,0,0,0,0,0,0,0,0,0,0,0,0,0,0,0,0,0,0,0,0,0,0,0,0,0,0,0,0,0,0,0,0,0,0,0,0,0,0,0,0,0,0,0,0,0,0,0,0,0,0,0,0,0,0,0,0,0,0,0,0,0,0,0,0,0,0,0,0,0,0,0,0,0,0,0,0,0,0,0,0,0,0,0,0,0,0,0,0,0,0,0,0,0,0,0,0,0,0,0,0,0,0,0,0,0,0,0,0,0,0,0,0,0,0,0,0],"id":12,"left_children":[1,3,5,7,9,11,13,15,17,19,21,23,25,27,29,31,33,35,37,39,41,43,45,47,49,51,53,55,57,59,61,63,65,67,69,71,73,75,77,79,81,83,85,87,89,91,93,95,97,99,101,103,105,107,109,111,113,-1,-1,-1,115,-1,-1,-1,-1,-1,-1,-1,-1,-1,-1,-1,-1,-1,-1,-1,-1,-1,-1,-1,-1,-1,-1,-1,-1,-1,-1,-1,-1,-1,-1,-1,-1,-1,-1,-1,-1,-1,-1,-1,-1,-1,-1,-1,-1,-1,-1,-1,-1,-1,-1,-1,-1,-1,-1,-1,-1],"loss_changes":[9.7698394E5,1.4579844E5,2.6467056E5,1.9037812E4,2.6442207E4,1.6468081E5,4.622353E4,4.3354688E3,3.3813828E3,4.0376445E3,1.3404635E4,3.4346836E4,3.9723906E4,1.0846281E4,2.5727688E4,7.48375E2,7.675E2,2.2084766E3,9.5625305E2,1.5690391E3,1.7861104E3,1.5099848E4,5.1419316E3,9.784912E3,1.349118E4,1.288843E4,1.8134344E4,4.732625E3,2.5308672E3,3.5908828E3,9.105719E3,1.03828125E1,2.6376562E2,1.4185938E2,2.0903125E2,1.0127168E3,1.3014922E3,4.400835E2,2.5176659E2,1.1278359E3,1.0173302E3,1.3155E3,5.269812E2,3.3083223E3,3.3883718E3,8.087477E3,2.6625723E3,3.690458E3,6.981881E3,9.388805E3,1.30595625E4,1.10005E4,1.4357091E3,4.386207E3,2.1573469E4,1.9463657E3,2.9990469E3,0E0,0E0,0E0,2.1391016E3,0E0,0E0,0E0,0E0,0E0,0E0,0E0,0E0,0E0,0E0,0E0,0E0,0E0,0E0,0E0,0E0,0E0,0E0,0E0,0E0,0E0,0E0,0E0,0E0,0E0,0E0,0E0,0E0,0E0,0E0,0E0,0E0,0E0,0E0,0E0,0E0,0E0,0E0,0E0,0E0,0E0,0E0,0E0,0E0,0E0,0E0,0E0,0E0,0E0,0E0,0E0,0E0,0E0,0E0,0E0,0E0],"parents":[2147483647,0,0,1,1,2,2,3,3,4,4,5,5,6,6,7,7,8,8,9,9,10,10,11,11,12,12,13,13,14,14,15,15,16,16,17,17,18,18,19,19,20,20,21,21,22,22,23,23,24,24,25,25,26,26,27,27,28,28,29,29,30,30,31,31,32,32,33,33,34,34,35,35,36,36,37,37,38,38,39,39,40,40,41,41,42,42,43,43,44,44,45,45,46,46,47,47,48,48,49,49,50,50,51,51,52,52,53,53,54,54,55,55,56,56,60,60],"right_children":[2,4,6,8,10,12,14,16,18,20,22,24,26,28,30,32,34,36,38,40,42,44,46,48,50,52,54,56,58,60,62,64,66,68,70,72,74,76,78,80,82,84,86,88,90,92,94,96,98,100,102,104,106,108,110,112,114,-1,-1,-1,116,-1,-1,-1,-1,-1,-1,-1,-1,-1,-1,-1,-1,-1,-1,-1,-1,-1,-1,-1,-1,-1,-1,-1,-1,-1,-1,-1,-1,-1,-1,-1,-1,-1,-1,-1,-1,-1,-1,-1,-1,-1,-1,-1,-1,-1,-1,-1,-1,-1,-1,-1,-1,-1,-1,-1,-1],"split_conditions":[3.2E1,1.8E1,1E0,1.4E1,2.4E1,5.3E1,6.2E1,1E1,3.1E1,2.3E1,1E0,4.1E1,3.825E1,2E0,2E0,6E0,1.4E1,6.234898E-1,4.1E1,1E0,1E0,3.2E1,1E0,3.2E1,4.7E1,6.234898E-1,1E0,1.3E1,0E0,6.9E1,2.513E3,1E0,9E0,1E1,1.3E1,1.9E1,2.5881904E-1,1E0,-5E-1,1.7E1,1E0,1.2875E1,1.6333334E1,1E0,4.6E1,3.2916668E1,2.065E3,5.2815475E1,1E0,1E0,1E0,3.2E1,3.6E1,2.2E1,-5E-1,1.43E1,2.7E1,3.0549939E0,1.7902361E0,1.4111737E0,4.3E1,3.6559284E0,6.582235E0,-7.5350046E-1,-6.4093274E-1,-6.8130857E-1,-6.188017E-1,-6.2056506E-1,-5.587297E-1,-5.293479E-1,-4.4311762E-1,-3.9829656E-1,-2.4660228E-1,-4.2408156E-1,-5.440546E-1,-2.8376815E-1,7.423909E-2,-2.5357383E-1,9.980465E-2,-4.3980455E-1,-3.271286E-1,-2.2607134E-1,2.3765074E-1,-2.91983E-1,-1.6333346E-1,-4.4111814E-2,2.7591535E-1,-2.0656283E-1,1.3286518E-2,3.1892527E-2,2.843551E-1,4.9318853E-1,-9.212629E-2,3.5791075E-1,1.0807047E0,-8.902176E-3,-4.7222E-1,1.3626131E-1,4.9872205E-1,2.3013738E-1,7.109609E-1,4.075637E-1,8.7702006E-1,4.986666E-1,8.862522E-1,3.454398E-2,3.6668345E-1,5.117803E-1,8.9465296E-1,7.9462934E-1,1.3126206E0,1.1979505E0,5.33474E-3,1.7204555E0,3.581786E-1,1.7264436E0,3.2746027E0],"split_indices":[2,2,48,0,0,2,2,2,0,3,27,3,8,50,50,2,3,26,0,50,50,3,50,0,0,26,18,13,25,2,69,50,0,3,1,0,23,50,28,0,27,11,11,50,3,9,69,9,27,50,18,5,8,13,23,38,38,0,0,0,1,0,0,0,0,0,0,0,0,0,0,0,0,0,0,0,0,0,0,0,0,0,0,0,0,0,0,0,0,0,0,0,0,0,0,0,0,0,0,0,0,0,0,0,0,0,0,0,0,0,0,0,0,0,0,0,0],"split_type":[0,0,0,0,0,0,0,0,0,0,0,0,0,0,0,0,0,0,0,0,0,0,0,0,0,0,0,0,0,0,0,0,0,0,0,0,0,0,0,0,0,0,0,0,0,0,0,0,0,0,0,0,0,0,0,0,0,0,0,0,0,0,0,0,0,0,0,0,0,0,0,0,0,0,0,0,0,0,0,0,0,0,0,0,0,0,0,0,0,0,0,0,0,0,0,0,0,0,0,0,0,0,0,0,0,0,0,0,0,0,0,0,0,0,0,0,0],"sum_hessian":[1.6217E4,9.128E3,7.089E3,4.455E3,4.673E3,6.928E3,1.61E2,2.806E3,1.649E3,1.917E3,2.756E3,4.577E3,2.351E3,1.06E2,5.5E1,1.626E3,1.18E3,1.509E3,1.4E2,1.039E3,8.78E2,2.466E3,2.9E2,2.471E3,2.106E3,1.175E3,1.176E3,7.5E1,3.1E1,3.4E1,2.1E1,4.49E2,1.177E3,7.54E2,4.26E2,5.36E2,9.73E2,1.04E2,3.6E1,9.46E2,9.3E1,8.1E2,6.8E1,1.582E3,8.84E2,2.37E2,5.3E1,1.003E3,1.468E3,1.345E3,7.61E2,1.006E3,1.69E2,3.55E2,8.21E2,1.3E1,6.2E1,1.8E1,1.3E1,8E0,2.6E1,1.3E1,8E0,3.98E2,5.1E1,7.16E2,4.61E2,3.14E2,4.4E2,2.5E2,1.76E2,3.69E2,1.67E2,5.23E2,4.5E2,9.5E1,9E0,5E0,3.1E1,4.16E2,5.3E2,8E1,1.3E1,4.32E2,3.78E2,5.2E1,1.6E1,1.387E3,1.95E2,7.22E2,1.62E2,1.06E2,1.31E2,2.8E1,2.5E1,9.59E2,4.4E1,1.321E3,1.47E2,1.235E3,1.1E2,5.58E2,2.03E2,7.62E2,2.44E2,1.26E2,4.3E1,2.42E2,1.13E2,3.91E2,4.3E2,5E0,8E0,5.7E1,5E0,7E0,1.9E1],"tree_param":{"num_deleted":"0","num_feature":"72","num_nodes":"117","size_leaf_vector":"1"}},{"base_weights":[-7.743084E-2,-7.3209715E0,7.3741035E0,-1.1325397E1,-4.4414988E0,6.5206156E0,4.3882942E1,-1.2226232E1,-9.003916E0,-6.369594E0,-1.9024758E0,2.5881495E0,1.2117675E1,3.5694798E1,7.976897E1,-1.2519723E1,-8.719467E0,-9.339278E0,-3.0677063E0,-8.007463E0,-5.1224036E0,1.3988425E0,-3.1494656E0,4.8318526E-1,5.3930416E0,8.84443E0,1.7374691E1,2.8294792E1,5.082825E1,5.3849262E1,4.434639E0,-1.3476986E1,-1.1777522E1,-9.819636E0,-3.6154015E0,-1.2149435E1,-8.997105E0,-5.3942937E-1,-2.0366025E0,-8.102914E0,4.503928E-1,-5.473908E0,3.5409012E-3,-3.0400202E-1,7.05641E0,-4.609754E0,8.1242853E-1,-1.0205253E0,2.4815488E0,5.1763163E0,2.0094645E0,6.1096334E0,1.2000533E1,1.3638955E1,2.0671762E1,8.911716E0,3.124256E1,5.5654503E1,1.1859771E0,3.327831E0,1.6075181E0,-7.1446466E-1,-6.504037E-1,-6.022395E-1,-5.243096E-1,-3.787707E-1,-5.7061464E-1,-2.7111605E-1,8.074105E-2,-3.1049386E-1,-6.237648E-1,-4.6252376E-1,-2.9101515E-1,-2.9794534E-3,-2.3982207E-1,-4.1029826E-1,4.7419537E-2,-4.7946516E-1,-2.6062986E-1,-4.1274514E-2,4.8265424E-1,-5.612746E-2,3.0178165E-1,4.289806E-1,-1.1843812E-1,-2.5128073E-1,-1.6547943E-2,-2.7095318E-2,4.6200576E-1,-4.855867E-1,-3.344761E-2,7.886088E-2,4.752636E-1,2.0217727E-1,4.4470748E-1,1.0389098E-1,4.0401012E-1,7.693433E-1,4.1436455E-1,1.6381697E-1,7.3363733E-1,1.1573385E0,6.57513E-1,1.4846464E-2,7.305402E-1,1.6328353E0,4.998673E-1,1.9482603E0,3.2576492E0],"categories":[],"categories_nodes":[],"categories_segments":[],"categories_sizes":[],"default_left":[0,0,0,0,0,0,0,0,0,0,0,0,0,0,0,0,0,0,0,0,0,0,0,0,0,0,0,0,0,0,0,0,0,0,0,0,0,0,0,0,0,0,0,0,0,0,0,0,0,0,0,0,0,0,0,0,0,0,0,0,0,0,0,0,0,0,0,0,0,0,0,0,0,0,0,0,0,0,0,0,0,0,0,0,0,0,0,0,0,0,0,0,0,0,0,0,0,0,0,0,0,0,0,0,0,0,0,0,0],"id":13,"left_children":[1,3,5,7,9,11,13,15,17,19,21,23,25,27,29,31,33,35,37,39,41,43,45,47,49,51,53,55,57,59,-1,61,63,65,67,69,71,-1,73,75,-1,77,79,81,83,85,87,89,91,93,-1,95,97,99,101,103,105,107,-1,-1,-1,-1,-1,-1,-1,-1,-1,-1,-1,-1,-1,-1,-1,-1,-1,-1,-1,-1,-1,-1,-1,-1,-1,-1,-1,-1,-1,-1,-1,-1,-1,-1,-1,-1,-1,-1,-1,-1,-1,-1,-1,-1,-1,-1,-1,-1,-1,-1,-1],"loss_changes":[8.732695E5,9.454547E4,2.4820862E5,7.0629375E3,2.335807E4,1.71515E5,5.062E4,2.4298438E3,1.8872266E3,5.4996094E3,8.493236E3,2.7032127E4,5.518303E4,1.53520625E4,2.8427031E3,1.4557812E3,1.0525303E3,7.645703E2,3.9868002E2,1.97475E3,2.7807305E3,5.45564E3,8.665033E3,7.8666597E3,1.4590863E4,1.704936E4,1.49014375E4,5.6026484E3,4.9519688E3,8.834043E2,0E0,1.8734375E2,3.1667188E2,4.7995898E2,3.4935803E2,1.064668E2,6.014531E2,0E0,2.6112808E2,1.0951562E3,0E0,1.5014062E3,8.088285E2,2.2688145E3,1.9016382E3,1.9444414E3,4.6170967E3,4.5575254E3,7.123291E3,8.183504E3,0E0,8.443582E3,1.14384375E4,6.1742656E3,1.1848125E4,7.306172E2,2.3431406E3,3.7918125E3,0E0,0E0,0E0,0E0,0E0,0E0,0E0,0E0,0E0,0E0,0E0,0E0,0E0,0E0,0E0,0E0,0E0,0E0,0E0,0E0,0E0,0E0,0E0,0E0,0E0,0E0,0E0,0E0,0E0,0E0,0E0,0E0,0E0,0E0,0E0,0E0,0E0,0E0,0E0,0E0,0E0,0E0,0E0,0E0,0E0,0E0,0E0,0E0,0E0,0E0,0E0],"parents":[2147483647,0,0,1,1,2,2,3,3,4,4,5,5,6,6,7,7,8,8,9,9,10,10,11,11,12,12,13,13,14,14,15,15,16,16,17,17,18,18,19,19,20,20,21,21,22,22,23,23,24,24,25,25,26,26,27,27,28,28,29,29,31,31,32,32,33,33,34,34,35,35,36,36,38,38,39,39,41,41,42,42,43,43,44,44,45,45,46,46,47,47,48,48,49,49,51,51,52,52,53,53,54,54,55,55,56,56,57,57],"right_children":[2,4,6,8,10,12,14,16,18,20,22,24,26,28,30,32,34,36,38,40,42,44,46,48,50,52,54,56,58,60,-1,62,64,66,68,70,72,-1,74,76,-1,78,80,82,84,86,88,90,92,94,-1,96,98,100,102,104,106,108,-1,-1,-1,-1,-1,-1,-1,-1,-1,-1,-1,-1,-1,-1,-1,-1,-1,-1,-1,-1,-1,-1,-1,-1,-1,-1,-1,-1,-1,-1,-1,-1,-1,-1,-1,-1,-1,-1,-1,-1,-1,-1,-1,-1,-1,-1,-1,-1,-1,-1,-1],"split_conditions":[2.9E1,1.5E1,1E0,1.3E1,2.5E1,4.7E1,7.3E1,1E0,3.1E1,1.9E1,6.234898E-1,3.9E1,6E1,6.3E1,-5E-1,8E0,1E0,4E0,2.88E2,1E0,1E0,3E1,4.2E1,3.5E1,2E0,4.7E1,5.5E1,2.2E1,3.429E3,8.2E1,4.434639E0,6E0,1.1E1,5E-1,6E0,-8.660254E-1,1.7E1,-5.3942937E-1,1.07E1,1E0,4.503928E-1,3E0,1.2E1,1E0,1.6357143E1,3.9E1,1E0,3E0,1E0,5.2E1,2.0094645E0,1.6E1,6.234898E-1,6E0,6.234898E-1,1.2E1,5.4E1,3.9E1,1.1859771E0,3.327831E0,1.6075181E0,-7.1446466E-1,-6.504037E-1,-6.022395E-1,-5.243096E-1,-3.787707E-1,-5.7061464E-1,-2.7111605E-1,8.074105E-2,-3.1049386E-1,-6.237648E-1,-4.6252376E-1,-2.9101515E-1,-2.9794534E-3,-2.3982207E-1,-4.1029826E-1,4.7419537E-2,-4.7946516E-1,-2.6062986E-1,-4.1274514E-2,4.8265424E-1,-5.612746E-2,3.0178165E-1,4.289806E-1,-1.1843812E-1,-2.5128073E-1,-1.6547943E-2,-2.7095318E-2,4.6200576E-1,-4.855867E-1,-3.344761E-2,7.886088E-2,4.752636E-1,2.0217727E-1,4.4470748E-1,1.0389098E-1,4.0401012E-1,7.693433E-1,4.1436455E-1,1.6381697E-1,7.3363733E-1,1.1573385E0,6.57513E-1,1.4846464E-2,7.305402E-1,1.6328353E0,4.998673E-1,1.9482603E0,3.2576492E0],"split_indices":[2,2,48,3,0,2,2,27,0,3,26,3,3,4,23,2,50,19,69,46,49,1,0,0,50,0,0,3,69,2,0,3,13,23,6,23,13,0,36,48,0,19,15,50,12,5,50,19,27,0,0,19,26,19,26,13,4,6,0,0,0,0,0,0,0,0,0,0,0,0,0,0,0,0,0,0,0,0,0,0,0,0,0,0,0,0,0,0,0,0,0,0,0,0,0,0,0,0,0,0,0,0,0,0,0,0,0,0,0],"split_type":[0,0,0,0,0,0,0,0,0,0,0,0,0,0,0,0,0,0,0,0,0,0,0,0,0,0,0,0,0,0,0,0,0,0,0,0,0,0,0,0,0,0,0,0,0,0,0,0,0,0,0,0,0,0,0,0,0,0,0,0,0,0,0,0,0,0,0,0,0,0,0,0,0,0,0,0,0,0,0,0,0,0,0,0,0,0,0,0,0,0,0,0,0,0,0,0,0,0,0,0,0,0,0,0,0,0,0,0,0],"sum_hessian":[1.6177E4,8.203E3,7.974E3,3.43E3,4.773E3,7.793E3,1.81E2,2.468E3,9.62E2,2.712E3,2.061E3,4.578E3,3.215E3,1.49E2,3.2E1,2.275E3,1.93E2,9.1E2,5.2E1,1.17E3,1.542E3,5.65E2,1.496E3,2.616E3,1.962E3,1.983E3,1.232E3,1.02E2,4.7E1,1E1,2.2E1,9.86E2,1.289E3,1.58E2,3.5E1,9.5E1,8.15E2,5E0,4.7E1,1.164E3,6E0,1.443E3,9.9E1,4.35E2,1.3E2,1.093E3,4.03E2,1.493E3,1.123E3,1.951E3,1.1E1,1.064E3,9.19E2,5.8E2,6.52E2,1.4E1,8.8E1,3.9E1,8E0,5E0,5E0,3.5E2,6.36E2,1.061E3,2.28E2,6.8E1,9E1,2.6E1,9E0,6E0,8.9E1,7.53E2,6.2E1,2.8E1,1.9E1,1.151E3,1.3E1,8.4E1,1.359E3,9.2E1,7E0,3.86E2,4.9E1,1.12E2,1.8E1,9.96E2,9.7E1,3.48E2,5.5E1,5.7E1,1.436E3,9.96E2,1.27E2,1.497E3,4.54E2,3.5E2,7.14E2,4.79E2,4.4E2,5.3E1,5.27E2,4.89E2,1.63E2,6E0,8E0,8.2E1,6E0,1.6E1,2.3E1],"tree_param":{"num_deleted":"0","num_feature":"72","num_nodes":"109","size_leaf_vector":"1"}},{"base_weights":[3.512711E-2,-5.909798E0,8.264765E0,-9.659427E0,-2.2513049E0,7.4225183E0,4.2256145E1,-1.137128E1,-7.0522203E0,-4.4993734E0,7.5987294E-2,4.6416664E0,1.4140006E1,3.288967E1,6.5070076E1,-1.2390609E1,-1.0335795E1,-8.451015E0,-6.055143E0,-2.1928954E0,-5.607052E0,-6.231163E-1,8.1812315E0,2.8029017E0,8.094171E0,1.0893343E1,1.8791586E1,2.713728E1,4.6469547E1,4.0720478E1,7.416322E1,-1.2875346E1,-1.1474788E1,-1.0756262E1,-9.057981E0,-8.569689E0,1.9482638E-1,-7.3838673E0,-5.066809E0,-2.6617112E0,1.4332103E1,-6.396629E0,-2.7503977E0,-1.1351954E0,4.057433E0,7.181193E0,1.8567765E0,2.0842361E0,1.0067289E1,5.2419915E0,1.0167497E1,5.610848E0,1.3258299E1,2.128144E1,1.2811882E1,1.0459373E1,2.9442581E1,1.1562171E0,4.969374E1,1.4072422E0,2.552883E0,5.3138832E1,4.54096E0,-6.159978E-1,-6.8207127E-1,-5.792248E-1,-2.4707766E-1,-5.4030085E-1,-1.3642124E-2,-5.1029485E-1,-4.0664607E-1,-4.1795763E-1,-6.630693E-1,-3.8978657E-1,-9.014246E-2,-2.1460335E-1,-3.7919122E-1,-1.9530945E-1,4.829485E-4,2.2374542E-1,1.1082594E0,-3.582259E-1,-1.8525612E-1,-1.5063258E-1,6.5602976E-1,-1.258205E-1,1.0679058E-2,1.5070198E-1,7.0113236E-1,2.7102026E-1,8.3341855E-1,-8.106331E-2,1.4905073E-1,4.5282885E-1,2.145397E0,3.1526473E-1,8.566011E-3,3.6552635E-1,6.649717E-1,1.8623762E-1,7.276872E-1,5.7385397E-1,9.3960726E-1,6.886104E-1,1.1760625E0,5.1007885E-1,9.4032604E-1,9.9248305E-2,9.293143E-1,1.2568766E0,2.040143E0,1.2152475E0,2.6983101E0,3.2793503E0,1.7387615E0],"categories":[],"categories_nodes":[],"categories_segments":[],"categories_sizes":[],"default_left":[0,0,0,0,0,0,0,0,0,0,0,0,0,0,0,0,0,0,0,0,0,0,0,0,0,0,0,0,0,0,0,0,0,0,0,0,0,0,0,0,0,0,0,0,0,0,0,0,0,0,0,0,0,0,0,0,0,0,0,0,0,0,0,0,0,0,0,0,0,0,0,0,0,0,0,0,0,0,0,0,0,0,0,0,0,0,0,0,0,0,0,0,0,0,0,0,0,0,0,0,0,0,0,0,0,0,0,0,0,0,0,0,0,0,0],"id":14,"left_children":[1,3,5,7,9,11,13,15,17,19,21,23,25,27,29,31,33,35,37,39,41,43,45,47,49,51,53,55,57,59,61,63,65,67,69,71,-1,73,75,77,79,81,83,85,87,89,-1,91,93,95,97,99,101,103,105,107,109,-1,111,-1,-1,113,-1,-1,-1,-1,-1,-1,-1,-1,-1,-1,-1,-1,-1,-1,-1,-1,-1,-1,-1,-1,-1,-1,-1,-1,-1,-1,-1,-1,-1,-1,-1,-1,-1,-1,-1,-1,-1,-1,-1,-1,-1,-1,-1,-1,-1,-1,-1,-1,-1,-1,-1,-1,-1],"loss_changes":[7.970794E5,1.2973553E5,1.9530419E5,2.0765375E4,2.5056412E4,1.2451169E5,3.310828E4,2.8440312E3,2.5331562E3,6.210508E3,1.3344573E4,2.9927719E4,2.9271625E4,8.0274766E3,7.3750312E3,4.7801562E2,6.549219E2,1.1606992E3,1.3875039E3,6.172749E3,3.6918672E3,5.2006006E3,5.1435547E3,1.6057453E4,9.637375E3,1.43155E4,1.1649719E4,2.9945508E3,1.40275E3,5.0501758E2,6.7155625E3,2.195E2,2.987578E2,5.4414844E2,2.910703E2,6.3966797E2,0E0,1.0446465E3,1.1869854E3,2.563587E3,1.5968184E3,2.6343828E3,1.528594E3,3.6428347E3,2.1811257E3,2.9477354E3,0E0,9.322699E3,8.80052E3,3.7293008E3,8.383281E3,5.9824043E3,7.6176094E3,9.158375E3,3.5294258E3,7.874989E2,2.6357188E3,0E0,1.8262344E3,0E0,0E0,1.5952461E3,0E0,0E0,0E0,0E0,0E0,0E0,0E0,0E0,0E0,0E0,0E0,0E0,0E0,0E0,0E0,0E0,0E0,0E0,0E0,0E0,0E0,0E0,0E0,0E0,0E0,0E0,0E0,0E0,0E0,0E0,0E0,0E0,0E0,0E0,0E0,0E0,0E0,0E0,0E0,0E0,0E0,0E0,0E0,0E0,0E0,0E0,0E0,0E0,0E0,0E0,0E0,0E0,0E0],"parents":[2147483647,0,0,1,1,2,2,3,3,4,4,5,5,6,6,7,7,8,8,9,9,10,10,11,11,12,12,13,13,14,14,15,15,16,16,17,17,18,18,19,19,20,20,21,21,22,22,23,23,24,24,25,25,26,26,27,27,28,28,29,29,30,30,31,31,32,32,33,33,34,34,35,35,37,37,38,38,39,39,40,40,41,41,42,42,43,43,44,44,45,45,47,47,48,48,49,49,50,50,51,51,52,52,53,53,54,54,55,55,56,56,58,58,61,61],"right_children":[2,4,6,8,10,12,14,16,18,20,22,24,26,28,30,32,34,36,38,40,42,44,46,48,50,52,54,56,58,60,62,64,66,68,70,72,-1,74,76,78,80,82,84,86,88,90,-1,92,94,96,98,100,102,104,106,108,110,-1,112,-1,-1,114,-1,-1,-1,-1,-1,-1,-1,-1,-1,-1,-1,-1,-1,-1,-1,-1,-1,-1,-1,-1,-1,-1,-1,-1,-1,-1,-1,-1,-1,-1,-1,-1,-1,-1,-1,-1,-1,-1,-1,-1,-1,-1,-1,-1,-1,-1,-1,-1,-1,-1,-1,-1,-1],"split_conditions":[3.3E1,1.9E1,1E0,1.4E1,2.5E1,5.6E1,6.6E1,9E0,1.7E1,6.234898E-1,5.5E1,4.6E1,4.1291668E1,3.6E1,-5E-1,9E0,1.4E1,2.2916666E1,1.0958333E1,2.4E1,2.5E1,1E0,4.875E1,1E0,3.1208334E1,1.5E1,6.234898E-1,1.2E1,2E0,6.3E1,5E0,6.234898E-1,1E0,2.6041666E1,1.6E1,4.282738E1,1.9482638E-1,1E0,1.2246469E-16,1.4875E1,3.4E1,1.8E1,2E0,3E1,4.6E1,1E0,1.8567765E0,2.7E1,1E0,6.234898E-1,-5E-1,7.9E1,7.2E1,5.1E1,2.2E1,2.8E1,2E0,1.1562171E0,4.7E1,1.4072422E0,2.552883E0,4.1E1,4.54096E0,-6.159978E-1,-6.8207127E-1,-5.792248E-1,-2.4707766E-1,-5.4030085E-1,-1.3642124E-2,-5.1029485E-1,-4.0664607E-1,-4.1795763E-1,-6.630693E-1,-3.8978657E-1,-9.014246E-2,-2.1460335E-1,-3.7919122E-1,-1.9530945E-1,4.829485E-4,2.2374542E-1,1.1082594E0,-3.582259E-1,-1.8525612E-1,-1.5063258E-1,6.5602976E-1,-1.258205E-1,1.0679058E-2,1.5070198E-1,7.0113236E-1,2.7102026E-1,8.3341855E-1,-8.106331E-2,1.4905073E-1,4.5282885E-1,2.145397E0,3.1526473E-1,8.566011E-3,3.6552635E-1,6.649717E-1,1.8623762E-1,7.276872E-1,5.7385397E-1,9.3960726E-1,6.886104E-1,1.1760625E0,5.1007885E-1,9.4032604E-1,9.9248305E-2,9.293143E-1,1.2568766E0,2.040143E0,1.2152475E0,2.6983101E0,3.2793503E0,1.7387615E0],"split_indices":[2,0,48,2,2,2,2,2,3,26,0,3,8,6,23,0,3,11,11,5,5,50,11,50,8,19,26,13,14,3,14,26,52,11,19,9,0,31,23,11,0,13,50,3,3,50,0,0,46,26,23,3,2,0,13,3,50,0,0,0,0,3,0,0,0,0,0,0,0,0,0,0,0,0,0,0,0,0,0,0,0,0,0,0,0,0,0,0,0,0,0,0,0,0,0,0,0,0,0,0,0,0,0,0,0,0,0,0,0,0,0,0,0,0,0],"split_type":[0,0,0,0,0,0,0,0,0,0,0,0,0,0,0,0,0,0,0,0,0,0,0,0,0,0,0,0,0,0,0,0,0,0,0,0,0,0,0,0,0,0,0,0,0,0,0,0,0,0,0,0,0,0,0,0,0,0,0,0,0,0,0,0,0,0,0,0,0,0,0,0,0,0,0,0,0,0,0,0,0,0,0,0,0,0,0,0,0,0,0,0,0,0,0,0,0,0,0,0,0,0,0,0,0,0,0,0,0,0,0,0,0,0,0],"sum_hessian":[1.629E4,9.458E3,6.832E3,4.67E3,4.788E3,6.668E3,1.64E2,2.817E3,1.853E3,2.435E3,2.353E3,4.717E3,1.951E3,1.18E2,4.6E1,1.414E3,1.403E3,7.68E2,1.085E3,7.91E2,1.644E3,2.167E3,1.86E2,3.079E3,1.638E3,1.151E3,8E2,8.5E1,3.3E1,1.4E1,3.2E1,9.16E2,4.98E2,1.05E3,3.53E2,7.61E2,7E0,4.6E2,6.25E2,7.7E2,2.1E1,1.287E3,3.57E2,1.954E3,2.13E2,1.81E2,5E0,2.803E3,2.76E2,6.91E2,9.47E2,3.57E2,7.94E2,5.63E2,2.37E2,1.1E1,7.4E1,5E0,2.8E1,8E0,6E0,1.6E1,1.6E1,5.41E2,3.75E2,4.89E2,9E0,1.045E3,5E0,1.53E2,2E2,7.31E2,3E1,4.28E2,3.2E1,4.8E2,1.45E2,5.25E2,2.45E2,1E1,1.1E1,1E3,2.87E2,3.52E2,5E0,9.65E2,9.89E2,1.94E2,1.9E1,1.54E2,2.7E1,5.46E2,2.257E3,2.69E2,7E0,5.71E2,1.2E2,4.97E2,4.5E2,2.96E2,6.1E1,6.03E2,1.91E2,1.31E2,4.32E2,1.67E2,7E1,6E0,5E0,5.6E1,1.8E1,5E0,2.3E1,8E0,8E0],"tree_param":{"num_deleted":"0","num_feature":"72","num_nodes":"115","size_leaf_vector":"1"}},{"base_weights":[7.254934E-2,-5.475079E0,8.379925E0,-8.946127E0,-1.6650672E0,7.402076E0,3.4209686E1,-1.0382383E1,-6.1423135E0,-3.0740416E0,1.5434906E0,4.345373E0,1.2740651E1,2.675033E1,5.7839928E1,-1.1329556E1,-8.702438E0,-6.282298E0,6.1284976E0,-4.324013E0,-8.115507E-1,7.684863E0,-2.1011066E-1,1.8961021E0,6.7498283E0,9.197838E0,1.6325289E1,1.7149324E1,3.9049747E1,4.168582E1,8.482803E1,-1.2382032E1,-1.0809962E1,-1.1644766E1,-8.471537E0,-7.7705564E0,-5.046125E0,3.9837994E-2,1.0409306E1,-4.6685E0,-8.539129E-1,-1.3082017E0,4.653849E0,5.5625606E0,1.5919791E1,-1.4530513E0,5.1506004E0,-3.149683E-1,3.5675373E0,4.9924135E0,1.228751E1,-1.1997857E0,9.945198E0,1.8942568E1,1.0582845E1,9.763571E0,2.2615349E1,2.3097313E1,4.834313E1,3.235854E1,5.6408607E1,2.9233546E0,5.526975E0,-6.609643E-1,-5.980472E-1,-5.037586E-1,-5.752512E-1,-6.125722E-1,-2.540957E-1,-4.5673227E-1,-3.7776956E-1,-4.197495E-1,-2.3345923E-1,-2.5903606E-1,1.7828913E-1,3.211753E-1,6.3217765E-1,-3.0065578E-1,-2.0201877E-1,-7.4635945E-2,3.9508352E-1,-3.0426872E-1,-4.8640426E-2,8.4262973E-1,1.8986481E-1,2.3278628E-1,6.9896704E-1,5.3577226E-1,1.1112413E0,-1.317547E-1,5.8716144E-2,2.1798193E-1,1.5518181E0,7.255362E-3,-4.4882542E-1,1.4541925E-1,5.702451E-1,2.1440338E-1,7.155983E-1,5.378578E-1,1.3487847E0,-2.0083156E-1,2.650655E-1,2.3928343E-1,5.546363E-1,7.4549377E-1,1.2067945E0,4.1700253E-1,7.942585E-1,1.2367007E0,2.1745157E-1,1.3359797E0,7.7562547E-1,1.4412916E0,7.037562E-1,1.3844507E0,2.6463258E0,7.370392E-1,1.801047E0,1.7803528E0,3.4568753E0],"categories":[],"categories_nodes":[],"categories_segments":[],"categories_sizes":[],"default_left":[0,0,0,0,0,0,0,0,0,0,0,0,0,0,0,0,0,0,0,0,0,0,0,0,0,0,0,0,0,0,0,0,0,0,0,0,0,0,0,0,0,0,0,0,0,0,0,0,0,0,0,0,0,0,0,0,0,0,0,0,0,0,0,0,0,0,0,0,0,0,0,0,0,0,0,0,0,0,0,0,0,0,0,0,0,0,0,0,0,0,0,0,0,0,0,0,0,0,0,0,0,0,0,0,0,0,0,0,0,0,0,0,0,0,0,0,0,0,0,0,0],"id":15,"left_children":[1,3,5,7,9,11,13,15,17,19,21,23,25,27,29,31,33,35,37,39,41,43,45,47,49,51,53,55,57,59,61,63,65,67,69,71,73,-1,75,77,79,81,83,85,87,89,91,93,95,97,99,101,103,105,107,109,111,113,115,117,119,-1,-1,-1,-1,-1,-1,-1,-1,-1,-1,-1,-1,-1,-1,-1,-1,-1,-1,-1,-1,-1,-1,-1,-1,-1,-1,-1,-1,-1,-1,-1,-1,-1,-1,-1,-1,-1,-1,-1,-1,-1,-1,-1,-1,-1,-1,-1,-1,-1,-1,-1,-1,-1,-1,-1,-1,-1,-1,-1,-1],"loss_changes":[7.48717E5,1.2880619E5,1.6404328E5,2.0460156E4,2.1003906E4,1.0224319E5,4.0219438E4,5.2601562E3,3.0084688E3,9.12492E3,1.5273541E4,2.347232E4,2.8828E4,2.0816477E4,2.0865469E4,1.040125E3,7.275156E2,3.1054688E3,4.4706854E2,2.480707E3,3.1273096E3,5.4145547E3,7.3631167E3,7.3077705E3,1.9517727E4,8.9491875E3,1.6825094E4,3.9745098E3,1.0588172E4,3.2468008E3,7.07575E3,8.757031E1,6.214375E2,2.7841797E2,6.1822656E2,