{"learner":{"attributes":{},"feature_names":["orders_count_lag_24h","orders_count_lag_48h","orders_count_lag_168h","orders_count_lag_336h","food_tickets_count_lag_24h","food_tickets_count_lag_48h","food_tickets_count_lag_168h","food_tickets_count_lag_336h","orders_count_roll_mean_24","orders_count_roll_mean_168","orders_count_roll_std_24","food_tickets_count_roll_mean_24","food_tickets_count_roll_mean_168","hour","weekday","month","quarter","is_weekend","is_friday_saturday","week_of_year","bank_holiday_flag","school_holiday_flag","payday_period_flag","hour_sin","hour_cos","weekday_sin","weekday_cos","month_sin","month_cos","is_food_service","is_breakfast_window","is_lunch_window","is_dinner_window","is_after_food_close","hours_since_food_close","is_live_music_window","temp_c","rain_mm","wind_speed_kmh","weather_severity_flag","airport_arrivals","airport_arrivals_lag1","airport_arrivals_zscore","cruise_ship_flag","ships_in_port_count","cruise_passenger_estimate","major_sports_event_flag","city_event_flag","st_patricks_week_flag","special_event_flag","event_intensity","tourism_pressure","weekend_x_music","rain_x_weekend","aviva_event_flag","croke_park_event_flag","nearby_venue_event_flag","event_impact_score","bloomsday_flag","bloomsday_week_flag","summer_tourism_flag","christmas_market_flag","new_years_eve_flag","new_years_day_flag","college_term_flag","days_from_payday","failte_event_count","failte_free_event_count","failte_festival_count","suffolk_footfall_lag_24h","suffolk_footfall_lag_168h","suffolk_footfall_roll_24h","orders_count_same_slot_4w_avg","food_tickets_count_same_slot_4w_avg"],"feature_types":[],"gradient_booster":{"model":{"cats":{"enc":[],"feature_segments":[],"sorted_idx":[]},"gbtree_model_param":{"num_parallel_tree":"1","num_trees":"632"},"iteration_indptr":[0,1,2,3,4,5,6,7,8,9,10,11,12,13,14,15,16,17,18,19,20,21,22,23,24,25,26,27,28,29,30,31,32,33,34,35,36,37,38,39,40,41,42,43,44,45,46,47,48,49,50,51,52,53,54,55,56,57,58,59,60,61,62,63,64,65,66,67,68,69,70,71,72,73,74,75,76,77,78,79,80,81,82,83,84,85,86,87,88,89,90,91,92,93,94,95,96,97,98,99,100,101,102,103,104,105,106,107,108,109,110,111,112,113,114,115,116,117,118,119,120,121,122,123,124,125,126,127,128,129,130,131,132,133,134,135,136,137,138,139,140,141,142,143,144,145,146,147,148,149,150,151,152,153,154,155,156,157,158,159,160,161,162,163,164,165,166,167,168,169,170,171,172,173,174,175,176,177,178,179,180,181,182,183,184,185,186,187,188,189,190,191,192,193,194,195,196,197,198,199,200,201,202,203,204,205,206,207,208,209,210,211,212,213,214,215,216,217,218,219,220,221,222,223,224,225,226,227,228,229,230,231,232,233,234,235,236,237,238,239,240,241,242,243,244,245,246,247,248,249,250,251,252,253,254,255,256,257,258,259,260,261,262,263,264,265,266,267,268,269,270,271,272,273,274,275,276,277,278,279,280,281,282,283,284,285,286,287,288,289,290,291,292,293,294,295,296,297,298,299,300,301,302,303,304,305,306,307,308,309,310,311,312,313,314,315,316,317,318,319,320,321,322,323,324,325,326,327,328,329,330,331,332,333,334,335,336,337,338,339,340,341,342,343,344,345,346,347,348,349,350,351,352,353,354,355,356,357,358,359,360,361,362,363,364,365,366,367,368,369,370,371,372,373,374,375,376,377,378,379,380,381,382,383,384,385,386,387,388,389,390,391,392,393,394,395,396,397,398,399,400,401,402,403,404,405,406,407,408,409,410,411,412,413,414,415,416,417,418,419,420,421,422,423,424,425,426,427,428,429,430,431,432,433,434,435,436,437,438,439,440,441,442,443,444,445,446,447,448,449,450,451,452,453,454,455,456,457,458,459,460,461,462,463,464,465,466,467,468,469,470,471,472,473,474,475,476,477,478,479,480,481,482,483,484,485,486,487,488,489,490,491,492,493,494,495,496,497,498,499,500,501,502,503,504,505,506,507,508,509,510,511,512,513,514,515,516,517,518,519,520,521,522,523,524,525,526,527,528,529,530,531,532,533,534,535,536,537,538,539,540,541,542,543,544,545,546,547,548,549,550,551,552,553,554,555,556,557,558,559,560,561,562,563,564,565,566,567,568,569,570,571,572,573,574,575,576,577,578,579,580,581,582,583,584,585,586,587,588,589,590,591,592,593,594,595,596,597,598,599,600,601,602,603,604,605,606,607,608,609,610,611,612,613,614,615,616,617,618,619,620,621,622,623,624,625,626,627,628,629,630,631,632],"tree_info":[0,0,0,0,0,0,0,0,0,0,0,0,0,0,0,0,0,0,0,0,0,0,0,0,0,0,0,0,0,0,0,0,0,0,0,0,0,0,0,0,0,0,0,0,0,0,0,0,0,0,0,0,0,0,0,0,0,0,0,0,0,0,0,0,0,0,0,0,0,0,0,0,0,0,0,0,0,0,0,0,0,0,0,0,0,0,0,0,0,0,0,0,0,0,0,0,0,0,0,0,0,0,0,0,0,0,0,0,0,0,0,0,0,0,0,0,0,0,0,0,0,0,0,0,0,0,0,0,0,0,0,0,0,0,0,0,0,0,0,0,0,0,0,0,0,0,0,0,0,0,0,0,0,0,0,0,0,0,0,0,0,0,0,0,0,0,0,0,0,0,0,0,0,0,0,0,0,0,0,0,0,0,0,0,0,0,0,0,0,0,0,0,0,0,0,0,0,0,0,0,0,0,0,0,0,0,0,0,0,0,0,0,0,0,0,0,0,0,0,0,0,0,0,0,0,0,0,0,0,0,0,0,0,0,0,0,0,0,0,0,0,0,0,0,0,0,0,0,0,0,0,0,0,0,0,0,0,0,0,0,0,0,0,0,0,0,0,0,0,0,0,0,0,0,0,0,0,0,0,0,0,0,0,0,0,0,0,0,0,0,0,0,0,0,0,0,0,0,0,0,0,0,0,0,0,0,0,0,0,0,0,0,0,0,0,0,0,0,0,0,0,0,0,0,0,0,0,0,0,0,0,0,0,0,0,0,0,0,0,0,0,0,0,0,0,0,0,0,0,0,0,0,0,0,0,0,0,0,0,0,0,0,0,0,0,0,0,0,0,0,0,0,0,0,0,0,0,0,0,0,0,0,0,0,0,0,0,0,0,0,0,0,0,0,0,0,0,0,0,0,0,0,0,0,0,0,0,0,0,0,0,0,0,0,0,0,0,0,0,0,0,0,0,0,0,0,0,0,0,0,0,0,0,0,0,0,0,0,0,0,0,0,0,0,0,0,0,0,0,0,0,0,0,0,0,0,0,0,0,0,0,0,0,0,0,0,0,0,0,0,0,0,0,0,0,0,0,0,0,0,0,0,0,0,0,0,0,0,0,0,0,0,0,0,0,0,0,0,0,0,0,0,0,0,0,0,0,0,0,0,0,0,0,0,0,0,0,0,0,0,0,0,0,0,0,0,0,0,0,0,0,0,0,0,0,0,0,0,0,0,0,0,0,0,0,0,0,0,0,0,0,0,0,0,0,0,0,0,0,0,0,0,0,0,0,0,0,0,0,0,0,0,0,0,0,0,0,0,0,0,0,0,0,0,0,0,0,0,0,0,0,0,0,0,0,0,0,0,0,0,0,0,0,0,0,0,0,0,0,0,0,0,0,0,0,0,0,0,0,0,0,0,0,0,0,0,0,0,0,0,0,0],"trees":[{"base_weights":[4.0845306E1,3.1239561E1,5.5337776E1,2.2865469E1,3.5423847E1,5.426196E1,1.5010931E2,2.1835571E1,3.3502537E1,3.449156E1,6.2271988E1,4.833498E1,6.3864185E1,8.828232E-1,3.0519984E0,1.8483608E1,2.3987823E1,4.2078987E1,5.145158E-1,3.0672888E1,3.710212E1,8.553715E-1,8.031306E1,4.295404E1,5.191315E1,5.8501083E1,7.515353E1,2.543934E-1,1.9122192E1,2.0520422E1,2.5654564E1,3.878853E-1,8.20672E-1,4.3124625E-1,3.1925343E1,3.387178E1,4.0010433E1,8.998878E1,7.4803543E-1,5.7489496E-1,4.389877E1,6.932837E-1,5.3402885E1,7.9681575E-1,6.062011E1,8.137524E1,6.286183E1,3.222057E-1,3.7738553E-1,3.3414894E-1,4.1725135E-1,4.395907E-1,6.312957E-1,4.8153764E-1,6.0029995E-1,5.7675475E-1,6.586169E-1,6.626341E-1,7.6338875E-1,7.6753694E-1,1.7642761E0,7.3699313E-1,8.309618E-1,5.822628E-1,9.742525E-1,9.548783E-1,1.1291243E0,1.2409445E0,1.5559291E0,2.2157483E0,1.0333693E0],"categories":[],"categories_nodes":[],"categories_segments":[],"categories_sizes":[],"default_left":[0,0,0,0,0,0,0,0,0,0,0,0,0,0,0,0,0,0,0,0,0,0,0,0,0,0,0,0,0,0,0,0,0,0,0,0,0,0,0,0,0,0,0,0,0,0,0,0,0,0,0,0,0,0,0,0,0,0,0,0,0,0,0,0,0,0,0,0,0,0,0],"id":0,"left_children":[1,3,5,7,9,11,13,15,17,19,21,23,25,-1,-1,27,29,31,-1,33,35,-1,37,39,41,43,45,-1,47,49,51,-1,-1,-1,53,55,57,59,-1,-1,61,-1,63,-1,65,67,69,-1,-1,-1,-1,-1,-1,-1,-1,-1,-1,-1,-1,-1,-1,-1,-1,-1,-1,-1,-1,-1,-1,-1,-1],"loss_changes":[2.134382E6,3.21556E5,5.99274E5,3.150975E4,1.47543E5,3.35252E5,1.05421E5,1.89435E4,7.4991875E3,5.5837E4,4.23365E4,6.5416E4,1.25869E5,0E0,0E0,2.2104688E3,8.177375E3,3.3779531E3,0E0,1.81085E4,2.886E4,0E0,2.1062938E4,1.141925E4,3.8425E4,3.926E4,4.01505E4,0E0,9.4778125E2,1.5652188E3,1.06768125E4,0E0,0E0,0E0,1.2058625E4,4.7245E3,9.151E3,1.2351375E4,0E0,0E0,3.361E3,0E0,2.35965E4,0E0,1.11365E4,1.139375E4,6.3861312E4,0E0,0E0,0E0,0E0,0E0,0E0,0E0,0E0,0E0,0E0,0E0,0E0,0E0,0E0,0E0,0E0,0E0,0E0,0E0,0E0,0E0,0E0,0E0,0E0],"parents":[2147483647,0,0,1,1,2,2,3,3,4,4,5,5,6,6,7,7,8,8,9,9,10,10,11,11,12,12,15,15,16,16,17,17,19,19,20,20,22,22,23,23,24,24,25,25,26,26,28,28,29,29,30,30,34,34,35,35,36,36,37,37,40,40,42,42,44,44,45,45,46,46],"right_children":[2,4,6,8,10,12,14,16,18,20,22,24,26,-1,-1,28,30,32,-1,34,36,-1,38,40,42,44,46,-1,48,50,52,-1,-1,-1,54,56,58,60,-1,-1,62,-1,64,-1,66,68,70,-1,-1,-1,-1,-1,-1,-1,-1,-1,-1,-1,-1,-1,-1,-1,-1,-1,-1,-1,-1,-1,-1,-1,-1],"split_conditions":[4.3E1,1.725E1,7.6375E1,3.8916668E1,7.2E1,4.425E1,1.764E3,2.05E1,1.2E1,3.2E1,4.9875E1,2.8083334E1,3.8625E1,8.828232E-1,3.0519984E0,1.4E1,2.3583334E1,1.95E1,5.145158E-1,2E0,3.5E1,8.553715E-1,2.7702381E1,4E0,-5E-1,2.5125E1,-7.818315E-1,2.543934E-1,2.55E1,-5E-1,-5E-1,3.878853E-1,8.20672E-1,4.3124625E-1,2.6E1,4.4E1,1.4416667E1,1.663E3,7.4803543E-1,5.7489496E-1,3.7E1,6.932837E-1,8E0,7.9681575E-1,4.725E1,6.3E1,1.2E1,3.222057E-1,3.7738553E-1,3.3414894E-1,4.1725135E-1,4.395907E-1,6.312957E-1,4.8153764E-1,6.0029995E-1,5.7675475E-1,6.586169E-1,6.626341E-1,7.6338875E-1,7.6753694E-1,1.7642761E0,7.3699313E-1,8.309618E-1,5.822628E-1,9.742525E-1,9.548783E-1,1.1291243E0,1.2409445E0,1.5559291E0,2.2157483E0,1.0333693E0],"split_indices":[72,73,8,8,0,73,70,72,19,0,8,8,8,0,0,72,8,72,0,15,72,0,12,19,23,8,25,0,8,23,23,0,0,0,3,0,12,70,0,0,0,0,19,0,73,0,19,0,0,0,0,0,0,0,0,0,0,0,0,0,0,0,0,0,0,0,0,0,0,0,0],"split_type":[0,0,0,0,0,0,0,0,0,0,0,0,0,0,0,0,0,0,0,0,0,0,0,0,0,0,0,0,0,0,0,0,0,0,0,0,0,0,0,0,0,0,0,0,0,0,0,0,0,0,0,0,0,0,0,0,0,0,0,0,0,0,0,0,0,0,0,0,0,0,0],"sum_hessian":[1.5368E4,9.248E3,6.12E3,3.088E3,6.16E3,6.056E3,6.4E1,2.824E3,2.64E2,5.96E3,2E2,3.756E3,2.3E3,1.2E1,5.2E1,1.116E3,1.708E3,8.8E1,1.76E2,2.436E3,3.524E3,1.16E2,8.4E1,1.516E3,2.24E3,1.572E3,7.28E2,1.52E2,9.64E2,5.68E2,1.14E3,1.6E1,7.2E1,3.92E2,2.044E3,1.688E3,1.836E3,6.4E1,2E1,1.28E2,1.388E3,2.32E2,2.008E3,2.12E2,1.36E3,4.72E2,2.56E2,5.96E2,3.68E2,3.4E2,2.28E2,1.016E3,1.24E2,4.48E2,1.596E3,1.024E3,6.64E2,8E2,1.036E3,1.2E1,5.2E1,6.2E2,7.68E2,6.8E1,1.94E3,3.08E2,1.052E3,1.48E2,3.24E2,1.6E1,2.4E2],"tree_param":{"num_deleted":"0","num_feature":"74","num_nodes":"71","size_leaf_vector":"1"}},{"base_weights":[3.9963383E1,3.067973E1,5.406866E1,2.2526918E1,3.479264E1,5.310409E1,1.2625292E2,2.0965862E1,3.4636757E1,3.2993416E1,5.312914E1,4.742848E1,6.2513897E1,9.5524824E-1,1.3695052E2,1.7416187E1,2.312413E1,3.0303486E1,5.478821E1,2.9550966E1,3.558399E1,4.2451305E1,8.637011E1,4.3255695E1,5.248429E1,5.2554317E1,6.6719894E1,2.7337549E0,1.5972397E0,1.4429524E1,1.8476484E1,2.242857E1,2.9937853E1,2.6227243E1,3.5784298E1,5.8877754E-1,1.0927047E0,2.8699049E1,3.693996E1,2.9716484E1,3.7320118E1,4.886154E1,3.356245E1,1.1246747E0,9.218478E1,3.716868E1,4.489033E1,3.691818E1,5.410972E1,6.2005794E-1,5.4754436E1,6.461098E1,1.5044553E0,1.9359508E-1,2.8002933E-1,2.855444E-1,3.435456E-1,3.3423105E-1,4.1868153E-1,2.9044953E-1,5.5408114E-1,6.1143637E-1,4.255315E-1,3.5161534E-1,6.6706187E-1,5.0289387E-1,6.512517E-1,3.6305004E-1,6.7613E-1,6.0107595E-1,4.8424816E-1,6.533352E-1,8.314327E-1,8.0636E-1,1.0818653E0,5.0149393E-1,7.2569305E-1,8.993182E-1,1.7338213E0,6.493899E-1,9.1989887E-1,7.055791E-1,8.4489214E-1,5.197971E-1,7.216598E-1,1.1184816E0,9.2780834E-1,8.377777E-1,1.0332191E0,1.0228826E0,1.2391993E0],"categories":[],"categories_nodes":[],"categories_segments":[],"categories_sizes":[],"default_left":[0,0,0,0,0,0,0,0,0,0,0,0,0,0,0,0,0,0,0,0,0,0,0,0,0,0,0,0,0,0,0,0,0,0,0,0,0,0,0,0,0,0,0,0,0,0,0,0,0,0,0,0,0,0,0,0,0,0,0,0,0,0,0,0,0,0,0,0,0,0,0,0,0,0,0,0,0,0,0,0,0,0,0,0,0,0,0,0,0,0,0],"id":1,"left_children":[1,3,5,7,9,11,13,15,17,19,21,23,25,-1,27,29,31,33,35,37,39,41,43,45,47,49,51,-1,-1,53,55,57,59,61,63,-1,-1,65,67,69,71,73,75,-1,77,79,81,83,85,-1,87,89,-1,-1,-1,-1,-1,-1,-1,-1,-1,-1,-1,-1,-1,-1,-1,-1,-1,-1,-1,-1,-1,-1,-1,-1,-1,-1,-1,-1,-1,-1,-1,-1,-1,-1,-1,-1,-1,-1,-1],"loss_changes":[2.02802E6,3.11712E5,4.0821E5,5.722975E4,1.99803E5,3.15666E5,3.9552875E4,2.011975E4,2.5776562E4,4.72685E4,1.8420825E5,7.3234E4,8.4611E4,0E0,6.896E3,2.4978438E3,6.04025E3,3.6879375E3,1.449125E3,1.208675E4,2.931425E4,1.8948562E4,5.2375E2,1.568625E4,3.69385E4,2.1654E4,3.97795E4,0E0,0E0,6.369883E2,2.12625E2,3.58925E3,9.6671875E1,1.1060391E3,8.9203125E1,0E0,0E0,9.65825E3,4.0625E0,4.9084375E3,1.766875E4,2.595875E3,3.6366875E3,0E0,2.2138125E3,1.4090625E3,1.318975E4,6.730625E2,2.203E4,0E0,4.837625E3,3.46665E4,0E0,0E0,0E0,0E0,0E0,0E0,0E0,0E0,0E0,0E0,0E0,0E0,0E0,0E0,0E0,0E0,0E0,0E0,0E0,0E0,0E0,0E0,0E0,0E0,0E0,0E0,0E0,0E0,0E0,0E0,0E0,0E0,0E0,0E0,0E0,0E0,0E0,0E0,0E0],"parents":[2147483647,0,0,1,1,2,2,3,3,4,4,5,5,6,6,7,7,8,8,9,9,10,10,11,11,12,12,14,14,15,15,16,16,17,17,18,18,19,19,20,20,21,21,22,22,23,23,24,24,25,25,26,26,29,29,30,30,31,31,32,32,33,33,34,34,37,37,38,38,39,39,40,40,41,41,42,42,44,44,45,45,46,46,47,47,48,48,50,50,51,51],"right_children":[2,4,6,8,10,12,14,16,18,20,22,24,26,-1,28,30,32,34,36,38,40,42,44,46,48,50,52,-1,-1,54,56,58,60,62,64,-1,-1,66,68,70,72,74,76,-1,78,80,82,84,86,-1,88,90,-1,-1,-1,-1,-1,-1,-1,-1,-1,-1,-1,-1,-1,-1,-1,-1,-1,-1,-1,-1,-1,-1,-1,-1,-1,-1,-1,-1,-1,-1,-1,-1,-1,-1,-1,-1,-1,-1,-1],"split_conditions":[4.25E1,2.625E1,6.4625E1,1E0,1E0,6E1,2.7875E1,2.05E1,1E0,3.325E1,1E0,1.3416667E1,3.1541666E1,9.5524824E-1,9.5875E1,1.5E1,1.2E1,-5E-1,1.6E1,1E0,5E0,1.2E1,2.825E1,9.25E0,-5E-1,8E0,1E0,2.7337549E0,1.5972397E0,1.6E1,1.6E1,1.8E1,1E1,0E0,1.2E1,5.8877754E-1,1.0927047E0,1.2E1,2E0,0E0,1E0,3.575E1,3.5E1,1.1246747E0,1.1E1,1E0,-2.5881904E-1,3.6636906E1,-7.818315E-1,6.2005794E-1,3.975E1,6.25E1,1.5044553E0,1.9359508E-1,2.8002933E-1,2.855444E-1,3.435456E-1,3.3423105E-1,4.1868153E-1,2.9044953E-1,5.5408114E-1,6.1143637E-1,4.255315E-1,3.5161534E-1,6.6706187E-1,5.0289387E-1,6.512517E-1,3.6305004E-1,6.7613E-1,6.0107595E-1,4.8424816E-1,6.533352E-1,8.314327E-1,8.0636E-1,1.0818653E0,5.0149393E-1,7.2569305E-1,8.993182E-1,1.7338213E0,6.493899E-1,9.1989887E-1,7.055791E-1,8.4489214E-1,5.197971E-1,7.216598E-1,1.1184816E0,9.2780834E-1,8.377777E-1,1.0332191E0,1.0228826E0,1.2391993E0],"split_indices":[72,72,8,27,27,2,11,72,50,72,50,11,8,0,8,2,15,23,5,50,15,19,72,11,23,19,50,0,0,0,0,0,4,25,7,0,0,15,15,25,50,72,5,0,19,50,23,9,25,0,73,72,0,0,0,0,0,0,0,0,0,0,0,0,0,0,0,0,0,0,0,0,0,0,0,0,0,0,0,0,0,0,0,0,0,0,0,0,0,0,0],"split_type":[0,0,0,0,0,0,0,0,0,0,0,0,0,0,0,0,0,0,0,0,0,0,0,0,0,0,0,0,0,0,0,0,0,0,0,0,0,0,0,0,0,0,0,0,0,0,0,0,0,0,0,0,0,0,0,0,0,0,0,0,0,0,0,0,0,0,0,0,0,0,0,0,0,0,0,0,0,0,0,0,0,0,0,0,0,0,0,0,0,0,0],"sum_hessian":[1.5524E4,9.368E3,6.156E3,3.148E3,6.22E3,6.08E3,7.6E1,2.796E3,3.52E2,5.672E3,5.48E2,3.804E3,2.276E3,1.2E1,6.4E1,1.068E3,1.728E3,2.96E2,5.6E1,2.452E3,3.22E3,4.2E2,1.28E2,2.1E3,1.704E3,6.88E2,1.588E3,4.4E1,2E1,2.92E2,7.76E2,1.58E3,1.48E2,1.8E2,1.16E2,1.6E1,4E1,2.212E3,2.4E2,7.48E2,2.472E3,2.36E2,1.84E2,3.2E1,9.6E1,4.6E2,1.64E3,1.68E2,1.536E3,8E1,6.08E2,1.424E3,1.64E2,7.6E1,2.16E2,1.6E2,6.16E2,2.88E2,1.292E3,1.2E1,1.36E2,3.6E1,1.44E2,1.2E1,1.04E2,2.016E3,1.96E2,1.2E1,2.28E2,3.12E2,4.36E2,2.224E3,2.48E2,1.84E2,5.2E1,1.08E2,7.6E1,1.2E1,8.4E1,4.36E2,2.4E1,4.44E2,1.196E3,5.6E1,1.12E2,3.6E2,1.176E3,1.6E2,4.48E2,5.12E2,9.12E2],"tree_param":{"num_deleted":"0","num_feature":"74","num_nodes":"91","size_leaf_vector":"1"}},{"base_weights":[3.9358147E1,3.1854807E1,5.6182198E1,2.4164799E1,3.7381E1,5.431852E1,1.2218073E2,2.3546135E1,6.0272644E1,3.6998436E1,1.6352339E0,4.7713696E1,6.2789547E1,1.5693341E0,2.7328296E0,2.0085993E1,2.7500668E1,6.7363733E-1,1.2388911E0,3.36967E1,4.207668E1,4.1438526E1,5.125201E1,5.750758E1,7.148592E1,1.7545845E1,2.2969276E1,2.2732676E1,2.9082155E1,3.2942776E1,4.8186867E1,3.9580486E1,4.780707E1,5.2568215E-1,4.202838E1,3.8628086E1,5.3623756E1,7.9697394E-1,5.9304237E1,7.6925766E1,1.0535378E0,2.3775618E-1,3.3348125E-1,3.527808E-1,4.6186033E-1,4.15987E-1,2.6144147E-1,4.8437098E-1,5.5873054E-1,5.4505086E-1,6.482371E-1,9.233148E-1,6.693135E-1,5.065064E-1,7.267085E-1,7.371474E-1,9.3590164E-1,6.139529E-1,7.7514315E-1,7.3023397E-1,5.532566E-1,8.7409306E-1,1.0737157E0,9.899658E-1,1.132189E0,1.1846856E0,1.4538076E0],"categories":[],"categories_nodes":[],"categories_segments":[],"categories_sizes":[],"default_left":[0,0,0,0,0,0,0,0,0,0,0,0,0,0,0,0,0,0,0,0,0,0,0,0,0,0,0,0,0,0,0,0,0,0,0,0,0,0,0,0,0,0,0,0,0,0,0,0,0,0,0,0,0,0,0,0,0,0,0,0,0,0,0,0,0,0,0],"id":2,"left_children":[1,3,5,7,9,11,13,15,17,19,-1,21,23,-1,-1,25,27,-1,-1,29,31,33,35,37,39,41,43,45,47,49,51,53,55,-1,57,59,61,-1,63,65,-1,-1,-1,-1,-1,-1,-1,-1,-1,-1,-1,-1,-1,-1,-1,-1,-1,-1,-1,-1,-1,-1,-1,-1,-1,-1,-1],"loss_changes":[1.984754E6,4.60794E5,5.7725E5,9.7614E4,1.19155E5,2.55396E5,9.533125E4,5.9768E4,6.5785312E3,1.01213E5,0E0,5.26715E4,8.20645E4,0E0,0E0,1.63334375E4,1.363625E4,0E0,0E0,3.69025E4,2.9421E4,3.1935E3,4.4274E4,2.2783E4,4.0339E4,4.627375E3,8.4828125E3,4.8E2,3.950375E3,2.641125E4,2.3853125E2,1.165425E4,1.4362375E4,0E0,2.79075E3,2.855E2,3.430625E4,0E0,6.81725E3,6.09325E3,0E0,0E0,0E0,0E0,0E0,0E0,0E0,0E0,0E0,0E0,0E0,0E0,0E0,0E0,0E0,0E0,0E0,0E0,0E0,0E0,0E0,0E0,0E0,0E0,0E0,0E0,0E0],"parents":[2147483647,0,0,1,1,2,2,3,3,4,4,5,5,6,6,7,7,8,8,9,9,11,11,12,12,15,15,16,16,19,19,20,20,21,21,22,22,23,23,24,24,25,25,26,26,27,27,28,28,29,29,30,30,31,31,32,32,34,34,35,35,36,36,38,38,39,39],"right_children":[2,4,6,8,10,12,14,16,18,20,-1,22,24,-1,-1,26,28,-1,-1,30,32,34,36,38,40,42,44,46,48,50,52,54,56,-1,58,60,62,-1,64,66,-1,-1,-1,-1,-1,-1,-1,-1,-1,-1,-1,-1,-1,-1,-1,-1,-1,-1,-1,-1,-1,-1,-1,-1,-1,-1,-1],"split_conditions":[4.7E1,2.025E1,1E0,1E0,1E0,4.45E1,6.1E1,1.525E1,1.35E1,4.2E1,1.6352339E0,2.8083334E1,3.8375E1,1.5693341E0,2.7328296E0,2.5125E1,3E0,6.7363733E-1,1.2388911E0,1E0,3.625E1,3E0,2.925E1,2.55E1,6E0,1.5E1,2E0,2.6232143E1,-2.4492937E-16,3.5E1,1.1E1,2E0,1.7E1,5.2568215E-1,2.8E1,1.5E1,1E0,7.9697394E-1,6.6E1,1.3E1,1.0535378E0,2.3775618E-1,3.3348125E-1,3.527808E-1,4.6186033E-1,4.15987E-1,2.6144147E-1,4.8437098E-1,5.5873054E-1,5.4505086E-1,6.482371E-1,9.233148E-1,6.693135E-1,5.065064E-1,7.267085E-1,7.371474E-1,9.3590164E-1,6.139529E-1,7.7514315E-1,7.3023397E-1,5.532566E-1,8.7409306E-1,1.0737157E0,9.899658E-1,1.132189E0,1.1846856E0,1.4538076E0],"split_indices":[2,73,48,48,48,73,2,73,73,3,0,8,8,0,0,8,15,0,0,27,73,19,73,8,14,2,14,9,27,2,19,15,19,0,73,65,18,0,2,13,0,0,0,0,0,0,0,0,0,0,0,0,0,0,0,0,0,0,0,0,0,0,0,0,0,0,0],"split_type":[0,0,0,0,0,0,0,0,0,0,0,0,0,0,0,0,0,0,0,0,0,0,0,0,0,0,0,0,0,0,0,0,0,0,0,0,0,0,0,0,0,0,0,0,0,0,0,0,0,0,0,0,0,0,0,0,0,0,0,0,0,0,0,0,0,0,0],"sum_hessian":[1.5764E4,1.0908E4,4.856E3,4.568E3,6.34E3,4.728E3,1.28E2,4.496E3,7.2E1,6.3E3,4E1,2.668E3,2.06E3,6.4E1,6.4E1,2.408E3,2.088E3,2.4E1,4.8E1,3.832E3,2.468E3,9.76E2,1.692E3,1.296E3,7.64E2,1.292E3,1.116E3,5.32E2,1.556E3,3.652E3,1.8E2,1.736E3,7.32E2,5.2E1,9.24E2,2.76E2,1.416E3,1.64E2,1.132E3,5.28E2,2.36E2,2.44E2,1.048E3,5.04E2,6.12E2,5.04E2,2.8E1,7.52E2,8.04E2,1.96E3,1.692E3,1.32E2,4.8E1,1.16E2,1.62E3,2.88E2,4.44E2,1.16E2,8.08E2,2.12E2,6.4E1,7.8E2,6.36E2,5.32E2,6E2,1.48E2,3.8E2],"tree_param":{"num_deleted":"0","num_feature":"74","num_nodes":"67","size_leaf_vector":"1"}},{"base_weights":[3.8711903E1,3.7553013E1,1.092813E2,3.2167892E1,5.108482E1,1.22774635E2,6.3125134E1,3.622242E1,2.0407475E1,3.822125E1,6.1022972E1,1.6291744E0,1.4558998E2,1.2861736E0,7.9334646E-1,2.4807186E1,3.8729843E1,1.5538139E1,2.2756021E1,4.4886444E1,3.1920288E1,5.6712616E1,7.09992E1,1.514296E2,1.428419E0,2.2229513E1,2.829279E1,3.4522312E1,4.4771503E1,1.3125813E1,1.7339298E1,1.9054625E1,2.484067E1,6.7621845E-1,4.9461903E1,2.5072765E1,3.6868282E1,5.429339E1,6.5160484E1,7.3822685E1,7.491886E-1,1.428547E0,2.8631217E0,3.5108066E-1,4.2559472E-1,4.3972695E-1,5.4164153E-1,5.3015035E-1,6.662892E-1,7.2614735E-1,9.148645E-1,2.561784E-1,1.8793553E-1,3.3930165E-1,2.8712603E-1,2.8845155E-1,3.7203243E-1,3.9245686E-1,4.937379E-1,8.5501975E-1,1.1319333E0,4.0451118E-1,5.441166E-1,6.2416565E-1,7.4338055E-1,9.9092346E-1,6.1303705E-1,7.675153E-1,1.1999643E0,1.1453196E0,1.3996093E0],"categories":[],"categories_nodes":[],"categories_segments":[],"categories_sizes":[],"default_left":[0,0,0,0,0,0,0,0,0,0,0,0,0,0,0,0,0,0,0,0,0,0,0,0,0,0,0,0,0,0,0,0,0,0,0,0,0,0,0,0,0,0,0,0,0,0,0,0,0,0,0,0,0,0,0,0,0,0,0,0,0,0,0,0,0,0,0,0,0,0,0],"id":3,"left_children":[1,3,5,7,9,11,13,15,17,19,21,-1,23,-1,-1,25,27,29,31,33,35,37,39,41,-1,43,45,47,49,51,53,55,57,-1,59,61,63,65,67,69,-1,-1,-1,-1,-1,-1,-1,-1,-1,-1,-1,-1,-1,-1,-1,-1,-1,-1,-1,-1,-1,-1,-1,-1,-1,-1,-1,-1,-1,-1,-1],"loss_changes":[1.265932E6,1.11609E6,1.32549E5,5.22849E5,5.52022E5,1.00698E5,1.9201562E2,2.31272E5,3.1204875E4,7.5908E4,9.3471E4,0E0,4.745E3,0E0,0E0,1.12936875E4,1.65633E5,3.2753906E3,1.31385625E4,2.5195875E4,3.0762562E4,2.45075E4,5.115275E4,1.30805E4,0E0,1.8161562E3,1.913375E3,4.63925E4,6.7199E4,6.97875E2,9.56875E1,2.3033906E3,7.539E3,0E0,5.64175E3,3.5490938E3,1.063875E3,1.4105E4,3.387125E3,1.11215E4,0E0,0E0,0E0,0E0,0E0,0E0,0E0,0E0,0E0,0E0,0E0,0E0,0E0,0E0,0E0,0E0,0E0,0E0,0E0,0E0,0E0,0E0,0E0,0E0,0E0,0E0,0E0,0E0,0E0,0E0,0E0],"parents":[2147483647,0,0,1,1,2,2,3,3,4,4,5,5,6,6,7,7,8,8,9,9,10,10,12,12,15,15,16,16,17,17,18,18,19,19,20,20,21,21,22,22,23,23,25,25,26,26,27,27,28,28,29,29,30,30,31,31,32,32,34,34,35,35,36,36,37,37,38,38,39,39],"right_children":[2,4,6,8,10,12,14,16,18,20,22,-1,24,-1,-1,26,28,30,32,34,36,38,40,42,-1,44,46,48,50,52,54,56,58,-1,60,62,64,66,68,70,-1,-1,-1,-1,-1,-1,-1,-1,-1,-1,-1,-1,-1,-1,-1,-1,-1,-1,-1,-1,-1,-1,-1,-1,-1,-1,-1,-1,-1,-1,-1],"split_conditions":[1E0,1E0,1.5E1,1.5E1,3.3E1,4E0,4.3388373E-1,3E0,2.3375E1,1.5E1,3.8625E1,1.6291744E0,3.358E3,1.2861736E0,7.9334646E-1,3E0,3E0,3E0,2E0,2.4958334E1,3.2541668E1,5.1E1,1.5E1,1.9309525E1,1.428419E0,1.3E1,1.3E1,1.3E1,1.5505953E1,1.3E1,2E1,1.5440476E1,1.5166667E1,6.7621845E-1,3.6375E1,1.34E1,4.1708332E1,1.5E1,2.7083334E1,1.3E1,7.491886E-1,1.428547E0,2.8631217E0,3.5108066E-1,4.2559472E-1,4.3972695E-1,5.4164153E-1,5.3015035E-1,6.662892E-1,7.2614735E-1,9.148645E-1,2.561784E-1,1.8793553E-1,3.3930165E-1,2.8712603E-1,2.8845155E-1,3.7203243E-1,3.9245686E-1,4.937379E-1,8.5501975E-1,1.1319333E0,4.0451118E-1,5.441166E-1,6.2416565E-1,7.4338055E-1,9.9092346E-1,6.1303705E-1,7.675153E-1,1.1999643E0,1.1453196E0,1.3996093E0],"split_indices":[48,18,13,13,1,14,25,15,8,13,8,0,70,0,0,14,14,15,14,8,8,1,13,12,0,13,13,13,12,5,1,12,12,0,8,36,8,13,8,13,0,0,0,0,0,0,0,0,0,0,0,0,0,0,0,0,0,0,0,0,0,0,0,0,0,0,0,0,0,0,0],"split_type":[0,0,0,0,0,0,0,0,0,0,0,0,0,0,0,0,0,0,0,0,0,0,0,0,0,0,0,0,0,0,0,0,0,0,0,0,0,0,0,0,0,0,0,0,0,0,0,0,0,0,0,0,0,0,0,0,0,0,0,0,0,0,0,0,0,0,0,0,0,0,0],"sum_hessian":[1.5632E4,1.5384E4,2.48E2,1.1012E4,4.372E3,1.88E2,6E1,8.184E3,2.828E3,1.912E3,2.46E3,8.4E1,1.04E2,3.6E1,2.4E1,1.48E3,6.704E3,9.28E2,1.9E3,9.2E2,9.92E2,1.732E3,7.28E2,9.2E1,1.2E1,8.64E2,6.16E2,3.964E3,2.74E3,4.08E2,5.2E2,6.96E2,1.204E3,3.64E2,5.56E2,4.24E2,5.68E2,1.364E3,3.68E2,6.6E2,6.8E1,1.2E1,8E1,3.08E2,5.56E2,2.08E2,4.08E2,1.308E3,2.656E3,1.588E3,1.152E3,2.8E2,1.28E2,2.32E2,2.88E2,2.52E2,4.44E2,5.64E2,6.4E2,4.96E2,6E1,2.92E2,1.32E2,3.96E2,1.72E2,1.312E3,5.2E1,2.8E1,3.4E2,1.96E2,4.64E2],"tree_param":{"num_deleted":"0","num_feature":"74","num_nodes":"71","size_leaf_vector":"1"}},{"base_weights":[3.814046E1,2.9283678E1,5.1973934E1,2.1361425E1,3.3205692E1,5.0635605E1,1.238875E2,1.9917362E1,3.3270382E1,3.1297771E1,5.1086872E1,4.5164845E1,5.940651E1,8.4214884E-1,1.3537239E2,1.6510408E1,2.1808187E1,2.8572685E1,9.500223E-1,2.861808E1,3.44502E1,4.0538223E1,1.584773E0,3.9959408E1,4.8769806E1,5.4439354E1,6.9609085E1,9.110889E-1,2.6255937E0,2.4394116E-1,1.7385723E1,2.0507154E1,2.5669561E1,3.5579216E-1,3.0289232E1,2.7757885E1,6.5556437E-1,3.35292E1,7.7604496E-1,4.2995865E1,4.9935699E-1,4.6773946E-1,4.050582E1,4.4541077E1,5.4130623E1,4.2106346E1,5.6510437E1,9.960978E-1,7.632772E1,3.20895E-1,2.3883498E-1,4.1758618E-1,3.5469165E-1,3.6619037E-1,4.8380217E-1,4.642631E-1,6.204609E-1,5.725783E-1,4.681726E-1,6.3860446E-1,5.381774E-1,4.2355475E-1,7.93173E-1,7.342497E-1,3.9345717E-1,7.661564E-1,8.9250696E-1,1.0527941E0,6.617699E-1,5.183875E-1,7.8776604E-1,1.036875E0,7.348542E-1,1.1300055E0,1.4492009E0],"categories":[],"categories_nodes":[],"categories_segments":[],"categories_sizes":[],"default_left":[0,0,0,0,0,0,0,0,0,0,0,0,0,0,0,0,0,0,0,0,0,0,0,0,0,0,0,0,0,0,0,0,0,0,0,0,0,0,0,0,0,0,0,0,0,0,0,0,0,0,0,0,0,0,0,0,0,0,0,0,0,0,0,0,0,0,0,0,0,0,0,0,0,0,0],"id":4,"left_children":[1,3,5,7,9,11,13,15,17,19,21,23,25,-1,27,29,31,33,-1,35,37,39,-1,41,43,45,47,-1,-1,-1,49,51,53,-1,55,57,-1,59,-1,61,-1,-1,63,65,67,69,71,-1,73,-1,-1,-1,-1,-1,-1,-1,-1,-1,-1,-1,-1,-1,-1,-1,-1,-1,-1,-1,-1,-1,-1,-1,-1,-1,-1],"loss_changes":[1.93972E6,2.985805E5,5.76534E5,5.314975E4,2.15733E5,2.83538E5,7.8827625E4,1.7331125E4,2.6625594E4,4.63225E4,2.29862E5,6.44405E4,1.06208E5,0E0,6.107325E4,1.9037812E3,7.5278125E3,2.346875E3,0E0,1.808275E4,1.67215E4,1.156025E4,0E0,8.543E3,4.25195E4,3.2914E4,5.915425E4,0E0,0E0,0E0,6.056719E2,1.5431875E3,1.093875E3,0E0,1.5005E3,1.7846E4,0E0,1.372075E4,0E0,4.8659375E3,0E0,0E0,4.3485E3,5.98225E3,6.53165E4,1.2069688E3,1.4947E4,0E0,1.2687E4,0E0,0E0,0E0,0E0,0E0,0E0,0E0,0E0,0E0,0E0,0E0,0E0,0E0,0E0,0E0,0E0,0E0,0E0,0E0,0E0,0E0,0E0,0E0,0E0,0E0,0E0],"parents":[2147483647,0,0,1,1,2,2,3,3,4,4,5,5,6,6,7,7,8,8,9,9,10,10,11,11,12,12,14,14,15,15,16,16,17,17,19,19,20,20,21,21,23,23,24,24,25,25,26,26,30,30,31,31,32,32,34,34,35,35,37,37,39,39,42,42,43,43,44,44,45,45,46,46,48,48],"right_children":[2,4,6,8,10,12,14,16,18,20,22,24,26,-1,28,30,32,34,-1,36,38,40,-1,42,44,46,48,-1,-1,-1,50,52,54,-1,56,58,-1,60,-1,62,-1,-1,64,66,68,70,72,-1,74,-1,-1,-1,-1,-1,-1,-1,-1,-1,-1,-1,-1,-1,-1,-1,-1,-1,-1,-1,-1,-1,-1,-1,-1,-1,-1],"split_conditions":[4.275E1,1.725E1,6.4625E1,1E0,1E0,4.425E1,1E0,2.025E1,1E0,3.525E1,1E0,2.8083334E1,3.8916668E1,8.4214884E-1,2.7875E1,1.6E1,1.6083334E1,1.75E1,9.500223E-1,1E0,1E0,1.5E1,1.584773E0,7.3333335E0,1E0,1.0791667E1,1E0,9.110889E-1,2.6255937E0,2.4394116E-1,1.9348E3,1.5E1,1E0,3.5579216E-1,3.4E1,-5E-1,6.5556437E-1,5E-1,7.7604496E-1,1.8E1,4.9935699E-1,4.6773946E-1,6E0,4.4E1,1.5E1,3.1E1,6E0,9.960978E-1,1.3E1,3.20895E-1,2.3883498E-1,4.1758618E-1,3.5469165E-1,3.6619037E-1,4.8380217E-1,4.642631E-1,6.204609E-1,5.725783E-1,4.681726E-1,6.3860446E-1,5.381774E-1,4.2355475E-1,7.93173E-1,7.342497E-1,3.9345717E-1,7.661564E-1,8.9250696E-1,1.0527941E0,6.617699E-1,5.183875E-1,7.8776604E-1,1.036875E0,7.348542E-1,1.1300055E0,1.4492009E0],"split_indices":[72,73,8,27,27,73,50,72,50,72,50,8,8,0,11,0,11,72,0,28,50,13,0,11,18,11,18,0,0,0,71,13,14,0,0,28,0,27,0,73,0,0,14,8,13,0,14,0,13,0,0,0,0,0,0,0,0,0,0,0,0,0,0,0,0,0,0,0,0,0,0,0,0,0,0],"split_type":[0,0,0,0,0,0,0,0,0,0,0,0,0,0,0,0,0,0,0,0,0,0,0,0,0,0,0,0,0,0,0,0,0,0,0,0,0,0,0,0,0,0,0,0,0,0,0,0,0,0,0,0,0,0,0,0,0,0,0,0,0,0,0,0,0,0,0,0,0,0,0,0,0,0,0],"sum_hessian":[1.5868E4,9.68E3,6.188E3,3.212E3,6.468E3,6.08E3,1.08E2,2.872E3,3.4E2,5.852E3,6.16E2,3.756E3,2.324E3,1.6E1,9.2E1,1.036E3,1.836E3,2.8E2,6E1,3.18E3,2.672E3,4.84E2,1.32E2,1.552E3,2.204E3,1.576E3,7.48E2,1.2E1,8E1,2.48E2,7.88E2,1.388E3,4.48E2,5.2E1,2.28E2,2.876E3,3.04E2,2.428E3,2.44E2,4E2,8.4E1,6.4E1,1.488E3,1.248E3,9.56E2,2.36E2,1.34E3,2.48E2,5E2,7.04E2,8.4E1,3.04E2,1.084E3,9.2E1,3.56E2,1.2E2,1.08E2,8.6E2,2.016E3,1.572E3,8.56E2,2.4E1,3.76E2,1.464E3,2.4E1,9.12E2,3.36E2,7.6E2,1.96E2,3.2E1,2.04E2,1.248E3,9.2E1,1.28E2,3.72E2],"tree_param":{"num_deleted":"0","num_feature":"74","num_nodes":"75","size_leaf_vector":"1"}},{"base_weights":[3.725554E1,2.8965498E1,5.1536373E1,2.8243362E1,7.631617E1,4.993132E1,2.6181502E0,2.1469645E1,3.273769E1,5.206708E1,1.714316E0,4.391267E1,5.7404045E1,2.5660738E1,1.923727E1,3.1757494E1,4.131555E1,1.0225745E0,5.417683E-1,3.9532593E1,4.715134E1,4.928678E1,6.22642E1,2.3279392E1,3.2313995E1,1.5575132E1,2.1810478E1,2.9272741E1,3.4698513E1,3.8390217E1,8.7867993E-1,2.4716679E1,4.0352787E1,4.6635326E1,1.4520221E0,4.2304024E1,9.7267157E-1,5.4134712E1,6.6507286E1,4.1015574E-1,6.1267775E-1,6.135957E-1,4.7247577E-1,1.8007515E-1,2.8852203E-1,3.7471727E-1,5.300057E-1,3.9946732E-1,5.394695E-1,4.4653657E-1,6.412954E-1,3.4800822E-1,7.0526505E-1,4.810678E-1,2.53263E-1,4.931057E-1,7.339216E-1,7.5737256E-1,8.918271E-1,6.506958E-1,8.5955954E-1,6.148914E-1,1.0252564E0,1.3709952E0,1.1337317E0],"categories":[],"categories_nodes":[],"categories_segments":[],"categories_sizes":[],"default_left":[0,0,0,0,0,0,0,0,0,0,0,0,0,0,0,0,0,0,0,0,0,0,0,0,0,0,0,0,0,0,0,0,0,0,0,0,0,0,0,0,0,0,0,0,0,0,0,0,0,0,0,0,0,0,0,0,0,0,0,0,0,0,0,0,0],"id":5,"left_children":[1,3,5,7,9,11,-1,13,15,17,-1,19,21,23,25,27,29,-1,-1,31,33,35,37,39,41,43,45,47,49,51,-1,53,55,57,-1,59,-1,61,63,-1,-1,-1,-1,-1,-1,-1,-1,-1,-1,-1,-1,-1,-1,-1,-1,-1,-1,-1,-1,-1,-1,-1,-1,-1,-1],"loss_changes":[1.84772E6,3.319925E5,8.42491E5,2.949555E5,5.1946812E4,2.46307E5,0E0,3.4907875E4,4.5152E4,1.9756406E3,0E0,3.8747E4,8.95405E4,1.8926438E4,2.2988812E4,3.5319E4,7.0445E3,0E0,0E0,1.32885E4,1.9288E4,2.4313E4,4.2634E4,2.9859375E3,8.4559375E2,2.0829375E3,9.480625E3,1.170475E4,1.86975E4,3.969E3,0E0,4.3353125E2,2.991E3,1.687175E4,0E0,7.945E3,0E0,2.460975E4,1.98565E4,0E0,0E0,0E0,0E0,0E0,0E0,0E0,0E0,0E0,0E0,0E0,0E0,0E0,0E0,0E0,0E0,0E0,0E0,0E0,0E0,0E0,0E0,0E0,0E0,0E0,0E0],"parents":[2147483647,0,0,1,1,2,2,3,3,4,4,5,5,7,7,8,8,9,9,11,11,12,12,13,13,14,14,15,15,16,16,19,19,20,20,21,21,22,22,23,23,24,24,25,25,26,26,27,27,28,28,29,29,31,31,32,32,33,33,35,35,37,37,38,38],"right_children":[2,4,6,8,10,12,-1,14,16,18,-1,20,22,24,26,28,30,-1,-1,32,34,36,38,40,42,44,46,48,50,52,-1,54,56,58,-1,60,-1,62,64,-1,-1,-1,-1,-1,-1,-1,-1,-1,-1,-1,-1,-1,-1,-1,-1,-1,-1,-1,-1,-1,-1,-1,-1,-1,-1],"split_conditions":[4.375E1,1E0,1E0,2.8333334E1,2.825E1,5.775E1,2.6181502E0,-7.0710677E-1,1E0,2E-1,1.714316E0,2.8083334E1,1.3958333E1,1.05E1,1.4017588E1,3.65E1,3.95E1,1.0225745E0,5.417683E-1,7.6666665E0,2E0,1.6E1,4.6E1,3.5142857E1,1.31E1,1.5583333E1,2.0666666E1,2E0,2E0,2E0,8.7867993E-1,3.420238E1,3E0,4.875E1,1.4520221E0,2.55E1,9.7267157E-1,3.6E1,9.151E2,4.1015574E-1,6.1267775E-1,6.135957E-1,4.7247577E-1,1.8007515E-1,2.8852203E-1,3.7471727E-1,5.300057E-1,3.9946732E-1,5.394695E-1,4.4653657E-1,6.412954E-1,3.4800822E-1,7.0526505E-1,4.810678E-1,2.53263E-1,4.931057E-1,7.339216E-1,7.5737256E-1,8.918271E-1,6.506958E-1,8.5955954E-1,6.148914E-1,1.0252564E0,1.3709952E0,1.1337317E0],"split_indices":[72,48,48,72,72,72,0,24,50,37,0,8,11,11,10,72,72,0,0,11,50,19,6,9,36,8,11,15,15,15,0,9,19,72,0,8,0,7,71,0,0,0,0,0,0,0,0,0,0,0,0,0,0,0,0,0,0,0,0,0,0,0,0,0,0],"split_type":[0,0,0,0,0,0,0,0,0,0,0,0,0,0,0,0,0,0,0,0,0,0,0,0,0,0,0,0,0,0,0,0,0,0,0,0,0,0,0,0,0,0,0,0,0,0,0,0,0,0,0,0,0,0,0,0,0,0,0,0,0,0,0,0,0],"sum_hessian":[1.5644E4,9.904E3,5.74E3,9.76E3,1.44E2,5.648E3,9.2E1,3.9E3,5.86E3,6.8E1,7.6E1,3.14E3,2.508E3,1.344E3,2.556E3,5.272E3,5.88E2,5.2E1,1.6E1,1.352E3,1.788E3,9.52E2,1.556E3,1E3,3.44E2,1.064E3,1.492E3,2.876E3,2.396E3,4.36E2,1.52E2,7.6E1,1.276E3,1.768E3,2E1,3.96E2,5.56E2,5.48E2,1.008E3,9.64E2,3.6E1,2.56E2,8.8E1,8.4E1,9.8E2,1.328E3,1.64E2,2.6E2,2.616E3,2.08E2,2.188E3,2E1,4.16E2,6E1,1.6E1,4.4E1,1.232E3,7E2,1.068E3,1.96E2,2E2,7.2E1,4.76E2,2.56E2,7.52E2],"tree_param":{"num_deleted":"0","num_feature":"74","num_nodes":"65","size_leaf_vector":"1"}},{"base_weights":[3.638019E1,2.7555561E1,4.897008E1,2.6896084E1,7.141051E1,4.762572E1,2.4131231E0,2.0216064E1,3.0872114E1,8.728795E-1,1.5130653E0,4.18202E1,5.6383102E1,1.711858E1,2.3183823E1,3.0042692E1,4.0416847E1,3.7679314E1,4.5307316E1,4.889841E1,6.17448E1,3.7395096E-1,1.5851669E1,2.6542841E1,2.1117887E1,2.7626856E1,3.3096806E1,4.2821404E1,4.6531525E-1,3.899621E1,3.1293062E1,4.1240307E1,4.9194523E1,3.7094006E1,5.188553E1,6.547938E1,5.0996204E1,2.969602E-1,1.9795696E-1,4.342567E-1,5.818297E-1,3.3945644E-1,4.631288E-1,4.801869E-1,6.568893E-1,5.806868E-1,7.2234124E-1,8.134352E-1,5.534202E-1,6.434799E-1,7.596372E-1,6.395634E-1,4.8992932E-1,7.177204E-1,9.4756126E-1,9.0033025E-1,6.019641E-1,4.6672815E-1,6.937462E-1,9.492063E-1,5.119774E-1,1.1019707E0,1.3588672E0,1.0045451E0,7.678281E-1],"categories":[],"categories_nodes":[],"categories_segments":[],"categories_sizes":[],"default_left":[0,0,0,0,0,0,0,0,0,0,0,0,0,0,0,0,0,0,0,0,0,0,0,0,0,0,0,0,0,0,0,0,0,0,0,0,0,0,0,0,0,0,0,0,0,0,0,0,0,0,0,0,0,0,0,0,0,0,0,0,0,0,0,0,0],"id":6,"left_children":[1,3,5,7,9,11,-1,13,15,-1,-1,17,19,21,23,25,27,29,31,33,35,-1,37,39,41,43,45,47,-1,49,51,53,55,57,59,61,63,-1,-1,-1,-1,-1,-1,-1,-1,-1,-1,-1,-1,-1,-1,-1,-1,-1,-1,-1,-1,-1,-1,-1,-1,-1,-1,-1,-1],"loss_changes":[1.740356E6,2.61163E5,7.19363E5,2.39864E5,2.642725E4,3.16555E5,0E0,3.00135E4,4.13055E4,0E0,0E0,5.01345E4,9.21995E4,6.6566562E3,1.0194875E4,3.5886E4,1.21605E4,1.1067E4,2.6398E4,3.173825E4,4.83795E4,0E0,3.2653438E3,6.5712812E3,9.7645E3,2.218575E4,9.78275E3,6.3465E3,0E0,1.0425E4,2.4267812E3,9.77975E3,7.7585E3,4.315625E2,1.143275E4,3.1817E4,8.210125E3,0E0,0E0,0E0,0E0,0E0,0E0,0E0,0E0,0E0,0E0,0E0,0E0,0E0,0E0,0E0,0E0,0E0,0E0,0E0,0E0,0E0,0E0,0E0,0E0,0E0,0E0,0E0,0E0],"parents":[2147483647,0,0,1,1,2,2,3,3,4,4,5,5,7,7,8,8,11,11,12,12,13,13,14,14,15,15,16,16,17,17,18,18,19,19,20,20,22,22,23,23,24,24,25,25,26,26,27,27,29,29,30,30,31,31,32,32,33,33,34,34,35,35,36,36],"right_children":[2,4,6,8,10,12,-1,14,16,-1,-1,18,20,22,24,26,28,30,32,34,36,-1,38,40,42,44,46,48,-1,50,52,54,56,58,60,62,64,-1,-1,-1,-1,-1,-1,-1,-1,-1,-1,-1,-1,-1,-1,-1,-1,-1,-1,-1,-1,-1,-1,-1,-1,-1,-1,-1,-1],"split_conditions":[4.15E1,1E0,1E0,1.8E1,2.65E1,5.775E1,2.4131231E0,2.5208334E1,1E0,8.728795E-1,1.5130653E0,2.8083334E1,3.3416668E1,1.5E1,6.234898E-1,3.525E1,1.5E1,6.234898E-1,4.875E1,2.5208334E1,6.234898E-1,3.7395096E-1,1E0,1.8939215E1,2.2E1,1E0,1E0,1E0,4.6531525E-1,2.4166666E1,5E-1,1E0,1E0,2.4E1,6.234898E-1,7.2E1,1.2246469E-16,2.969602E-1,1.9795696E-1,4.342567E-1,5.818297E-1,3.3945644E-1,4.631288E-1,4.801869E-1,6.568893E-1,5.806868E-1,7.2234124E-1,8.134352E-1,5.534202E-1,6.434799E-1,7.596372E-1,6.395634E-1,4.8992932E-1,7.177204E-1,9.4756126E-1,9.0033025E-1,6.019641E-1,4.6672815E-1,6.937462E-1,9.492063E-1,5.119774E-1,1.1019707E0,1.3588672E0,1.0045451E0,7.678281E-1],"split_indices":[72,48,48,73,72,72,0,8,27,0,0,8,8,13,26,72,13,26,72,8,26,0,26,10,4,28,50,26,0,8,27,27,26,1,26,0,27,0,0,0,0,0,0,0,0,0,0,0,0,0,0,0,0,0,0,0,0,0,0,0,0,0,0,0,0],"split_type":[0,0,0,0,0,0,0,0,0,0,0,0,0,0,0,0,0,0,0,0,0,0,0,0,0,0,0,0,0,0,0,0,0,0,0,0,0,0,0,0,0,0,0,0,0,0,0,0,0,0,0,0,0,0,0,0,0,0,0,0,0,0,0,0,0],"sum_hessian":[1.57E4,9.236E3,6.464E3,9.104E3,1.32E2,6.368E3,9.6E1,3.404E3,5.7E3,5.2E1,8E1,3.84E3,2.528E3,1.676E3,1.728E3,5.256E3,4.44E2,1.772E3,2.068E3,1.068E3,1.46E3,4.2E2,1.256E3,6.44E2,1.084E3,2.952E3,2.304E3,3.76E2,6.8E1,1.456E3,3.16E2,1.028E3,1.04E3,2.24E2,8.44E2,1.072E3,3.88E2,1.104E3,1.52E2,4.64E2,1.8E2,7.36E2,3.48E2,2.672E3,2.8E2,2.068E3,2.36E2,3.08E2,6.8E1,7.36E2,7.2E2,1.44E2,1.72E2,9.28E2,1E2,9.84E2,5.6E1,3.2E1,1.92E2,8.12E2,3.2E1,7.64E2,3.08E2,2.36E2,1.52E2],"tree_param":{"num_deleted":"0","num_feature":"74","num_nodes":"65","size_leaf_vector":"1"}},{"base_weights":[3.6104416E1,2.84737E1,5.0014935E1,2.1611052E1,3.3171932E1,4.1991817E1,5.7083622E1,1.9721336E1,2.8352634E1,3.2490616E1,7.295574E1,3.8634922E1,5.179577E1,5.072217E1,7.219586E1,1.7018112E1,2.2074793E1,2.662973E1,4.6178967E1,2.7694593E1,3.4647106E1,1.6152881E0,4.025839E1,4.812688E-1,3.9732903E1,4.984896E1,1.7833304E0,4.3005127E1,5.5189457E1,6.84344E1,2.1055505E0,1.4737593E1,1.9091055E1,1.9865448E1,2.5102188E1,2.4748716E1,3.5700794E1,6.972557E-1,1.2270505E0,2.1427677E1,2.9117636E1,2.9708303E1,3.612951E1,5.1492E-1,9.5511276E-1,3.4864445E1,4.127695E1,9.368881E-1,4.2311733E1,6.456884E-1,4.467689E1,5.2510178E1,1.1327472E0,7.3222404E1,5.5220764E1,1.8512052E-1,2.7593836E-1,2.8138262E-1,3.7971336E-1,3.2812467E-1,3.8574386E-1,4.9008954E-1,3.6385512E-1,2.6348966E-1,4.5445392E-1,3.8621613E-1,6.7718804E-1,3.1452954E-1,4.044234E-1,4.9747378E-1,6.049845E-1,4.7750244E-1,6.070393E-1,5.438816E-1,6.796034E-1,5.3521854E-1,6.6959256E-1,6.4974344E-1,7.77859E-1,4.7776788E-1,7.9235363E-1,7.3784137E-1,8.68722E-1,8.145858E-1,9.766584E-1,4.496876E-1,1.3409387E0,1.0147628E0,5.0381863E-1],"categories":[],"categories_nodes":[],"categories_segments":[],"categories_sizes":[],"default_left":[0,0,0,0,0,0,0,0,0,0,0,0,0,0,0,0,0,0,0,0,0,0,0,0,0,0,0,0,0,0,0,0,0,0,0,0,0,0,0,0,0,0,0,0,0,0,0,0,0,0,0,0,0,0,0,0,0,0,0,0,0,0,0,0,0,0,0,0,0,0,0,0,0,0,0,0,0,0,0,0,0,0,0,0,0,0,0,0,0],"id":7,"left_children":[1,3,5,7,9,11,13,15,17,19,21,23,25,27,29,31,33,35,37,39,41,-1,43,-1,45,47,-1,49,51,53,-1,55,57,59,61,63,65,-1,-1,67,69,71,73,-1,-1,75,77,-1,79,-1,81,83,-1,85,87,-1,-1,-1,-1,-1,-1,-1,-1,-1,-1,-1,-1,-1,-1,-1,-1,-1,-1,-1,-1,-1,-1,-1,-1,-1,-1,-1,-1,-1,-1,-1,-1,-1,-1],"loss_changes":[1.664882E6,3.25373E5,3.08248E5,5.0914875E4,1.55954E5,7.9934E4,2.72363E5,1.939325E4,2.3714812E4,5.82855E4,4.2933E4,2.2308E4,4.5344125E4,6.4549E4,1.21259E5,6.2591875E3,9.9001875E3,1.1288125E4,4.0776406E3,1.452725E4,2.6456E4,0E0,1.0317227E3,0E0,8.9295E3,3.561E3,0E0,4.287875E3,1.681025E4,3.85635E4,0E0,1.373125E3,4.3405625E3,1.3005625E3,5.5995938E3,2.1687188E3,1.0625312E3,0E0,0E0,1.533125E2,7.1115E3,9.3965E3,2.60605E4,0E0,0E0,1.8619375E3,8.4415E3,0E0,5.1240625E2,0E0,1.9865E3,4.726E3,0E0,2.859475E4,1.9449375E3,0E0,0E0,0E0,0E0,0E0,0E0,0E0,0E0,0E0,0E0,0E0,0E0,0E0,0E0,0E0,0E0,0E0,0E0,0E0,0E0,0E0,0E0,0E0,0E0,0E0,0E0,0E0,0E0,0E0,0E0,0E0,0E0,0E0,0E0],"parents":[2147483647,0,0,1,1,2,2,3,3,4,4,5,5,6,6,7,7,8,8,9,9,10,10,11,11,12,12,13,13,14,14,15,15,16,16,17,17,18,18,19,19,20,20,22,22,24,24,25,25,27,27,28,28,29,29,31,31,32,32,33,33,34,34,35,35,36,36,39,39,40,40,41,41,42,42,45,45,46,46,48,48,50,50,51,51,53,53,54,54],"right_children":[2,4,6,8,10,12,14,16,18,20,22,24,26,28,30,32,34,36,38,40,42,-1,44,-1,46,48,-1,50,52,54,-1,56,58,60,62,64,66,-1,-1,68,70,72,74,-1,-1,76,78,-1,80,-1,82,84,-1,86,88,-1,-1,-1,-1,-1,-1,-1,-1,-1,-1,-1,-1,-1,-1,-1,-1,-1,-1,-1,-1,-1,-1,-1,-1,-1,-1,-1,-1,-1,-1,-1,-1,-1,-1],"split_conditions":[3.275E1,1.95E1,1E0,3.4E1,5.3666668E1,4.1125E1,3.775E1,1.3E1,6.0041668E1,2.3458334E1,1.2E1,3E0,7.6375E1,2.8083334E1,5.3666668E1,2.3041666E1,2.7E1,4.3388373E-1,1E0,2E0,1E0,1.6152881E0,4.7514045E-1,4.812688E-1,2E0,1.2246469E-16,1.7833304E0,4E0,5E1,1.2246469E-16,2.1055505E0,1E0,1E0,-5E-1,6.234898E-1,1E1,2.3E1,6.972557E-1,1.2270505E0,3E0,2.85E1,3.3541668E1,-5E-1,5.1492E-1,9.5511276E-1,5E0,2.4416666E1,9.368881E-1,4.5125E1,6.456884E-1,4.1E1,3.2E1,1.1327472E0,-5E-1,3.075E3,1.8512052E-1,2.7593836E-1,2.8138262E-1,3.7971336E-1,3.2812467E-1,3.8574386E-1,4.9008954E-1,3.6385512E-1,2.6348966E-1,4.5445392E-1,3.8621613E-1,6.7718804E-1,3.1452954E-1,4.044234E-1,4.9747378E-1,6.049845E-1,4.7750244E-1,6.070393E-1,5.438816E-1,6.796034E-1,5.3521854E-1,6.6959256E-1,6.4974344E-1,7.77859E-1,4.7776788E-1,7.9235363E-1,7.3784137E-1,8.68722E-1,8.145858E-1,9.766584E-1,4.496876E-1,1.3409387E0,1.0147628E0,5.0381863E-1],"split_indices":[73,73,18,0,8,8,8,73,8,8,19,15,8,8,8,8,8,25,20,15,14,0,42,0,14,23,0,19,1,23,0,14,14,23,26,73,1,0,0,19,73,8,23,0,0,15,8,0,8,0,7,1,0,23,69,0,0,0,0,0,0,0,0,0,0,0,0,0,0,0,0,0,0,0,0,0,0,0,0,0,0,0,0,0,0,0,0,0,0],"split_type":[0,0,0,0,0,0,0,0,0,0,0,0,0,0,0,0,0,0,0,0,0,0,0,0,0,0,0,0,0,0,0,0,0,0,0,0,0,0,0,0,0,0,0,0,0,0,0,0,0,0,0,0,0,0,0,0,0,0,0,0,0,0,0,0,0,0,0,0,0,0,0,0,0,0,0,0,0,0,0,0,0,0,0,0,0,0,0,0,0],"sum_hessian":[1.5724E4,1.016E4,5.564E3,4.136E3,6.024E3,2.616E3,2.948E3,3.24E3,8.96E2,5.928E3,9.6E1,1.96E3,6.56E2,2.084E3,8.64E2,1.52E3,1.72E3,8.24E2,7.2E1,1.852E3,4.076E3,6E1,3.6E1,1.72E2,1.788E3,6.36E2,2E1,7.76E2,1.308E3,8.04E2,6E1,7.36E2,7.84E2,1.008E3,7.12E2,6.92E2,1.32E2,6E1,1.2E1,3.52E2,1.5E3,9.56E2,3.12E3,2.4E1,1.2E1,4.48E2,1.34E3,4.8E2,1.56E2,1.6E2,6.16E2,9.88E2,3.2E2,5.8E2,2.24E2,9.2E1,6.44E2,2.96E2,4.88E2,5.08E2,5E2,4.88E2,2.24E2,3.6E1,6.56E2,2E1,1.12E2,8.4E1,2.68E2,1.14E3,3.6E2,5.44E2,4.12E2,6.76E2,2.444E3,1.52E2,2.96E2,3.76E2,9.64E2,2E1,1.36E2,3.2E2,2.96E2,2.04E2,7.84E2,1.6E1,5.64E2,2.12E2,1.2E1],"tree_param":{"num_deleted":"0","num_feature":"74","num_nodes":"89","size_leaf_vector":"1"}},{"base_weights":[3.5304417E1,2.6708982E1,4.725677E1,2.347833E1,3.509733E1,4.605669E1,1.27227875E2,1.8522276E1,2.7284613E1,3.325487E1,6.1189476E1,4.1245308E1,5.4785244E1,7.784346E-1,1.3777815E2,1.5147387E1,2.0028917E1,2.062277E1,2.821438E1,3.1966047E1,4.0884274E1,5.752562E-1,7.5577286E1,3.8397034E1,4.668608E1,4.6318684E1,5.8818615E1,1.9908189E0,2.9827807E0,1.8640316E1,1.3901193E1,1.9632334E1,6.30133E-1,2.873675E-1,2.1514284E1,2.676006E1,3.1842796E1,2.7678808E1,3.4201653E1,3.7668846E1,5.374509E1,8.959321E-1,8.457397E1,3.1004396E1,3.95539E1,3.7227974E1,4.8630333E1,3.6079002E1,4.8990326E1,4.8864975E1,6.2242027E1,2.7244496E-1,3.8984925E-1,2.1096854E-1,2.7865505E-1,3.4258676E-1,4.3166566E-1,4.043928E-1,3.065621E-1,4.716914E-1,5.984568E-1,5.0213677E-1,5.9498596E-1,4.382386E-1,5.450341E-1,4.7722495E-1,6.4976907E-1,4.1486496E-1,7.078748E-1,1.1186365E0,6.634229E-1,1.6525193E0,6.727687E-1,4.0614748E-1,5.892325E-1,6.962154E-1,8.684382E-1,6.886327E-1,3.345128E-1,8.2512444E-1,1.0149664E0,6.9015133E-1,4.3726373E-1,4.765713E-1,8.8830733E-1,5.9893906E-1,9.057707E-1,1.0424082E0,1.2955809E0],"categories":[],"categories_nodes":[],"categories_segments":[],"categories_sizes":[],"default_left":[0,0,0,0,0,0,0,0,0,0,0,0,0,0,0,0,0,0,0,0,0,0,0,0,0,0,0,0,0,0,0,0,0,0,0,0,0,0,0,0,0,0,0,0,0,0,0,0,0,0,0,0,0,0,0,0,0,0,0,0,0,0,0,0,0,0,0,0,0,0,0,0,0,0,0,0,0,0,0,0,0,0,0,0,0,0,0,0,0],"id":8,"left_children":[1,3,5,7,9,11,13,15,17,19,21,23,25,-1,27,29,31,33,35,37,39,-1,41,43,45,47,49,-1,-1,51,53,55,-1,-1,57,59,61,63,65,67,69,-1,71,73,75,77,79,81,83,85,87,-1,-1,-1,-1,-1,-1,-1,-1,-1,-1,-1,-1,-1,-1,-1,-1,-1,-1,-1,-1,-1,-1,-1,-1,-1,-1,-1,-1,-1,-1,-1,-1,-1,-1,-1,-1,-1,-1],"loss_changes":[1.60392E6,2.44268E5,6.09876E5,1.22611E5,1.1510975E5,2.63867E5,6.5826125E4,1.358775E4,2.115075E4,1.914675E4,6.1055562E4,5.90175E4,6.94905E4,0E0,7.248125E3,3.0429375E3,9.497625E3,8.0703125E2,1.4453E4,1.6526875E4,7.3549375E3,0E0,1.1871125E4,1.9682E4,2.0419E4,1.5000875E4,4.2867E4,0E0,0E0,1.3091875E3,1.6970391E3,3.6340625E3,0E0,0E0,3.5401562E2,5.89175E3,1.3811875E3,3.814375E3,1.610575E4,3.673125E3,1.1989375E3,0E0,1.47533125E4,3.2219688E3,1.2664E4,2.4842188E3,1.737525E4,1.4410156E3,1.98375E2,3.783125E3,3.5011E4,0E0,0E0,0E0,0E0,0E0,0E0,0E0,0E0,0E0,0E0,0E0,0E0,0E0,0E0,0E0,0E0,0E0,0E0,0E0,0E0,0E0,0E0,0E0,0E0,0E0,0E0,0E0,0E0,0E0,0E0,0E0,0E0,0E0,0E0,0E0,0E0,0E0,0E0],"parents":[2147483647,0,0,1,1,2,2,3,3,4,4,5,5,6,6,7,7,8,8,9,9,10,10,11,11,12,12,14,14,15,15,16,16,17,17,18,18,19,19,20,20,22,22,23,23,24,24,25,25,26,26,29,29,30,30,31,31,34,34,35,35,36,36,37,37,38,38,39,39,40,40,42,42,43,43,44,44,45,45,46,46,47,47,48,48,49,49,50,50],"right_children":[2,4,6,8,10,12,14,16,18,20,22,24,26,-1,28,30,32,34,36,38,40,-1,42,44,46,48,50,-1,-1,52,54,56,-1,-1,58,60,62,64,66,68,70,-1,72,74,76,78,80,82,84,86,88,-1,-1,-1,-1,-1,-1,-1,-1,-1,-1,-1,-1,-1,-1,-1,-1,-1,-1,-1,-1,-1,-1,-1,-1,-1,-1,-1,-1,-1,-1,-1,-1,-1,-1,-1,-1,-1,-1],"split_conditions":[4.15E1,4E1,2.9958334E1,2.625E1,5.3666668E1,6E1,1E0,1.8E1,2E0,1E0,1E0,5.5E1,3.2208332E1,7.784346E-1,2.499E3,2E0,2.0666666E1,1E0,3.625E1,1E0,7.818315E-1,5.752562E-1,2.825E1,2.15E1,3.55E1,4E0,1E0,1.9908189E0,2.9827807E0,1.725E1,1.5E1,1E0,6.30133E-1,2.873675E-1,1.0839286E1,1E0,2.8E1,3.2416668E1,-5E-1,3E0,7E0,8.959321E-1,4E0,1.8291666E1,1E0,8.2E1,1.7208334E1,1.2246469E-16,2.0166666E1,2E0,6.7E1,2.7244496E-1,3.8984925E-1,2.1096854E-1,2.7865505E-1,3.4258676E-1,4.3166566E-1,4.043928E-1,3.065621E-1,4.716914E-1,5.984568E-1,5.0213677E-1,5.9498596E-1,4.382386E-1,5.450341E-1,4.7722495E-1,6.4976907E-1,4.1486496E-1,7.078748E-1,1.1186365E0,6.634229E-1,1.6525193E0,6.727687E-1,4.0614748E-1,5.892325E-1,6.962154E-1,8.684382E-1,6.886327E-1,3.345128E-1,8.2512444E-1,1.0149664E0,6.9015133E-1,4.3726373E-1,4.765713E-1,8.8830733E-1,5.9893906E-1,9.057707E-1,1.0424082E0,1.2955809E0],"split_indices":[72,0,11,72,8,2,50,2,15,50,50,3,8,0,69,65,11,14,72,14,25,0,72,8,73,15,18,0,0,72,2,50,0,0,12,50,0,8,23,15,15,0,15,8,50,3,11,23,8,14,0,0,0,0,0,0,0,0,0,0,0,0,0,0,0,0,0,0,0,0,0,0,0,0,0,0,0,0,0,0,0,0,0,0,0,0,0,0,0],"split_type":[0,0,0,0,0,0,0,0,0,0,0,0,0,0,0,0,0,0,0,0,0,0,0,0,0,0,0,0,0,0,0,0,0,0,0,0,0,0,0,0,0,0,0,0,0,0,0,0,0,0,0,0,0,0,0,0,0,0,0,0,0,0,0,0,0,0,0,0,0,0,0,0,0,0,0,0,0,0,0,0,0,0,0,0,0,0,0,0,0],"sum_hessian":[1.5648E4,9.108E3,6.54E3,6.584E3,2.524E3,6.448E3,9.2E1,2.868E3,3.716E3,2.364E3,1.6E2,4.168E3,2.28E3,1.2E1,8E1,8.96E2,1.972E3,4.64E2,3.252E3,2.036E3,3.28E2,5.6E1,1.04E2,2.752E3,1.416E3,7.48E2,1.532E3,4.8E1,3.2E1,2.24E2,6.72E2,1.928E3,4.4E1,8.4E1,3.8E2,2.34E3,9.12E2,7.12E2,1.324E3,2.72E2,5.6E1,3.2E1,7.2E1,3.84E2,2.368E3,2.52E2,1.164E3,1.64E2,5.84E2,4.04E2,1.128E3,1.12E2,1.12E2,2.92E2,3.8E2,1.704E3,2.24E2,3.04E2,7.6E1,2.164E3,1.76E2,2.28E2,6.84E2,3.24E2,3.88E2,2.68E2,1.056E3,3.2E1,2.4E2,3.2E1,2.4E1,6E1,1.2E1,7.2E1,3.12E2,2.16E3,2.08E2,2.36E2,1.6E1,8.68E2,2.96E2,1.32E2,3.2E1,1.2E1,5.72E2,4E1,3.64E2,7.92E2,3.36E2],"tree_param":{"num_deleted":"0","num_feature":"74","num_nodes":"89","size_leaf_vector":"1"}},{"base_weights":[3.4784634E1,2.7819506E1,4.973833E1,2.0974728E1,3.2668373E1,4.825622E1,2.6783044E0,1.9920607E1,3.1831423E1,3.179135E1,1.6251346E0,4.0006012E1,5.2826397E1,1.551661E1,2.2318861E1,2.8248201E1,4.742461E1,2.8273703E1,3.430603E1,3.2854614E1,4.206663E1,5.656989E1,4.4513153E1,1.2180538E1,1.643333E1,1.9053406E1,2.4109303E1,3.5397057E1,2.4072405E1,5.252963E-1,9.2550325E-1,2.7344524E1,3.819381E1,3.349221E1,4.5499012E1,2.0715261E1,3.4626434E1,4.349192E1,3.1551807E1,5.331896E1,6.80575E1,3.7634514E1,4.9734097E1,1.7156157E-1,2.3516765E-1,2.6074362E-1,3.1053734E-1,3.525155E-1,2.6100817E-1,3.9697516E-1,4.8318768E-1,5.3303003E-1,7.645228E-1,3.344004E-1,4.9598616E-1,4.7795704E-1,6.301229E-1,7.054811E-1,3.1431377E-1,5.1163757E-1,6.314836E-1,5.3608704E-1,9.007476E-1,4.122554E-1,2.2294699E-1,6.4257514E-1,3.2658198E-1,6.4907676E-1,8.1234276E-1,3.9924705E-1,6.1705077E-1,8.16022E-1,1.0246542E0,1.2468566E0,6.6280574E-1,5.866774E-1,7.116241E-1,7.283045E-1,9.3379813E-1],"categories":[],"categories_nodes":[],"categories_segments":[],"categories_sizes":[],"default_left":[0,0,0,0,0,0,0,0,0,0,0,0,0,0,0,0,0,0,0,0,0,0,0,0,0,0,0,0,0,0,0,0,0,0,0,0,0,0,0,0,0,0,0,0,0,0,0,0,0,0,0,0,0,0,0,0,0,0,0,0,0,0,0,0,0,0,0,0,0,0,0,0,0,0,0,0,0,0,0],"id":9,"left_children":[1,3,5,7,9,11,-1,13,15,17,-1,19,21,23,25,27,29,31,33,35,37,39,41,43,45,47,49,51,53,-1,-1,55,57,59,61,63,65,67,69,71,73,75,77,-1,-1,-1,-1,-1,-1,-1,-1,-1,-1,-1,-1,-1,-1,-1,-1,-1,-1,-1,-1,-1,-1,-1,-1,-1,-1,-1,-1,-1,-1,-1,-1,-1,-1,-1,-1],"loss_changes":[1.606584E6,3.48239E5,6.98195E5,4.8156E4,3.02754E5,1.76001E5,0E0,4.1174625E4,1.7165531E4,5.0756E4,0E0,2.126725E4,8.8851E4,3.669625E3,1.3624E4,6.797203E3,1.1809375E2,2.0231125E4,2.740425E4,6.3584062E3,1.5737E4,6.83535E4,2.9295625E4,3.041914E2,9.098125E2,1.2513125E3,7.415375E3,5.676094E2,2.36E3,0E0,0E0,1.1544625E4,2.0491562E3,2.319025E4,1.16995E4,1.1813281E2,3.9072188E3,8.9355E3,1.9044531E3,3.98825E4,8.79075E3,6.15625E1,4.178125E3,0E0,0E0,0E0,0E0,0E0,0E0,0E0,0E0,0E0,0E0,0E0,0E0,0E0,0E0,0E0,0E0,0E0,0E0,0E0,0E0,0E0,0E0,0E0,0E0,0E0,0E0,0E0,0E0,0E0,0E0,0E0,0E0,0E0,0E0,0E0,0E0],"parents":[2147483647,0,0,1,1,2,2,3,3,4,4,5,5,7,7,8,8,9,9,11,11,12,12,13,13,14,14,15,15,16,16,17,17,18,18,19,19,20,20,21,21,22,22,23,23,24,24,25,25,26,26,27,27,28,28,31,31,32,32,33,33,34,34,35,35,36,36,37,37,38,38,39,39,40,40,41,41,42,42],"right_children":[2,4,6,8,10,12,-1,14,16,18,-1,20,22,24,26,28,30,32,34,36,38,40,42,44,46,48,50,52,54,-1,-1,56,58,60,62,64,66,68,70,72,74,76,78,-1,-1,-1,-1,-1,-1,-1,-1,-1,-1,-1,-1,-1,-1,-1,-1,-1,-1,-1,-1,-1,-1,-1,-1,-1,-1,-1,-1,-1,-1,-1,-1,-1,-1,-1,-1],"split_conditions":[4.675E1,2.025E1,1E0,1E0,1E0,2.9791666E1,2.6783044E0,1.3E1,1E0,3.625E1,1.6251346E0,2.3666666E1,6.234898E-1,1.5E1,5E0,1.5E1,1.6E1,1E0,1E0,1.3E1,6.234898E-1,6.7E1,4.3083332E1,2E0,5E0,1.425E1,-2.4492937E-16,2E0,2E0,5.252963E-1,9.2550325E-1,1.2E1,1.5E1,5E0,2E0,1.5315476E1,1.5696428E1,1.3E1,5.1E1,3.8E1,2.2059525E1,3.5958332E1,1.3E1,1.7156157E-1,2.3516765E-1,2.6074362E-1,3.1053734E-1,3.525155E-1,2.6100817E-1,3.9697516E-1,4.8318768E-1,5.3303003E-1,7.645228E-1,3.344004E-1,4.9598616E-1,4.7795704E-1,6.301229E-1,7.054811E-1,3.1431377E-1,5.1163757E-1,6.314836E-1,5.3608704E-1,9.007476E-1,4.122554E-1,2.2294699E-1,6.4257514E-1,3.2658198E-1,6.4907676E-1,8.1234276E-1,3.9924705E-1,6.1705077E-1,8.16022E-1,1.0246542E0,1.2468566E0,6.6280574E-1,5.866774E-1,7.116241E-1,7.283045E-1,9.3379813E-1],"split_indices":[72,73,48,27,48,8,0,73,48,72,0,8,26,2,15,13,5,27,27,13,26,0,8,15,15,12,27,14,14,0,0,15,13,15,14,12,12,13,1,1,12,8,13,0,0,0,0,0,0,0,0,0,0,0,0,0,0,0,0,0,0,0,0,0,0,0,0,0,0,0,0,0,0,0,0,0,0,0,0],"split_type":[0,0,0,0,0,0,0,0,0,0,0,0,0,0,0,0,0,0,0,0,0,0,0,0,0,0,0,0,0,0,0,0,0,0,0,0,0,0,0,0,0,0,0,0,0,0,0,0,0,0,0,0,0,0,0,0,0,0,0,0,0,0,0,0,0,0,0,0,0,0,0,0,0,0,0,0,0,0,0],"sum_hessian":[1.5464E4,1.0556E4,4.908E3,4.384E3,6.172E3,4.84E3,6.8E1,4.004E3,3.8E2,6.084E3,8.8E1,1.736E3,3.104E3,1.42E3,2.584E3,3.16E2,6.4E1,2.552E3,3.532E3,4E2,1.336E3,2.128E3,9.76E2,3.16E2,1.104E3,9.28E2,1.656E3,1.08E2,2.08E2,1.6E1,4.8E1,2.344E3,2.08E2,3.304E3,2.28E2,5.6E1,3.44E2,1.168E3,1.68E2,1.672E3,4.56E2,4.32E2,5.44E2,8.8E1,2.28E2,3.4E2,7.64E2,8.24E2,1.04E2,9.56E2,7E2,6.8E1,4E1,8.8E1,1.2E2,2.132E3,2.12E2,1.96E2,1.2E1,7.92E2,2.512E3,5.6E1,1.72E2,4E1,1.6E1,3.2E2,2.4E1,2.2E2,9.48E2,4.4E1,1.24E2,5.28E2,1.144E3,4.36E2,2E1,1.32E2,3E2,1.12E2,4.32E2],"tree_param":{"num_deleted":"0","num_feature":"74","num_nodes":"79","size_leaf_vector":"1"}},{"base_weights":[3.4025726E1,2.5515217E1,4.6002613E1,2.4892399E1,6.900289E1,4.4583244E1,2.3261845E0,1.8183443E1,2.812731E1,8.3071256E-1,1.4307443E0,3.9914734E1,5.3303185E1,1.7218668E1,2.6762058E1,2.5207943E1,3.0621664E1,3.590308E1,4.3037792E1,4.893754E1,6.1073982E1,1.4366527E1,1.9229568E1,3.6035883E-1,2.9765474E1,2.3706997E1,2.8338516E1,2.9450073E1,3.9271618E1,3.0236612E1,3.759734E1,4.2565742E1,1.5232878E0,4.2205643E1,5.3269577E1,6.570565E1,8.744168E-1,2.2386862E-1,2.8319958E-1,3.3602837E-1,4.346149E-1,5.608168E-1,3.1835178E-1,3.434143E-1,4.394593E-1,3.8544187E-1,5.2971756E-1,5.0221896E-1,5.967996E-1,5.660776E-1,7.6302373E-1,2.274847E-1,5.5800784E-1,5.9526974E-1,7.05411E-1,6.8559676E-1,8.2644945E-1,5.9652907E-1,8.0112886E-1,8.9187616E-1,1.0364054E0,9.925275E-1,1.2283816E0],"categories":[],"categories_nodes":[],"categories_segments":[],"categories_sizes":[],"default_left":[0,0,0,0,0,0,0,0,0,0,0,0,0,0,0,0,0,0,0,0,0,0,0,0,0,0,0,0,0,0,0,0,0,0,0,0,0,0,0,0,0,0,0,0,0,0,0,0,0,0,0,0,0,0,0,0,0,0,0,0,0,0,0],"id":10,"left_children":[1,3,5,7,9,11,-1,13,15,-1,-1,17,19,21,23,25,27,29,31,33,35,37,39,-1,41,43,45,47,49,51,53,55,-1,57,59,61,-1,-1,-1,-1,-1,-1,-1,-1,-1,-1,-1,-1,-1,-1,-1,-1,-1,-1,-1,-1,-1,-1,-1,-1,-1,-1,-1],"loss_changes":[1.585048E6,2.415675E5,7.4589E5,1.935515E5,1.8965312E4,2.52548E5,0E0,2.27835E4,4.16755E4,0E0,0E0,4.7246E4,6.57295E4,1.42568125E4,3.9758125E3,1.104475E4,2.93215E4,1.4052E4,3.43845E4,3.47165E4,3.553975E4,2.242625E3,2.865125E3,0E0,1.4407188E3,4.63625E3,4.61675E3,1.36785E4,4.9833125E3,4.4463125E3,5.9065E3,2.8922E4,0E0,7.2315E3,4.919E3,3.25425E3,0E0,0E0,0E0,0E0,0E0,0E0,0E0,0E0,0E0,0E0,0E0,0E0,0E0,0E0,0E0,0E0,0E0,0E0,0E0,0E0,0E0,0E0,0E0,0E0,0E0,0E0,0E0],"parents":[2147483647,0,0,1,1,2,2,3,3,4,4,5,5,7,7,8,8,11,11,12,12,13,13,14,14,15,15,16,16,17,17,18,18,19,19,20,20,21,21,22,22,24,24,25,25,26,26,27,27,28,28,29,29,30,30,31,31,33,33,34,34,35,35],"right_children":[2,4,6,8,10,12,-1,14,16,-1,-1,18,20,22,24,26,28,30,32,34,36,38,40,-1,42,44,46,48,50,52,54,56,-1,58,60,62,-1,-1,-1,-1,-1,-1,-1,-1,-1,-1,-1,-1,-1,-1,-1,-1,-1,-1,-1,-1,-1,-1,-1,-1,-1,-1,-1],"split_conditions":[4.15E1,1E0,1E0,2.575E1,2.65E1,5.95E1,2.3261845E0,1E0,2.3E1,8.3071256E-1,1.4307443E0,2.8083334E1,3.8625E1,2.05E1,1.95E1,3.525E1,1E0,2.15E1,1E0,5E0,6E0,1.7E1,1.2E1,3.6035883E-1,3.3E1,2E0,2E0,3.8E1,2E0,1.5208333E1,5E0,4.9E1,1.5232878E0,2E0,6.8E1,4E1,8.744168E-1,2.2386862E-1,2.8319958E-1,3.3602837E-1,4.346149E-1,5.608168E-1,3.1835178E-1,3.434143E-1,4.394593E-1,3.8544187E-1,5.2971756E-1,5.0221896E-1,5.967996E-1,5.660776E-1,7.6302373E-1,2.274847E-1,5.5800784E-1,5.9526974E-1,7.05411E-1,6.8559676E-1,8.2644945E-1,5.9652907E-1,8.0112886E-1,8.9187616E-1,1.0364054E0,9.925275E-1,1.2283816E0],"split_indices":[72,48,48,72,72,72,0,27,4,0,0,8,8,72,72,72,27,8,46,15,14,2,15,0,2,15,15,72,14,8,15,72,0,15,2,4,0,0,0,0,0,0,0,0,0,0,0,0,0,0,0,0,0,0,0,0,0,0,0,0,0,0,0],"split_type":[0,0,0,0,0,0,0,0,0,0,0,0,0,0,0,0,0,0,0,0,0,0,0,0,0,0,0,0,0,0,0,0,0,0,0,0,0,0,0,0,0,0,0,0,0,0,0,0,0,0,0,0,0,0,0,0,0,0,0,0,0,0,0],"sum_hessian":[1.5584E4,9.116E3,6.468E3,8.992E3,1.24E2,6.364E3,1.04E2,2.932E3,6.06E3,4.4E1,8E1,4.156E3,2.208E3,2.644E3,2.88E2,2.808E3,3.252E3,1.836E3,2.32E3,1.428E3,7.8E2,1.104E3,1.54E3,9.6E1,1.92E2,1.916E3,8.92E2,2.876E3,3.76E2,4.36E2,1.4E3,2.3E3,2E1,5.72E2,8.56E2,5.6E2,2.2E2,4.68E2,6.36E2,1.392E3,1.48E2,1.68E2,2.4E1,2.6E2,1.656E3,1.28E2,7.64E2,2.036E3,8.4E2,1.16E2,2.6E2,2E1,4.16E2,3.76E2,1.024E3,9.92E2,1.308E3,1.24E2,4.48E2,4.76E2,3.8E2,1.2E2,4.4E2],"tree_param":{"num_deleted":"0","num_feature":"74","num_nodes":"63","size_leaf_vector":"1"}},{"base_weights":[3.3389915E1,2.4790234E1,4.324005E1,1.8756044E1,2.8604172E1,4.200368E1,9.4796486E1,1.712096E1,2.454013E1,2.5718168E1,3.41987E1,3.726534E1,5.2339928E1,6.789236E1,2.0027678E0,1.4651796E1,1.9808512E1,2.2727348E1,3.1142567E1,2.13636E1,2.726303E1,3.321066E1,1.2098414E0,3.455107E1,4.339634E1,4.596679E1,5.7942623E1,4.516119E1,1.3789542E0,1.2756535E1,1.6235994E1,1.914869E1,4.7787556E-1,1.9383686E1,2.3903517E1,2.6011276E-1,3.348291E1,1.3201529E-1,2.1526192E1,2.1388283E1,2.81689E1,4.0661533E1,3.0183546E1,3.3260742E1,4.324338E1,4.0600113E1,5.4575798E1,5.976302E-1,4.7322735E1,4.8107174E1,6.1236774E1,1.0221072E0,4.387033E-1,1.7274769E-1,2.4124368E-1,2.4757633E-1,3.2111248E-1,3.3432826E-1,4.235129E-1,2.842125E-1,3.954668E-1,2.4903664E-1,4.3599102E-1,5.4438245E-1,8.358395E-1,3.564464E-1,4.209291E-1,4.148202E-1,3.1534356E-1,5.402732E-1,4.4045097E-1,6.163215E-1,8.0712825E-1,5.1027936E-1,6.7730004E-1,4.977276E-1,6.2315536E-1,8.450359E-1,6.728221E-1,6.390785E-1,7.8794074E-1,8.3160824E-1,1.0457933E0,6.6110724E-1,8.788514E-1,6.548781E-1,9.18285E-1,1.036857E0,1.2830529E0],"categories":[],"categories_nodes":[],"categories_segments":[],"categories_sizes":[],"default_left":[0,0,0,0,0,0,0,0,0,0,0,0,0,0,0,0,0,0,0,0,0,0,0,0,0,0,0,0,0,0,0,0,0,0,0,0,0,0,0,0,0,0,0,0,0,0,0,0,0,0,0,0,0,0,0,0,0,0,0,0,0,0,0,0,0,0,0,0,0,0,0,0,0,0,0,0,0,0,0,0,0,0,0,0,0,0,0,0,0],"id":11,"left_children":[1,3,5,7,9,11,13,15,17,19,21,23,25,27,-1,29,31,33,35,37,39,41,-1,43,45,47,49,51,-1,53,55,57,-1,59,61,-1,63,-1,65,67,69,71,73,75,77,79,81,-1,83,85,87,-1,-1,-1,-1,-1,-1,-1,-1,-1,-1,-1,-1,-1,-1,-1,-1,-1,-1,-1,-1,-1,-1,-1,-1,-1,-1,-1,-1,-1,-1,-1,-1,-1,-1,-1,-1,-1,-1],"loss_changes":[1.312192E6,1.89249E5,4.48848E5,2.9102125E4,7.919525E4,3.40208E5,5.0508875E4,1.57735625E4,6.13725E3,2.07375E4,4.9020625E4,7.61395E4,7.0806E4,3.2680625E3,0E0,3.2801562E3,3.6639688E3,7.00625E2,4.0021406E3,1.4864688E3,1.1201375E4,3.3895625E4,0E0,3.3411E4,3.931675E4,1.3284E4,2.8663E4,2.1303086E3,0E0,7.972031E2,1.9937031E3,1.397625E3,0E0,3.6421875E2,1.14328125E2,0E0,7.553125E2,0E0,1.3162188E3,8.604219E2,1.21055E4,7.876E3,1.3160125E4,1.920175E4,3.736875E3,1.436025E4,7.0875E1,0E0,9.1035E3,4.5605625E3,1.9012E4,0E0,0E0,0E0,0E0,0E0,0E0,0E0,0E0,0E0,0E0,0E0,0E0,0E0,0E0,0E0,0E0,0E0,0E0,0E0,0E0,0E0,0E0,0E0,0E0,0E0,0E0,0E0,0E0,0E0,0E0,0E0,0E0,0E0,0E0,0E0,0E0,0E0,0E0],"parents":[2147483647,0,0,1,1,2,2,3,3,4,4,5,5,6,6,7,7,8,8,9,9,10,10,11,11,12,12,13,13,15,15,16,16,17,17,18,18,19,19,20,20,21,21,23,23,24,24,25,25,26,26,27,27,29,29,30,30,31,31,33,33,34,34,36,36,38,38,39,39,40,40,41,41,42,42,43,43,44,44,45,45,46,46,48,48,49,49,50,50],"right_children":[2,4,6,8,10,12,14,16,18,20,22,24,26,28,-1,30,32,34,36,38,40,42,-1,44,46,48,50,52,-1,54,56,58,-1,60,62,-1,64,-1,66,68,70,72,74,76,78,80,82,-1,84,86,88,-1,-1,-1,-1,-1,-1,-1,-1,-1,-1,-1,-1,-1,-1,-1,-1,-1,-1,-1,-1,-1,-1,-1,-1,-1,-1,-1,-1,-1,-1,-1,-1,-1,-1,-1,-1,-1,-1],"split_conditions":[2.8E1,2.6E1,1E0,2.2E1,4E1,5.9E1,3.7E1,1.3E1,1E0,1.6E1,1E0,1E0,1.525E1,3E1,2.0027678E0,1.0958333E1,1E0,1.0976191E1,1.1E1,7E0,2.2E1,6.234898E-1,1.2098414E0,4.1125E1,5.5E1,7E0,1E0,7.7E0,1.3789542E0,1E0,1E0,1E0,4.7787556E-1,1E0,9E0,2.6011276E-1,1.2E1,1.3201529E-1,3E0,8.660254E-1,6.234898E-1,2.2E1,4.5E1,9.208333E0,1.2246469E-16,2.2E1,2.9E1,5.976302E-1,3E0,4.1416668E1,4.5E1,1.0221072E0,4.387033E-1,1.7274769E-1,2.4124368E-1,2.4757633E-1,3.2111248E-1,3.3432826E-1,4.235129E-1,2.842125E-1,3.954668E-1,2.4903664E-1,4.3599102E-1,5.4438245E-1,8.358395E-1,3.564464E-1,4.209291E-1,4.148202E-1,3.1534356E-1,5.402732E-1,4.4045097E-1,6.163215E-1,8.0712825E-1,5.1027936E-1,6.7730004E-1,4.977276E-1,6.2315536E-1,8.450359E-1,6.728221E-1,6.390785E-1,7.8794074E-1,8.3160824E-1,1.0457933E0,6.6110724E-1,8.788514E-1,6.548781E-1,9.18285E-1,1.036857E0,1.2830529E0],"split_indices":[6,3,48,4,0,3,6,6,27,6,48,18,11,6,0,11,27,12,7,6,0,26,0,8,0,19,18,36,0,14,14,18,0,14,6,0,36,0,14,28,26,5,3,11,23,5,5,0,14,8,5,0,0,0,0,0,0,0,0,0,0,0,0,0,0,0,0,0,0,0,0,0,0,0,0,0,0,0,0,0,0,0,0,0,0,0,0,0,0],"split_type":[0,0,0,0,0,0,0,0,0,0,0,0,0,0,0,0,0,0,0,0,0,0,0,0,0,0,0,0,0,0,0,0,0,0,0,0,0,0,0,0,0,0,0,0,0,0,0,0,0,0,0,0,0,0,0,0,0,0,0,0,0,0,0,0,0,0,0,0,0,0,0,0,0,0,0,0,0,0,0,0,0,0,0,0,0,0,0,0,0],"sum_hessian":[1.5528E4,8.296E3,7.232E3,3.22E3,5.076E3,7.068E3,1.64E2,2.52E3,7E2,3.36E3,1.716E3,4.856E3,2.212E3,6.8E1,9.6E1,1.324E3,1.196E3,5.6E2,1.4E2,8.92E2,2.468E3,1.672E3,4.4E1,3.38E3,1.476E3,1.048E3,1.164E3,2.4E1,4.4E1,6.16E2,7.08E2,1.1E3,9.6E1,1.6E2,4E2,2E1,1.2E2,1.2E1,8.8E2,3.4E2,2.128E3,4.72E2,1.2E3,2.956E3,4.24E2,1.192E3,2.84E2,1.08E2,9.4E2,3.04E2,8.6E2,1.2E1,1.2E1,1.12E2,5.04E2,2.88E2,4.2E2,9.84E2,1.16E2,7.6E1,8.4E1,1.6E1,3.84E2,1.04E2,1.6E1,4.72E2,4.08E2,2.28E2,1.12E2,1.412E3,7.16E2,1.96E2,2.76E2,9.72E2,2.28E2,5.8E2,2.376E3,2.48E2,1.76E2,4.68E2,7.24E2,9.6E1,1.88E2,1.24E2,8.16E2,6.8E1,2.36E2,6.44E2,2.16E2],"tree_param":{"num_deleted":"0","num_feature":"74","num_nodes":"89","size_leaf_vector":"1"}},{"base_weights":[3.301157E1,2.5271496E1,4.5285046E1,2.4641222E1,6.444987E1,4.3797207E1,2.411122E0,1.8980444E1,2.87675E1,8.588975E-1,1.3766187E0,3.864074E1,5.0714962E1,1.5478158E1,2.1344496E1,2.5756893E1,3.0789967E1,3.4180958E1,4.1501965E1,4.3130783E1,5.528069E1,1.501981E1,2.4874352E1,1.905949E1,2.3770414E1,1.876859E1,2.6650545E1,2.7349972E1,3.1966484E1,2.4750605E1,3.530097E1,3.7286087E1,4.4922215E1,3.544045E1,4.6027756E1,4.825391E1,5.8630898E1,2.4776849E-1,3.002449E-1,3.503054E-1,5.664893E-1,3.0954516E-1,3.6835974E-1,3.8870785E-1,4.516914E-1,2.7947256E-1,3.605827E-1,4.4075438E-1,5.222582E-1,4.4399065E-1,5.684528E-1,4.874644E-1,5.931551E-1,4.660254E-1,1.6047558E-1,5.434564E-1,6.6882116E-1,6.4734894E-1,8.8949364E-1,5.953355E-1,8.298331E-1,5.4702514E-1,6.929666E-1,8.4270257E-1,4.9793386E-1,4.073716E-1,8.925083E-1,9.2991453E-1,1.1071143E0],"categories":[],"categories_nodes":[],"categories_segments":[],"categories_sizes":[],"default_left":[0,0,0,0,0,0,0,0,0,0,0,0,0,0,0,0,0,0,0,0,0,0,0,0,0,0,0,0,0,0,0,0,0,0,0,0,0,0,0,0,0,0,0,0,0,0,0,0,0,0,0,0,0,0,0,0,0,0,0,0,0,0,0,0,0,0,0,0,0],"id":12,"left_children":[1,3,5,7,9,11,-1,13,15,-1,-1,17,19,21,23,25,27,29,31,33,35,37,39,41,43,45,47,49,51,53,55,57,59,61,63,65,67,-1,-1,-1,-1,-1,-1,-1,-1,-1,-1,-1,-1,-1,-1,-1,-1,-1,-1,-1,-1,-1,-1,-1,-1,-1,-1,-1,-1,-1,-1,-1,-1],"loss_changes":[1.491532E6,2.33493E5,7.83579E5,2.203835E5,1.9038312E4,2.07431E5,0E0,3.2179375E4,3.0918E4,0E0,0E0,3.9463E4,8.0764E4,5.7895938E3,1.1772625E4,1.227775E4,1.0447E4,1.1603875E4,2.4777E4,1.65075E4,2.83815E4,2.4839375E3,5.5335156E2,2.0895938E3,1.526125E3,3.6445312E1,7.774875E3,7.225125E3,8.597E3,1.9651953E3,7.820625E3,9.9205E3,1.068625E4,5.8828125E2,5.591625E3,1.395475E4,1.110325E4,0E0,0E0,0E0,0E0,0E0,0E0,0E0,0E0,0E0,0E0,0E0,0E0,0E0,0E0,0E0,0E0,0E0,0E0,0E0,0E0,0E0,0E0,0E0,0E0,0E0,0E0,0E0,0E0,0E0,0E0,0E0,0E0],"parents":[2147483647,0,0,1,1,2,2,3,3,4,4,5,5,7,7,8,8,11,11,12,12,13,13,14,14,15,15,16,16,17,17,18,18,19,19,20,20,21,21,22,22,23,23,24,24,25,25,26,26,27,27,28,28,29,29,30,30,31,31,32,32,33,33,34,34,35,35,36,36],"right_children":[2,4,6,8,10,12,-1,14,16,-1,-1,18,20,22,24,26,28,30,32,34,36,38,40,42,44,46,48,50,52,54,56,58,60,62,64,66,68,-1,-1,-1,-1,-1,-1,-1,-1,-1,-1,-1,-1,-1,-1,-1,-1,-1,-1,-1,-1,-1,-1,-1,-1,-1,-1,-1,-1,-1,-1,-1,-1],"split_conditions":[4.3E1,1E0,1E0,2.9E1,2.825E1,5.775E1,2.411122E0,2.175E1,2.3E1,8.588975E-1,1.3766187E0,1.2E1,1.425E1,2.8E1,1.8E1,5E0,1E0,4E0,4.9E1,1.0791667E1,2.4E1,1.2E1,2.45E3,1.3846925E1,1E0,3.25E1,3.5E1,1.3958333E1,9.125E0,4.7E1,9.291667E0,4.8E1,3E0,1.2930136E1,6.234898E-1,-5E-1,4.6E1,2.4776849E-1,3.002449E-1,3.503054E-1,5.664893E-1,3.0954516E-1,3.6835974E-1,3.8870785E-1,4.516914E-1,2.7947256E-1,3.605827E-1,4.4075438E-1,5.222582E-1,4.4399065E-1,5.684528E-1,4.874644E-1,5.931551E-1,4.660254E-1,1.6047558E-1,5.434564E-1,6.6882116E-1,6.4734894E-1,8.8949364E-1,5.953355E-1,8.298331E-1,5.4702514E-1,6.929666E-1,8.4270257E-1,4.9793386E-1,4.073716E-1,8.925083E-1,9.2991453E-1,1.1071143E0],"split_indices":[72,48,48,72,72,72,0,72,4,0,0,11,11,4,4,19,14,19,72,11,19,11,70,10,14,72,72,11,11,6,11,19,14,10,26,23,6,0,0,0,0,0,0,0,0,0,0,0,0,0,0,0,0,0,0,0,0,0,0,0,0,0,0,0,0,0,0,0,0],"split_type":[0,0,0,0,0,0,0,0,0,0,0,0,0,0,0,0,0,0,0,0,0,0,0,0,0,0,0,0,0,0,0,0,0,0,0,0,0,0,0,0,0,0,0,0,0,0,0,0,0,0,0,0,0,0,0,0,0,0,0,0,0,0,0,0,0,0,0,0,0],"sum_hessian":[1.5736E4,9.656E3,6.08E3,9.508E3,1.48E2,5.984E3,9.6E1,4.016E3,5.492E3,6.8E1,8E1,3.44E3,2.544E3,1.628E3,2.388E3,2.224E3,3.268E3,1.36E3,2.08E3,9.68E2,1.576E3,1.56E3,6.8E1,1.244E3,1.144E3,2.6E2,1.964E3,8.52E2,2.416E3,1.52E2,1.208E3,9.48E2,1.132E3,2.76E2,6.92E2,5.24E2,1.052E3,9E2,6.6E2,4.4E1,2.4E1,5.48E2,6.96E2,4.48E2,6.96E2,8.4E1,1.76E2,1.036E3,9.28E2,5.32E2,3.2E2,4.12E2,2.004E3,1.4E2,1.2E1,3.32E2,8.76E2,8.64E2,8.4E1,1.08E2,1.024E3,1.16E2,1.6E2,6.6E2,3.2E1,2.8E1,4.96E2,3.2E2,7.32E2],"tree_param":{"num_deleted":"0","num_feature":"74","num_nodes":"69","size_leaf_vector":"1"}},{"base_weights":[3.240238E1,2.5004644E1,4.468405E1,2.4247551E1,6.8255295E1,4.3421303E1,2.2967644E0,1.842271E1,2.8289219E1,5.508844E1,1.4799733E0,3.817064E1,4.9713444E1,1.4474623E1,2.0397926E1,2.7569708E1,3.7610645E1,6.201498E1,6.2494916E-1,3.7159283E1,4.7977596E1,4.2508625E1,5.4183155E1,1.2495484E1,1.5931112E1,1.9428303E1,2.7755932E1,2.5148819E1,3.0385614E1,4.0647936E-1,4.1162193E1,5.760771E-1,1.2026894E0,2.6416733E1,3.7993538E1,4.5178654E1,1.334527E0,3.2399616E1,4.449111E1,5.2406864E1,7.373533E1,1.8587407E-1,2.4951833E-1,2.7609175E-1,3.736812E-1,3.1869587E-1,3.9249384E-1,5.9703994E-1,3.9784515E-1,4.398342E-1,5.890775E-1,5.290572E-1,7.020235E-1,7.891712E-1,4.8996022E-1,5.35124E-1,3.929445E-1,6.2967336E-1,7.2470146E-1,6.344964E-1,8.9683E-1,4.157172E-1,6.167625E-1,8.155623E-1,4.7798085E-1,9.94917E-1,7.671792E-1,1.044995E0,1.5065687E0],"categories":[],"categories_nodes":[],"categories_segments":[],"categories_sizes":[],"default_left":[0,0,0,0,0,0,0,0,0,0,0,0,0,0,0,0,0,0,0,0,0,0,0,0,0,0,0,0,0,0,0,0,0,0,0,0,0,0,0,0,0,0,0,0,0,0,0,0,0,0,0,0,0,0,0,0,0,0,0,0,0,0,0,0,0,0,0,0,0],"id":13,"left_children":[1,3,5,7,9,11,-1,13,15,17,-1,19,21,23,25,27,29,31,-1,33,35,37,39,41,43,45,47,49,51,-1,53,-1,-1,55,57,59,-1,61,63,65,67,-1,-1,-1,-1,-1,-1,-1,-1,-1,-1,-1,-1,-1,-1,-1,-1,-1,-1,-1,-1,-1,-1,-1,-1,-1,-1,-1,-1],"loss_changes":[1.423173E6,3.159E5,5.99896E5,2.253195E5,1.6621E4,1.86173E5,0E0,2.988825E4,3.4846E4,6.6888438E3,0E0,2.598E4,7.7672E4,3.1583438E3,1.70185E4,3.36185E4,1.8349438E4,2.8839844E3,0E0,2.278675E4,1.05973125E4,1.5958875E4,4.41405E4,1.2122969E3,1.1347656E3,8.3E3,6.7825156E3,1.3229625E4,1.752625E4,0E0,8.0305E3,0E0,0E0,1.2265E3,1.381375E4,6.75225E3,0E0,5.389531E2,8.171E3,3.406875E4,4.8196875E3,0E0,0E0,0E0,0E0,0E0,0E0,0E0,0E0,0E0,0E0,0E0,0E0,0E0,0E0,0E0,0E0,0E0,0E0,0E0,0E0,0E0,0E0,0E0,0E0,0E0,0E0,0E0,0E0],"parents":[2147483647,0,0,1,1,2,2,3,3,4,4,5,5,7,7,8,8,9,9,11,11,12,12,13,13,14,14,15,15,16,16,17,17,19,19,20,20,21,21,22,22,23,23,24,24,25,25,26,26,27,27,28,28,30,30,33,33,34,34,35,35,37,37,38,38,39,39,40,40],"right_children":[2,4,6,8,10,12,-1,14,16,18,-1,20,22,24,26,28,30,32,-1,34,36,38,40,42,44,46,48,50,52,-1,54,-1,-1,56,58,60,-1,62,64,66,68,-1,-1,-1,-1,-1,-1,-1,-1,-1,-1,-1,-1,-1,-1,-1,-1,-1,-1,-1,-1,-1,-1,-1,-1,-1,-1,-1,-1],"split_conditions":[4.375E1,1E0,1E0,2.9E1,3.125E1,5.775E1,2.2967644E0,2E1,1E0,2.306E3,1.4799733E0,1E0,1.425E1,1.8E1,1E0,3.65E1,-5E-1,2.4E1,6.2494916E-1,2E0,2E0,1.0291667E1,1E0,1.5E1,1E0,-5E-1,1.6785715E1,1.2E1,1E0,4.0647936E-1,1E0,5.760771E-1,1.2026894E0,1.0291667E1,4.875E1,5E0,1.334527E0,6.1E1,6.234898E-1,6.234898E-1,1.74E1,1.8587407E-1,2.4951833E-1,2.7609175E-1,3.736812E-1,3.1869587E-1,3.9249384E-1,5.9703994E-1,3.9784515E-1,4.398342E-1,5.890775E-1,5.290572E-1,7.020235E-1,7.891712E-1,4.8996022E-1,5.35124E-1,3.929445E-1,6.2967336E-1,7.2470146E-1,6.344964E-1,8.9683E-1,4.157172E-1,6.167625E-1,8.155623E-1,4.7798085E-1,9.94917E-1,7.671792E-1,1.044995E0,1.5065687E0],"split_indices":[72,48,48,72,72,72,0,2,27,70,0,50,11,3,27,72,23,2,0,15,50,11,50,2,50,23,12,15,50,0,26,0,0,12,72,15,0,72,26,26,36,0,0,0,0,0,0,0,0,0,0,0,0,0,0,0,0,0,0,0,0,0,0,0,0,0,0,0,0],"split_type":[0,0,0,0,0,0,0,0,0,0,0,0,0,0,0,0,0,0,0,0,0,0,0,0,0,0,0,0,0,0,0,0,0,0,0,0,0,0,0,0,0,0,0,0,0,0,0,0,0,0,0,0,0,0,0,0,0,0,0,0,0,0,0,0,0,0,0,0,0],"sum_hessian":[1.57E4,9.804E3,5.896E3,9.64E3,1.64E2,5.812E3,8.4E1,3.956E3,5.684E3,9.2E1,7.2E1,3.18E3,2.632E3,1.328E3,2.628E3,5.288E3,3.96E2,6.4E1,2.8E1,2.896E3,2.84E2,1.02E3,1.612E3,5.76E2,7.52E2,2.332E3,2.96E2,2.86E3,2.428E3,8E1,3.16E2,1.2E1,5.2E1,2.16E2,2.68E3,2.64E2,2E1,1.76E2,8.44E2,1.488E3,1.24E2,2.32E2,3.44E2,6.8E2,7.2E1,1.36E3,9.72E2,1.44E2,1.52E2,2.62E3,2.4E2,2.184E3,2.44E2,2.6E2,5.6E1,1.16E2,1E2,1.16E3,1.52E3,9.2E1,1.72E2,3.6E1,1.4E2,8.04E2,4E1,1.144E3,3.44E2,5.6E1,6.8E1],"tree_param":{"num_deleted":"0","num_feature":"74","num_nodes":"69","size_leaf_vector":"1"}},{"base_weights":[3.1957935E1,2.5016335E1,4.4666668E1,2.4360785E1,6.700646E1,4.3383533E1,1.3205753E2,1.8985405E1,2.845804E1,4.1478615E1,1.4438634E0,3.787414E1,4.9425194E1,1.6595496E0,2.7612236E0,1.6187695E1,2.2173203E1,2.421573E1,3.0509033E1,8.299809E-1,4.3892E-1,2.8899479E1,3.945389E1,5.4775017E1,4.0759007E1,1.4306084E1,1.9711157E1,1.7713604E1,2.3706682E1,1.8391003E1,2.5471376E1,2.9569042E1,3.734248E1,2.2375578E1,3.0410126E1,4.1235603E1,2.9540411E1,4.9827206E1,6.2394356E1,3.5548782E1,4.454569E1,1.9174899E-1,2.7431288E-1,2.9352942E-1,4.039139E-1,2.1540624E-1,3.279136E-1,3.842333E-1,4.6030337E-1,3.727296E-1,2.827061E-1,4.4640434E-1,5.805434E-1,4.4001693E-1,5.559294E-1,6.485287E-1,9.768828E-1,4.2200705E-1,2.1398705E-1,5.54189E-1,2.8918272E-1,6.803708E-1,8.0313057E-1,4.4968358E-1,6.043416E-1,9.122725E-1,4.156574E-1,1.1394765E0,7.639212E-1,4.8351097E-1,6.6697323E-1,6.5288734E-1,8.2401097E-1],"categories":[],"categories_nodes":[],"categories_segments":[],"categories_sizes":[],"default_left":[0,0,0,0,0,0,0,0,0,0,0,0,0,0,0,0,0,0,0,0,0,0,0,0,0,0,0,0,0,0,0,0,0,0,0,0,0,0,0,0,0,0,0,0,0,0,0,0,0,0,0,0,0,0,0,0,0,0,0,0,0,0,0,0,0,0,0,0,0,0,0,0,0],"id":14,"left_children":[1,3,5,7,9,11,13,15,17,19,-1,21,23,-1,-1,25,27,29,31,-1,-1,33,35,37,39,41,43,45,47,49,51,53,55,57,59,61,63,65,67,69,71,-1,-1,-1,-1,-1,-1,-1,-1,-1,-1,-1,-1,-1,-1,-1,-1,-1,-1,-1,-1,-1,-1,-1,-1,-1,-1,-1,-1,-1,-1,-1,-1],"loss_changes":[1.386692E6,2.755865E5,6.06122E5,2.195225E5,4.1731562E4,1.76775E5,2.3932875E4,3.765375E4,4.71795E4,1.0754062E3,0E0,3.725925E4,1.13898E5,0E0,0E0,1.4511E4,1.24841875E4,1.2153625E4,2.107925E4,0E0,0E0,2.1741875E3,3.929525E4,5.07875E4,1.4889375E4,4.6144688E3,6.2340625E3,7.6315625E2,4.8114375E3,1.0505312E3,4.5575E3,2.007875E4,4.07225E3,1.1470703E2,1.8671875E2,1.866375E4,4.349375E3,1.79575E4,2.38525E3,2.494375E3,4.89125E2,0E0,0E0,0E0,0E0,0E0,0E0,0E0,0E0,0E0,0E0,0E0,0E0,0E0,0E0,0E0,0E0,0E0,0E0,0E0,0E0,0E0,0E0,0E0,0E0,0E0,0E0,0E0,0E0,0E0,0E0,0E0,0E0],"parents":[2147483647,0,0,1,1,2,2,3,3,4,4,5,5,6,6,7,7,8,8,9,9,11,11,12,12,15,15,16,16,17,17,18,18,21,21,22,22,23,23,24,24,25,25,26,26,27,27,28,28,29,29,30,30,31,31,32,32,33,33,34,34,35,35,36,36,37,37,38,38,39,39,40,40],"right_children":[2,4,6,8,10,12,14,16,18,20,-1,22,24,-1,-1,26,28,30,32,-1,-1,34,36,38,40,42,44,46,48,50,52,54,56,58,60,62,64,66,68,70,72,-1,-1,-1,-1,-1,-1,-1,-1,-1,-1,-1,-1,-1,-1,-1,-1,-1,-1,-1,-1,-1,-1,-1,-1,-1,-1,-1,-1,-1,-1,-1,-1],"split_conditions":[3.275E1,1E0,1E0,2.025E1,1.875E1,1.425E1,3.5083332E1,1.525E1,9.666667E0,2E-1,1.4438634E0,9.25E0,6.234898E-1,1.6595496E0,2.7612236E0,1.3791667E1,3E0,2E0,1E0,8.299809E-1,4.3892E-1,7.4166665E0,6.234898E-1,4.9E1,1.8208334E1,1.5E1,2E0,1E0,-2.4492937E-16,2.1672619E1,4E0,1E0,1E0,3.4440475E1,6.9E1,3.8E1,5E0,1.5E1,3.226E3,1.5125E1,3.525E1,1.9174899E-1,2.7431288E-1,2.9352942E-1,4.039139E-1,2.1540624E-1,3.279136E-1,3.842333E-1,4.6030337E-1,3.727296E-1,2.827061E-1,4.4640434E-1,5.805434E-1,4.4001693E-1,5.559294E-1,6.485287E-1,9.768828E-1,4.2200705E-1,2.1398705E-1,5.54189E-1,2.8918272E-1,6.803708E-1,8.0313057E-1,4.4968358E-1,6.043416E-1,9.122725E-1,4.156574E-1,1.1394765E0,7.639212E-1,4.8351097E-1,6.6697323E-1,6.5288734E-1,8.2401097E-1],"split_indices":[73,48,48,73,73,11,11,73,11,37,0,11,26,0,0,11,15,15,50,0,0,11,26,1,11,2,14,64,27,9,14,14,27,9,2,1,15,13,69,11,73,0,0,0,0,0,0,0,0,0,0,0,0,0,0,0,0,0,0,0,0,0,0,0,0,0,0,0,0,0,0,0,0],"split_type":[0,0,0,0,0,0,0,0,0,0,0,0,0,0,0,0,0,0,0,0,0,0,0,0,0,0,0,0,0,0,0,0,0,0,0,0,0,0,0,0,0,0,0,0,0,0,0,0,0,0,0,0,0,0,0,0,0,0,0,0,0,0,0,0,0,0,0,0,0,0,0,0,0],"sum_hessian":[1.5756E4,1.0196E4,5.56E3,1.0044E4,1.52E2,5.484E3,7.6E1,4.352E3,5.692E3,5.6E1,9.6E1,2.88E3,2.604E3,3.2E1,4.4E1,2.328E3,2.024E3,1.868E3,3.824E3,4E1,1.6E1,4.4E2,2.44E3,1.6E3,1.004E3,1.528E3,8E2,5.28E2,1.496E3,3.4E2,1.528E3,3.376E3,4.48E2,9.2E1,3.48E2,2.06E3,3.8E2,9.84E2,6.16E2,4.36E2,5.68E2,3.16E2,1.212E3,3.64E2,4.36E2,4.8E1,4.8E2,6.72E2,8.24E2,1.72E2,1.68E2,1.4E3,1.28E2,6.92E2,2.684E3,4.24E2,2.4E1,8E1,1.2E1,3.36E2,1.2E1,1.032E3,1.028E3,1.88E2,1.92E2,9.52E2,3.2E1,5.84E2,3.2E1,7.2E1,3.64E2,8.4E1,4.84E2],"tree_param":{"num_deleted":"0","num_feature":"74","num_nodes":"73","size_leaf_vector":"1"}},{"base_weights":[3.0852484E1,2.3876955E1,4.2325855E1,2.3173943E1,6.591245E1,4.1419487E1,1.1975815E2,1.7248777E1,2.6496952E1,7.3826975E-1,7.555771E1,3.7105545E1,4.8754078E1,2.3886907E0,1.1921796E0,1.4065307E1,1.9397663E1,2.3143036E1,2.8645948E1,1.4195058E0,6.988705E-1,3.587141E1,4.88875E1,4.1422115E1,5.3277397E1,1.2725451E1,1.7979456E1,1.833858E1,2.4830338E1,2.1997032E1,2.7938488E1,2.5644617E1,3.127181E1,3.1816483E1,3.8249645E1,4.5849155E1,1.4274583E0,3.462314E1,4.5492374E1,4.2747917E1,5.6278286E1,1.7064294E-1,2.3993248E-1,3.0429137E-1,3.979347E-1,3.1476957E-1,4.135314E-1,3.8465047E-1,5.5215484E-1,3.4653547E-1,4.3445107E-1,4.5337301E-1,5.8075464E-1,3.972181E-1,5.0068945E-1,5.407005E-1,7.2056156E-1,4.88996E-1,6.2838006E-1,6.34843E-1,7.856534E-1,6.4429796E-1,9.14474E-1,5.3914946E-1,6.8099236E-1,4.4046634E-1,8.257196E-1,5.963825E-1,8.40235E-1,9.327611E-1,1.1311108E0],"categories":[],"categories_nodes":[],"categories_segments":[],"categories_sizes":[],"default_left":[0,0,0,0,0,0,0,0,0,0,0,0,0,0,0,0,0,0,0,0,0,0,0,0,0,0,0,0,0,0,0,0,0,0,0,0,0,0,0,0,0,0,0,0,0,0,0,0,0,0,0,0,0,0,0,0,0,0,0,0,0,0,0,0,0,0,0,0,0,0,0],"id":15,"left_children":[1,3,5,7,9,11,13,15,17,-1,19,21,23,-1,-1,25,27,29,31,-1,-1,33,35,37,39,41,43,45,47,49,51,53,55,57,59,61,-1,63,65,67,69,-1,-1,-1,-1,-1,-1,-1,-1,-1,-1,-1,-1,-1,-1,-1,-1,-1,-1,-1,-1,-1,-1,-1,-1,-1,-1,-1,-1,-1,-1],"loss_changes":[1.253056E6,2.83853E5,4.00914E5,1.87778E5,2.8603375E4,1.79966E5,1.925975E4,2.2776E4,4.22115E4,0E0,3.75875E3,4.83995E4,6.4846E4,0E0,0E0,6.6047812E3,1.03576875E4,1.1307875E4,2.688375E4,0E0,0E0,2.862E4,2.0388188E4,1.8265375E4,3.44325E4,1.6060312E3,3.3646875E2,5.5988125E3,4.506578E3,1.0001375E4,2.8224062E3,1.1636125E4,1.7850625E4,1.508425E4,2.91455E4,1.0128E4,0E0,1.2965625E3,2.335E2,6.681125E3,1.9883E4,0E0,0E0,0E0,0E0,0E0,0E0,0E0,0E0,0E0,0E0,0E0,0E0,0E0,0E0,0E0,0E0,0E0,0E0,0E0,0E0,0E0,0E0,0E0,0E0,0E0,0E0,0E0,0E0,0E0,0E0],"parents":[2147483647,0,0,1,1,2,2,3,3,4,4,5,5,6,6,7,7,8,8,10,10,11,11,12,12,15,15,16,16,17,17,18,18,21,21,22,22,23,23,24,24,25,25,26,26,27,27,28,28,29,29,30,30,31,31,32,32,33,33,34,34,35,35,37,37,38,38,39,39,40,40],"right_children":[2,4,6,8,10,12,14,16,18,-1,20,22,24,-1,-1,26,28,30,32,-1,-1,34,36,38,40,42,44,46,48,50,52,54,56,58,60,62,-1,64,66,68,70,-1,-1,-1,-1,-1,-1,-1,-1,-1,-1,-1,-1,-1,-1,-1,-1,-1,-1,-1,-1,-1,-1,-1,-1,-1,-1,-1,-1,-1,-1],"split_conditions":[4.3E1,1E0,1E0,1.8E1,1.65E1,4.475E1,9.3E0,1.3962423E1,3.2E1,7.3826975E-1,1.66E2,1E0,1.8320368E1,2.3886907E0,1.1921796E0,1E0,1E0,1E0,2E0,1.4195058E0,6.988705E-1,4.1E1,2E0,1.6E1,1E0,9.486833E0,1.1422619E1,4E1,1.921272E1,5E0,1E0,1.4416667E1,1E0,1.7E1,1E0,5E0,1.4274583E0,5.4E1,2.2E1,2.3039623E1,6.7E1,1.7064294E-1,2.3993248E-1,3.0429137E-1,3.979347E-1,3.1476957E-1,4.135314E-1,3.8465047E-1,5.5215484E-1,3.4653547E-1,4.3445107E-1,4.5337301E-1,5.8075464E-1,3.972181E-1,5.0068945E-1,5.407005E-1,7.2056156E-1,4.88996E-1,6.2838006E-1,6.34843E-1,7.856534E-1,6.4429796E-1,9.14474E-1,5.3914946E-1,6.8099236E-1,4.4046634E-1,8.257196E-1,5.963825E-1,8.40235E-1,9.327611E-1,1.1311108E0],"split_indices":[72,48,48,73,73,73,36,10,0,0,1,50,10,0,0,30,18,18,14,0,0,0,50,19,18,10,12,0,10,15,30,12,27,19,18,15,0,73,1,10,0,0,0,0,0,0,0,0,0,0,0,0,0,0,0,0,0,0,0,0,0,0,0,0,0,0,0,0,0,0,0],"split_type":[0,0,0,0,0,0,0,0,0,0,0,0,0,0,0,0,0,0,0,0,0,0,0,0,0,0,0,0,0,0,0,0,0,0,0,0,0,0,0,0,0,0,0,0,0,0,0,0,0,0,0,0,0,0,0,0,0,0,0,0,0,0,0,0,0,0,0,0,0,0,0],"sum_hessian":[1.5694E4,9.766E3,5.928E3,9.61E3,1.56E2,5.864E3,6.4E1,3.46E3,6.15E3,4.8E1,1.08E2,3.704E3,2.16E3,4.8E1,1.6E1,1.404E3,2.056E3,2.416E3,3.734E3,9.6E1,1.2E1,3.364E3,3.4E2,8.36E2,1.324E3,1.056E3,3.48E2,1.732E3,3.24E2,1.964E3,4.52E2,1.758E3,1.976E3,1.26E3,2.104E3,3.16E2,2.4E1,3.24E2,5.12E2,3.04E2,1.02E3,1.72E2,8.84E2,2.88E2,6E1,1.472E3,2.6E2,2.12E2,1.12E2,8.68E2,1.096E3,2.88E2,1.64E2,6.72E2,1.086E3,1.74E3,2.36E2,5.12E2,7.48E2,1.364E3,7.4E2,1.12E2,2.04E2,1.44E2,1.8E2,1.2E1,5E2,9.6E1,2.08E2,6.2E2,4E2],"tree_param":{"num_deleted":"0","num_feature":"74","num_nodes":"71","size_leaf_vector":"1"}},{"base_weights":[3.0496622E1,2.3451212E1,4.17984E1,2.2760618E1,6.526605E1,4.063066E1,1.1977242E2,1.827461E1,2.7296259E1,5.3337948E1,1.5128934E0,3.5768E1,4.6920067E1,1.149789E0,2.271888E0,1.5383182E1,2.1012495E1,2.3693539E1,2.9274822E1,5.6243786E1,4.4765046E-1,2.434278E1,3.6768814E1,4.043852E1,5.257347E1,1.4765102E1,2.257135E1,2.0348219E1,2.6993357E1,1.7644545E1,2.483723E1,2.8400896E1,3.6226883E1,1.0723723E0,4.9468786E-1,2.0198391E1,4.9417365E-1,3.1759365E1,3.8534912E1,3.3858532E1,4.4735394E1,5.052607E1,6.949189E1,2.4157403E-1,2.956905E-1,4.4702774E-1,2.6326224E-1,3.1057236E-1,3.910719E-1,2.170538E-1,4.9753708E-1,2.4640116E-1,3.3220148E-1,6.470786E-1,4.4008797E-1,4.173485E-1,5.373339E-1,2.9045224E-1,6.63382E-1,1.8315695E-1,3.8372326E-1,4.6439138E-1,6.0541165E-1,6.195574E-1,7.484961E-1,5.2965474E-1,6.930338E-1,4.3225956E-1,8.101813E-1,9.584892E-1,7.630948E-1,8.5909986E-1,1.3445376E0],"categories":[],"categories_nodes":[],"categories_segments":[],"categories_sizes":[],"default_left":[0,0,0,0,0,0,0,0,0,0,0,0,0,0,0,0,0,0,0,0,0,0,0,0,0,0,0,0,0,0,0,0,0,0,0,0,0,0,0,0,0,0,0,0,0,0,0,0,0,0,0,0,0,0,0,0,0,0,0,0,0,0,0,0,0,0,0,0,0,0,0,0,0],"id":16,"left_children":[1,3,5,7,9,11,13,15,17,19,-1,21,23,-1,-1,25,27,29,31,33,-1,35,37,39,41,43,45,47,49,51,53,55,57,-1,-1,59,-1,61,63,65,67,69,71,-1,-1,-1,-1,-1,-1,-1,-1,-1,-1,-1,-1,-1,-1,-1,-1,-1,-1,-1,-1,-1,-1,-1,-1,-1,-1,-1,-1,-1,-1],"loss_changes":[1.242457E6,2.73755E5,5.31541E5,1.914865E5,2.0796625E4,1.75752E5,6.26025E3,3.677475E4,3.136325E4,4.1014688E3,0E0,3.54575E4,8.7567E4,0E0,0E0,9.2765625E3,7.939E3,1.0235E4,1.51325E4,3.4709688E3,0E0,1.7781875E3,2.333375E4,2.9471875E4,3.633975E4,4.0830938E3,1.999E3,8.1456875E3,1.0976562E3,3.4992188E1,3.5179375E3,1.8023E4,2.0319688E3,0E0,0E0,7.125742E2,0E0,6.2981875E3,2.373125E4,6.5085625E3,2.3475E2,1.98785E4,4.5904375E3,0E0,0E0,0E0,0E0,0E0,0E0,0E0,0E0,0E0,0E0,0E0,0E0,0E0,0E0,0E0,0E0,0E0,0E0,0E0,0E0,0E0,0E0,0E0,0E0,0E0,0E0,0E0,0E0,0E0,0E0],"parents":[2147483647,0,0,1,1,2,2,3,3,4,4,5,5,6,6,7,7,8,8,9,9,11,11,12,12,15,15,16,16,17,17,18,18,19,19,21,21,22,22,23,23,24,24,25,25,26,26,27,27,28,28,29,29,30,30,31,31,32,32,35,35,37,37,38,38,39,39,40,40,41,41,42,42],"right_children":[2,4,6,8,10,12,14,16,18,20,-1,22,24,-1,-1,26,28,30,32,34,-1,36,38,40,42,44,46,48,50,52,54,56,58,-1,-1,60,-1,62,64,66,68,70,72,-1,-1,-1,-1,-1,-1,-1,-1,-1,-1,-1,-1,-1,-1,-1,-1,-1,-1,-1,-1,-1,-1,-1,-1,-1,-1,-1,-1,-1,-1],"split_conditions":[4.3E1,1E0,1E0,3.05E1,3.7E1,5.775E1,4.7E1,2.3666666E1,3.2E1,2.65E1,1.5128934E0,6E0,1.5125E1,1.149789E0,2.271888E0,3.8E1,1E0,5E0,1E0,2.5206E3,4.4765046E-1,1E0,3E0,1.6E1,1E0,1.4017588E1,8E0,1.6E1,3E0,3.25E1,-3E0,1E0,2E0,1.0723723E0,4.9468786E-1,9.098495E0,4.9417365E-1,1.7E1,3.8E1,7.025E1,-3E0,6E0,2.5E1,2.4157403E-1,2.956905E-1,4.4702774E-1,2.6326224E-1,3.1057236E-1,3.910719E-1,2.170538E-1,4.9753708E-1,2.4640116E-1,3.3220148E-1,6.470786E-1,4.4008797E-1,4.173485E-1,5.373339E-1,2.9045224E-1,6.63382E-1,1.8315695E-1,3.8372326E-1,4.6439138E-1,6.0541165E-1,6.195574E-1,7.484961E-1,5.2965474E-1,6.930338E-1,4.3225956E-1,8.101813E-1,9.584892E-1,7.630948E-1,8.5909986E-1,1.3445376E0],"split_indices":[72,48,48,72,3,72,0,72,0,38,0,19,11,0,0,0,50,19,50,71,0,64,14,19,50,10,65,4,19,72,65,14,19,0,0,10,0,19,1,72,65,14,19,0,0,0,0,0,0,0,0,0,0,0,0,0,0,0,0,0,0,0,0,0,0,0,0,0,0,0,0,0,0],"split_type":[0,0,0,0,0,0,0,0,0,0,0,0,0,0,0,0,0,0,0,0,0,0,0,0,0,0,0,0,0,0,0,0,0,0,0,0,0,0,0,0,0,0,0,0,0,0,0,0,0,0,0,0,0,0,0,0,0,0,0,0,0,0,0,0,0,0,0,0,0,0,0,0,0],"sum_hessian":[1.564E4,9.64E3,6E3,9.488E3,1.52E2,5.916E3,8.4E1,4.778E3,4.71E3,1E2,5.2E1,3.348E3,2.568E3,1.2E1,7.2E1,2.334E3,2.444E3,1.684E3,3.026E3,8.8E1,1.2E1,2.76E2,3.072E3,1.208E3,1.36E3,2.158E3,1.76E2,2.212E3,2.32E2,2.76E2,1.408E3,2.702E3,3.24E2,7.6E1,1.2E1,1.28E2,1.48E2,8.16E2,2.256E3,4.88E2,7.2E2,1.224E3,1.36E2,1.202E3,9.56E2,1.32E2,4.4E1,6.88E2,1.524E3,1.2E1,2.2E2,5.6E1,2.2E2,4E1,1.368E3,5.92E2,2.11E3,1.2E1,3.12E2,1.6E1,1.12E2,2.04E2,6.12E2,9.68E2,1.288E3,2.6E2,2.28E2,1.2E1,7.08E2,9.08E2,3.16E2,3.2E1,1.04E2],"tree_param":{"num_deleted":"0","num_feature":"74","num_nodes":"73","size_leaf_vector":"1"}},{"base_weights":[2.987681E1,2.3550318E1,4.167898E1,2.293129E1,6.913081E1,4.0821293E1,2.3434675E0,1.6581404E1,2.6185755E1,7.043903E-1,1.3664768E0,3.399848E1,4.5454765E1,1.419058E1,1.9483109E1,2.3677176E1,2.888774E1,2.6328918E1,3.555572E1,4.043014E1,5.0997776E1,1.757048E1,1.315959E1,1.6512903E1,2.1116463E1,1.9105148E1,2.4889078E1,2.4654156E1,3.0993242E1,1.7658043E1,2.7522484E1,2.709777E1,3.6572006E1,2.9349266E1,4.1491543E1,4.697256E1,5.611923E1,2.885632E-1,4.1632146E-1,1.9049913E-1,2.5667945E-1,4.0349218E-1,2.5898063E-1,2.7781674E-1,3.9473176E-1,3.015739E-1,3.7503606E-1,6.4364415E-1,4.3272465E-1,3.2724375E-1,4.6106705E-1,5.3877413E-1,6.96239E-1,3.4849805E-1,1.6375487E-1,4.486211E-1,5.765283E-1,3.4316507E-1,5.3988427E-1,5.541227E-1,6.856997E-1,5.528503E-1,3.111361E-1,8.2887447E-1,7.085957E-1,8.6630744E-1,5.239902E-1,1.0940758E0,7.9903346E-1],"categories":[],"categories_nodes":[],"categories_segments":[],"categories_sizes":[],"default_left":[0,0,0,0,0,0,0,0,0,0,0,0,0,0,0,0,0,0,0,0,0,0,0,0,0,0,0,0,0,0,0,0,0,0,0,0,0,0,0,0,0,0,0,0,0,0,0,0,0,0,0,0,0,0,0,0,0,0,0,0,0,0,0,0,0,0,0,0,0],"id":17,"left_children":[1,3,5,7,9,11,-1,13,15,-1,-1,17,19,21,23,25,27,29,31,33,35,37,39,41,43,45,47,49,51,53,55,57,59,61,63,65,67,-1,-1,-1,-1,-1,-1,-1,-1,-1,-1,-1,-1,-1,-1,-1,-1,-1,-1,-1,-1,-1,-1,-1,-1,-1,-1,-1,-1,-1,-1,-1,-1],"loss_changes":[1.164876E6,2.82528E5,3.97307E5,2.064495E5,1.80685E4,1.6607E5,0E0,2.2779688E4,4.2839E4,0E0,0E0,2.327875E4,8.29865E4,5.7871562E3,6.2934375E3,1.7636E4,2.594E4,2.3769375E3,1.24815E4,1.61275E4,2.30315E4,2.4801719E3,3.5829844E3,5.95525E3,3.3293438E3,1.8430938E3,2.2830875E4,5.047375E3,1.385575E4,1.8732227E2,1.3298438E3,2.9366875E3,1.0333E4,8.535156E2,9.352E3,1.300275E4,2.699975E4,0E0,0E0,0E0,0E0,0E0,0E0,0E0,0E0,0E0,0E0,0E0,0E0,0E0,0E0,0E0,0E0,0E0,0E0,0E0,0E0,0E0,0E0,0E0,0E0,0E0,0E0,0E0,0E0,0E0,0E0,0E0,0E0],"parents":[2147483647,0,0,1,1,2,2,3,3,4,4,5,5,7,7,8,8,11,11,12,12,13,13,14,14,15,15,16,16,17,17,18,18,19,19,20,20,21,21,22,22,23,23,24,24,25,25,26,26,27,27,28,28,29,29,30,30,31,31,32,32,33,33,34,34,35,35,36,36],"right_children":[2,4,6,8,10,12,-1,14,16,-1,-1,18,20,22,24,26,28,30,32,34,36,38,40,42,44,46,48,50,52,54,56,58,60,62,64,66,68,-1,-1,-1,-1,-1,-1,-1,-1,-1,-1,-1,-1,-1,-1,-1,-1,-1,-1,-1,-1,-1,-1,-1,-1,-1,-1,-1,-1,-1,-1,-1,-1],"split_conditions":[3.2666668E1,1E0,1E0,1.8E1,2.65E1,2.9791666E1,2.3434675E0,2.6625E1,2.5E1,7.043903E-1,1.3664768E0,2.15E1,4.6E1,1.5E1,2E0,3E0,2.425E1,1.3E1,2E0,2E0,3.9708332E1,1.1517858E1,2E1,1.5E1,3E0,2E0,1.2E1,5E0,1E0,3.226E3,4E0,3.380357E1,1.3E1,5.325E1,1.76E3,6E0,-7.818315E-1,2.885632E-1,4.1632146E-1,1.9049913E-1,2.5667945E-1,4.0349218E-1,2.5898063E-1,2.7781674E-1,3.9473176E-1,3.015739E-1,3.7503606E-1,6.4364415E-1,4.3272465E-1,3.2724375E-1,4.6106705E-1,5.3877413E-1,6.96239E-1,3.4849805E-1,1.6375487E-1,4.486211E-1,5.765283E-1,3.4316507E-1,5.3988427E-1,5.541227E-1,6.856997E-1,5.528503E-1,3.111361E-1,8.2887447E-1,7.085957E-1,8.6630744E-1,5.239902E-1,1.0940758E0,7.9903346E-1],"split_indices":[73,48,48,73,72,8,0,8,73,0,0,8,73,13,14,15,8,13,14,14,8,12,8,13,15,15,19,19,50,69,14,9,13,72,69,14,25,0,0,0,0,0,0,0,0,0,0,0,0,0,0,0,0,0,0,0,0,0,0,0,0,0,0,0,0,0,0,0,0],"split_type":[0,0,0,0,0,0,0,0,0,0,0,0,0,0,0,0,0,0,0,0,0,0,0,0,0,0,0,0,0,0,0,0,0,0,0,0,0,0,0,0,0,0,0,0,0,0,0,0,0,0,0,0,0,0,0,0,0,0,0,0,0,0,0,0,0,0,0,0,0],"sum_hessian":[1.564E4,1.0188E4,5.452E3,1.0056E4,1.32E2,5.404E3,4.8E1,3.414E3,6.642E3,2.8E1,1.04E2,2.196E3,3.208E3,1.882E3,1.532E3,3.46E3,3.182E3,3.8E2,1.816E3,1.696E3,1.512E3,4.28E2,1.454E3,5.56E2,9.76E2,7.36E2,2.724E3,1.07E3,2.112E3,5.2E1,3.28E2,2.04E2,1.612E3,1.56E2,1.54E3,8.64E2,6.48E2,3.44E2,8.4E1,4.42E2,1.012E3,1.4E2,4.16E2,1.28E2,8.48E2,3.24E2,4.12E2,1.92E2,2.532E3,1.44E2,9.26E2,1.864E3,2.48E2,4E1,1.2E1,2.2E2,1.08E2,6E1,1.44E2,3.44E2,1.268E3,1.36E2,2E1,4.76E2,1.064E3,8.08E2,5.6E1,4.56E2,1.92E2],"tree_param":{"num_deleted":"0","num_feature":"74","num_nodes":"69","size_leaf_vector":"1"}},{"base_weights":[2.9539122E1,2.339895E1,4.0902153E1,1.8117384E1,2.7665028E1,3.9859688E1,9.7117935E1,1.6233418E1,2.3291191E1,2.6867054E1,5.892661E1,3.282453E1,4.4708996E1,1.1011744E2,7.146834E-1,1.3767639E1,1.858083E1,2.2080923E1,3.994292E1,2.2566631E1,2.8843908E1,6.653414E1,4.6638584E-1,2.6083918E1,3.4560005E1,3.6841755E1,4.9941277E1,2.1133428E0,1.0031377E0,1.0604974E1,1.48963375E1,1.6881584E1,2.1447529E1,1.7336565E1,2.3223919E1,5.1386024E1,5.189618E-1,2.1821701E1,3.0066864E1,1.6733696E1,2.9238735E1,7.277583E1,4.4438362E-1,2.1407923E1,2.756162E1,3.0189014E1,3.6764797E1,3.25462E1,4.1341496E1,4.5466145E1,5.688524E1,1.6189542E-1,2.1265791E-1,2.331883E-1,2.843008E-1,2.7611592E-1,3.4228617E-1,3.4420776E-1,4.4260287E-1,3.271091E-1,1.8127544E-1,5.3211814E-1,3.881958E-1,6.407715E-1,1.1737674E0,3.0535993E-1,4.1264862E-1,5.78092E-1,3.6948827E-1,3.4735292E-1,2.373777E-1,4.9039906E-1,5.6421906E-1,5.1677436E-1,1.4063501E0,4.0304238E-1,1.7132278E-1,5.1104367E-1,3.5634702E-1,4.770356E-1,5.9431607E-1,6.2151086E-1,7.4943775E-1,3.9561263E-1,6.054089E-1,5.8069336E-1,7.7554226E-1,7.1600664E-1,8.68456E-1,8.42901E-1,1.0980742E0],"categories":[],"categories_nodes":[],"categories_segments":[],"categories_sizes":[],"default_left":[0,0,0,0,0,0,0,0,0,0,0,0,0,0,0,0,0,0,0,0,0,0,0,0,0,0,0,0,0,0,0,0,0,0,0,0,0,0,0,0,0,0,0,0,0,0,0,0,0,0,0,0,0,0,0,0,0,0,0,0,0,0,0,0,0,0,0,0,0,0,0,0,0,0,0,0,0,0,0,0,0,0,0,0,0,0,0,0,0,0,0],"id":18,"left_children":[1,3,5,7,9,11,13,15,17,19,21,23,25,27,-1,29,31,33,35,37,39,41,-1,43,45,47,49,-1,-1,51,53,55,57,59,61,63,-1,65,67,69,71,73,-1,75,77,79,81,83,85,87,89,-1,-1,-1,-1,-1,-1,-1,-1,-1,-1,-1,-1,-1,-1,-1,-1,-1,-1,-1,-1,-1,-1,-1,-1,-1,-1,-1,-1,-1,-1,-1,-1,-1,-1,-1,-1,-1,-1,-1,-1],"loss_changes":[1.102607E6,2.30329E5,3.13539E5,4.3678E4,1.36924E5,1.81614E5,6.0389625E4,1.8756312E4,2.1824625E4,4.5108E4,2.9499969E4,2.331525E4,1.26904E5,1.0918875E4,0E0,5.39675E3,7.2170625E3,4.896375E3,5.392703E3,7.734E3,1.6537E4,2.3339844E4,0E0,1.3448125E3,1.354725E4,2.0861875E4,5.18335E4,0E0,0E0,4.9439844E2,1.4149688E3,2.6469375E3,3.0763438E3,7.7941406E2,7.6099062E3,3.8496875E2,0E0,7.2755E3,8.0046875E2,2.9646875E2,1.267675E4,1.5184781E4,0E0,7.3352734E2,3.6703125E2,3.561875E3,8.20225E3,5.28125E3,5.34975E3,1.264925E4,2.170625E4,0E0,0E0,0E0,0E0,0E0,0E0,0E0,0E0,0E0,0E0,0E0,0E0,0E0,0E0,0E0,0E0,0E0,0E0,0E0,0E0,0E0,0E0,0E0,0E0,0E0,0E0,0E0,0E0,0E0,0E0,0E0,0E0,0E0,0E0,0E0,0E0,0E0,0E0,0E0,0E0],"parents":[2147483647,0,0,1,1,2,2,3,3,4,4,5,5,6,6,7,7,8,8,9,9,10,10,11,11,12,12,13,13,15,15,16,16,17,17,18,18,19,19,20,20,21,21,23,23,24,24,25,25,26,26,29,29,30,30,31,31,32,32,33,33,34,34,35,35,37,37,38,38,39,39,40,40,41,41,43,43,44,44,45,45,46,46,47,47,48,48,49,49,50,50],"right_children":[2,4,6,8,10,12,14,16,18,20,22,24,26,28,-1,30,32,34,36,38,40,42,-1,44,46,48,50,-1,-1,52,54,56,58,60,62,64,-1,66,68,70,72,74,-1,76,78,80,82,84,86,88,90,-1,-1,-1,-1,-1,-1,-1,-1,-1,-1,-1,-1,-1,-1,-1,-1,-1,-1,-1,-1,-1,-1,-1,-1,-1,-1,-1,-1,-1,-1,-1,-1,-1,-1,-1,-1,-1,-1,-1,-1],"split_conditions":[3.275E1,2.025E1,2.7875E1,2.1E1,5.3666668E1,3E1,8E0,1.35E1,6.0041668E1,9.666667E0,2.8E1,9.25E0,1E0,2.7702381E1,7.146834E-1,3E0,1.45E1,3E0,9.3901E4,1E0,1.3E1,1.3E1,4.6638584E-1,-9.659258E-1,1.7E1,4.1416668E1,3.8625E1,2.1133428E0,1.0031377E0,1.6E1,1.1416667E1,5E0,1E0,1.1119047E1,1.3E1,2.4E1,5.189618E-1,2E0,1.5091E3,1.2654E3,2.7E1,2.7E1,4.4438362E-1,4.45E1,3.3E1,1E0,4.325E1,-9.659258E-1,4.5E1,-9.659258E-1,-9.659258E-1,1.6189542E-1,2.1265791E-1,2.331883E-1,2.843008E-1,2.7611592E-1,3.4228617E-1,3.4420776E-1,4.4260287E-1,3.271091E-1,1.8127544E-1,5.3211814E-1,3.881958E-1,6.407715E-1,1.1737674E0,3.0535993E-1,4.1264862E-1,5.78092E-1,3.6948827E-1,3.4735292E-1,2.373777E-1,4.9039906E-1,5.6421906E-1,5.1677436E-1,1.4063501E0,4.0304238E-1,1.7132278E-1,5.1104367E-1,3.5634702E-1,4.770356E-1,5.9431607E-1,6.2151086E-1,7.4943775E-1,3.9561263E-1,6.054089E-1,5.8069336E-1,7.7554226E-1,7.1600664E-1,8.68456E-1,8.42901E-1,1.0980742E0],"split_indices":[73,73,11,4,8,8,15,73,8,11,19,11,18,12,0,15,11,15,41,18,4,65,0,24,19,8,8,0,0,3,11,15,18,12,19,6,0,15,71,71,6,3,0,73,4,18,73,24,4,24,24,0,0,0,0,0,0,0,0,0,0,0,0,0,0,0,0,0,0,0,0,0,0,0,0,0,0,0,0,0,0,0,0,0,0,0,0,0,0,0,0],"split_type":[0,0,0,0,0,0,0,0,0,0,0,0,0,0,0,0,0,0,0,0,0,0,0,0,0,0,0,0,0,0,0,0,0,0,0,0,0,0,0,0,0,0,0,0,0,0,0,0,0,0,0,0,0,0,0,0,0,0,0,0,0,0,0,0,0,0,0,0,0,0,0,0,0,0,0,0,0,0,0,0,0,0,0,0,0,0,0,0,0,0,0],"sum_hessian":[1.5844E4,1.0292E4,5.552E3,4.606E3,5.686E3,5.456E3,9.6E1,3.386E3,1.22E3,5.55E3,1.36E2,2.236E3,3.22E3,7.6E1,2E1,1.662E3,1.724E3,1.144E3,7.6E1,1.76E3,3.79E3,1.08E2,2.8E1,4.68E2,1.768E3,1.296E3,1.924E3,6.4E1,1.2E1,4.46E2,1.216E3,1.096E3,6.28E2,2.32E2,9.12E2,3.2E1,4.4E1,1.612E3,1.48E2,1.24E2,3.666E3,9.2E1,1.6E1,1.24E2,3.44E2,6.08E2,1.16E3,6.76E2,6.2E2,1.184E3,7.4E2,2.02E2,2.44E2,3.96E2,8.2E2,6.48E2,4.48E2,3.72E2,2.56E2,2.04E2,2.8E1,1.8E2,7.32E2,2E1,1.2E1,3.04E2,1.308E3,1.16E2,3.2E1,6.4E1,6E1,1.888E3,1.778E3,1.2E1,8E1,1.12E2,1.2E1,3.04E2,4E1,2.76E2,3.32E2,8.08E2,3.52E2,6.8E1,6.08E2,1.08E2,5.12E2,4E2,7.84E2,2.24E2,5.16E2],"tree_param":{"num_deleted":"0","num_feature":"74","num_nodes":"91","size_leaf_vector":"1"}},{"base_weights":[2.9048206E1,2.3381662E1,4.084642E1,1.8461208E1,2.8122557E1,3.9011112E1,1.0460348E2,1.5146557E1,2.150213E1,2.7460178E1,5.747115E1,3.298769E1,4.5119316E1,1.3960279E0,1.1631153E2,1.2390115E1,1.6407385E1,1.791247E1,2.2830025E1,2.471657E1,3.2770702E1,4.0163315E1,1.1718245E0,3.1062283E1,4.0503147E1,4.0071198E1,5.3661068E1,1.708929E0,2.6752853E0,1.1950424E1,1.8011225E1,1.4891717E1,1.7766544E1,1.6417747E1,2.160251E1,1.8712807E1,2.3923838E1,2.1548742E1,2.779661E1,3.000593E1,3.7476498E1,8.359688E-1,3.4273538E-1,2.4881763E1,3.261217E1,4.1402103E1,5.06125E-1,2.8406115E1,4.1914726E1,5.4766792E1,5.037666E-1,1.8995382E-1,2.346085E-1,1.6913277E-1,3.5787097E-1,2.4090321E-1,3.0316865E-1,3.026886E-1,3.6111468E-1,1.6710699E-1,3.0274335E-1,3.9681447E-1,2.0968117E-1,3.6437798E-1,2.7796915E-1,4.0327075E-1,5.048911E-1,4.3491104E-1,3.5681844E-1,4.6892753E-1,5.4104644E-1,3.5677767E-1,5.541323E-1,7.2618127E-1,4.872536E-1,3.983936E-1,5.45049E-1,4.6413654E-1,6.05085E-1,6.4683753E-1,7.851223E-1,2.5439492E-1,5.2262914E-1,6.500732E-1,7.9466945E-1,9.4255507E-1,1.2648354E0],"categories":[],"categories_nodes":[],"categories_segments":[],"categories_sizes":[],"default_left":[0,0,0,0,0,0,0,0,0,0,0,0,0,0,0,0,0,0,0,0,0,0,0,0,0,0,0,0,0,0,0,0,0,0,0,0,0,0,0,0,0,0,0,0,0,0,0,0,0,0,0,0,0,0,0,0,0,0,0,0,0,0,0,0,0,0,0,0,0,0,0,0,0,0,0,0,0,0,0,0,0,0,0,0,0,0,0],"id":19,"left_children":[1,3,5,7,9,11,13,15,17,19,21,23,25,-1,27,29,31,33,35,37,39,41,-1,43,45,47,49,-1,-1,51,53,55,57,59,61,63,65,67,69,71,73,-1,-1,75,77,79,-1,81,83,85,-1,-1,-1,-1,-1,-1,-1,-1,-1,-1,-1,-1,-1,-1,-1,-1,-1,-1,-1,-1,-1,-1,-1,-1,-1,-1,-1,-1,-1,-1,-1,-1,-1,-1,-1,-1,-1],"loss_changes":[1.034878E6,2.43131E5,5.76282E5,5.0918875E4,9.88135E4,1.75484E5,1.651125E4,7.9233125E3,1.1446E4,7.356325E4,6.963875E3,3.186525E4,9.7763E4,0E0,1.988225E4,1.2237031E3,2.5965938E3,2.9035469E3,7.3035625E3,3.1812E4,1.9476E4,2.8427656E3,0E0,1.64165E4,1.83175E3,2.923825E4,2.0482E4,0E0,0E0,6.4202344E2,1.7330273E2,1.6485781E3,8.04375E2,9.591094E2,9.375E-2,1.0665469E3,7.599E3,6.201375E3,4.380125E3,6.7789375E3,1.55739375E4,0E0,0E0,3.9518438E3,7.82525E3,5.4125E2,0E0,5.54E2,1.19265E4,2.06875E4,0E0,0E0,0E0,0E0,0E0,0E0,0E0,0E0,0E0,0E0,0E0,0E0,0E0,0E0,0E0,0E0,0E0,0E0,0E0,0E0,0E0,0E0,0E0,0E0,0E0,0E0,0E0,0E0,0E0,0E0,0E0,0E0,0E0,0E0,0E0,0E0,0E0],"parents":[2147483647,0,0,1,1,2,2,3,3,4,4,5,5,6,6,7,7,8,8,9,9,10,10,11,11,12,12,14,14,15,15,16,16,17,17,18,18,19,19,20,20,21,21,23,23,24,24,25,25,26,26,29,29,30,30,31,31,32,32,33,33,34,34,35,35,36,36,37,37,38,38,39,39,40,40,43,43,44,44,45,45,47,47,48,48,49,49],"right_children":[2,4,6,8,10,12,14,16,18,20,22,24,26,-1,28,30,32,34,36,38,40,42,-1,44,46,48,50,-1,-1,52,54,56,58,60,62,64,66,68,70,72,74,-1,-1,76,78,80,-1,82,84,86,-1,-1,-1,-1,-1,-1,-1,-1,-1,-1,-1,-1,-1,-1,-1,-1,-1,-1,-1,-1,-1,-1,-1,-1,-1,-1,-1,-1,-1,-1,-1,-1,-1,-1,-1,-1,-1],"split_conditions":[3.4E1,3.2E1,1E0,2.6E1,1E0,1E0,4.2E1,1.1E1,1.6E1,4.3E1,2.4E1,4.3083332E1,3.6166668E1,1.3960279E0,2E0,1E0,2.3E1,1.45E1,2.2E1,2.3E1,1E0,1.23E1,1.1718245E0,3.5E1,6.2386906E1,9E0,1.5E1,1.708929E0,2.6752853E0,1.025E1,1.6E1,1.1458333E1,2.1E1,8E0,2.12E1,8.660254E-1,1E0,3E0,3.6E1,3E0,1.5E1,8.359688E-1,3.4273538E-1,4.6E1,1.3E1,7.3E1,5.06125E-1,-2E0,1.3E1,1E0,5.037666E-1,1.8995382E-1,2.346085E-1,1.6913277E-1,3.5787097E-1,2.4090321E-1,3.0316865E-1,3.026886E-1,3.6111468E-1,1.6710699E-1,3.0274335E-1,3.9681447E-1,2.0968117E-1,3.6437798E-1,2.7796915E-1,4.0327075E-1,5.048911E-1,4.3491104E-1,3.5681844E-1,4.6892753E-1,5.4104644E-1,3.5677767E-1,5.541323E-1,7.2618127E-1,4.872536E-1,3.983936E-1,5.45049E-1,4.6413654E-1,6.05085E-1,6.4683753E-1,7.851223E-1,2.5439492E-1,5.2262914E-1,6.500732E-1,7.9466945E-1,9.4255507E-1,1.2648354E0],"split_indices":[6,0,48,3,48,18,6,6,6,3,3,8,8,0,50,49,0,11,0,6,18,36,0,0,9,19,13,0,0,11,3,11,6,6,36,28,18,65,3,15,13,0,0,3,13,0,0,65,13,50,0,0,0,0,0,0,0,0,0,0,0,0,0,0,0,0,0,0,0,0,0,0,0,0,0,0,0,0,0,0,0,0,0,0,0,0,0],"split_type":[0,0,0,0,0,0,0,0,0,0,0,0,0,0,0,0,0,0,0,0,0,0,0,0,0,0,0,0,0,0,0,0,0,0,0,0,0,0,0,0,0,0,0,0,0,0,0,0,0,0,0,0,0,0,0,0,0,0,0,0,0,0,0,0,0,0,0,0,0,0,0,0,0,0,0,0,0,0,0,0,0,0,0,0,0,0,0],"sum_hessian":[1.5522E4,1.0492E4,5.03E3,5.156E3,5.336E3,4.894E3,1.36E2,2.476E3,2.68E3,5.224E3,1.12E2,2.474E3,2.42E3,4.8E1,8.8E1,7.88E2,1.688E3,7.36E2,1.944E3,3.456E3,1.768E3,4E1,7.2E1,1.982E3,4.92E2,1.532E3,8.88E2,6E1,2.8E1,7.4E2,4.8E1,8.16E2,8.72E2,5.36E2,2E2,4.2E2,1.524E3,1.716E3,1.74E3,1.128E3,6.4E2,2.8E1,1.2E1,4.08E2,1.574E3,4.52E2,4E1,2.16E2,1.316E3,8.48E2,4E1,3.36E2,4.04E2,1.2E1,3.6E1,4.72E2,3.44E2,6.32E2,2.4E2,3.2E1,5.04E2,1.88E2,1.2E1,2.76E2,1.44E2,1.124E3,4E2,6.72E2,1.044E3,9.96E2,7.44E2,8.4E1,1.044E3,4.96E2,1.44E2,2.8E2,1.28E2,2.08E2,1.366E3,1.44E2,3.08E2,1.2E1,2.04E2,3.76E2,9.4E2,7.44E2,1.04E2],"tree_param":{"num_deleted":"0","num_feature":"74","num_nodes":"87","size_leaf_vector":"1"}},{"base_weights":[2.863414E1,2.2323734E1,3.9320816E1,2.1684242E1,6.2082047E1,3.8271107E1,1.1630012E2,1.6741898E1,2.5368279E1,3.927507E1,6.9214005E1,3.3447422E1,4.419287E1,1.237822E0,2.26341E0,1.3488192E1,1.859195E1,2.1910175E1,2.731769E1,3.487721E-1,8.108555E-1,7.592355E-1,1.3042691E0,3.2454624E1,4.3977596E1,4.113965E1,5.2310642E1,1.2819247E1,1.9477179E1,1.7840006E1,2.6778011E1,1.5829052E1,2.2918493E1,2.645956E1,3.3849586E1,2.2266895E1,3.324665E1,4.147273E1,1.2414448E0,3.224289E1,4.294835E1,5.9686428E1,7.799879E-1,2.2145632E-1,2.949911E-1,1.9274864E-1,3.7140706E-1,3.0881488E-1,4.3776077E-1,5.245432E-1,3.3303759E-1,1.9749968E-1,2.9650968E-1,4.5853916E-1,3.909759E-1,4.6210396E-1,6.043632E-1,5.541598E-1,7.1165735E-1,2.2489066E-1,4.194078E-1,6.3896227E-1,5.3863144E-1,5.876982E-1,8.5315114E-1,3.953086E-1,6.150211E-1,6.6994905E-1,8.1501174E-1,1.3022858E0,1.0092825E0],"categories":[],"categories_nodes":[],"categories_segments":[],"categories_sizes":[],"default_left":[0,0,0,0,0,0,0,0,0,0,0,0,0,0,0,0,0,0,0,0,0,0,0,0,0,0,0,0,0,0,0,0,0,0,0,0,0,0,0,0,0,0,0,0,0,0,0,0,0,0,0,0,0,0,0,0,0,0,0,0,0,0,0,0,0,0,0,0,0,0,0],"id":20,"left_children":[1,3,5,7,9,11,13,15,17,19,21,23,25,-1,-1,27,29,31,33,-1,-1,-1,-1,35,37,39,41,43,45,47,49,51,53,55,57,59,61,63,-1,65,67,69,-1,-1,-1,-1,-1,-1,-1,-1,-1,-1,-1,-1,-1,-1,-1,-1,-1,-1,-1,-1,-1,-1,-1,-1,-1,-1,-1,-1,-1],"loss_changes":[1.030938E6,2.40949E5,4.45754E5,1.71525E5,1.60986875E4,1.55735E5,6.950375E3,2.36255E4,3.470275E4,2.1181797E3,1.228125E2,2.798275E4,5.5515E4,0E0,0E0,5.1080938E3,1.43391875E4,1.09111875E4,1.655225E4,0E0,0E0,0E0,0E0,2.06255E4,7.2956875E3,2.522425E4,3.6795875E4,1.82325E3,6.8277344E2,9.301625E3,2.3479062E3,2.7578125E2,3.399375E3,1.479125E4,2.9779375E3,1.1666016E3,1.628175E4,7.8018125E3,0E0,3.9180938E3,1.481825E4,4.2085E3,0E0,0E0,0E0,0E0,0E0,0E0,0E0,0E0,0E0,0E0,0E0,0E0,0E0,0E0,0E0,0E0,0E0,0E0,0E0,0E0,0E0,0E0,0E0,0E0,0E0,0E0,0E0,0E0,0E0],"parents":[2147483647,0,0,1,1,2,2,3,3,4,4,5,5,6,6,7,7,8,8,9,9,10,10,11,11,12,12,15,15,16,16,17,17,18,18,23,23,24,24,25,25,26,26,27,27,28,28,29,29,30,30,31,31,32,32,33,33,34,34,35,35,36,36,37,37,39,39,40,40,41,41],"right_children":[2,4,6,8,10,12,14,16,18,20,22,24,26,-1,-1,28,30,32,34,-1,-1,-1,-1,36,38,40,42,44,46,48,50,52,54,56,58,60,62,64,-1,66,68,70,-1,-1,-1,-1,-1,-1,-1,-1,-1,-1,-1,-1,-1,-1,-1,-1,-1,-1,-1,-1,-1,-1,-1,-1,-1,-1,-1,-1,-1],"split_conditions":[4.375E1,1E0,1E0,2.95E1,2.65E1,5.775E1,4.2E1,2.175E1,3.2E1,1.6E1,2.4E1,1E0,6.7E1,1.237822E0,2.26341E0,1E0,1E0,2E0,1E0,3.487721E-1,8.108555E-1,7.592355E-1,1.3042691E0,5E0,2E0,3.3E1,-7.818315E-1,1E0,1.475E1,1E0,1.2E1,8.642E2,0E0,1E0,3.95E1,9.098495E0,0E0,2E1,1.2414448E0,3.1E1,6E1,1.408E3,7.799879E-1,2.2145632E-1,2.949911E-1,1.9274864E-1,3.7140706E-1,3.0881488E-1,4.3776077E-1,5.245432E-1,3.3303759E-1,1.9749968E-1,2.9650968E-1,4.5853916E-1,3.909759E-1,4.6210396E-1,6.043632E-1,5.541598E-1,7.1165735E-1,2.2489066E-1,4.194078E-1,6.3896227E-1,5.3863144E-1,5.876982E-1,8.5315114E-1,3.953086E-1,6.150211E-1,6.6994905E-1,8.1501174E-1,1.3022858E0,1.0092825E0],"split_indices":[72,48,48,72,72,72,6,72,0,5,3,50,0,0,0,27,27,15,50,0,0,0,0,19,50,1,25,50,72,50,19,71,25,27,72,10,25,19,0,0,3,69,0,0,0,0,0,0,0,0,0,0,0,0,0,0,0,0,0,0,0,0,0,0,0,0,0,0,0,0,0],"split_type":[0,0,0,0,0,0,0,0,0,0,0,0,0,0,0,0,0,0,0,0,0,0,0,0,0,0,0,0,0,0,0,0,0,0,0,0,0,0,0,0,0,0,0,0,0,0,0,0,0,0,0,0,0,0,0,0,0,0,0,0,0,0,0,0,0,0,0,0,0,0,0],"sum_hessian":[1.5326E4,9.642E3,5.684E3,9.494E3,1.48E2,5.612E3,7.2E1,4.062E3,5.432E3,4E1,1.08E2,3.104E3,2.508E3,1.6E1,5.6E1,1.482E3,2.58E3,1.972E3,3.46E3,1.2E1,2.8E1,1.6E1,9.2E1,2.848E3,2.56E2,1.836E3,6.72E2,1.342E3,1.4E2,2.372E3,2.08E2,2.88E2,1.684E3,3.072E3,3.88E2,2.12E2,2.636E3,2.4E2,1.6E1,3.2E2,1.516E3,3.6E2,3.12E2,1.182E3,1.6E2,2E1,1.2E2,2.152E3,2.2E2,1.56E2,5.2E1,4E1,2.48E2,5.24E2,1.16E3,2.772E3,3E2,2.64E2,1.24E2,2.4E1,1.88E2,1.564E3,1.072E3,1.04E2,1.36E2,5.6E1,2.64E2,4.48E2,1.068E3,6.8E1,2.92E2],"tree_param":{"num_deleted":"0","num_feature":"74","num_nodes":"71","size_leaf_vector":"1"}},{"base_weights":[2.8060684E1,2.2128468E1,3.8831047E1,2.1452543E1,6.027626E1,3.7797707E1,1.1317117E2,1.5463183E1,2.4391066E1,7.2335154E-1,1.3174255E0,3.2086327E1,4.296955E1,1.4943757E0,1.3460114E2,1.2814251E1,1.7608093E1,2.0349073E1,2.636312E1,3.0262777E1,3.8800262E1,3.8139656E1,5.09361E1,2.754881E0,1.3414398E0,2.8862083E-1,1.1741927E1,2.0911774E1,1.5506462E1,1.5906585E1,2.132849E1,2.301068E1,2.8550787E1,3.508891E-1,3.1103823E1,3.0743677E1,4.082285E1,3.0918482E1,4.082903E1,4.6857075E1,5.7636566E1,1.8872684E-1,2.4318667E-1,3.381818E-1,4.7262397E-1,3.9118025E-1,2.620522E-1,3.153176E-1,2.5447637E-1,3.7395525E-1,5.0939226E-1,3.6450437E-1,4.3826184E-1,4.9707028E-1,6.5343654E-1,4.818288E-1,5.838088E-1,3.2035843E-1,5.791946E-1,5.776809E-1,7.7053833E-1,2.391593E-1,5.63103E-1,6.334402E-1,7.8083146E-1,8.587402E-1,3.0388224E-1,8.640201E-1,1.0882176E0],"categories":[],"categories_nodes":[],"categories_segments":[],"categories_sizes":[],"default_left":[0,0,0,0,0,0,0,0,0,0,0,0,0,0,0,0,0,0,0,0,0,0,0,0,0,0,0,0,0,0,0,0,0,0,0,0,0,0,0,0,0,0,0,0,0,0,0,0,0,0,0,0,0,0,0,0,0,0,0,0,0,0,0,0,0,0,0,0,0],"id":21,"left_children":[1,3,5,7,9,11,13,15,17,-1,-1,19,21,-1,23,25,27,29,31,33,35,37,39,-1,-1,-1,41,43,45,47,49,51,53,-1,55,57,59,61,63,65,67,-1,-1,-1,-1,-1,-1,-1,-1,-1,-1,-1,-1,-1,-1,-1,-1,-1,-1,-1,-1,-1,-1,-1,-1,-1,-1,-1,-1],"loss_changes":[1.002336E6,2.576315E5,4.15618E5,1.74384E5,3.6158562E4,1.58436E5,1.4435875E4,1.7946125E4,5.15755E4,0E0,0E0,2.8493E4,1.0485E5,0E0,8.2091875E3,4.4671562E3,1.149725E4,8.4786875E3,3.0775E4,1.6926875E4,5.01E3,3.110175E4,2.10925E4,0E0,0E0,0E0,2.0091719E3,6.304125E3,5.6049688E3,3.3675E2,5.1905625E3,4.943875E3,1.67285E4,0E0,8.206625E3,3.929453E2,3.049875E3,1.681875E3,1.3862E4,1.42745E4,1.6135E3,0E0,0E0,0E0,0E0,0E0,0E0,0E0,0E0,0E0,0E0,0E0,0E0,0E0,0E0,0E0,0E0,0E0,0E0,0E0,0E0,0E0,0E0,0E0,0E0,0E0,0E0,0E0,0E0],"parents":[2147483647,0,0,1,1,2,2,3,3,4,4,5,5,6,6,7,7,8,8,11,11,12,12,14,14,15,15,16,16,17,17,18,18,19,19,20,20,21,21,22,22,26,26,27,27,28,28,29,29,30,30,31,31,32,32,34,34,35,35,36,36,37,37,38,38,39,39,40,40],"right_children":[2,4,6,8,10,12,14,16,18,-1,-1,20,22,-1,24,26,28,30,32,34,36,38,40,-1,-1,-1,42,44,46,48,50,52,54,-1,56,58,60,62,64,66,68,-1,-1,-1,-1,-1,-1,-1,-1,-1,-1,-1,-1,-1,-1,-1,-1,-1,-1,-1,-1,-1,-1,-1,-1,-1,-1,-1,-1],"split_conditions":[3.275E1,1E0,1E0,1.7666666E1,1.875E1,1E0,3.5083332E1,2.5E1,9.666667E0,7.2335154E-1,1.3174255E0,4.3083332E1,3.4875E1,1.4943757E0,1E-1,1.5E1,6.234898E-1,2E0,2.375E1,3E0,1.3E1,2.6E1,6.7E1,2.754881E0,1.3414398E0,2.8862083E-1,1.0791667E1,3.2083332E1,1.5E1,2.1672619E1,4E0,2.9E1,1E0,3.508891E-1,2E0,1.6970238E1,3.6E1,2.3E0,1.3E1,1.5E1,4.3E1,1.8872684E-1,2.4318667E-1,3.381818E-1,4.7262397E-1,3.9118025E-1,2.620522E-1,3.153176E-1,2.5447637E-1,3.7395525E-1,5.0939226E-1,3.6450437E-1,4.3826184E-1,4.9707028E-1,6.5343654E-1,4.818288E-1,5.838088E-1,3.2035843E-1,5.791946E-1,5.776809E-1,7.7053833E-1,2.391593E-1,5.63103E-1,6.334402E-1,7.8083146E-1,8.587402E-1,3.0388224E-1,8.640201E-1,1.0882176E0],"split_indices":[73,48,48,73,73,18,11,8,11,0,0,8,8,0,37,13,26,15,73,15,13,8,0,0,0,0,11,8,13,9,14,2,27,0,14,12,7,36,13,13,7,0,0,0,0,0,0,0,0,0,0,0,0,0,0,0,0,0,0,0,0,0,0,0,0,0,0,0,0],"split_type":[0,0,0,0,0,0,0,0,0,0,0,0,0,0,0,0,0,0,0,0,0,0,0,0,0,0,0,0,0,0,0,0,0,0,0,0,0,0,0,0,0,0,0,0,0,0,0,0,0,0,0,0,0,0,0,0,0,0,0,0,0,0,0,0,0,0,0,0,0],"sum_hessian":[1.5728E4,1.0148E4,5.58E3,9.976E3,1.72E2,5.508E3,7.2E1,3.29E3,6.686E3,7.2E1,1E2,2.628E3,2.88E3,3.6E1,3.6E1,1.482E3,1.808E3,2.204E3,4.482E3,2.08E3,5.48E2,1.804E3,1.076E3,2.4E1,1.2E1,3.6E2,1.122E3,6.92E2,1.116E3,4.08E2,1.796E3,1.784E3,2.698E3,1.56E2,1.924E3,1.2E2,4.28E2,5E2,1.304E3,6.84E2,3.92E2,6.66E2,4.56E2,5.04E2,1.88E2,1.4E2,9.76E2,2E2,2.08E2,1.672E3,1.24E2,5.92E2,1.192E3,2.414E3,2.84E2,4.6E2,1.464E3,1.6E1,1.04E2,8.8E1,3.4E2,1.2E1,4.88E2,4.16E2,8.88E2,6.64E2,2E1,1E2,2.92E2],"tree_param":{"num_deleted":"0","num_feature":"74","num_nodes":"69","size_leaf_vector":"1"}},{"base_weights":[2.7401346E1,2.1299084E1,3.7649128E1,1.7194065E1,2.5826359E1,3.6549213E1,8.156501E1,1.3833371E1,2.035269E1,2.3705305E1,3.8569332E1,3.3070385E1,4.414608E1,8.887476E1,5.9410197E-1,1.07530575E1,1.4609446E1,1.5826522E1,2.1180033E1,2.0399529E1,2.6200602E1,2.8643438E1,4.5044228E1,2.8806494E1,3.6034504E1,3.671509E1,4.790821E1,9.474318E1,5.232552E-1,6.6934533E0,1.1472202E1,1.2007742E1,1.5510072E1,3.290008E-1,1.4339695E1,2.0026855E1,2.4186071E1,1.9237267E1,2.6197958E1,2.5433693E1,3.3247524E1,2.5564432E1,4.012489E1,3.6402187E1,5.5965214E1,2.5020885E1,3.10236E1,3.2524178E1,3.9913242E1,2.7283788E-1,3.7674683E1,3.7474495E1,5.0384457E1,6.7822456E-1,1.0073577E2,1.3660812E-1,6.35994E-2,1.8309434E-1,2.2442026E-1,1.8305299E-1,2.4071246E-1,2.7186272E-1,3.7799105E-1,3.0415305E-1,2.3592658E-1,3.823465E-1,2.8369197E-1,5.274864E-1,4.0618017E-1,2.4935809E-1,3.593241E-1,5.259253E-1,3.943642E-1,5.11915E-1,4.2020127E-1,3.90349E-1,6.240778E-1,2.442477E-1,4.8305693E-1,8.7992346E-1,4.8334932E-1,7.2110766E-1,4.1079062E-1,1.0943832E0,5.871689E-1,5.4432744E-1,3.9816073E-1,5.1276463E-1,6.116132E-1,3.3097434E-1,5.9815985E-1,7.655483E-1,4.5975733E-1,5.812358E-1,7.40352E-1,5.2739716E-1,7.406309E-1,8.159557E-1,9.931538E-1,1.9204104E0,8.618909E-1],"categories":[],"categories_nodes":[],"categories_segments":[],"categories_sizes":[],"default_left":[0,0,0,0,0,0,0,0,0,0,0,0,0,0,0,0,0,0,0,0,0,0,0,0,0,0,0,0,0,0,0,0,0,0,0,0,0,0,0,0,0,0,0,0,0,0,0,0,0,0,0,0,0,0,0,0,0,0,0,0,0,0,0,0,0,0,0,0,0,0,0,0,0,0,0,0,0,0,0,0,0,0,0,0,0,0,0,0,0,0,0,0,0,0,0,0,0,0,0,0,0],"id":22,"left_children":[1,3,5,7,9,11,13,15,17,19,21,23,25,27,-1,29,31,33,35,37,39,41,43,45,47,49,51,53,-1,55,57,59,61,-1,63,65,67,69,71,73,75,77,79,81,83,85,87,89,91,-1,93,95,97,-1,99,-1,-1,-1,-1,-1,-1,-1,-1,-1,-1,-1,-1,-1,-1,-1,-1,-1,-1,-1,-1,-1,-1,-1,-1,-1,-1,-1,-1,-1,-1,-1,-1,-1,-1,-1,-1,-1,-1,-1,-1,-1,-1,-1,-1,-1,-1],"loss_changes":[9.68402E5,1.79541E5,2.70449E5,5.3375375E4,1.2208625E5,1.44852E5,4.022125E4,5.406375E3,8.741125E3,3.103675E4,3.8016E4,4.58785E4,4.388125E4,3.3169188E4,0E0,1.2153594E3,3.9997812E3,6.406719E2,6.099125E3,9.970375E3,9.472E3,